{"model": {"state_dict": {"encoder.0.weight": [[-0.5099579691886902, -0.27354738116264343, -0.34653013944625854, -0.07735734432935715, -0.35476815700531006, -0.028123559430241585, -0.18926434218883514, -0.06057452782988548, -0.15210598707199097, 0.1772310435771942, -0.02747201919555664, 0.003299912204965949, 0.2563817501068115, 0.3419363796710968, 0.09640755504369736, 0.05465223267674446, 0.5461708307266235, 0.4119778871536255, 0.12159658968448639, 0.21392317116260529, 0.7279036045074463, 0.5654616951942444, 0.18007217347621918, 0.29832738637924194, 0.8924506306648254, 0.6630414128303528, 0.24289728701114655, 0.46396127343177795, 1.0499975681304932, 0.7116683125495911, 0.2806023955345154, 0.5860111117362976, 0.9758979678153992, 0.6921079158782959, 0.38485386967658997, 0.7365673184394836, 0.9215958714485168, 0.5940061807632446, 0.47239384055137634, 0.725968599319458, 0.7661917209625244, 0.6398354768753052, 0.5611954927444458, 0.7218027114868164, 0.684722363948822, 0.5758136510848999, 0.467791885137558, 0.732381284236908, 0.5611909031867981, 0.5994879007339478, 0.487872451543808, 0.7545304894447327, 0.45314913988113403, 0.48808279633522034, 0.4381192922592163, 0.7283499240875244, 0.38374295830726624, 0.5251983404159546, 0.38589221239089966, 0.7176790237426758, 0.39465078711509705, 0.4708557724952698, 0.3668515086174011, 0.730195939540863, 0.3086942434310913, 0.4852234423160553, 0.33149558305740356, 0.7440300583839417, 0.2851591408252716, 0.42384961247444153, 0.2425810992717743, 0.8697031140327454, 0.2494501918554306, 0.45113763213157654, 0.24227221310138702, 0.8350313901901245, 0.25030580163002014, 0.4249679148197174, 0.23869968950748444, 0.7735844254493713, 0.22051796317100525, 0.2985796332359314, 0.1794152855873108, 0.7018889784812927, 0.23332546651363373, 0.21808776259422302, 0.17491373419761658, 0.7529855966567993, 0.23985210061073303, 0.09273058921098709, 0.052223704755306244, 0.7106589674949646, 0.2186509668827057, 0.11389103531837463, -0.0067969271913170815, 0.7182841300964355, 0.26736128330230713, 0.05682092532515526, -0.043107546865940094, 0.7299797534942627, 0.35407111048698425, 0.08715765178203583, -0.004007178824394941, 0.659805953502655, 0.3315371870994568, 0.14759592711925507, 0.06242269277572632, 0.5639895796775818, 0.37912556529045105, 0.18792079389095306, 0.15594159066677094, 0.4714485704898834, 0.31188929080963135, 0.18479761481285095, 0.21670064330101013, 0.2695687413215637, 0.3235512375831604, 0.19692416489124298, 0.2924324572086334, 0.0946214348077774, 0.19576141238212585, 0.17109136283397675, 0.26856112480163574, -0.07929228991270065, 0.22155755758285522, 0.09738997370004654, 0.3197929859161377, -0.18343305587768555, 0.13254104554653168, 0.1181766465306282, 0.1684759557247162, -0.25640228390693665, 0.07612834870815277, 0.020560065284371376, 0.06496860831975937, -0.29285451769828796, -0.010588807985186577, 0.011471625417470932, -0.030826585367321968, -0.21793009340763092, -0.14142315089702606, 0.0358036644756794, -0.11942751705646515, -0.15264050662517548, -0.1845647692680359, -0.028750143945217133, -0.14216800034046173, -0.17221608757972717, -0.22862029075622559, -0.07355429232120514, -0.18329940736293793, -0.06686544418334961, -0.265415221452713, -0.06237131357192993, -0.17550133168697357, -0.12978166341781616, -0.26204586029052734, -0.16725222766399384, -0.20962615311145782, -0.06746029853820801, -0.2786698043346405, -0.1649858057498932, -0.1558665931224823, -0.1357339769601822, -0.32149538397789, -0.2601884603500366, -0.19019237160682678, -0.200157031416893, -0.3739522695541382, -0.35340335965156555, -0.22784027457237244, -0.24584563076496124, -0.4041805863380432, -0.4182474911212921, -0.19244147837162018, -0.29029786586761475, -0.4586557149887085, -0.4062430262565613, -0.22140778601169586, -0.41499799489974976, -0.41249755024909973, -0.4301828444004059, -0.29273250699043274, -0.5105883479118347, -0.48824623227119446, -0.40805262327194214, -0.3245389759540558, -0.5620555877685547, -0.4661855399608612, -0.4037327468395233, -0.33023566007614136, -0.5435366630554199, -0.5617601275444031, -0.47429585456848145, -0.3839929699897766, -0.6060231328010559, -0.5819050073623657, -0.45482251048088074, -0.42639607191085815, -0.606378436088562, -0.6499578356742859, -0.5096424221992493, -0.46394532918930054, -0.6793542504310608, -0.6569477319717407, -0.5699089765548706, -0.6033323407173157, -0.7440752983093262, -0.7184610962867737, -0.701327383518219, -0.6360443830490112, -0.7959952354431152, -0.8031153678894043, -0.7999320030212402, -0.7906039953231812, -0.8718984127044678, -0.8795080184936523, -0.9175325036048889, -0.9654349684715271, -0.8547194600105286, -0.9271331429481506, -1.1062196493148804, -1.0490832328796387, -0.8870415687561035, -0.6715481877326965, -1.0625262260437012, -0.9842443466186523, -0.7295693755149841, -0.4773549735546112, -0.7999481558799744, -0.8727741837501526, -0.5661717057228088, -0.25333645939826965, -0.5763278603553772, -0.6161714196205139, -0.5248813033103943, -0.20155589282512665, -0.36760300397872925, -0.40421950817108154, -0.37599653005599976, -0.19350916147232056, -0.18511269986629486, -0.23732341825962067, -0.2172258347272873, -0.08594688028097153, -0.07089683413505554, -0.10623890161514282, -0.16072185337543488, -0.06499600410461426, -0.07044049352407455, -0.02935074456036091, -0.06263937056064606, -0.08436787128448486, 0.007148461882025003, -0.0034196902997791767, -0.005632332991808653, -0.07296082377433777, 0.0971335768699646, 0.031667668372392654, -0.016365760937333107, -0.06855323910713196, 0.10098683089017868, 0.00900895893573761, 0.07399827241897583, 0.005546764004975557, 0.12829171121120453, 0.1030983105301857, 0.08368466794490814, -0.006297014653682709, 0.10973978042602539, 0.07101190835237503, 0.07283124327659607, 0.08559242635965347, 0.10121982544660568, 0.06873412430286407, 0.0891810804605484, 0.10016383230686188, 0.13097786903381348, 0.00977250188589096, 0.08613383024930954, 0.19015157222747803, 0.05163951963186264, 0.018305251374840736, 0.06705063581466675, 0.19899772107601166, 0.06792844831943512, 0.007092845626175404, 0.05593538284301758, 0.2695887088775635, 0.06669101864099503, 0.02896071784198284, -0.002635923447087407, 0.2772687077522278, 0.0674578920006752, 0.05113217234611511, 0.008228540420532227, 0.33985936641693115, 0.028102286159992218, 0.07848169654607773, 0.13817153871059418, 0.3006545901298523, 0.011896573007106781, 0.0849977508187294, 0.22557568550109863, 0.2870202362537384, 0.10201217979192734, 0.11809258162975311, 0.29990267753601074, 0.2577722370624542, 0.11202450841665268, 0.053497619926929474, 0.4058704376220703, 0.07876826822757721, 0.11022727936506271, 0.027763420715928078, 0.25053778290748596, -0.13110120594501495, 0.21929743885993958, 0.038972463458776474, 0.30434513092041016, -0.1296614557504654, 0.17544639110565186, 0.10238154232501984, 0.3201131820678711, -0.13132323324680328, 0.1627310961484909, 0.1898891031742096, 0.337868869304657, -0.11129327863454819, 0.12993107736110687, 0.09501010924577713, 0.3138197362422943, 0.02617599628865719, 0.12217597663402557, 0.06983260065317154, 0.25846850872039795, 0.09509192407131195, 0.05812279134988785, 0.08731883019208908, 0.268291711807251, 0.23632362484931946, 0.10554298758506775, 0.13511157035827637, 0.2879381775856018, 0.2580372989177704, 0.19420142471790314, 0.20779205858707428, 0.2875049412250519, 0.22734448313713074, 0.20502547919750214, 0.24423399567604065, 0.36468833684921265, 0.22042600810527802, 0.16504636406898499, 0.3058716952800751, 0.3679121434688568, 0.16521163284778595, 0.17176096141338348, 0.31177735328674316, 0.40458711981773376, 0.13282768428325653, 0.1772332638502121, 0.2267976850271225, 0.3974103331565857, 0.08257646858692169, 0.0917545035481453, 0.22533243894577026, 0.3315482437610626, 0.04945134371519089, 0.038310687988996506, 0.16968680918216705, 0.23887571692466736, 0.014173297211527824, -0.008726224303245544, 0.12642313539981842, 0.10638990998268127, -0.09943017363548279, 0.00900242943316698, 0.07978907227516174, 0.048381954431533813, -0.14348053932189941, -0.0744130089879036, 0.011045817285776138, -0.11817800998687744, -0.1211777999997139, -0.08051265776157379, -0.03180622309446335, -0.15013176202774048, -0.14871294796466827, -0.0799003392457962, -0.11787085980176926, -0.22604627907276154, -0.08367577195167542, -0.058514147996902466, -0.18999932706356049, -0.2470492422580719, -0.06654608249664307, -0.005480458494275808, -0.1914474070072174, -0.28341975808143616, -0.037137869745492935, -0.03731616958975792, -0.2716277241706848, -0.189630389213562, 0.004830624908208847, 0.049504250288009644, -0.22971004247665405, -0.1385352462530136, 0.026399871334433556, 0.12891751527786255, -0.2513454556465149, -0.016968924552202225, 0.02312365174293518, 0.139744833111763, -0.1546587347984314, 0.12152023613452911, -0.08610974997282028, 0.1328132003545761, -0.18791314959526062, 0.27339857816696167, -0.08756298571825027, 0.19668112695217133, -0.20338506996631622, 0.3509902060031891, -0.17687910795211792, 0.1734449714422226, -0.27291592955589294, 0.34163495898246765, -0.25806084275245667, 0.15083546936511993, -0.3687626123428345, 0.24943718314170837, -0.3055736720561981, 0.15895947813987732, -0.45620062947273254, 0.17430125176906586, -0.34285134077072144, 0.060534194111824036, -0.49763625860214233, 0.15300528705120087, -0.3620128035545349, 0.0196351520717144, -0.500432014465332, 0.06432203948497772, -0.37385305762290955, -0.1933910995721817, -0.4620712399482727, -0.05360338091850281, -0.40720701217651367, -0.3332608640193939, -0.24863651394844055, -0.22173230350017548, -0.46427857875823975, -0.47321218252182007, -0.11324574053287506, -0.3037283420562744, -0.48466137051582336, -0.637506902217865, 0.034708987921476364, -0.3737661838531494, -0.490416944026947, -0.6154693365097046, 0.2506829798221588, -0.44905951619148254, -0.27374789118766785, -0.5853883624076843, 0.4000753164291382, -0.24338160455226898, -0.2091035097837448, -0.6497213244438171, 0.3423515260219574, -0.100988008081913, -0.17044676840305328, -0.6241310834884644, 0.17935694754123688, -0.03155461326241493, -0.0954877957701683, -0.6409460306167603, 0.044391028583049774, 0.05865680053830147, 0.025320157408714294, -0.5063598155975342, -0.12705278396606445, 0.1262938231229782, 0.04974359646439552, -0.41306549310684204, -0.180750772356987, 0.06922978907823563, 0.06499609351158142, -0.2513132393360138, -0.3142887055873871, 0.011348485946655273, 0.030376195907592773, -0.2636578381061554, -0.2982225716114044, -0.14771787822246552, -0.0995679646730423, -0.2710791230201721, -0.34327560663223267, -0.2697272300720215, -0.17651371657848358, -0.24511611461639404, -0.2806062698364258, -0.42362523078918457, -0.30793073773384094, -0.24892349541187286, -0.24416878819465637, -0.4745306074619293, -0.35270529985427856, -0.29388028383255005, -0.17793075740337372, -0.5999279022216797], [0.49344635009765625, 0.6389126181602478, 0.4454980194568634, -0.1307668834924698, 0.5399384498596191, 0.5126385688781738, 0.45872730016708374, -0.12048011273145676, 0.6597206592559814, 0.4053904116153717, 0.40497326850891113, -0.1771887242794037, 0.6772308349609375, 0.346365749835968, 0.2897530198097229, -0.20969532430171967, 0.6216765642166138, 0.2634229362010956, 0.14225807785987854, -0.1536831259727478, 0.5190878510475159, 0.1875564008951187, 0.004708014894276857, -0.04251797869801521, 0.46250849962234497, 0.18898430466651917, -0.008778586983680725, 0.020792853087186813, 0.30186188220977783, 0.028563223779201508, -0.0009332676418125629, 0.06968380510807037, 0.16456402838230133, 0.03385895490646362, 0.05677017197012901, 0.19269207119941711, -0.0011095321970060468, 0.048800669610500336, 0.12917348742485046, 0.20486585795879364, -0.12390828877687454, 0.06938020884990692, 0.29175499081611633, 0.3147655427455902, -0.19956853985786438, 0.1817130297422409, 0.2821591794490814, 0.3846365809440613, -0.2898269593715668, 0.2598675787448883, 0.27323654294013977, 0.4521757662296295, -0.3033330738544464, 0.28904634714126587, 0.20199282467365265, 0.41592833399772644, -0.3261990249156952, 0.24939635396003723, 0.043824370950460434, 0.42442771792411804, -0.3096661865711212, 0.2498236894607544, -0.027241209521889687, 0.34024834632873535, -0.18436986207962036, 0.12648449838161469, -0.14954638481140137, 0.22207386791706085, -0.07199591398239136, -0.038953062146902084, -0.25466251373291016, 0.08608821779489517, -0.03833773732185364, -0.16042287647724152, -0.3293888568878174, -0.08227461576461792, -0.08192262053489685, -0.2215585857629776, -0.38816893100738525, -0.2253459095954895, -0.14493513107299805, -0.2789146602153778, -0.42327213287353516, -0.3516694903373718, -0.31133490800857544, -0.3238435685634613, -0.4189870059490204, -0.3748774230480194, -0.38381779193878174, -0.2569544017314911, -0.3517182767391205, -0.3339516818523407, -0.42139846086502075, -0.23108799755573273, -0.2959141731262207, -0.19299055635929108, -0.4929552376270294, -0.14935849606990814, -0.21509797871112823, -0.11031514406204224, -0.45235195755958557, -0.09568244963884354, -0.28516143560409546, -0.05867324769496918, -0.4754537045955658, -0.12507383525371552, -0.23437650501728058, 0.02163386531174183, -0.504325807094574, -0.08666590601205826, -0.31145668029785156, 0.04055417701601982, -0.4653914272785187, -0.08901544660329819, -0.4023611843585968, 0.16738788783550262, -0.4145165681838989, 0.033041346818208694, -0.3870939612388611, 0.2138289511203766, -0.3634122610092163, 0.08377721905708313, -0.45200446248054504, 0.3234735131263733, -0.37406399846076965, 0.050857752561569214, -0.4612444341182709, 0.31118547916412354, -0.2482137680053711, 0.12781481444835663, -0.4297189712524414, 0.3418911397457123, -0.16966332495212555, 0.07176201790571213, -0.3311961591243744, 0.3131261169910431, -0.11066090315580368, 0.08961698412895203, -0.2117517739534378, 0.3418342173099518, -0.03771946579217911, 0.04812450334429741, -0.05623996630311012, 0.3104020357131958, 0.0424080491065979, 0.10761160403490067, -0.03441320359706879, 0.268414169549942, 0.03366350382566452, 0.1160152405500412, -0.07051384449005127, 0.18849658966064453, 0.03101877123117447, 0.19110971689224243, -0.08596059679985046, 0.22833575308322906, -0.033781591802835464, 0.23572443425655365, -0.1111970990896225, 0.2379591166973114, -0.04935242608189583, 0.21142053604125977, -0.17073342204093933, 0.23009662330150604, -0.07207019627094269, 0.29901784658432007, -0.19694896042346954, 0.29967913031578064, -0.05904388055205345, 0.3032524287700653, -0.17856483161449432, 0.29801565408706665, -0.05616932362318039, 0.36434295773506165, -0.14449845254421234, 0.42277947068214417, 0.06705047935247421, 0.3670260012149811, -0.10358025878667831, 0.4522264003753662, 0.15541298687458038, 0.4305233955383301, -0.04566546157002449, 0.5747811794281006, 0.34447717666625977, 0.48604175448417664, 0.062383223325014114, 0.656356692314148, 0.5757100582122803, 0.6108124256134033, 0.2726626694202423, 0.7481094598770142, 0.7595781683921814, 0.6851276159286499, 0.46029335260391235, 0.8619360327720642, 0.9402745962142944, 0.6773598790168762, 0.6176073551177979, 0.8574169874191284, 0.8853647112846375, 0.6753353476524353, 0.760874330997467, 0.8261340260505676, 0.8336703777313232, 0.6425769925117493, 0.8354859948158264, 0.7994224429130554, 0.7192785143852234, 0.5564195513725281, 0.7723718285560608, 0.7222121357917786, 0.5138647556304932, 0.4092353582382202, 0.7318857312202454, 0.5234273076057434, 0.23188753426074982, 0.16633477807044983, 0.5498839020729065, 0.3272343575954437, -0.2080676108598709, -0.1781734675168991, 0.3107626736164093, 0.11041660606861115, -0.4606163799762726, -0.5025245547294617, 0.13532933592796326, -0.1687786877155304, -0.4790012538433075, -0.7339322566986084, 0.045916661620140076, -0.5527747869491577, -0.2970423400402069, -0.628801703453064, 0.13927315175533295, -0.5550795793533325, -0.12077762931585312, -0.44928959012031555, 0.2171894907951355, -0.41034069657325745, 0.08029071986675262, -0.29377037286758423, 0.2879360616207123, -0.2600257396697998, 0.16837850213050842, -0.2260153889656067, 0.3697471618652344, -0.15135937929153442, 0.27236297726631165, -0.08702394366264343, 0.45166370272636414, -0.05242149531841278, 0.3120426535606384, 0.05628100410103798, 0.4477098286151886, 0.005228396039456129, 0.3329579830169678, 0.09560946375131607, 0.5343362092971802, 0.09516487270593643, 0.38151824474334717, 0.15707352757453918, 0.5465423464775085, 0.14624710381031036, 0.3386595845222473, 0.1870637983083725, 0.5066501498222351, 0.15583865344524384, 0.36237215995788574, 0.216839998960495, 0.49628907442092896, 0.15695764124393463, 0.28249379992485046, 0.15360897779464722, 0.44425147771835327, 0.09819644689559937, 0.17180126905441284, 0.13973075151443481, 0.32465407252311707, -0.052320290356874466, 0.13797464966773987, 0.14520829916000366, 0.15001988410949707, -0.16828280687332153, 0.04438125714659691, 0.031210007146000862, 0.07763887941837311, -0.29592856764793396, -0.09474693983793259, 0.03125249966979027, -0.0922636017203331, -0.3657914400100708, -0.09123365581035614, 0.13732433319091797, -0.231851726770401, -0.4463668465614319, -0.10922348499298096, 0.1566808670759201, -0.28110751509666443, -0.49659332633018494, -0.16613416373729706, 0.2565233111381531, -0.41206255555152893, -0.4653003513813019, -0.06493330001831055, 0.4429296553134918, -0.5782005190849304, -0.5275044441223145, -0.005058902315795422, 0.5392324328422546, -0.6606852412223816, -0.5827421545982361, 0.10642312467098236, 0.6084050536155701, -0.725100576877594, -0.43622174859046936, 0.2650180459022522, 0.3474053740501404, -0.711493194103241, -0.3711521029472351, 0.2636524736881256, 0.15201860666275024, -0.8318760395050049, -0.27007991075515747, 0.10650468617677689, -0.05516928806900978, -0.8813328742980957, -0.2094745635986328, -0.0021189635153859854, -0.14008118212223053, -0.9946991205215454, -0.2028464823961258, -0.12128476798534393, -0.29436925053596497, -0.9228721261024475, -0.27748310565948486, -0.2474464625120163, -0.24031765758991241, -0.9267107844352722, -0.3915950655937195, -0.3308948576450348, -0.24430371820926666, -0.8271596431732178, -0.5101633071899414, -0.4454917907714844, -0.3082283139228821, -0.848435640335083, -0.46783092617988586, -0.4910072982311249, -0.32329148054122925, -0.7526064515113831, -0.5199607014656067, -0.5537599325180054, -0.2759658694267273, -0.7518988251686096, -0.4237429201602936, -0.5183989405632019, -0.25977325439453125, -0.6086709499359131, -0.36224010586738586, -0.4736526310443878, -0.24565330147743225, -0.5278953313827515, -0.25287193059921265, -0.38776546716690063, -0.1907724291086197, -0.5141403675079346, -0.08621710538864136, -0.2810313105583191, -0.16153566539287567, -0.4412975609302521, -0.0247904434800148, -0.13884079456329346, -0.09877271205186844, -0.4008136987686157, 0.015643347054719925, -0.0955442413687706, -0.10568003356456757, -0.32726895809173584, 0.0809546485543251, 0.05903692543506622, 0.012444431893527508, -0.33873361349105835, 0.10804235190153122, 0.07805013656616211, 0.08227518945932388, -0.35733553767204285, 0.1409008502960205, 0.03681715205311775, 0.07436417043209076, -0.4041232466697693, 0.1254483014345169, 0.04572135582566261, 0.09244374930858612, -0.35729581117630005, 0.14397212862968445, 0.012863898649811745, 0.16115397214889526, -0.39941248297691345, 0.1715613752603531, -0.10920704901218414, 0.15336093306541443, -0.36403369903564453, 0.24280226230621338, -0.1899174004793167, 0.14426013827323914, -0.3375723958015442, 0.2509162127971649, -0.24081696569919586, 0.03804846480488777, -0.30199897289276123, 0.32009243965148926, -0.3878134489059448, 0.004939076490700245, -0.23314525187015533, 0.2759213149547577, -0.49259668588638306, -0.08772331476211548, -0.24120868742465973, 0.26327818632125854, -0.4850103259086609, -0.17476783692836761, -0.1491648554801941, 0.21754726767539978, -0.45392513275146484, -0.2665852904319763, -0.08893409371376038, 0.123679019510746, -0.4708279073238373, -0.2579041123390198, -0.09513160586357117, -0.02307550609111786, -0.43731653690338135, -0.2701650857925415, -0.09191272407770157, -0.1312337964773178, -0.4724539816379547, -0.24586370587348938, -0.003704276867210865, -0.20701737701892853, -0.4563344419002533, -0.18097473680973053, -0.0322335921227932, -0.17765909433364868, -0.35886719822883606, -0.18998391926288605, 0.06743431836366653, -0.07122126966714859, -0.2173127979040146, -0.13203920423984528, 0.019323915243148804, -0.014063092879951, -0.0628773495554924, -0.10163886100053787, -0.026899410411715508, 0.21117942035198212, 0.021322842687368393, -0.08079845458269119, -0.09132560342550278, 0.25938111543655396, 0.029398459941148758, -0.10711479187011719, -0.21429309248924255, 0.350716769695282, -0.03487792983651161, -0.08316106349229813, -0.20782746374607086, 0.3690852224826813, -0.005704416427761316, -0.00387001084163785, -0.24967102706432343, 0.2631807029247284, -0.09649534523487091, -0.023099781945347786, -0.18941190838813782, 0.17630524933338165, -0.1599193662405014, -0.014517710544168949, -0.20053808391094208, 0.13287729024887085, -0.14613477885723114, 0.05855158716440201, -0.0017313945572823286, 0.05978137254714966, -0.14947867393493652, 0.2052444964647293, 0.14832250773906708, 0.021890010684728622, -0.022154532372951508, 0.3413962721824646, 0.3280615210533142, 0.15637610852718353, 0.33226850628852844, 0.5507476925849915, 0.5274843573570251, 0.5258573889732361, 0.6654875874519348, 0.6758130788803101, 0.7852060794830322, 0.8482279181480408, 1.034083604812622, 0.6287643909454346, 0.910189151763916, 0.7926040887832642, 1.1339850425720215, 0.5139670968055725, 0.9568372368812561, 0.7304052114486694, 1.0841858386993408, 0.5731697678565979, 1.0038994550704956, 0.6744007468223572], [-0.12448639422655106, 0.0733378604054451, 0.20351187884807587, 0.020477408543229103, -0.14716875553131104, 0.13374996185302734, 0.07347651571035385, -0.018311720341444016, -0.15653127431869507, 0.13825781643390656, 0.05401824042201042, -0.025159712880849838, -0.06009945273399353, 0.10522262752056122, 0.039985254406929016, -0.06458854675292969, -0.007660583592951298, 0.06953872740268707, 0.03387270122766495, -0.026315253227949142, 0.045807309448719025, 0.049613066017627716, 0.06888119876384735, 0.015143021009862423, 0.1020970419049263, 0.003661309601739049, 0.03466836363077164, 0.03911334276199341, 0.0635218620300293, 0.0595233216881752, 0.09873246401548386, 0.006292587611824274, 0.019616471603512764, 0.03572778403759003, 0.16694258153438568, 0.014891549944877625, 0.0819597914814949, 0.0832444578409195, 0.16309745609760284, -0.030184153467416763, 0.07269883155822754, 0.1873142272233963, 0.2719995975494385, -0.08092266321182251, 0.12597902119159698, 0.24450494349002838, 0.32000094652175903, -0.11789435893297195, 0.16876757144927979, 0.3532955050468445, 0.40547439455986023, -0.14294745028018951, 0.27235010266304016, 0.43890807032585144, 0.5612282752990723, -0.22479011118412018, 0.32093268632888794, 0.5371963381767273, 0.6510013341903687, -0.19742614030838013, 0.2693955898284912, 0.6081019639968872, 0.7138257026672363, -0.21716339886188507, 0.3519445061683655, 0.6021454334259033, 0.6563621759414673, -0.14559684693813324, 0.25113555788993835, 0.5220508575439453, 0.5625431537628174, -0.06908269226551056, 0.15107585489749908, 0.44175562262535095, 0.4462551474571228, -0.052365634590387344, 0.06317481398582458, 0.15285180509090424, 0.03414241597056389, 0.025443416088819504, 0.05965592339634895, -0.13159628212451935, -0.11283916980028152, -0.0005080597475171089, 0.06625320762395859, -0.33027756214141846, -0.24421757459640503, 0.03012394718825817, -0.029287975281476974, -0.42882218956947327, -0.22863179445266724, -0.05313657224178314, -0.06761245429515839, -0.5326499342918396, -0.3250127136707306, -0.16158494353294373, -0.060305703431367874, -0.5361599326133728, -0.32300880551338196, -0.26026996970176697, -0.02681492641568184, -0.5056942701339722, -0.3514770269393921, -0.3384745121002197, 0.0656384751200676, -0.5038187503814697, -0.3894156813621521, -0.33154648542404175, 0.04229341447353363, -0.4188121259212494, -0.42340224981307983, -0.34217771887779236, 0.05194881558418274, -0.29974326491355896, -0.4011169373989105, -0.33871790766716003, -0.047538720071315765, -0.17389331758022308, -0.4185020923614502, -0.24883896112442017, -0.052787162363529205, -0.04883113130927086, -0.3915953040122986, -0.20826682448387146, -0.13444502651691437, 0.03447609767317772, -0.2754851281642914, -0.17828433215618134, -0.23838447034358978, 0.11992821097373962, -0.3318019211292267, -0.23226895928382874, -0.2515107989311218, 0.12969303131103516, -0.2539095878601074, -0.18959356844425201, -0.2661908268928528, 0.0695611983537674, -0.2020033299922943, -0.26707762479782104, -0.30400630831718445, 0.02773144096136093, -0.20214739441871643, -0.23335464298725128, -0.25725454092025757, 0.017238814383745193, -0.12682776153087616, -0.22795891761779785, -0.23862043023109436, -0.05642491951584816, -0.08180949091911316, -0.23320423066616058, -0.246582493185997, -0.04363102465867996, -0.10791532695293427, -0.19628217816352844, -0.12946781516075134, -0.04159362241625786, -0.10540340095758438, -0.22004441916942596, -0.08632723242044449, 0.015264800749719143, -0.05837588012218475, -0.190614253282547, -0.061205048114061356, 0.04953310266137123, -0.1321059912443161, -0.13649603724479675, -0.05343962460756302, 0.07745765894651413, -0.15394701063632965, -0.13516174256801605, -0.07858133316040039, 0.09332364052534103, -0.19411727786064148, -0.07420969754457474, -0.019321734085679054, 0.17692305147647858, -0.23680347204208374, -0.0726693719625473, -0.049243032932281494, 0.13264885544776917, -0.2266748994588852, -0.1061268299818039, 0.0007241584826260805, 0.08316609263420105, -0.25011950731277466, -0.06720943748950958, 0.006909516640007496, 0.06365982443094254, -0.17238178849220276, -0.05965511128306389, -0.010930034331977367, -0.01881442777812481, -0.12782467901706696, -0.0400426872074604, -0.021902456879615784, -0.04596608877182007, -0.0985875129699707, 0.012521803379058838, 0.00020268408115953207, -0.09607943892478943, -0.04933929443359375, 0.015114952810108662, -0.033910416066646576, -0.16031575202941895, -0.08780679106712341, -0.0029430007562041283, -0.14228321611881256, -0.1842239648103714, -0.08042240142822266, -0.06716372817754745, -0.15024083852767944, -0.20841394364833832, -0.09486193209886551, -0.07888796925544739, -0.15665294229984283, -0.12615688145160675, -0.10162629187107086, -0.13306230306625366, -0.11921816319227219, -0.155199334025383, -0.12205462157726288, -0.1097167581319809, -0.132981538772583, -0.12030132859945297, -0.03060886263847351, -0.1409168839454651, 0.1852869838476181, -0.04620182141661644, 0.23210033774375916, -0.0770203024148941, 0.38524752855300903, 0.20078040659427643, 0.29514825344085693, 0.23642279207706451, 0.43296894431114197, 0.22524695098400116, 0.3149549067020416, 0.31626954674720764, 0.36260607838630676, 0.2640949785709381, 0.3078821003437042, 0.31182193756103516, 0.4119633734226227, 0.3168068826198578, 0.34579482674598694, 0.3192741274833679, 0.3572535216808319, 0.28928592801094055, 0.3285673260688782, 0.30562204122543335, 0.3341872990131378, 0.29200640320777893, 0.28351566195487976, 0.27332955598831177, 0.2898431718349457, 0.2996162474155426, 0.3277533948421478, 0.2816877067089081, 0.3324756920337677, 0.28543105721473694, 0.3527507781982422, 0.29605796933174133, 0.3030591309070587, 0.3445746898651123, 0.33038100600242615, 0.311596155166626, 0.26863911747932434, 0.3715397119522095, 0.3012261688709259, 0.32649144530296326, 0.24916070699691772, 0.35244259238243103, 0.3380437195301056, 0.37424805760383606, 0.22124946117401123, 0.39644956588745117, 0.3006727397441864, 0.33313819766044617, 0.22016048431396484, 0.37816017866134644, 0.27381882071495056, 0.39053165912628174, 0.22081702947616577, 0.3077433109283447, 0.30905410647392273, 0.326459676027298, 0.27205052971839905, 0.30129528045654297, 0.36953604221343994, 0.2778380513191223, 0.23878593742847443, 0.2944309711456299, 0.3652775287628174, 0.18538373708724976, 0.3190891444683075, 0.1775214821100235, 0.3862359821796417, -0.009052827022969723, 0.3215167224407196, 0.18744739890098572, 0.3093322217464447, -0.09917054325342178, 0.3646692931652069, 0.20212635397911072, 0.06331373751163483, -0.2998483180999756, 0.3246772885322571, 0.2553108334541321, -0.21785680949687958, -0.40107831358909607, 0.24177062511444092, 0.19327585399150848, -0.35487598180770874, -0.3574424386024475, 0.35256120562553406, 0.09334017336368561, -0.30693596601486206, -0.2523469626903534, 0.23284584283828735, -0.03577524423599243, -0.31200915575027466, -0.14898768067359924, 0.020694030448794365, -0.08832308650016785, -0.2381477653980255, -0.11503928154706955, -0.06555868685245514, -0.16706183552742004, -0.19744984805583954, -0.10702116787433624, -0.19210697710514069, -0.1877261996269226, -0.190241739153862, -0.10923942923545837, -0.24982893466949463, -0.14719928801059723, -0.15460382401943207, -0.1363293081521988, -0.2661462724208832, -0.1437292993068695, -0.13602420687675476, -0.16087688505649567, -0.3471759855747223, -0.1692456305027008, -0.1336706429719925, -0.21511679887771606, -0.2925620675086975, -0.10942542552947998, -0.2164892852306366, -0.1820365935564041, -0.23423105478286743, -0.18606291711330414, -0.2188066691160202, -0.23707333207130432, -0.2212303727865219, -0.10081461817026138, -0.16721086204051971, -0.22536009550094604, -0.16607965528964996, -0.13347533345222473, -0.24913394451141357, -0.28160691261291504, -0.15540894865989685, -0.1732787936925888, -0.257390558719635, -0.2430771440267563, -0.11186597496271133, -0.17106805741786957, -0.22997558116912842, -0.29494228959083557, -0.06758197396993637, -0.128988116979599, -0.26970043778419495, -0.25449225306510925, -0.011238530278205872, -0.10496792942285538, -0.2864469289779663, -0.25997093319892883, -0.0653882697224617, -0.1409565508365631, -0.31937235593795776, -0.26142290234565735, -0.10737250000238419, -0.17023442685604095, -0.23580840229988098, -0.2777639329433441, -0.13903062045574188, -0.28946956992149353, -0.27265289425849915, -0.25345054268836975, -0.2161482870578766, -0.30544427037239075, -0.2762124240398407, -0.2631058990955353, -0.22716161608695984, -0.28488829731941223, -0.23055361211299896, -0.2181382179260254, -0.2655197083950043, -0.27295151352882385, -0.275333046913147, -0.23838137090206146, -0.35123470425605774, -0.2564011514186859, -0.30596256256103516, -0.24554488062858582, -0.2883000671863556, -0.16885019838809967, -0.29864081740379333, -0.21523311734199524, -0.2851930856704712, -0.11863674223423004, -0.24698996543884277, -0.19602197408676147, -0.24058979749679565, -0.0464058443903923, -0.24401769042015076, -0.19425198435783386, -0.12175318598747253, 0.03482174128293991, -0.2612178921699524, -0.21480153501033783, -0.03917432203888893, 0.11532023549079895, -0.22854256629943848, -0.13949741423130035, 0.10874278098344803, 0.1876395046710968, -0.29566243290901184, -0.12877096235752106, 0.14339125156402588, 0.14767403900623322, -0.19858795404434204, -0.1609552949666977, 0.19553914666175842, 0.11634033173322678, -0.06005697324872017, -0.14647488296031952, 0.17217746376991272, 0.07867764681577682, 0.10130497813224792, -0.14889630675315857, 0.20908531546592712, 0.027559060603380203, 0.22255615890026093, -0.09116216748952866, 0.189613938331604, 0.029086163267493248, 0.29970037937164307, -0.1026558205485344, 0.06288035213947296, -0.042708925902843475, 0.333682656288147, -0.0074846697971224785, 0.03013896755874157, -0.05830150470137596, 0.2602289617061615, 0.028956186026334763, -0.08174745738506317, -0.1252274066209793, 0.2013901025056839, 0.00011028119479306042, -0.1874200701713562, -0.18094706535339355, 0.08816265314817429, 0.013698075897991657, -0.1774408221244812, -0.18003711104393005, -0.028330255299806595, -0.007859833538532257, -0.2536849081516266, -0.1789843887090683, -0.09481792151927948, -0.03919919952750206, -0.2280832827091217, -0.1173996701836586, -0.06071532517671585, -0.05433916300535202, -0.1458757370710373, -0.05462208762764931, -0.05985478684306145, 0.006920688785612583, -0.028201745823025703, 0.0631055235862732, -0.021435637027025223, -0.011004239320755005, 0.026147332042455673, 0.035240426659584045, 0.0028003861662000418, -0.0069150556810200214, 0.12044601142406464, 0.10679634660482407, 0.08281692117452621, -0.017027314752340317, 0.1665726602077484, 0.13544808328151703, 0.08163667470216751, 0.00975266844034195, 0.17203013598918915, 0.16338971257209778, 0.19527171552181244, 0.09393000602722168, 0.18056252598762512, 0.23370996117591858, 0.2263837307691574, 0.20683225989341736, 0.18424741923809052, 0.26033470034599304, 0.31596097350120544, 0.34362372756004333], [-0.26859909296035767, -0.08790729939937592, -0.17071571946144104, -0.20147088170051575, -0.264395147562027, -0.03379209339618683, -0.18362709879875183, -0.16624940931797028, -0.19568683207035065, 0.024005111306905746, -0.24053481221199036, -0.1468861997127533, -0.1711169183254242, 0.08698306977748871, -0.21482647955417633, -0.07599063217639923, -0.1063079908490181, 0.09347014129161835, -0.2651076018810272, -0.06770230084657669, -0.051084090024232864, 0.23458179831504822, -0.24661730229854584, -0.08364283293485641, 0.13428393006324768, 0.20497840642929077, -0.20796461403369904, 0.028673386201262474, 0.24597717821598053, 0.19703906774520874, -0.1167394369840622, 0.08082012087106705, 0.2801283299922943, 0.11702360212802887, -0.10123325884342194, 0.19718800485134125, 0.34586912393569946, 0.07321276515722275, -0.06239812448620796, 0.322165846824646, 0.42329302430152893, 0.1225450187921524, -0.11226973682641983, 0.39118582010269165, 0.37274521589279175, 0.11301841586828232, -0.13152705132961273, 0.4948807656764984, 0.355465829372406, 0.08746106177568436, -0.11619465053081512, 0.6178797483444214, 0.4363364279270172, 0.10639424622058868, -0.09372101724147797, 0.6756822466850281, 0.5785698294639587, 0.09861695766448975, -0.06942057609558105, 0.6307358145713806, 0.7234827876091003, 0.1672942191362381, 0.13423143327236176, 0.5642349123954773, 0.7776331305503845, 0.2878946363925934, 0.3297452926635742, 0.4903343915939331, 0.6541383266448975, 0.34759101271629333, 0.4508991539478302, 0.5141419768333435, 0.5887784957885742, 0.3445284366607666, 0.499088317155838, 0.5095385909080505, 0.44563353061676025, 0.4115690290927887, 0.5095852613449097, 0.4710005819797516, 0.4245811700820923, 0.3771642744541168, 0.39753398299217224, 0.4840041399002075, 0.3724367618560791, 0.42307212948799133, 0.35798853635787964, 0.5405011177062988, 0.404768705368042, 0.3977321982383728, 0.3531731963157654, 0.5229617953300476, 0.48062577843666077, 0.4003937244415283, 0.27383965253829956, 0.5049137473106384, 0.48767778277397156, 0.37085357308387756, 0.2428612858057022, 0.4852765202522278, 0.4060039222240448, 0.40463554859161377, 0.20233802497386932, 0.42077165842056274, 0.32131245732307434, 0.3380405008792877, 0.1517065167427063, 0.3712553381919861, 0.23507463932037354, 0.3635956645011902, 0.16626612842082977, 0.23829543590545654, 0.12790583074092865, 0.36684298515319824, 0.14747750759124756, 0.13760438561439514, 0.06819143146276474, 0.37966278195381165, 0.19188860058784485, 0.054748889058828354, 0.018952317535877228, 0.33040323853492737, 0.116108737885952, 0.052412208169698715, 0.006274896208196878, 0.2644931972026825, 0.10107820481061935, 0.015215560793876648, 0.08153332769870758, 0.19836390018463135, 0.06289371848106384, 0.05176272243261337, 0.06318145245313644, 0.1806647628545761, -0.026143809780478477, 0.052561745047569275, 0.0657864511013031, 0.09276460111141205, -0.006252720486372709, 0.03808555006980896, 0.12163130939006805, 0.05295901745557785, -0.1156056672334671, 0.07682013511657715, 0.13827036321163177, 0.06535428017377853, -0.13028115034103394, 0.031100472435355186, 0.05237981677055359, 0.022103190422058105, -0.08969534933567047, 0.05434068292379379, 0.015005702152848244, 0.11653485149145126, -0.07220529019832611, 0.09530060738325119, 0.01833147555589676, 0.1315346211194992, -0.046306312084198, 0.010150195099413395, -0.04299522191286087, 0.17075327038764954, 0.009334544651210308, 0.04043839871883392, -0.11644140630960464, 0.17099790275096893, 0.05826094001531601, 0.10691702365875244, -0.0934373065829277, 0.13928250968456268, 0.054155971854925156, 0.03622479364275932, -0.09814140945672989, 0.060165565460920334, 0.10476036369800568, 0.10392862558364868, -0.04265066608786583, 0.004378123674541712, 0.033575624227523804, 0.06673107296228409, -0.05954846367239952, -0.0451645590364933, 0.06821125745773315, 0.033196091651916504, 0.015743132680654526, -0.08528735488653183, 0.0009497337741777301, 0.009133568033576012, 0.027646148577332497, -0.09264767915010452, 0.03988516703248024, -0.0454617440700531, -0.02806505188345909, -0.15577465295791626, -0.1217384785413742, -0.09090661257505417, -0.2696092426776886, -0.14222866296768188, -0.24662023782730103, -0.24808216094970703, -0.42067521810531616, -0.2698526978492737, -0.3829330801963806, -0.43526095151901245, -0.5524807572364807, -0.4025931656360626, -0.46776363253593445, -0.6219865679740906, -0.6987978219985962, -0.5826764106750488, -0.5747003555297852, -0.7177907228469849, -0.7659526467323303, -0.68227618932724, -0.6888343691825867, -0.8198757767677307, -0.7992578148841858, -0.8519606590270996, -0.7790504693984985, -0.9125609397888184, -0.9022157192230225, -1.0795904397964478, -0.9966563582420349, -1.1097675561904907, -0.785297155380249, -0.9709732532501221, -0.9644989371299744, -0.9641588926315308, -0.5431293249130249, -0.761720597743988, -0.8226909637451172, -0.789533793926239, -0.4507851004600525, -0.6009899377822876, -0.5193885564804077, -0.5392401218414307, -0.32224684953689575, -0.4525263011455536, -0.3444165587425232, -0.373108834028244, -0.14218007028102875, -0.2585803270339966, -0.1370231807231903, -0.2747591435909271, -0.10346201807260513, -0.1216757744550705, -0.09065526723861694, -0.1614423245191574, 0.04160483554005623, -0.0028354250825941563, 0.061108317226171494, -0.04387937858700752, 0.08350016921758652, 0.09373343735933304, 0.1054498702287674, 0.015372742898762226, 0.09571956843137741, 0.1030886098742485, 0.23271134495735168, 0.14694620668888092, 0.15303152799606323, 0.2098531574010849, 0.230206698179245, 0.11415346711874008, 0.20413805544376373, 0.20288528501987457, 0.2873895466327667, 0.18587636947631836, 0.233434796333313, 0.27515631914138794, 0.3213843107223511, 0.21648426353931427, 0.2574290335178375, 0.2723686099052429, 0.3384101092815399, 0.21050064265727997, 0.1858338713645935, 0.25375232100486755, 0.26073455810546875, 0.16783104836940765, 0.2200831025838852, 0.2614758610725403, 0.2600770592689514, 0.17079108953475952, 0.2095772624015808, 0.2667076885700226, 0.25997665524482727, 0.130148783326149, 0.20807228982448578, 0.20952275395393372, 0.23932144045829773, 0.11636730283498764, 0.16283884644508362, 0.19552284479141235, 0.20041419565677643, 0.07194125652313232, 0.21827395260334015, 0.13107945024967194, 0.2750687003135681, 0.02368347905576229, 0.2669697701931, 0.13027742505073547, 0.2940235137939453, 0.010007028467953205, 0.2616928219795227, 0.03626323863863945, 0.31245121359825134, -0.017362993210554123, 0.23746277391910553, -0.00047230825293809175, 0.2465282678604126, 0.004314911086112261, 0.13433977961540222, -0.2609512507915497, 0.22515830397605896, 0.005131351295858622, 0.03948237746953964, -0.1682833731174469, 0.03586690127849579, 0.06184004619717598, 0.09283411502838135, -0.18952177464962006, 0.06526359170675278, 0.19190528988838196, 0.0681270956993103, -0.10127385705709457, -0.022395044565200806, 0.1744837462902069, -0.0976213589310646, -0.11575066298246384, -0.14091849327087402, 0.08314412832260132, -0.10120411962270737, -0.1228007972240448, -0.23213137686252594, 0.017458880320191383, -0.11146936565637589, -0.13519041240215302, -0.36850443482398987, -0.012523476034402847, -0.04088681563735008, -0.1933443546295166, -0.33815982937812805, -0.047816433012485504, -0.07626327872276306, -0.17720836400985718, -0.34053221344947815, -0.11044053733348846, -0.055311236530542374, -0.23829704523086548, -0.3701775372028351, -0.19260142743587494, -0.14255475997924805, -0.18722938001155853, -0.3395782709121704, -0.2630324959754944, -0.17664119601249695, -0.1813199371099472, -0.3254443407058716, -0.30502423644065857, -0.21311473846435547, -0.18262983858585358, -0.3838421404361725, -0.4103621542453766, -0.28752827644348145, -0.2698999345302582, -0.4236249625682831, -0.4013769030570984, -0.3776811957359314, -0.2859613001346588, -0.4173816740512848, -0.4649845063686371, -0.41846099495887756, -0.2405872493982315, -0.48142552375793457, -0.43570899963378906, -0.37738093733787537, -0.24663704633712769, -0.4831392765045166, -0.41286689043045044, -0.3629792332649231, -0.3293111026287079, -0.4503929018974304, -0.3534574806690216, -0.3045482337474823, -0.2805475890636444, -0.5006018280982971, -0.24740415811538696, -0.25307539105415344, -0.1956717073917389, -0.409793496131897, -0.2098175436258316, -0.14063237607479095, -0.12970097362995148, -0.45284509658813477, -0.11229697614908218, -0.12917375564575195, -0.11693308502435684, -0.3675279915332794, -0.12107519805431366, -0.07931506633758545, -0.058296170085668564, -0.39607465267181396, -0.11521017551422119, -0.06189703568816185, -0.03221586346626282, -0.2817954123020172, -0.0671909973025322, -0.09072701632976532, 0.011245154775679111, -0.21573320031166077, -0.07664141803979874, -0.09715408831834793, 0.04357241466641426, -0.2157224714756012, -0.03317755460739136, -0.07956521958112717, -0.014351209625601768, -0.1257271021604538, 0.060186389833688736, -0.06318102031946182, 0.014171876944601536, -0.057654693722724915, 0.07692187279462814, -0.0394328236579895, 0.07256020605564117, -0.0821666568517685, 0.09705302119255066, 0.019101886078715324, 0.07004228979349136, 0.007078674156218767, 0.14439933001995087, 0.051847927272319794, 0.1288353055715561, -0.004528917837888002, 0.21006640791893005, 0.16906596720218658, 0.13369779288768768, 0.07529271394014359, 0.21836978197097778, 0.17383289337158203, 0.15244905650615692, 0.10030509531497955, 0.2380799502134323, 0.22700560092926025, 0.27622950077056885, 0.18546779453754425, 0.3251783549785614, 0.25702282786369324, 0.3098229765892029, 0.20608492195606232, 0.32071176171302795, 0.2655934691429138, 0.3940228223800659, 0.3115461468696594, 0.3661562502384186, 0.19243226945400238, 0.41851145029067993, 0.3933151066303253, 0.39171093702316284, 0.20343315601348877, 0.4359703063964844, 0.534264326095581, 0.409224271774292, 0.18021787703037262, 0.42321422696113586, 0.604668378829956, 0.44396618008613586, 0.15371426939964294, 0.36258623003959656, 0.7090827226638794, 0.5207226872444153, 0.23616793751716614, 0.4538351893424988, 0.8213844299316406, 0.5802460312843323, 0.41021907329559326, 0.43228986859321594, 0.9361041188240051, 0.758202075958252, 0.27431878447532654, 0.3660740852355957, 0.7349672913551331, 0.9802539944648743, 0.22027264535427094, 0.3048798739910126, 0.6053882837295532, 0.9064915776252747, 0.16106092929840088, 0.3424077033996582, 0.46181610226631165, 0.9720932841300964, -0.00045036699157208204, 0.07571422308683395, 0.3929153084754944, 0.598627507686615, -0.25926467776298523, -0.024094823747873306, 0.307939738035202, 0.42714017629623413, -0.19103695452213287, -0.002885023131966591, -0.06919123977422714, 0.26375696063041687, -0.1802782118320465, 0.0003420355496928096, -0.09273704886436462, 0.10164698213338852, -0.09027247130870819, 0.09627841413021088, -0.04527009651064873, 0.00626301160082221], [0.3679085671901703, 0.4744245409965515, 0.7247652411460876, 0.08817476779222488, 0.2171393483877182, 0.2311493307352066, 0.7123467326164246, -0.0957818403840065, 0.07487545907497406, -0.060944873839616776, 0.54547119140625, -0.230727881193161, 0.006537124048918486, -0.269532710313797, 0.34150639176368713, -0.3598071038722992, 0.03065308928489685, -0.415392130613327, 0.12131747603416443, -0.4293230175971985, 0.0380123145878315, -0.5171880125999451, -0.13624076545238495, -0.48783329129219055, 0.04235704615712166, -0.634597897529602, -0.3687843978404999, -0.4699983298778534, -0.0881069004535675, -0.6720340847969055, -0.530298113822937, -0.4702457785606384, -0.16767056286334991, -0.7278858423233032, -0.5727398991584778, -0.46029967069625854, -0.3204285502433777, -0.677034318447113, -0.5995458960533142, -0.4634910225868225, -0.39256522059440613, -0.6113408803939819, -0.49434834718704224, -0.44133222103118896, -0.3963911533355713, -0.5198192000389099, -0.3507058918476105, -0.4299923777580261, -0.3573516607284546, -0.4210266172885895, -0.2615983486175537, -0.3401482105255127, -0.32138991355895996, -0.4735275208950043, -0.08500335365533829, -0.3402023911476135, -0.2519264221191406, -0.4333791732788086, -0.029642686247825623, -0.3914310038089752, -0.25023698806762695, -0.48265358805656433, -0.1020657941699028, -0.35535216331481934, -0.15254047513008118, -0.44128140807151794, -0.1794632524251938, -0.3609902858734131, -0.17810407280921936, -0.5012193322181702, -0.2963874042034149, -0.38065484166145325, -0.22810664772987366, -0.4485164284706116, -0.4038887023925781, -0.38176870346069336, -0.20172317326068878, -0.3670941889286041, -0.42853084206581116, -0.3065432012081146, -0.25084802508354187, -0.28717634081840515, -0.43529683351516724, -0.2729499340057373, -0.30166563391685486, -0.2639470100402832, -0.44117119908332825, -0.22308193147182465, -0.2776621878147125, -0.13181594014167786, -0.4172974228858948, -0.2228131890296936, -0.22173649072647095, -0.10676202178001404, -0.4155031442642212, -0.16021320223808289, -0.15444810688495636, -0.07932721078395844, -0.3853098750114441, -0.07182563096284866, -0.09242335706949234, -0.04228668659925461, -0.3657923936843872, 0.010525667108595371, -0.0623994879424572, -0.02624848484992981, -0.36214494705200195, 0.1389910727739334, -0.023754293099045753, -0.020243505015969276, -0.378988116979599, 0.12224581837654114, -0.016565196216106415, -0.057651933282613754, -0.41259095072746277, 0.16707952320575714, -0.03160030022263527, -0.09648264944553375, -0.330402672290802, 0.0745600014925003, -0.13052277266979218, -0.12709717452526093, -0.3441391587257385, 0.11871995031833649, -0.14775478839874268, -0.10703344643115997, -0.22790206968784332, 0.10149946063756943, -0.19595935940742493, -0.05704795941710472, -0.2362324297428131, 0.02926425077021122, -0.16190558671951294, -0.11395489424467087, -0.19387078285217285, 0.009242122992873192, -0.15327398478984833, -0.01097695529460907, -0.09337399899959564, 0.0523153655230999, -0.15302546322345734, -0.00675948616117239, -0.10505960881710052, 0.002967934124171734, -0.09608860313892365, 0.03784254565834999, -0.056120701134204865, -0.0013106509577482939, -0.06693453341722488, 0.06747543811798096, -0.06167912855744362, 0.05313720554113388, 0.08398737758398056, 0.19184140861034393, 0.03164881840348244, 0.08041978627443314, 0.16314800083637238, 0.24947117269039154, 0.03257882595062256, 0.09095689654350281, 0.15466202795505524, 0.25205838680267334, 0.09125030040740967, 0.18987976014614105, 0.21382759511470795, 0.27585387229919434, 0.21222595870494843, 0.23590970039367676, 0.25995421409606934, 0.32650697231292725, 0.25748369097709656, 0.24343490600585938, 0.3615158498287201, 0.34528273344039917, 0.2562689781188965, 0.30824312567710876, 0.33843639492988586, 0.31135156750679016, 0.32017210125923157, 0.41553112864494324, 0.3713192343711853, 0.3121810853481293, 0.32798057794570923, 0.41697728633880615, 0.40355512499809265, 0.32662615180015564, 0.2881315052509308, 0.4830881655216217, 0.3732156753540039, 0.3850404918193817, 0.362872451543808, 0.5449780821800232, 0.5005900263786316, 0.5296926498413086, 0.35422778129577637, 0.5845276713371277, 0.43677613139152527, 0.20118919014930725, 0.42046692967414856, 0.2642672657966614, 0.362311452627182, 0.05022468417882919, 0.6210101246833801, 0.040186453610658646, 0.2307702749967575, -0.011895217932760715, 0.5552224516868591, -0.09611278772354126, 0.15958133339881897, 0.05104723572731018, 0.3919437825679779, -0.17904967069625854, 0.030451355502009392, -0.009924959391355515, 0.1921962946653366, -0.14405934512615204, 0.01791122928261757, -0.021425141021609306, 0.07595039159059525, -0.20419378578662872, 0.011464165523648262, 0.0006288728327490389, -0.10505653917789459, -0.19918490946292877, -0.0075492593459784985, -0.0161482822149992, -0.1626705527305603, -0.1910775899887085, -0.17932644486427307, -0.1544904261827469, -0.303841233253479, -0.23292376101016998, -0.19787751138210297, -0.23404492437839508, -0.14831124246120453, -0.16640260815620422, -0.10545229911804199, -0.16091503202915192, -0.12882889807224274, -0.20318949222564697, -0.0671197921037674, -0.19025477766990662, -0.046545207500457764, -0.08849223703145981, -0.07260510325431824, -0.15950582921504974, 0.11268526315689087, -0.0638740286231041, 0.02320311963558197, -0.08885711431503296, 0.11731117218732834, -0.044020846486091614, 0.09427022933959961, -0.09329607337713242, 0.21330216526985168, -0.0234682559967041, 0.11609309166669846, -0.07273498177528381, 0.18077559769153595, -0.01607416942715645, 0.07308228313922882, -0.12793377041816711, 0.19430869817733765, -0.09104445576667786, 0.058652885258197784, -0.15226276218891144, 0.23571361601352692, -0.057161152362823486, -0.014698085375130177, -0.11281601339578629, 0.2028493881225586, -0.07030341774225235, -0.032904937863349915, -0.25423991680145264, 0.08634249866008759, -0.12802037596702576, -0.16852393746376038, -0.26940885186195374, -0.006112292408943176, -0.1990383118391037, -0.2569573223590851, -0.3294932246208191, -0.0326370894908905, -0.22732013463974, -0.28410661220550537, -0.3871040642261505, -0.12097911536693573, -0.22526872158050537, -0.3246733844280243, -0.371735155582428, -0.19510024785995483, -0.2683010697364807, -0.36585086584091187, -0.29978662729263306, -0.2577696144580841, -0.2377743124961853, -0.2796293795108795, -0.12799949944019318, -0.2306278944015503, -0.19659972190856934, -0.19054874777793884, 0.07494572550058365, -0.26014479994773865, -0.07932090014219284, -0.06915021687746048, 0.3576192557811737, -0.2585139870643616, 0.06447692960500717, 0.06902052462100983, 0.7000594139099121, -0.2811528146266937, 0.2661653161048889, 0.3111652433872223, 0.9009486436843872, -0.29911547899246216, 0.5745051503181458, 0.6724432706832886, 0.8118354082107544, -0.11206869781017303, 0.5641749501228333, 0.5508135557174683, 0.6602877378463745, -0.09123490750789642, 0.44295570254325867, 0.43585675954818726, 0.5049620270729065, 0.06586968898773193, 0.36920666694641113, 0.4640168845653534, 0.47319814562797546, 0.1377720981836319, 0.31626826524734497, 0.46225035190582275, 0.4008926451206207, 0.17116811871528625, 0.3111361265182495, 0.5469640493392944, 0.43455496430397034, 0.19460120797157288, 0.3480910658836365, 0.4493882656097412, 0.4843302071094513, 0.2815260589122772, 0.325379878282547, 0.49281734228134155, 0.4209401309490204, 0.3092811107635498, 0.3311120271682739, 0.4523449242115021, 0.4506533741950989, 0.3185286819934845, 0.2979033887386322, 0.4535670280456543, 0.48536500334739685, 0.3204481899738312, 0.3383563160896301, 0.44141075015068054, 0.46714356541633606, 0.20514130592346191, 0.32772400975227356, 0.34329864382743835, 0.4805832803249359, 0.16499705612659454, 0.25119420886039734, 0.3427527844905853, 0.421721875667572, 0.07183624804019928, 0.29394567012786865, 0.33162152767181396, 0.38227108120918274, 0.05613281577825546, 0.32977941632270813, 0.4439983665943146, 0.41337400674819946, 0.006022276356816292, 0.364804744720459, 0.46874845027923584, 0.3038944602012634, 0.07633907347917557, 0.45363807678222656, 0.6229282021522522, 0.3559739589691162, 0.09559927880764008, 0.4809296429157257, 0.6537237167358398, 0.3005948066711426, 0.18945440649986267, 0.5055643320083618, 0.6943161487579346, 0.3205251395702362, 0.32875528931617737, 0.4641933739185333, 0.6832390427589417, 0.32143568992614746, 0.4189405143260956, 0.5320526361465454, 0.5797085165977478, 0.3114321529865265, 0.443631112575531, 0.5307435989379883, 0.40481817722320557, 0.2686280310153961, 0.4961257874965668, 0.5079748034477234, 0.2604232728481293, 0.24861028790473938, 0.6007997393608093, 0.39013949036598206, 0.17686541378498077, 0.2812653183937073, 0.587081253528595, 0.4182991087436676, 0.15153798460960388, 0.22239044308662415, 0.5305984616279602, 0.379117876291275, 0.27180618047714233, 0.26431381702423096, 0.5753515958786011, 0.32602155208587646, 0.3044758439064026, 0.21585558354854584, 0.5001401305198669, 0.2003391534090042, 0.4211472272872925, 0.15095695853233337, 0.4749080240726471, 0.1866156905889511, 0.5135787129402161, 0.13647572696208954, 0.3978599011898041, 0.12493561953306198, 0.5266645550727844, 0.03348228707909584, 0.3417837619781494, -0.0068704248405992985, 0.5315185189247131, -0.032135970890522, 0.29462331533432007, -0.1128976047039032, 0.4358442723751068, -0.10520417988300323, 0.29526209831237793, -0.14802204072475433, 0.27546584606170654, -0.21878713369369507, 0.21163296699523926, -0.16291970014572144, 0.06635956466197968, -0.26190662384033203, 0.19761580228805542, -0.19810733199119568, -0.07456560432910919, -0.30179065465927124, 0.060749351978302, -0.25935816764831543, -0.19976578652858734, -0.3390226364135742, -0.03148395195603371, -0.2546382248401642, -0.24865899980068207, -0.47679129242897034, -0.030862389132380486, -0.20447465777397156, -0.3588578701019287, -0.47576192021369934, 0.018580596894025803, -0.3015838861465454, -0.4028071463108063, -0.4158633351325989, 0.13286685943603516, -0.42830583453178406, -0.41827690601348877, -0.39190301299095154, 0.12811557948589325, -0.4609048068523407, -0.42439964413642883, -0.39881473779678345, 0.09718400239944458, -0.5094546675682068, -0.4929289221763611, -0.39033761620521545, 0.05739888176321983, -0.5596275329589844, -0.6175902485847473, -0.32295435667037964, 0.048176828771829605, -0.5804152488708496, -0.5970004200935364, -0.28505879640579224, -0.06160745769739151, -0.547268271446228, -0.5541806817054749, -0.13373786211013794, -0.135941743850708, -0.49651235342025757, -0.42217642068862915, -0.11202842742204666, -0.2195551097393036, -0.39363834261894226, -0.3081575930118561, -0.03515935316681862, -0.37539705634117126, -0.16698119044303894, -0.17425048351287842, -0.0016647151205688715, -0.36415034532546997, 0.0009260730585083365, -0.0313660204410553, 0.015149816870689392, -0.43906596302986145, 0.16045528650283813], [0.39369621872901917, 0.5837404727935791, 0.4338749945163727, 0.30680420994758606, 0.13214008510112762, 0.3591243624687195, 0.18409670889377594, 0.1852341890335083, -0.02278042770922184, 0.14538122713565826, 0.08488264679908752, 0.1694064438343048, -0.1485973745584488, -0.01869949884712696, -0.07573331892490387, 0.11357488483190536, -0.14671392738819122, -0.2177291065454483, -0.12498053163290024, 0.07638045400381088, -0.09471834450960159, -0.25336605310440063, -0.12294194102287292, 0.11073391884565353, -0.09474211186170578, -0.29232221841812134, -0.03840864822268486, 0.03440931811928749, -0.035039134323596954, -0.29612863063812256, 0.013970564119517803, -0.0027688038535416126, 0.029630187898874283, -0.2802092134952545, 0.0019512681756168604, -0.15918906033039093, -0.03282187506556511, -0.33619317412376404, 0.08592305332422256, -0.22047998011112213, -0.0502525195479393, -0.38239532709121704, 0.08282669633626938, -0.3338148295879364, -0.07844296097755432, -0.3631831705570221, 0.09903977811336517, -0.38368943333625793, -0.21009007096290588, -0.3564204275608063, 0.16693426668643951, -0.45959901809692383, -0.30191925168037415, -0.34855329990386963, 0.20444023609161377, -0.5295320749282837, -0.3954234719276428, -0.48234766721725464, 0.3406919240951538, -0.5617811679840088, -0.572203516960144, -0.5191388726234436, 0.35986456274986267, -0.5035679936408997, -0.6230828762054443, -0.5797791481018066, 0.30143436789512634, -0.3804011940956116, -0.45084115862846375, -0.5797456502914429, 0.1763407588005066, -0.33019983768463135, -0.21558521687984467, -0.48689043521881104, -0.12203517556190491, -0.3040378987789154, 0.030769526958465576, -0.41404488682746887, -0.412020742893219, -0.32550710439682007, 0.20344793796539307, -0.38550975918769836, -0.5550041198730469, -0.27131009101867676, 0.3487216830253601, -0.37240031361579895, -0.5831314325332642, -0.29711592197418213, 0.3567134439945221, -0.3769763708114624, -0.6008213758468628, -0.28833237290382385, 0.2785077393054962, -0.32693734765052795, -0.46854665875434875, -0.25584685802459717, 0.12001487612724304, -0.29920366406440735, -0.39632028341293335, -0.3145046830177307, 0.058322254568338394, -0.3020930886268616, -0.3682427406311035, -0.3209683895111084, -0.14478541910648346, -0.2720351815223694, -0.2806718349456787, -0.2860774099826813, -0.24032427370548248, -0.258996844291687, -0.20589064061641693, -0.21486054360866547, -0.33725783228874207, -0.25235962867736816, -0.22683072090148926, -0.22067603468894958, -0.42216283082962036, -0.19863581657409668, -0.18180842697620392, -0.2773178517818451, -0.438956618309021, -0.24221614003181458, -0.18701696395874023, -0.23362119495868683, -0.38514840602874756, -0.24151268601417542, -0.21136213839054108, -0.23365436494350433, -0.37191060185432434, -0.2146420031785965, -0.18802717328071594, -0.23825925588607788, -0.2884606122970581, -0.19602851569652557, -0.23696419596672058, -0.21730679273605347, -0.17618975043296814, -0.24212633073329926, -0.2554723918437958, -0.18221384286880493, -0.07244450598955154, -0.167261004447937, -0.2147063910961151, -0.16558940708637238, -0.04059300944209099, -0.17917115986347198, -0.20004844665527344, -0.08619467169046402, -0.014973877929151058, -0.1253703385591507, -0.2464386373758316, -0.08472014963626862, -0.012295386753976345, -0.04948621243238449, -0.19338761270046234, -0.10345043987035751, -0.045166630297899246, 0.07568860054016113, -0.19728626310825348, -0.06539478152990341, -0.06288841366767883, 0.09107706695795059, -0.2710860073566437, -0.023048454895615578, -0.005353162065148354, 0.1441665142774582, -0.26840317249298096, 0.032053977251052856, 0.023639261722564697, 0.20622962713241577, -0.28565216064453125, 0.06656628102064133, -0.016489895060658455, 0.1690913587808609, -0.29613736271858215, 0.10073985904455185, 0.10437459498643875, 0.18524931371212006, -0.26519346237182617, 0.18694189190864563, 0.14043398201465607, 0.19731736183166504, -0.25915810465812683, 0.3193788528442383, 0.22164863348007202, 0.18865810334682465, -0.23436492681503296, 0.33259695768356323, 0.3112080693244934, 0.19039058685302734, -0.07700083404779434, 0.43616360425949097, 0.38234609365463257, 0.230482816696167, -0.042228322476148605, 0.4416998326778412, 0.46348050236701965, 0.30408430099487305, 0.17572914063930511, 0.5112455487251282, 0.4533190429210663, 0.32450976967811584, 0.2872381806373596, 0.5676582455635071, 0.4569913446903229, 0.36732709407806396, 0.3973025977611542, 0.5525418519973755, 0.44477564096450806, 0.3529415428638458, 0.46896126866340637, 0.4996432662010193, 0.40678566694259644, 0.3589526116847992, 0.46702903509140015, 0.5065714716911316, 0.37402886152267456, 0.2711143493652344, 0.5328547358512878, 0.5287789702415466, 0.27959567308425903, 0.22931042313575745, 0.5412652492523193, 0.5318348407745361, 0.21164628863334656, 0.2251945585012436, 0.5726640820503235, 0.5476447343826294, -0.0962769165635109, -0.027363603934645653, 0.5187689661979675, 0.3878698945045471, 0.05008963868021965, 0.05891813337802887, 0.5049854516983032, 0.2444549947977066, 0.1484842151403427, 0.15081140398979187, 0.44781363010406494, 0.20926101505756378, 0.2583502531051636, 0.13668979704380035, 0.4099133610725403, 0.2524717152118683, 0.28533193469047546, 0.22487717866897583, 0.4736879765987396, 0.1936502754688263, 0.23522025346755981, 0.2247496247291565, 0.48905375599861145, 0.22863425314426422, 0.3091675937175751, 0.2503943145275116, 0.45282429456710815, 0.2387072890996933, 0.32988977432250977, 0.2781045734882355, 0.4584070146083832, 0.2190951257944107, 0.26359161734580994, 0.33711203932762146, 0.5012127757072449, 0.25387272238731384, 0.22519542276859283, 0.2689201533794403, 0.4690067768096924, 0.24707768857479095, 0.21421073377132416, 0.2935626208782196, 0.3739968538284302, 0.21957184374332428, 0.14638283848762512, 0.24413752555847168, 0.2698206603527069, 0.09447553008794785, 0.09102128446102142, 0.16429521143436432, 0.19292661547660828, 0.02863454259932041, -0.014276276342570782, 0.06124255433678627, 0.10034166276454926, -0.11524608731269836, -0.11344579607248306, -0.04596345126628876, -0.01455325074493885, -0.19499000906944275, -0.11152008920907974, -0.2175000011920929, -0.19136783480644226, -0.2711910009384155, -0.18041962385177612, -0.30489107966423035, -0.27719366550445557, -0.36210325360298157, -0.18270178139209747, -0.33036288619041443, -0.39058470726013184, -0.4588013291358948, -0.19931374490261078, -0.350196897983551, -0.38870370388031006, -0.5010433197021484, -0.15798522531986237, -0.2907651662826538, -0.48131757974624634, -0.5486859083175659, -0.24682480096817017, -0.29025939106941223, -0.5746866464614868, -0.5719228386878967, -0.20964942872524261, -0.3006122410297394, -0.6408368349075317, -0.4649600386619568, -0.14109134674072266, -0.2794143557548523, -0.5886738896369934, -0.6091751456260681, -0.2955426573753357, -0.46384382247924805, -0.6945911645889282, -0.6328105926513672, -0.3268739581108093, -0.6222081780433655, -0.8257270455360413, -0.6692246794700623, -0.32529839873313904, -0.7101916074752808, -0.8203461766242981, -0.7012209296226501, -0.31119415163993835, -0.7464174032211304, -0.7863233089447021, -0.7011521458625793, -0.2662435472011566, -0.618618905544281, -0.810606062412262, -0.6656904220581055, -0.245283305644989, -0.6017948389053345, -0.7371193170547485, -0.5892406702041626, -0.25649410486221313, -0.5337030291557312, -0.7456351518630981, -0.5545822978019714, -0.2757377624511719, -0.40647056698799133, -0.7034739851951599, -0.5062878131866455, -0.35876139998435974, -0.362559050321579, -0.6256161332130432, -0.5204371809959412, -0.3620512783527374, -0.36039942502975464, -0.5327768921852112, -0.42966529726982117, -0.3766394257545471, -0.3401602804660797, -0.3720545768737793, -0.3116905093193054, -0.2996264398097992, -0.25549039244651794, -0.27863043546676636, -0.24463675916194916, -0.25870752334594727, -0.2833813428878784, -0.25370848178863525, -0.12027543783187866, -0.1830996572971344, -0.20547127723693848, -0.13280923664569855, 0.0025611240416765213, -0.02892458252608776, -0.16695080697536469, -0.07934906333684921, 0.029550747945904732, -0.024313971400260925, -0.06363784521818161, -0.0051768566481769085, 0.09714850783348083, 0.06940705329179764, -0.0009998350869864225, -0.023919789120554924, 0.12009771913290024, 0.08705983310937881, 0.03706603869795799, 0.017622744664549828, 0.1457918882369995, 0.0377228744328022, 0.13696032762527466, 0.02209077589213848, 0.1567489206790924, 0.016618771478533745, 0.16276167333126068, 0.015298740938305855, 0.1606999784708023, 0.03156743571162224, 0.20308229327201843, -0.028145017102360725, 0.15243451297283173, -0.0008626449853181839, 0.26243263483047485, -0.02272549271583557, 0.18667899072170258, -0.00013643610873259604, 0.25092223286628723, -0.020481163635849953, 0.21780066192150116, 0.0361434668302536, 0.26502493023872375, -0.015566191636025906, 0.22679157555103302, 0.004957889672368765, 0.22664891183376312, 0.023764749988913536, 0.2995719909667969, 0.09997730702161789, 0.17241542041301727, -0.03927777707576752, 0.2740478515625, 0.10096611082553864, 0.10608644038438797, -0.05630576238036156, 0.39841756224632263, 0.19771736860275269, 0.09691169857978821, -0.1346149444580078, 0.4014314115047455, 0.20339761674404144, 0.00553297670558095, -0.12435563653707504, 0.3826921284198761, 0.1782342493534088, 0.07269873470067978, -0.1782732754945755, 0.40446043014526367, 0.24367517232894897, 0.021327080205082893, -0.17267173528671265, 0.4226514399051666, 0.24395281076431274, 0.12852858006954193, -0.1287737488746643, 0.381341814994812, 0.32038599252700806, 0.20236849784851074, -0.07627534866333008, 0.44850748777389526, 0.34219369292259216, 0.2690531313419342, -0.036358725279569626, 0.4392186999320984, 0.44584888219833374, 0.37540921568870544, 0.09846702218055725, 0.5486665368080139, 0.5376265048980713, 0.38061532378196716, 0.10617408901453018, 0.5778990387916565, 0.49389147758483887, 0.46374887228012085, 0.24096007645130157, 0.6040892601013184, 0.4586656391620636, 0.5344191193580627, 0.38715657591819763, 0.5233208537101746, 0.5237112045288086, 0.5642459988594055, 0.4796931743621826, 0.5670605897903442, 0.45807304978370667, 0.5932170748710632, 0.48215898871421814, 0.47094425559043884, 0.3066547214984894, 0.6721649169921875, 0.4504065215587616, 0.5278213024139404, 0.26773008704185486, 0.7824094891548157, 0.4107954800128937, 0.5013483166694641, 0.2934843897819519, 0.7513959407806396, 0.41471001505851746, 0.4780814051628113, 0.2409626692533493, 0.7771075367927551, 0.38715407252311707, 0.43756312131881714, 0.2875198721885681, 0.7982052564620972, 0.5047937631607056, 0.45236244797706604, 0.4071740508079529, 0.80293208360672, 0.6369953155517578, 0.38581180572509766, 0.5193633437156677, 0.6997728943824768, 0.7241215109825134, 0.37700191140174866, 0.6424422264099121, 0.6389724016189575, 0.8087063431739807, 0.4415585398674011], [-0.1136489287018776, -0.08533038198947906, 0.05168657377362251, 0.17388738691806793, -0.41735392808914185, -0.06455826759338379, 0.10610544681549072, 0.12182764708995819, -0.7230073809623718, -0.02166103385388851, 0.16440746188163757, -0.023932361975312233, -0.9069236516952515, -0.06601845473051071, 0.14757299423217773, -0.07833947986364365, -0.9303378462791443, -0.04304313659667969, 0.15586288273334503, -0.09358172118663788, -0.6751808524131775, -0.2563038766384125, 0.07074833661317825, -0.34873637557029724, -0.4433757960796356, -0.20005522668361664, -0.12865561246871948, -0.4087476134300232, -0.13602353632450104, -0.19569791853427887, -0.28082194924354553, -0.3291701376438141, 0.25780192017555237, -0.10990087687969208, -0.3455994427204132, -0.1626470685005188, 0.5762263536453247, -0.02833816595375538, -0.3069813549518585, 0.03273475170135498, 0.7483792901039124, 0.08207240700721741, -0.2597276270389557, 0.17671187222003937, 0.7406119704246521, 0.13663843274116516, -0.15988725423812866, 0.27004891633987427, 0.6750794649124146, 0.1895834505558014, -0.08019409328699112, 0.2597246766090393, 0.5362145304679871, 0.2512897849082947, 0.006078856997191906, 0.23062245547771454, 0.3114021122455597, 0.1646503508090973, 0.11123399436473846, 0.22979694604873657, 0.08343380689620972, 0.1013815701007843, 0.2717221677303314, 0.28149694204330444, -0.09202277660369873, 0.0999034196138382, 0.33246201276779175, 0.24974296987056732, -0.25357356667518616, 0.06569133698940277, 0.28609025478363037, 0.10078436136245728, -0.32952824234962463, 0.06059204041957855, 0.17513321340084076, 0.01825142651796341, -0.29088014364242554, -0.06971115618944168, 0.022165216505527496, -0.09262160956859589, -0.30177947878837585, -0.10511954128742218, -0.22180204093456268, -0.2568581998348236, -0.12521375715732574, -0.18413133919239044, -0.3546278774738312, -0.28433436155319214, -0.0750836655497551, -0.22726358473300934, -0.42704880237579346, -0.2862081825733185, -0.048023004084825516, -0.2925058603286743, -0.39435407519340515, -0.2407732754945755, 0.0997491180896759, -0.33004316687583923, -0.3974454700946808, -0.11267081648111343, 0.28386983275413513, -0.18672606348991394, -0.3284805715084076, -0.07361499965190887, 0.40794071555137634, -0.07926204055547714, -0.2717483937740326, -0.08707699179649353, 0.4770593047142029, 0.008184758946299553, -0.14089174568653107, -0.05924457311630249, 0.5077770352363586, 0.1611846685409546, -0.10247505456209183, -0.022319477051496506, 0.6035497784614563, 0.1818811297416687, -0.030005192384123802, 0.0426943302154541, 0.6574535369873047, 0.2970193326473236, 0.06691313534975052, 0.0021935112308710814, 0.6830790042877197, 0.32885926961898804, 0.15537644922733307, 0.041353657841682434, 0.661858081817627, 0.37018606066703796, 0.22695359587669373, 0.09565648436546326, 0.6433683037757874, 0.48053815960884094, 0.2860410213470459, 0.15988515317440033, 0.5196589827537537, 0.45418068766593933, 0.34142085909843445, 0.22698812186717987, 0.4511982202529907, 0.3917275071144104, 0.3672608733177185, 0.20305415987968445, 0.4205738604068756, 0.374144047498703, 0.4097832441329956, 0.24861565232276917, 0.3940848112106323, 0.38664641976356506, 0.5019468665122986, 0.3027605712413788, 0.36958253383636475, 0.3567826747894287, 0.426367849111557, 0.301959753036499, 0.34388867020606995, 0.29019975662231445, 0.46285852789878845, 0.2887941896915436, 0.30452102422714233, 0.34738996624946594, 0.40649139881134033, 0.34703654050827026, 0.32824766635894775, 0.267853707075119, 0.4244975447654724, 0.27092835307121277, 0.3279360830783844, 0.2853700518608093, 0.3633587062358856, 0.29420578479766846, 0.34357449412345886, 0.255497008562088, 0.3165017366409302, 0.31083592772483826, 0.32119202613830566, 0.266530841588974, 0.28030821681022644, 0.2873699963092804, 0.3333730697631836, 0.23526506125926971, 0.25623345375061035, 0.27684396505355835, 0.3167589008808136, 0.16944320499897003, 0.27137207984924316, 0.31238970160484314, 0.29100385308265686, 0.20668469369411469, 0.2229287475347519, 0.34155482053756714, 0.2297896444797516, 0.20137949287891388, 0.24402590095996857, 0.3918403089046478, 0.26314422488212585, 0.1614243984222412, 0.30229663848876953, 0.39286303520202637, 0.19517108798027039, 0.1623605191707611, 0.27168089151382446, 0.46086761355400085, 0.19884194433689117, 0.1342875361442566, 0.33860859274864197, 0.4513980746269226, 0.23128336668014526, 0.10442537069320679, 0.3514005243778229, 0.4176415205001831, 0.30678820610046387, 0.00635394686833024, 0.4130653142929077, 0.4218277037143707, 0.34516340494155884, -0.017800211906433105, 0.47458896040916443, 0.4655199944972992, 0.42019152641296387, -0.025452658534049988, 0.5812042951583862, 0.4705820679664612, 0.5090029835700989, -0.12307531386613846, 0.6551485061645508, 0.538507342338562, 0.48973992466926575, 0.4898844063282013, 0.8127288222312927, 0.6857770681381226, 0.2243461161851883, 0.32668307423591614, 0.3827372193336487, 0.4126225411891937, 0.15732289850711823, 0.33480513095855713, 0.19272327423095703, 0.3008594512939453, 0.10837292671203613, 0.31972020864486694, 0.14991693198680878, 0.2710907757282257, 0.06540180742740631, 0.29311612248420715, 0.135946124792099, 0.24897368252277374, 0.09358830749988556, 0.2861494719982147, 0.15070807933807373, 0.2415354698896408, 0.07789197564125061, 0.2901405692100525, 0.14434435963630676, 0.17073304951190948, -0.018470389768481255, 0.2920936346054077, 0.07198444753885269, 0.17368100583553314, -0.0242290236055851, 0.18884189426898956, 0.045010946691036224, 0.08283079415559769, 0.0008315399754792452, 0.2124653309583664, -0.006284899543970823, 0.042644839733839035, -0.11344052106142044, 0.0721798837184906, -0.055358484387397766, 0.02273903228342533, -0.15789717435836792, 0.007632220629602671, -0.10043521225452423, -0.14460572600364685, -0.1434563398361206, -0.10525348037481308, -0.246612548828125, -0.18845641613006592, -0.20050495862960815, -0.2207476645708084, -0.3258524537086487, -0.34433117508888245, -0.25538182258605957, -0.3957899510860443, -0.45204803347587585, -0.5435886979103088, -0.2703341543674469, -0.4309752583503723, -0.5293146371841431, -0.6407223343849182, -0.35338103771209717, -0.5605944991111755, -0.5293753147125244, -0.7531207203865051, -0.31750309467315674, -0.6546776294708252, -0.46811994910240173, -0.8751290440559387, -0.3688882887363434, -0.7643610835075378, -0.41273337602615356, -0.9124701023101807, -0.3764297664165497, -0.9169961214065552, -0.38833317160606384, -0.9325551390647888, -0.3668220639228821, -1.2439229488372803, -0.33472010493278503, -1.0066545009613037, -0.3542252779006958, -1.6007041931152344, -0.3233938217163086, -1.147390365600586, -0.5543642044067383, -1.7961373329162598, -0.38900279998779297, -1.4298336505889893, -0.4373205304145813, -1.632135033607483, -0.508124589920044, -1.3884544372558594, -0.4052702486515045, -1.4391276836395264, -0.531275749206543, -1.3213287591934204, -0.3118457794189453, -1.2027137279510498, -0.5925110578536987, -1.095257043838501, -0.30623307824134827, -1.090710163116455, -0.7408384680747986, -0.9314666986465454, -0.3839718997478485, -0.9630208015441895, -0.7648199796676636, -0.8577492833137512, -0.4293156862258911, -0.9395177364349365, -0.854698657989502, -0.8089130520820618, -0.5336577296257019, -0.9113975763320923, -0.8787851333618164, -0.7903236150741577, -0.605674147605896, -0.8699658513069153, -0.8071053624153137, -0.8120526075363159, -0.6247283220291138, -0.8005848526954651, -0.763248085975647, -0.7504314184188843, -0.6120887398719788, -0.7575578093528748, -0.6266587972640991, -0.6692442297935486, -0.5729429721832275, -0.7018711566925049, -0.5239456295967102, -0.648788332939148, -0.553406834602356, -0.6048374176025391, -0.44384700059890747, -0.5712249875068665, -0.4615967571735382, -0.5562073588371277, -0.36126914620399475, -0.48447564244270325, -0.426875501871109, -0.43657681345939636, -0.2353764772415161, -0.39644280076026917, -0.3986915051937103, -0.39595872163772583, -0.14134636521339417, -0.3265284597873688, -0.29874926805496216, -0.3016698360443115, -0.02308563143014908, -0.2215764969587326, -0.1401483118534088, -0.23114335536956787, 0.0037338403053581715, -0.13161228597164154, -0.0035260962322354317, -0.12951484322547913, -0.021020518615841866, -0.12124857306480408, 0.04783478379249573, -0.13005805015563965, 0.01734193228185177, -0.016006067395210266, 0.20138292014598846, -0.01709725894033909, 0.054574839770793915, -0.05809073522686958, 0.2544265389442444, -0.03440876305103302, 0.04478125646710396, 0.031363487243652344, 0.2917616665363312, 0.02681579627096653, -0.007957295514643192, -0.01840919442474842, 0.26947349309921265, 0.10644807666540146, -0.021687228232622147, 0.036282651126384735, 0.16368556022644043, 0.12489957362413406, -0.012130625545978546, 0.11715397238731384, 0.07282667607069016, 0.12110061943531036, -0.10449311137199402, 0.10025330632925034, 0.005447900854051113, 0.135756716132164, -0.12563860416412354, 0.19750653207302094, -0.06408360600471497, 0.03910263255238533, -0.15792737901210785, 0.17677097022533417, -0.0719689354300499, 0.041120048612356186, -0.10382277518510818, 0.24930143356323242, -0.04427151381969452, -0.019879361614584923, -0.060962606221437454, 0.2862006425857544, -0.03300181403756142, -0.049691397696733475, 0.036100760102272034, 0.25625595450401306, 0.1099296286702156, 0.02939552627503872, 0.20475149154663086, 0.29311251640319824, 0.18854129314422607, 0.06323444098234177, 0.2561037838459015, 0.3224528729915619, 0.2939433455467224, 0.22226788103580475, 0.3498486280441284, 0.26994189620018005, 0.3567959666252136, 0.3659800887107849, 0.39666813611984253, 0.29688194394111633, 0.424747496843338, 0.4486583173274994, 0.4159007668495178, 0.28418251872062683, 0.37676191329956055, 0.5932736992835999, 0.39493194222450256, 0.299018919467926, 0.4602987766265869, 0.6789846420288086, 0.3844907879829407, 0.3691183924674988, 0.44950318336486816, 0.7710312008857727, 0.45927274227142334, 0.431884229183197, 0.5930562615394592, 0.9095119833946228, 0.5207924842834473, 0.4374758005142212, 0.7451491951942444, 1.1346946954727173, 0.6791537404060364, 0.5048604011535645, 0.629706621170044, 0.8498802185058594, 0.9430987238883972, 0.5756933689117432, 0.6166478991508484, 0.6160711050033569, 1.18694269657135, 0.5184895992279053, 0.5468569397926331, 0.4556781053543091, 1.2567617893218994, 0.5467788577079773, 0.577395498752594, 0.29497385025024414, 1.1472618579864502, 0.5114812850952148, 0.5826306939125061, 0.3280215263366699, 0.9486611485481262, 0.48242226243019104, 0.5607252717018127, 0.28330233693122864, 0.7827040553092957, 0.49230435490608215, 0.614081084728241, 0.2917429208755493, 0.6860900521278381, 0.48541852831840515, 0.5710671544075012, 0.4014090299606323, 0.6608344912528992, 0.5052406787872314], [0.31334805488586426, 0.1269494742155075, -0.09936487674713135, -0.03465201333165169, 0.4496040344238281, 0.029603661969304085, -0.0399295948445797, 0.058124199509620667, 0.473867803812027, 0.01796986162662506, 0.033633749932050705, 0.19523601233959198, 0.5372071862220764, -0.04914585500955582, 0.15202796459197998, 0.2551151216030121, 0.5169203877449036, -0.1096382588148117, 0.17418622970581055, 0.2658267319202423, 0.42132365703582764, -0.1186964139342308, 0.18694838881492615, 0.2299622744321823, 0.18827217817306519, -0.16165684163570404, 0.15178824961185455, 0.11637560278177261, -0.025873443111777306, -0.2318008989095688, 0.07980307936668396, -0.025080088526010513, -0.29796409606933594, -0.22679945826530457, 0.012338138185441494, -0.1226346492767334, -0.38576871156692505, -0.3461010754108429, -0.03864891454577446, -0.1978660374879837, -0.46929556131362915, -0.40395238995552063, -0.2646467089653015, -0.28721171617507935, -0.5851500630378723, -0.45734739303588867, -0.4321136772632599, -0.2839377224445343, -0.73058021068573, -0.6044279932975769, -0.644965648651123, -0.3740919828414917, -0.7912197709083557, -0.6384742259979248, -0.7373453378677368, -0.47830623388290405, -0.9069799184799194, -0.7535433769226074, -0.7284733653068542, -0.5963429808616638, -1.1035306453704834, -0.7787622213363647, -0.6882771253585815, -0.6464491486549377, -1.0946422815322876, -0.724536657333374, -0.6980544328689575, -0.6388766765594482, -1.0232750177383423, -0.735029399394989, -0.6107776165008545, -0.6812618970870972, -0.8330602049827576, -0.5978644490242004, -0.6352025270462036, -0.5691782236099243, -0.7504919767379761, -0.5219861268997192, -0.5407082438468933, -0.40456128120422363, -0.5879073143005371, -0.460479736328125, -0.5119403004646301, -0.32992804050445557, -0.5772037506103516, -0.4060332477092743, -0.5416466593742371, -0.3464021682739258, -0.5256316065788269, -0.3953566551208496, -0.5338623523712158, -0.3728177547454834, -0.5945083498954773, -0.33806878328323364, -0.5883203744888306, -0.43757888674736023, -0.5455738306045532, -0.3579527735710144, -0.673549473285675, -0.5500755906105042, -0.5014450550079346, -0.38626328110694885, -0.6258970499038696, -0.5678764581680298, -0.4920353591442108, -0.37846648693084717, -0.5858286023139954, -0.660332977771759, -0.4323960244655609, -0.35163614153862, -0.554257333278656, -0.6685115098953247, -0.4128083884716034, -0.3074667155742645, -0.5096498131752014, -0.5876612663269043, -0.36171483993530273, -0.24151015281677246, -0.5752323269844055, -0.5350390076637268, -0.4564504027366638, -0.2716713845729828, -0.5781893134117126, -0.4349607527256012, -0.4847766160964966, -0.31009647250175476, -0.6014049053192139, -0.3832281231880188, -0.5034106373786926, -0.28103646636009216, -0.6367124915122986, -0.3638627231121063, -0.4401276111602783, -0.2555810511112213, -0.5930140018463135, -0.33852437138557434, -0.33311277627944946, -0.24969227612018585, -0.4919060170650482, -0.3866872787475586, -0.2748841643333435, -0.26095888018608093, -0.33727380633354187, -0.3823810815811157, -0.2632335126399994, -0.3104574978351593, -0.24227075278759003, -0.367186039686203, -0.24417291581630707, -0.27366575598716736, -0.16688819229602814, -0.376781702041626, -0.21908006072044373, -0.3221184313297272, -0.09748154878616333, -0.3360247015953064, -0.1777781844139099, -0.30941739678382874, -0.13104915618896484, -0.33412519097328186, -0.1444368064403534, -0.28483816981315613, -0.14290273189544678, -0.32236555218696594, -0.197706937789917, -0.312161386013031, -0.19480448961257935, -0.2539781928062439, -0.1971161961555481, -0.2237011194229126, -0.18640795350074768, -0.24226534366607666, -0.17034633457660675, -0.28541186451911926, -0.2716704308986664, -0.22737613320350647, -0.12583480775356293, -0.2663736343383789, -0.3018471598625183, -0.262906014919281, -0.11231234669685364, -0.26285266876220703, -0.24850934743881226, -0.30602630972862244, -0.07458615303039551, -0.2612758278846741, -0.279252827167511, -0.3024934232234955, -0.11771484464406967, -0.3501981198787689, -0.21727508306503296, -0.3325622081756592, -0.1684025228023529, -0.39922624826431274, -0.21289364993572235, -0.31309962272644043, -0.17742225527763367, -0.46058329939842224, -0.12860587239265442, -0.3482835590839386, -0.18859194219112396, -0.4187925159931183, -0.1596156507730484, -0.39429691433906555, -0.2602956295013428, -0.48367175459861755, -0.12412943691015244, -0.3924824893474579, -0.3494814336299896, -0.430668443441391, -0.1603822112083435, -0.3768015503883362, -0.36800864338874817, -0.3852619230747223, -0.18027053773403168, -0.42546963691711426, -0.4103772044181824, -0.22746296226978302, -0.16321635246276855, -0.40390104055404663, -0.41730719804763794, -0.09414047747850418, -0.08820827305316925, -0.4273979067802429, -0.3566727936267853, 0.013689924031496048, 0.0055534555576741695, -0.30012136697769165, -0.17765027284622192, 0.02368391864001751, 0.1010809987783432, -0.23596860468387604, 0.03706691041588783, 0.13243015110492706, 0.2065592259168625, -0.1555483639240265, 0.18956516683101654, 0.21081747114658356, 0.25123149156570435, 0.04747685790061951, 0.3011845052242279, 0.1699458509683609, 0.29838237166404724, 0.16291655600070953, 0.34605884552001953, 0.22012239694595337, 0.29485324025154114, 0.278043657541275, 0.3264079689979553, 0.23622320592403412, 0.3227923512458801, 0.26747599244117737, 0.3189293444156647, 0.20966319739818573, 0.30916595458984375, 0.3073594272136688, 0.32559922337532043, 0.21673627197742462, 0.29075804352760315, 0.33719953894615173, 0.24159279465675354, 0.2122213989496231, 0.2998531758785248, 0.4179331064224243, 0.2600778341293335, 0.23886655271053314, 0.33372026681900024, 0.44024500250816345, 0.25158488750457764, 0.29139551520347595, 0.33873605728149414, 0.4593551754951477, 0.26876577734947205, 0.31410619616508484, 0.39786192774772644, 0.45323479175567627, 0.3032127618789673, 0.3383721709251404, 0.43268856406211853, 0.46228888630867004, 0.27950358390808105, 0.3695454001426697, 0.4663781523704529, 0.4782068431377411, 0.3245651423931122, 0.37061700224876404, 0.4595576226711273, 0.5257120132446289, 0.3640080392360687, 0.41231441497802734, 0.513006329536438, 0.5367346405982971, 0.47501620650291443, 0.42758291959762573, 0.49391496181488037, 0.47719910740852356, 0.5154698491096497, 0.5219901204109192, 0.44415462017059326, 0.4775777757167816, 0.484256774187088, 0.48877212405204773, 0.3282128870487213, 0.432761549949646, 0.423647403717041, 0.46933963894844055, 0.25477728247642517, 0.49679291248321533, 0.3068602383136749, 0.4319998025894165, 0.12041935324668884, 0.4249113202095032, 0.15014348924160004, 0.21906013786792755, 0.02544318698346615, 0.41063156723976135, -0.3334500193595886, 0.2123560905456543, -0.18340939283370972, 0.04634946584701538, -0.5878791809082031, 0.1096651703119278, -0.41223838925361633, 0.13253265619277954, -0.7685139179229736, -0.06871737539768219, -0.3981083631515503, 0.10832095146179199, -0.9252774119377136, -0.27080610394477844, -0.5471492409706116, -0.04119524732232094, -1.1276891231536865, -0.6118373274803162, -0.7826002836227417, -0.19611166417598724, -1.1532455682754517, -0.9574620127677917, -0.8313515782356262, -0.4432924687862396, -1.086617350578308, -1.1865959167480469, -0.8646321296691895, -0.7166840434074402, -1.0838967561721802, -1.1590752601623535, -0.9073224067687988, -0.8331815004348755, -0.9831191897392273, -0.9868943095207214, -0.8287151455879211, -0.7643255591392517, -0.90309739112854, -0.8369933366775513, -0.8354681134223938, -0.6455118060112, -0.6970785856246948, -0.6734308004379272, -0.7603462338447571, -0.6034892201423645, -0.6070172190666199, -0.5039493441581726, -0.7022390365600586, -0.5238677263259888, -0.47174155712127686, -0.32118260860443115, -0.6497780084609985, -0.4807927906513214, -0.41405248641967773, -0.2654378116130829, -0.5703496336936951, -0.4116857945919037, -0.2865352928638458, -0.1583871841430664, -0.5229008197784424, -0.40666112303733826, -0.2840849459171295, -0.17484895884990692, -0.48260924220085144, -0.4453689157962799, -0.2435227483510971, -0.21025513112545013, -0.5025250911712646, -0.37606707215309143, -0.26210030913352966, -0.24319787323474884, -0.5419853329658508, -0.4024575352668762, -0.22068700194358826, -0.2443518042564392, -0.5445953607559204, -0.3590427339076996, -0.2347506433725357, -0.3402900993824005, -0.4799063801765442, -0.34931039810180664, -0.17108272016048431, -0.2800402343273163, -0.4836108684539795, -0.34932297468185425, -0.12232685834169388, -0.29389503598213196, -0.4496403634548187, -0.2521418333053589, -0.12458708137273788, -0.26860174536705017, -0.28860899806022644, -0.2717400789260864, -0.07027573138475418, -0.19371268153190613, -0.20799638330936432, -0.1746644228696823, -0.11588455736637115, -0.21113888919353485, -0.11084587126970291, -0.1560715287923813, -0.11366239190101624, -0.13474902510643005, -0.09609226882457733, -0.13382752239704132, -0.05981165170669556, -0.03776273503899574, 0.024915074929594994, -0.03855114430189133, -0.07367713749408722, 0.07082588970661163, 0.051517847925424576, -0.015796512365341187, -0.006256592459976673, 0.19670738279819489, 0.060568470507860184, 0.030693741515278816, 0.13002246618270874, 0.22785057127475739, 0.13161975145339966, 0.1364646553993225, 0.192426860332489, 0.3058164119720459, 0.23353461921215057, 0.17743666470050812, 0.300973117351532, 0.34680020809173584, 0.24951258301734924, 0.19566945731639862, 0.33411258459091187, 0.3194727897644043, 0.2407291978597641, 0.1648789793252945, 0.38006484508514404, 0.31944748759269714, 0.243272066116333, 0.22108939290046692, 0.47912871837615967, 0.39172330498695374, 0.28642141819000244, 0.2529427707195282, 0.44586464762687683, 0.30166590213775635, 0.3569510877132416, 0.34004727005958557, 0.39827364683151245, 0.34675270318984985, 0.45273929834365845, 0.32758060097694397, 0.4145581126213074, 0.3799627721309662, 0.5948452949523926, 0.38603001832962036, 0.4348047375679016, 0.36181768774986267, 0.5568565726280212, 0.40807628631591797, 0.3150690495967865, 0.21277976036071777, 0.5400152802467346, 0.4477013945579529, 0.28444692492485046, 0.14080405235290527, 0.45249539613723755, 0.32396191358566284, 0.2394757717847824, 0.12678900361061096, 0.43243205547332764, 0.24997879564762115, 0.2679833769798279, 0.12344415485858917, 0.43825972080230713, 0.211067333817482, 0.30645236372947693, 0.06802698969841003, 0.4611395299434662, 0.16737638413906097, 0.2629287540912628, 0.06855600327253342, 0.36214232444763184, 0.13876576721668243, 0.23355455696582794, 0.14873799681663513, 0.3449171185493469, 0.10774088650941849, 0.3324749767780304, 0.2339204102754593, 0.38755106925964355, 0.15735174715518951, 0.4199022054672241, 0.6450439095497131, 0.36267831921577454, 0.3263811767101288, 0.7776364088058472, 0.40734928846359253, 0.5429030656814575, 0.48657143115997314], [-0.14854905009269714, -0.9897250533103943, -0.7884395718574524, -0.23133830726146698, -0.04099921137094498, -0.5708490610122681, -0.6772946715354919, 0.009846476837992668, 0.22563938796520233, -0.17596378922462463, -0.47530508041381836, 0.04822952300310135, 0.3576814830303192, 0.15790361166000366, -0.2574807405471802, 0.08634046465158463, 0.24294529855251312, 0.335354745388031, -0.08432383835315704, 0.04763451963663101, 0.10512683540582657, 0.4422094225883484, -0.05459507182240486, 0.015361914411187172, -0.037011124193668365, 0.331912636756897, 0.03877696394920349, -0.10944846272468567, -0.22105075418949127, 0.12933366000652313, 0.013388634659349918, -0.2159518003463745, -0.40142545104026794, -0.07167195528745651, 0.07293365895748138, -0.2534697353839874, -0.575300931930542, -0.22877854108810425, 0.18380169570446014, -0.3335983455181122, -0.7488147616386414, -0.3750418722629547, 0.1769743114709854, -0.30130210518836975, -0.7306485176086426, -0.4901494085788727, 0.16896933317184448, -0.22931428253650665, -0.688471794128418, -0.49607521295547485, 0.24134564399719238, -0.17643000185489655, -0.5673169493675232, -0.44597411155700684, 0.34777989983558655, -0.17007586359977722, -0.46933794021606445, -0.4525667428970337, 0.5306679606437683, -0.1294059455394745, -0.4343596398830414, -0.39823564887046814, 0.565916895866394, -0.11579422652721405, -0.37045180797576904, -0.45012789964675903, 0.47701892256736755, -0.08604248613119125, -0.47801196575164795, -0.45184677839279175, 0.354183167219162, -0.096481554210186, -0.43242716789245605, -0.5285937786102295, 0.24299781024456024, -0.07194556295871735, -0.40473127365112305, -0.4676482677459717, 0.07768744975328445, -0.1598171442747116, -0.39818432927131653, -0.46954211592674255, -0.11031495779752731, -0.12123983353376389, -0.4791754186153412, -0.4738018214702606, -0.14224578440189362, -0.13429851830005646, -0.4925135672092438, -0.46550503373146057, -0.21234779059886932, -0.0669705793261528, -0.5638830065727234, -0.4316745400428772, -0.2809368073940277, -0.1340271532535553, -0.5197720527648926, -0.38232365250587463, -0.20482181012630463, -0.08603675663471222, -0.4450373947620392, -0.4452607035636902, -0.05854816734790802, -0.06010546535253525, -0.4666076898574829, -0.38186052441596985, 0.09112218022346497, 0.030648672953248024, -0.5365302562713623, -0.4091641306877136, 0.23080918192863464, 0.05175551399588585, -0.5289716124534607, -0.5074641704559326, 0.2795919179916382, 0.02581329457461834, -0.5593843460083008, -0.5639960169792175, 0.2039860039949417, -0.039396096020936966, -0.5105991959571838, -0.7283843159675598, 0.13719946146011353, -0.19086883962154388, -0.435541033744812, -0.8179056644439697, -0.014749010093510151, -0.25008267164230347, -0.31935787200927734, -0.8786890506744385, -0.09088703244924545, -0.33954882621765137, -0.22840556502342224, -0.8392606973648071, -0.19937048852443695, -0.4642584025859833, -0.16888512670993805, -0.8158905506134033, -0.29978907108306885, -0.4321581721305847, -0.12511061131954193, -0.7997264862060547, -0.31481966376304626, -0.46121060848236084, -0.11901334673166275, -0.6769279837608337, -0.3483521342277527, -0.37907642126083374, -0.2141212671995163, -0.6255283355712891, -0.367519348859787, -0.38626623153686523, -0.25526848435401917, -0.5601493120193481, -0.2948237955570221, -0.2949570119380951, -0.3713778853416443, -0.45954835414886475, -0.19815653562545776, -0.3065580427646637, -0.4510132372379303, -0.4385824501514435, -0.1594950407743454, -0.2304920107126236, -0.45372945070266724, -0.40588468313217163, -0.01738111302256584, -0.2593359351158142, -0.5108243823051453, -0.48024144768714905, 0.09561014175415039, -0.2956896722316742, -0.4869397282600403, -0.5146092772483826, 0.115481436252594, -0.29911789298057556, -0.44706884026527405, -0.5845247507095337, 0.14249390363693237, -0.28730642795562744, -0.4352417588233948, -0.6943187117576599, 0.19737182557582855, -0.19818608462810516, -0.5133165121078491, -0.7374708652496338, 0.16012805700302124, -0.237959623336792, -0.5177042484283447, -0.7060629725456238, 0.08114610612392426, -0.1731262058019638, -0.48172932863235474, -0.7042694091796875, 0.10586624592542648, -0.14566709101200104, -0.3840450644493103, -0.7147042751312256, 0.027496853843331337, -0.07645682990550995, -0.36200234293937683, -0.6371316909790039, 0.13715653121471405, 0.004432867281138897, -0.27039700746536255, -0.5543709397315979, 0.24561616778373718, 0.10813544690608978, -0.17294296622276306, -0.513795018196106, 0.38002029061317444, 0.262051522731781, -0.0694601833820343, -0.4088597893714905, 0.6044108271598816, 0.4142518639564514, 0.1543705016374588, -0.22765971720218658, 0.8203732371330261, 0.5915825963020325, 0.3289808928966522, 0.05200507119297981, 1.0005919933319092, 0.8423318862915039, 0.6707473397254944, 0.6218354105949402, 1.0368670225143433, 1.3212461471557617, 0.8072518110275269, 1.2808048725128174, 0.6327260136604309, 1.2187434434890747, 0.4330444037914276, 0.795616865158081, -0.12852267920970917, 0.39863070845603943, 0.2140437811613083, 0.6155115365982056, -0.541793167591095, -0.02412722073495388, 0.12073826044797897, 0.455343097448349, -0.6824862957000732, -0.30631619691848755, 0.13143236935138702, 0.4499594271183014, -0.8072615265846252, -0.40954679250717163, 0.05763491988182068, 0.3494092524051666, -0.8244889378547668, -0.49976345896720886, 0.0691177025437355, 0.3171231150627136, -0.8216623663902283, -0.49638959765434265, 0.025780923664569855, 0.34929636120796204, -0.8278633952140808, -0.47838523983955383, 0.08693039417266846, 0.3189779818058014, -0.7848796844482422, -0.5394474267959595, 0.07893545925617218, 0.3143429756164551, -0.6824119687080383, -0.4560915529727936, 0.12806512415409088, 0.284927636384964, -0.633828341960907, -0.4653216302394867, 0.06677629053592682, 0.32969221472740173, -0.4872322976589203, -0.37973761558532715, 0.08356286585330963, 0.29758867621421814, -0.34786278009414673, -0.30337002873420715, 0.10392890870571136, 0.21686427295207977, -0.17800796031951904, -0.226568803191185, -0.022628217935562134, 0.2543086111545563, -0.00035321107134222984, -0.21957990527153015, -0.10922938585281372, 0.16063323616981506, 0.10032295435667038, -0.16977104544639587, -0.2154754251241684, 0.1287752240896225, 0.22919318079948425, -0.13387325406074524, -0.29511141777038574, 0.0703372210264206, 0.18577782809734344, -0.20863622426986694, -0.4464213252067566, -0.07547008991241455, 0.0829727053642273, -0.1549411118030548, -0.5874476432800293, -0.12474969029426575, -0.03063371405005455, -0.0799635499715805, -0.7978412508964539, -0.22349636256694794, -0.18721741437911987, 0.10184324532747269, -0.8557491898536682, -0.45596131682395935, -0.19998806715011597, 0.2572014033794403, -0.9863917827606201, -0.8364288210868835, -0.21424616873264313, 0.4089493155479431, -0.983008086681366, -0.8823890686035156, -0.11826317757368088, 0.5015811324119568, -0.8688634037971497, -0.7939461469650269, -0.02409621886909008, 0.6407721042633057, -0.8830686807632446, -0.8221555352210999, 0.09663765132427216, 0.6474687457084656, -0.8371143341064453, -0.7820224165916443, 0.2520299553871155, 0.5413124561309814, -0.8262158632278442, -0.7505782246589661, 0.3824484348297119, 0.5388307571411133, -0.7699970006942749, -0.8153507709503174, 0.4143645763397217, 0.5165502429008484, -0.6572346687316895, -0.8405129909515381, 0.4267386198043823, 0.48822301626205444, -0.613018274307251, -0.7891372442245483, 0.45650431513786316, 0.5333125591278076, -0.4814072847366333, -0.7284973859786987, 0.4247899651527405, 0.47939440608024597, -0.4717263877391815, -0.6972286105155945, 0.41730594635009766, 0.5175039768218994, -0.4734611511230469, -0.6479752063751221, 0.4603457748889923, 0.5217400193214417, -0.5416738390922546, -0.6309863924980164, 0.5310575366020203, 0.48885151743888855, -0.659500241279602, -0.5589637160301208, 0.5373514890670776, 0.5355390906333923, -0.7735381722450256, -0.5791526436805725, 0.4460184574127197, 0.481078565120697, -0.7923766374588013, -0.5700140595436096, 0.49022358655929565, 0.4199267625808716, -0.8243575692176819, -0.5846136212348938, 0.41081395745277405, 0.44423937797546387, -0.8193569779396057, -0.6719764471054077, 0.41089439392089844, 0.2739485204219818, -0.6470137238502502, -0.6730191707611084, 0.34630149602890015, 0.13825161755084991, -0.3191358745098114, -0.7017284631729126, 0.27422282099723816, 0.03158225119113922, -0.14871960878372192, -0.6989248991012573, 0.25129973888397217, -0.04971734434366226, 0.040004756301641464, -0.7500453591346741, 0.17423947155475616, -0.13946302235126495, 0.18842680752277374, -0.7468542456626892, 0.22254882752895355, -0.11349260807037354, 0.2530863285064697, -0.7613115906715393, 0.26561981439590454, -0.036896541714668274, 0.19356690347194672, -0.6594253778457642, 0.3347036838531494, 0.009162009693682194, -0.008014783263206482, -0.6338497400283813, 0.3264493942260742, 0.02620345540344715, -0.2138896882534027, -0.5857954025268555, 0.33177539706230164, -0.046127207577228546, -0.3350606858730316, -0.5252992510795593, 0.30310145020484924, -0.08091063797473907, -0.5201902985572815, -0.40787795186042786, 0.27178341150283813, -0.18128062784671783, -0.5702980756759644, -0.36349326372146606, 0.16164201498031616, -0.23233720660209656, -0.5663279891014099, -0.26742520928382874, 0.10304224491119385, -0.24879465997219086, -0.4660472571849823, -0.25091129541397095, -0.012777574360370636, -0.20901688933372498, -0.27898502349853516, -0.18606804311275482, -0.15520425140857697, -0.21333730220794678, -0.16298548877239227, -0.16258032619953156, -0.3606603741645813, -0.1923680603504181, -0.018492303788661957, -0.16792809963226318, -0.4624805748462677, -0.1339857280254364, 0.12263841181993484, -0.19336187839508057, -0.49260395765304565, -0.10372799634933472, 0.14664821326732635, -0.17308112978935242, -0.4703047275543213, -0.12683691084384918, 0.23151284456253052, -0.13021591305732727, -0.3900696039199829, -0.045281246304512024, 0.22342613339424133, 0.13277336955070496, -0.16885557770729065, -0.023973288014531136, 0.19371312856674194, 0.1597469598054886, -0.05019775405526161, 0.01664728671312332, 0.05651159584522247, 0.25265568494796753, 0.05867987871170044, 0.00314992549829185, -0.002345759654417634, 0.3360083997249603, 0.11353575438261032, 0.05037732422351837, 0.013372430577874184, 0.420231431722641, 0.18258261680603027, -0.031059589236974716, 0.023323610424995422, 0.4560267925262451, 0.23773951828479767, -0.0035196272656321526, 0.128817617893219, 0.571041464805603, 0.3113057315349579, -0.04286837577819824, 0.2138187140226364, 0.5310767292976379, 0.1935969889163971, -0.03532440587878227, 0.26330554485321045, 0.3705187439918518, 0.11276352405548096, -0.13148684799671173, 0.32775092124938965, 0.25090885162353516, -0.024875985458493233, -0.32895219326019287, 0.2673400938510895, 0.10596555471420288, -0.19901016354560852, -0.5830649137496948], [-0.24763649702072144, 0.5041284561157227, 0.15266241133213043, 0.22974839806556702, -0.21850551664829254, 0.31917229294776917, -0.031515393406152725, 0.04614434391260147, -0.19630752503871918, 0.08161773532629013, -0.1414288431406021, -0.08264061063528061, -0.04513862729072571, 0.03176543116569519, -0.2106187790632248, -0.17671948671340942, 0.0908980667591095, -0.07274915277957916, -0.24821186065673828, -0.13079868257045746, 0.315988153219223, -0.17487111687660217, -0.17988085746765137, -0.10919947177171707, 0.4360441565513611, -0.09675842523574829, -0.10703255236148834, -0.021876223385334015, 0.46096310019493103, -0.036805231124162674, -0.04773780703544617, 0.058300815522670746, 0.535199761390686, 0.06498346477746964, 0.048706863075494766, 0.09638694673776627, 0.5139461159706116, 0.2315007597208023, 0.2137090265750885, 0.09199383854866028, 0.4927630126476288, 0.3466489613056183, 0.2372601181268692, 0.03383028134703636, 0.4364587068557739, 0.46300679445266724, 0.3300122022628784, 0.030119141563773155, 0.45740216970443726, 0.5511960983276367, 0.40790411829948425, -0.11210591346025467, 0.5158424973487854, 0.5560930967330933, 0.3550410866737366, -0.1660313755273819, 0.5410504937171936, 0.5007376074790955, 0.19457142055034637, -0.10542171448469162, 0.5458099246025085, 0.494464248418808, 0.07082805782556534, -0.028202828019857407, 0.562099814414978, 0.39194953441619873, -0.06685380637645721, 0.029568232595920563, 0.564132809638977, 0.27106475830078125, -0.16128389537334442, 0.1059957817196846, 0.5510107278823853, 0.16903787851333618, -0.13440941274166107, 0.14982104301452637, 0.6085958480834961, 0.1742924302816391, -0.1392783373594284, 0.11326718330383301, 0.5513259768486023, 0.17104405164718628, -0.11015141010284424, 0.07840193063020706, 0.500755250453949, 0.123221755027771, 0.0016259527765214443, -0.013656608760356903, 0.4559057950973511, 0.1624988466501236, 0.12353921681642532, -0.06892412900924683, 0.45018020272254944, 0.25208964943885803, 0.16644835472106934, -0.14025206863880157, 0.3895673155784607, 0.29607507586479187, 0.21662619709968567, -0.07732901722192764, 0.32976600527763367, 0.37666088342666626, 0.2757319509983063, -0.038565073162317276, 0.4396846890449524, 0.461681604385376, 0.26438644528388977, -0.008602799847722054, 0.557884693145752, 0.4878484010696411, 0.2653205692768097, 0.07553941756486893, 0.6156498193740845, 0.4716138541698456, 0.2514597475528717, 0.07576271146535873, 0.6806299090385437, 0.535380482673645, 0.2320665568113327, 0.09401066601276398, 0.7298959493637085, 0.4846285581588745, 0.27786219120025635, 0.06494563072919846, 