{"model": {"state_dict": {"fc1.weight": [[0.27025306224823, -0.021042201668024063, -0.44936010241508484, -0.49509942531585693], [-0.30404970049858093, 0.5349435806274414, 0.12102898210287094, -0.5731093287467957], [-0.3181692659854889, 0.2727952003479004, -0.02051858976483345, 0.6585248112678528], [-0.39197731018066406, -0.25862619280815125, -0.20583370327949524, -0.44860655069351196], [-0.23490013182163239, -0.20181818306446075, -0.37475693225860596, -0.20218142867088318], [-0.17091241478919983, 0.623322069644928, -0.4479100704193115, 0.34336039423942566], [0.14700539410114288, 0.13371410965919495, -0.07807543873786926, -0.3708111345767975], [-0.10045970231294632, -0.5582380890846252, -0.17401359975337982, 0.5121607780456543], [0.2359735667705536, -0.1373375803232193, 0.207741841673851, 0.27896857261657715], [-0.06512840837240219, -0.38288313150405884, 0.6656004190444946, -0.05293866991996765], [0.021625101566314697, 0.04421214759349823, 0.1545141190290451, -0.26732298731803894], [0.2846081256866455, 0.24938097596168518, -0.5959974527359009, -0.2916772961616516], [0.43622907996177673, 0.1893187314271927, -0.7342199087142944, -0.2835253179073334], [-0.02907874621450901, -0.5265993475914001, -0.26813098788261414, -0.359386146068573], [-0.41042420268058777, -0.11447388678789139, 0.7168256044387817, 0.1890367567539215], [0.272712379693985, -0.14747527241706848, -0.7309349775314331, -0.4577748477458954], [-0.02976313978433609, -0.12584944069385529, 0.4961943030357361, 0.5756022334098816], [-0.35134443640708923, 0.36337387561798096, 0.545310914516449, 0.35723787546157837], [-0.43382665514945984, -0.38267782330513, 0.505283772945404, 0.5689537525177002], [0.33077114820480347, -0.5212365388870239, 0.014905345626175404, 0.6303277015686035], [-0.13958844542503357, -0.443545937538147, 0.7056940793991089, 0.6433305144309998], [0.023188088089227676, -0.39218372106552124, 0.3768482208251953, 0.5979887247085571], [0.3527136743068695, -0.294584721326828, -0.3988153636455536, -0.4338192343711853], [0.1821787804365158, -0.08688167482614517, -0.40312424302101135, -0.12161377817392349], [0.4786003828048706, 0.5655481219291687, -0.3681544065475464, 0.2010144293308258], [0.49756303429603577, -0.3074370324611664, 0.20649126172065735, -0.47883301973342896], [-0.3015137016773224, 0.022629253566265106, 0.20313291251659393, -0.3473888337612152], [-0.1271693855524063, -0.030952638015151024, -0.10728902369737625, 0.7025866508483887], [0.4133451282978058, 0.4414505958557129, 0.16328655183315277, -0.3261071741580963], [-0.020975124090909958, -0.5910007953643799, 0.29572054743766785, 0.6092368364334106], [0.4746840000152588, -0.3691423535346985, -0.006010397803038359, -0.26709631085395813], [-0.0008092395728453994, 0.21103590726852417, -0.08701281994581223, -0.4850810170173645], [-0.32119983434677124, -0.5257289409637451, 0.7064867615699768, 0.5982858538627625], [-0.3035145401954651, 0.5410507917404175, -0.4129098057746887, 0.1513487845659256], [-0.4051870107650757, 0.1670963168144226, 0.2572784125804901, 0.6677523255348206], [0.1396653652191162, -0.06901217997074127, -0.2064070999622345, 0.4064609408378601], [-0.2883831262588501, -0.4304167926311493, 0.01646825112402439, 0.5082062482833862], [0.1744910031557083, -0.07926951348781586, -0.3806912302970886, -0.33671534061431885], [0.550018846988678, 0.428181529045105, -0.4252550005912781, -0.168219655752182], [-0.10302859544754028, -0.10816559195518494, -0.33849069476127625, -0.19698843359947205], [-0.0901864618062973, -0.3475000560283661, -0.04069586470723152, 0.2285424768924713], [-0.40229836106300354, -0.014878294430673122, -0.27053871750831604, -0.5819202661514282], [0.06741020083427429, -0.42685556411743164, 0.32021111249923706, 0.03223789483308792], [-0.2929089069366455, 0.26198333501815796, 0.08501813560724258, -0.024807296693325043], [-0.03716447576880455, -0.1493111252784729, -0.08977148681879044, -0.1518808901309967], [0.15723170340061188, 0.3286304771900177, -0.2134329378604889, 0.4290829002857208], [0.41550391912460327, 0.09389793872833252, -0.7240668535232544, -0.6150655150413513], [0.4470440447330475, 0.49344781041145325, -0.37558236718177795, -0.0826634094119072], [-0.04453609138727188, 0.5116492509841919, -0.4663603603839874, -0.45995011925697327], [-0.5123013854026794, -0.26472771167755127, -0.011463831178843975, 0.0553969107568264], [0.38261568546295166, 0.5375296473503113, -0.43457743525505066, 0.08382375538349152], [-0.023690640926361084, -0.37405386567115784, 0.4178376793861389, 0.5696468353271484], [0.20896372199058533, -0.47727853059768677, -0.450879842042923, 0.11350357532501221], [-0.4202025532722473, 0.3696967661380768, -0.6424612402915955, -0.5322037935256958], [0.07822157442569733, 0.1210041493177414, 0.10137492418289185, 0.5458518862724304], [0.5746083855628967, 0.5913188457489014, -0.5436840653419495, -0.36173900961875916], [0.46180790662765503, -0.27363309264183044, -0.07761919498443604, -0.13850833475589752], [-0.19156309962272644, -0.5851379036903381, 0.24103757739067078, 0.6628047227859497], [-0.06144973635673523, -0.4023337662220001, -0.17363010346889496, 0.3787285387516022], [-0.507358193397522, 0.08223897963762283, 0.5028854012489319, -0.021355846896767616], [-0.5424622297286987, 0.035569269210100174, -0.15510427951812744, 0.2950253486633301], [-0.5809836387634277, 0.245867520570755, -0.49004319310188293, -0.5776565074920654], [0.4005883038043976, -0.4158706068992615, -0.14904366433620453, -0.48478689789772034], [-0.5858529210090637, -0.1214587390422821, 0.4469257593154907, -0.3611021637916565], [0.006809663027524948, -0.37511110305786133, 0.5752062201499939, -0.3615647256374359], [0.21356201171875, 0.5402791500091553, 0.0416216216981411, -0.3400648534297943], [-0.6067366600036621, -0.11113379150629044, -0.15537229180335999, -0.13375428318977356], [-0.20564162731170654, -0.33247777819633484, -0.5308268070220947, 0.467557817697525], [-0.17785130441188812, -0.04115796089172363, -0.15340298414230347, -0.1672559529542923], [-0.5175691843032837, -0.2732347846031189, 0.044672925025224686, 0.06390570104122162], [0.32997187972068787, -0.06947904080152512, 0.12056009471416473, -0.10926365852355957], [-0.26873132586479187, -0.02305680699646473, 0.43611499667167664, -0.29010024666786194], [0.3737691640853882, 0.438420832157135, -0.1722622960805893, -0.1075265184044838], [0.056634556502103806, -0.14406725764274597, 0.24086976051330566, 0.06784698367118835], [-0.2720786929130554, -0.09845248609781265, -0.47871702909469604, -0.3686283528804779], [-0.4941966235637665, 0.22224381566047668, 0.3802293539047241, 0.5106599926948547], [-0.11144473403692245, 0.31844136118888855, -0.15532802045345306, -0.5369434952735901], [0.18697994947433472, -0.19055886566638947, -0.40604040026664734, 0.4759579002857208], [0.2643358111381531, -0.01391527894884348, 0.34780436754226685, -0.36408793926239014], [-0.01331578940153122, -0.5149694085121155, 0.4843711256980896, 0.4452924132347107], [-0.2970753312110901, -0.05074973776936531, -0.029437445104122162, 0.20717959105968475], [-0.25382059812545776, -0.19073307514190674, -0.23526795208454132, -0.17482759058475494], [0.026956606656312943, 0.29408714175224304, -0.041207455098629, -0.05140526592731476], [-0.6266239285469055, 0.01862718164920807, -0.6512675881385803, 0.04787944257259369], [0.22684207558631897, 0.4635446071624756, -0.6089094877243042, -0.12113059312105179], [-0.11483000218868256, -0.35860979557037354, -0.43382346630096436, -0.1431461125612259], [-0.36084499955177307, -0.5774852633476257, 0.37611085176467896, 0.6810708045959473], [0.07208380103111267, -0.5703822374343872, 0.010180228389799595, -0.10828480124473572], [0.37617945671081543, 0.13102667033672333, -0.321170836687088, -0.7799915075302124], [-0.29430896043777466, -0.3130228519439697, -0.4370419681072235, -0.2071409821510315], [-0.0861758291721344, -0.26026639342308044, 0.32959020137786865, 0.5465630292892456], [0.11069454252719879, 0.08388480544090271, 0.3941192030906677, 0.37581127882003784], [0.06446760892868042, -0.4537668228149414, 0.12013845890760422, -0.12246350198984146], [-0.165029376745224, -0.3335564434528351, 0.2899780869483948, 0.35295018553733826], [0.3210306465625763, 0.2751315236091614, 0.7194780707359314, 0.6821770071983337], [-0.4552415907382965, -0.22775332629680634, -0.20076291263103485, 0.21136438846588135], [0.0405707061290741, -0.1786329597234726, -0.04269196838140488, 0.18851536512374878], [-0.4790831506252289, -0.18339067697525024, 0.09854145348072052, 0.41045936942100525], [0.3329927325248718, -0.2813568711280823, 0.4337579011917114, -0.21432720124721527], [0.2705974876880646, 0.06292083859443665, 0.5825240015983582, 0.39226263761520386], [-0.4726730287075043, 0.17449262738227844, 0.6037028431892395, 0.6215940117835999], [0.48064008355140686, 0.19648592174053192, 0.2761233448982239, 0.14322571456432343], [-0.22416716814041138, -0.22028568387031555, 0.004125680308789015, -0.4121037721633911], [-0.038913972675800323, -0.48495811223983765, 0.798489511013031, 0.7201414108276367], [0.5151522755622864, 0.6012694835662842, -0.14010635018348694, -0.47105205059051514], [-0.10824263095855713, 0.397270530462265, 0.12194746732711792, -0.5592201352119446], [-0.4517485201358795, -0.1823757290840149, -0.07470706850290298, 0.439811646938324], [-0.46493422985076904, 0.34893953800201416, 0.5058889389038086, 0.5075090527534485], [0.17541031539440155, 0.11403119564056396, -0.23593756556510925, -0.1366085261106491], [0.10550715029239655, -0.3807930052280426, -0.4524795413017273, -0.19369100034236908], [-0.3120880126953125, -0.15630386769771576, 0.7438517808914185, 0.6377333998680115], [0.17998512089252472, 0.15862981975078583, 0.636508584022522, 0.5217143893241882], [0.02677433378994465, -0.2975980341434479, 0.4876399636268616, -0.08531884849071503], [0.1372661292552948, -0.1685902178287506, -0.2792712152004242, 0.006572579964995384], [0.442903071641922, 0.5670139193534851, -0.13553139567375183, 0.12739109992980957], [0.07401818037033081, -0.28251728415489197, -0.09889248758554459, -0.38701561093330383], [-0.15830913186073303, -0.10613741725683212, -0.6464347839355469, -0.4998140037059784], [0.23698416352272034, -0.5776697993278503, 0.7433646321296692, 0.4054436981678009], [-0.698205828666687, 0.04630696028470993, -0.4286165237426758, -0.3665962219238281], [-0.33376312255859375, -0.22493776679039001, -0.14188818633556366, -0.4465162456035614], [0.29654452204704285, 0.08938579261302948, -0.35430416464805603, 0.3893436789512634], [-0.2631674110889435, -0.6257607936859131, -0.65010005235672, 0.31121450662612915], [0.3033643066883087, -0.23252415657043457, -0.1851121187210083, 0.38052546977996826], [0.2320248931646347, -0.44201838970184326, 0.22861933708190918, -0.2856861352920532], [0.5162054300308228, 0.008359924890100956, -0.7157971262931824, -0.6820598840713501], [0.2891959846019745, -0.4378370940685272, -0.3888797461986542, -0.4708874225616455], [-0.14680418372154236, 0.39308059215545654, -0.3559602200984955, -0.44763270020484924], [0.4904085099697113, 0.19461695849895477, -0.35794392228126526, -0.0010897055035457015]], "fc1.bias": [-0.44858866930007935, -0.4605271518230438, 0.10397472977638245, -0.3296464681625366, 0.3100568354129791, -0.48585647344589233, -0.4367389678955078, 0.2496744692325592, 0.3873608112335205, -0.13058148324489594, 0.4283653199672699, 0.05069078132510185, 0.033202387392520905, 0.055322807282209396, -0.3738762140274048, 0.04401833564043045, -0.02397887222468853, 0.30591315031051636, 0.18540655076503754, -0.010180322453379631, -0.5990445017814636, 0.24662815034389496, -0.13466615974903107, -0.06878864765167236, -0.11321653425693512, -0.29853910207748413, -0.3605061173439026, 0.17964787781238556, 0.3743247091770172, 0.09159167855978012, -0.27885350584983826, -0.11024916172027588, -0.21011985838413239, -0.0938798040151596, 0.055337730795145035, 0.38774651288986206, -0.34692397713661194, -0.3960850238800049, -0.12850108742713928, -0.07982096076011658, -0.5160831212997437, 0.1295904964208603, 0.2603759765625, -0.5505688786506653, -0.45303282141685486, 0.530083179473877, 0.02706848457455635, -0.35510408878326416, 0.0666239932179451, 0.0025674556382000446, 0.017033718526363373, 0.5324893593788147, 0.47131913900375366, 0.2698388397693634, -0.4202403724193573, -0.4446033537387848, -0.29910001158714294, 0.12285754829645157, -0.30689626932144165, -0.3440808653831482, 0.45265692472457886, 0.2352760136127472, 0.432627409696579, 0.4152258336544037, -0.38300827145576477, -0.25995731353759766, 0.5256054401397705, 0.5305073857307434, -0.383297860622406, -0.1433580070734024, -0.5509140491485596, 0.6107361912727356, -0.2361437827348709, -0.30690616369247437, -0.2188943326473236, 0.13821031153202057, 0.5931486487388611, 0.5080826878547668, -0.24256044626235962, -0.23968671262264252, -0.3910069763660431, 0.06397068500518799, 0.5335180759429932, 0.36317721009254456, -0.06747128069400787, 0.2792827785015106, 0.018547825515270233, -0.15099085867404938, 0.15872177481651306, 0.017845766618847847, -0.3398614227771759, 0.36759960651397705, -0.07076200097799301, 0.16718676686286926, 0.20197893679141998, -0.07606471329927444, -0.3625014126300812, 0.4495757222175598, -0.30668535828590393, -0.21728713810443878, -0.4161500930786133, -0.483549565076828, -0.43067091703414917, 0.06466802954673767, -0.4331984519958496, -0.40859439969062805, 0.2044977843761444, 0.6109207272529602, 0.5653355717658997, 0.4633323550224304, 0.017539268359541893, 0.25303855538368225, 0.17216090857982635, -0.4858621060848236, -0.35277068614959717, -0.06155344098806381, -0.056697212159633636, -0.11888857185840607, 0.3582894802093506, 0.4378768801689148, 0.5423893332481384, 0.49599751830101013, 0.5674649477005005, 0.49588653445243835, 0.035738565027713776, 0.48967331647872925, 0.0425342321395874, -0.4582725763320923], "fc2.weight": [[0.0010356605052947998, -0.06074441969394684, -0.06896047294139862, 0.06826185435056686, 0.2272420972585678, -0.0033105164766311646, -0.07244490087032318, 0.15376293659210205, 0.16339944303035736, -0.21486319601535797, 0.1617008000612259, -0.33856192231178284, -0.35820281505584717, 0.08525625616312027, -0.26878786087036133, -0.31418097019195557, -0.07968506217002869, 0.08669959008693695, 0.015963373705744743, -0.13282619416713715, -0.2525852918624878, 0.14757606387138367, 0.029649795964360237, -0.02212558686733246, -0.23237815499305725, -0.04666246101260185, 0.07761453837156296, -0.03212549537420273, 0.13090059161186218, -0.050954386591911316, 0.0036969855427742004, -0.005791947245597839, 0.05451507493853569, -0.279652863740921, 0.02093014121055603, 0.1369268000125885, -0.0475376732647419, -0.049253564327955246, -0.11027611792087555, -0.05527109280228615, 0.04139257222414017, 0.03129953145980835, 0.05996818467974663, -0.07607317715883255, 0.04877207428216934, 0.13354676961898804, -0.3324310779571533, -0.22874484956264496, -0.15274588763713837, 0.006382636725902557, -0.06537876278162003, 0.054514870047569275, 0.14266203343868256, 0.0672524943947792, -0.019757799804210663, -0.1289564073085785, 0.06413578242063522, 0.11752527207136154, 0.00882132351398468, 0.03057117760181427, 0.1796981692314148, 0.14901286363601685, 0.2078365832567215, 0.07214801758527756, 0.004786893725395203, -0.1496496945619583, 0.15429161489009857, 0.11139266937971115, -0.012214377522468567, 0.0681854709982872, -0.08482437580823898, 0.1126369908452034, -0.16237206757068634, 0.023631207644939423, 0.04249338060617447, -0.030078426003456116, 0.18348166346549988, 0.19828402996063232, 0.03692648559808731, -0.006030524615198374, -0.061604373157024384, -0.016027741134166718, 0.11708199977874756, 0.042831193655729294, -0.14894939959049225, 0.16841423511505127, 0.03884034603834152, -0.024664893746376038, 0.08843900263309479, -0.038812875747680664, -0.27239319682121277, 0.14407086372375488, 0.03131280839443207, 0.16024400293827057, 0.06306155771017075, 0.07069695740938187, -0.08635327219963074, 0.1862679421901703, -0.011509627103805542, -0.15757893025875092, 0.07820580154657364, 0.08555109053850174, -0.054564498364925385, -0.028341779485344887, -0.2694087624549866, 0.04276546090841293, 0.055942241102457047, 0.06714832037687302, 0.1953679919242859, 0.07872333377599716, 0.032469574362039566, 0.09472967684268951, -0.09187688678503036, -0.07599225640296936, -0.2288847714662552, -0.048908837139606476, -0.0766981914639473, -0.028915010392665863, 0.17942538857460022, 0.1583527773618698, 0.09986956417560577, 0.057784195989370346, 0.05150987580418587, 0.12630018591880798, -0.3472338020801544, 0.1752655804157257, -0.25408706068992615, -0.05701950192451477], [-0.05565553531050682, 0.08270815759897232, 0.4159495234489441, 0.04092297703027725, -0.17969267070293427, -0.011928841471672058, 0.060486651957035065, 0.06061006709933281, -0.11410702764987946, 0.4453992545604706, -0.01327846571803093, -0.07650455832481384, -0.1615690439939499, 0.05889473110437393, 0.5035374164581299, 0.056287214159965515, 0.3403053283691406, -0.026574309915304184, 0.11952430754899979, 0.46911558508872986, 0.2448914498090744, 0.06340217590332031, 0.058317095041275024, 0.018820613622665405, -0.03712684288620949, 0.025344744324684143, 0.08345871418714523, 0.3594267666339874, -0.15495724976062775, 0.30253827571868896, -0.06785522401332855, 0.06213339418172836, 0.34241318702697754, -0.1762099266052246, 0.3408217132091522, -0.053588513284921646, 0.04358129948377609, 0.06639883667230606, -0.002087165368720889, 0.0645647868514061, 0.07779417186975479, -0.03689024969935417, 0.0007269572233781219, -0.0642850250005722, -0.03917932137846947, -0.06160001829266548, -0.26892247796058655, -0.20874691009521484, -0.1722567230463028, 0.003677763044834137, -0.14370128512382507, -0.03934507071971893, -0.09680505096912384, -0.1084316074848175, 0.06368818134069443, -0.17828984558582306, -0.051588933914899826, 0.27825361490249634, -0.01983783394098282, 0.06490463763475418, -0.00013043901708442718, -0.07269593328237534, -0.07816524058580399, -0.030987665057182312, 0.0451335534453392, -0.06699924916028976, -0.03996424376964569, -0.13988934457302094, 0.06087744981050491, -0.026088636368513107, 0.08014378696680069, -0.1270039975643158, -0.1206909567117691, 0.042396508157253265, 0.0784449353814125, 0.24217188358306885, -0.031837254762649536, -0.13933715224266052, 0.0048651546239852905, 0.34740394353866577, -0.05754101276397705, 0.053824834525585175, -0.02150725945830345, -0.15378327667713165, -0.050437118858098984, -0.11545684933662415, 0.4498158395290375, 0.06264465302228928, -0.06196335330605507, 0.07102332264184952, 0.4241224527359009, -0.03714342042803764, -0.03374110162258148, 0.1879817098379135, 0.11086694151163101, -0.04050237312912941, 0.03925611823797226, -0.14980942010879517, 0.03529992699623108, 0.38073933124542236, 0.3185345232486725, -0.07804640382528305, 0.02403154969215393, 0.21636566519737244, -0.19725415110588074, 0.028108246624469757, 0.01647748053073883, -0.15124380588531494, -0.18240028619766235, -0.05855424702167511, 0.3325614631175995, -0.05814984068274498, 0.25796225666999817, 0.0355360209941864, -0.08683948218822479, -0.06178906932473183, -0.027693185955286026, 0.48465588688850403, -0.06355710327625275, -0.09743190556764603, -0.11969348788261414, -0.08515850454568863, -0.09876728057861328, -0.057099856436252594, -0.1854250133037567, -0.06240957975387573, -0.14418792724609375, 0.008359521627426147], [0.08027341216802597, -0.05791638791561127, -0.07527580112218857, 0.08671604841947556, -0.08912108838558197, -0.03210960701107979, 0.03164324909448624, -0.14791882038116455, -0.10664843022823334, -0.15172791481018066, -0.06704262644052505, 0.47772216796875, 0.3650667369365692, 0.006448954343795776, -0.11663467437028885, 0.24907632172107697, -0.1318981647491455, -0.05180798098444939, -0.15878556668758392, -0.031012147665023804, -0.2609829306602478, -0.0639612153172493, 0.08759791404008865, -0.07171835005283356, 0.1477120965719223, -0.08069471269845963, 0.005880251526832581, -0.1929490566253662, -0.163725346326828, -0.03657836467027664, -0.08664242178201675, 0.00406116247177124, -0.03445340320467949, 0.025871220976114273, -0.07573399692773819, -0.0823633223772049, 0.030072752386331558, 0.05598599463701248, 0.22157354652881622, 0.06679987162351608, 0.03416731208562851, 0.08694920688867569, -0.06290122866630554, -0.07905454933643341, -0.05041646957397461, -0.09538877755403519, 0.1712951809167862, 0.28045889735221863, 0.0730196014046669, 0.0061526820063591, 0.172292098402977, -0.0389178991317749, -0.15353888273239136, -0.07619420439004898, -0.0836344063282013, 0.16144578158855438, 0.081959567964077, -0.10715561360120773, -0.019858501851558685, -0.028215523809194565, -0.13548187911510468, -0.16078872978687286, -0.13952608406543732, -0.036892715841531754, 0.007724255323410034, 0.2489500343799591, -0.02559111826121807, -0.10922451317310333, 0.07628799229860306, 0.041501618921756744, 0.08430003374814987, -0.1797640323638916, 0.19596432149410248, -0.05294216051697731, -0.05847597122192383, -0.09796110540628433, -0.02723347395658493, -0.009442787617444992, -0.04880603030323982, -0.1645088791847229, -0.04070315882563591, 0.02836798131465912, -0.022466573864221573, -0.10206013917922974, 0.18982209265232086, -0.10637882351875305, -0.14480388164520264, -0.008066780865192413, -0.01715640164911747, -0.04570526257157326, -0.26928937435150146, -0.0096289636567235, -0.007327362895011902, -0.11150053888559341, -0.07904158532619476, 0.07071522623300552, -0.034558698534965515, -0.11814192682504654, 0.05747406929731369, -0.01532507874071598, -0.09457076340913773, 0.04734518378973007, 0.046699412167072296, -0.061074379831552505, 0.2207302451133728, 0.0624837800860405, -0.21938717365264893, -0.015267333015799522, -0.060442592948675156, -0.10594756156206131, -0.16097836196422577, -0.022473307326436043, -0.1694086790084839, -0.002571113407611847, 0.15472175180912018, -0.04523181915283203, 0.06711853295564651, -0.07005534321069717, -0.08770791441202164, -0.15246757864952087, -0.03890574350953102, -0.06762556731700897, -0.040193893015384674, -0.05556236580014229, 0.18106812238693237, -0.041833050549030304, -0.03564571961760521, 0.03761684149503708], [0.0808768942952156, 0.06360284239053726, -0.051585420966148376, -0.023494422435760498, 0.06451912969350815, -0.0641210526227951, -0.01966765522956848, 0.15935654938220978, 0.1788940131664276, 0.23696689307689667, 0.15751610696315765, -0.32194527983665466, -0.46763092279434204, 0.009978264570236206, 0.11310712993144989, -0.2584932744503021, 0.13252051174640656, 0.01168840005993843, 0.05191989615559578, 0.1389293372631073, 0.021393274888396263, 0.1979474127292633, -0.03773504123091698, 0.027002274990081787, -0.1487896740436554, 0.028372563421726227, 0.07033204287290573, 0.1407751888036728, 0.04107018932700157, 0.1429051011800766, 0.0038051679730415344, -0.06356540322303772, 0.15533584356307983, -0.25846830010414124, 0.18403360247612, 0.12737445533275604, 0.02435663342475891, 0.06170637160539627, -0.2479698359966278, -0.08483204990625381, 0.06579107791185379, 0.03059530258178711, 0.12349937856197357, 0.05219770222902298, -0.058426372706890106, 0.08850489556789398, -0.5004037022590637, -0.14355817437171936, -0.31877920031547546, -0.03716377168893814, -0.14358334243297577, 0.07784732431173325, 0.15059617161750793, -0.015207160264253616, 0.05454563349485397, -0.15430951118469238, -0.05775858834385872, 0.17910538613796234, 0.08042526990175247, 0.0447189137339592, 0.0664343610405922, 0.03198033571243286, 0.09362698346376419, 0.13412965834140778, -0.015112742781639099, -0.2815406918525696, 0.10497646778821945, 0.06355413049459457, 0.039310432970523834, 0.06964171677827835, -0.0162341445684433, 0.11776911467313766, -0.1914466917514801, 0.06477010995149612, -0.08068902045488358, 0.08905038982629776, 0.04160119220614433, 0.14673839509487152, 0.05675443261861801, 0.025237228721380234, 0.00023180991411209106, -0.04811207950115204, 0.08966207504272461, 0.13467031717300415, -0.21608032286167145, 0.05200202763080597, 0.12360252439975739, -0.03876344487071037, -0.10827288031578064, -0.08446816354990005, 0.12018268555402756, 0.10663536936044693, -0.01172134280204773, 0.2071106880903244, 0.08118850737810135, -0.06664443761110306, 0.026266388595104218, 0.10502468794584274, -0.008589588105678558, 0.045633092522621155, 0.19054973125457764, 0.05863557010889053, -0.037835340946912766, 0.22336550056934357, -0.2071385234594345, -0.08217670023441315, 0.041202571243047714, 0.135625422000885, 0.06699542701244354, 0.017121968790888786, 0.19628867506980896, 0.017438475042581558, 0.1897285133600235, -0.027758967131376266, -0.2741519808769226, -0.01639626920223236, 0.05840372294187546, 0.1874779909849167, 0.1402907520532608, 0.17793433368206024, 0.0858144760131836, 0.07736295461654663, 0.17223583161830902, 0.0595087893307209, -0.35794201493263245, 0.12424220889806747, -0.388228178024292, -0.07543034851551056], [-0.041706234216690063, 0.024573005735874176, -0.1822620928287506, 0.01915641874074936, 0.32067376375198364, 0.05689132958650589, 0.066522978246212, -0.023427797481417656, -0.01806771196424961, -0.3314547538757324, 0.005742533598095179, 0.3328399360179901, 0.4556272029876709, 0.04737266153097153, -0.29964008927345276, 0.3440633714199066, -0.3958304226398468, -0.1880602240562439, -0.1885857731103897, -0.3969283401966095, -0.18294234573841095, -0.19161249697208405, 0.03143933787941933, 0.004169628024101257, 0.20053112506866455, 0.048292212188243866, 0.010447226464748383, -0.3510250151157379, 0.17816932499408722, -0.28594377636909485, -0.015416346490383148, 0.008730500936508179, -0.35139957070350647, 0.40123096108436584, -0.3053688704967499, 0.0022247827146202326, -0.06976574659347534, 0.04865340143442154, 0.2529544234275818, 0.08364327996969223, -0.03207557275891304, 0.06034424155950546, -0.14346782863140106, 0.006861463189125061, 0.0881533995270729, 0.10457077622413635, 0.5570986866950989, 0.23090636730194092, 0.3485018312931061, 0.012735985219478607, 0.23177990317344666, -0.05131695792078972, 0.09193295985460281, 0.29705101251602173, -0.04516124352812767, 0.3080156743526459, 0.07984340935945511, -0.20864170789718628, 0.028177820146083832, -0.01132366806268692, 0.008414261974394321, 0.36377713084220886, 0.19155263900756836, -0.08484324812889099, 0.06631555408239365, 0.2944919168949127, 0.11200903356075287, 0.11865280568599701, 0.08635423332452774, -0.028057966381311417, 0.047345422208309174, -0.06986863166093826, 0.23027178645133972, 0.008024141192436218, -0.07051636278629303, -0.21045073866844177, 0.2013632357120514, -0.035089194774627686, 0.06796779483556747, -0.32192760705947876, 0.06606394797563553, 0.07864024490118027, 0.06426072865724564, 0.11003963649272919, 0.41308844089508057, 0.1851385086774826, -0.37304988503456116, -0.051399197429418564, 0.18921197950839996, -0.026853136718273163, -0.24030010402202606, -0.08459252119064331, -0.02523859590291977, -0.38975971937179565, -0.16020332276821136, 0.04149866849184036, 0.07241833955049515, -0.17590151727199554, 0.03364896774291992, -0.30463436245918274, -0.31839844584465027, 0.02407105267047882, 0.049663953483104706, -0.32764750719070435, 0.270404189825058, 0.016802676022052765, -0.16785350441932678, -0.05399661511182785, 0.1238008588552475, 0.12004424631595612, -0.3187825679779053, -0.13236857950687408, -0.38753148913383484, -0.025006800889968872, 0.31400129199028015, 0.015597544610500336, -0.08341199159622192, -0.4183982014656067, 0.38275283575057983, 0.17168961465358734, 0.054857783019542694, 0.06323501467704773, -0.06118388846516609, -0.018702352419495583, 0.38915809988975525, 0.19209283590316772, 0.4647744596004486, 0.08331181854009628], [-0.028736289590597153, -0.0624137707054615, -0.14951305091381073, -0.06317981332540512, 0.1687457263469696, -0.033319707959890366, 0.06119614094495773, 0.19110997021198273, 0.1316588819026947, -0.17370082437992096, 0.12761646509170532, -0.3908374011516571, -0.29644638299942017, -0.04578728228807449, -0.047112952917814255, -0.21902526915073395, 0.060408543795347214, 0.12142948806285858, 0.08416265994310379, -0.010523062199354172, -0.26448798179626465, 0.06556794047355652, 0.07650497555732727, 0.005109958350658417, -0.08819108456373215, -0.05388569459319115, 0.027003340423107147, 0.07358218729496002, 0.13279162347316742, 0.03921150043606758, -0.02219526469707489, 0.01412440836429596, 0.00026820041239261627, -0.19508567452430725, -0.033110346645116806, 0.041576143354177475, -0.12249275296926498, -0.052912015467882156, -0.10630812495946884, -0.0019107088446617126, -0.007235266268253326, 0.025649338960647583, 0.11851100623607635, -0.05855486914515495, -0.030932635068893433, 0.10712681710720062, -0.4268130362033844, -0.17336611449718475, -0.19256533682346344, 0.016206219792366028, -0.08206148445606232, 0.12370657920837402, 0.09322505444288254, 0.1955547034740448, 0.019641481339931488, -0.17960049211978912, -0.03322964906692505, 0.05085153877735138, 0.04275337606668472, 0.0365372896194458, 0.0558544360101223, 0.11981788277626038, 0.1309610903263092, 0.1344786435365677, -0.043382447212934494, -0.1465911567211151, 0.04765481501817703, 0.03602532669901848, -0.07843496650457382, 0.0303971990942955, -0.04898858815431595, 0.09043791890144348, -0.1743083894252777, 0.022634319961071014, 0.030586227774620056, 0.017578700557351112, 0.07280512154102325, 0.15269847214221954, 0.05280324071645737, 0.017291517928242683, -0.08709253370761871, 0.08061274141073227, 0.049051664769649506, 0.09718173742294312, -0.26877525448799133, 0.1447010636329651, 0.07124941796064377, 0.053654544055461884, 0.03620481118559837, -0.056401342153549194, -0.28682470321655273, 0.1067739725112915, 0.05981876701116562, 0.08251378685235977, 0.06638993322849274, 0.06253094226121902, -0.0023760050535202026, 0.18772360682487488, -0.030283279716968536, 0.0030521329026669264, -0.02730841003358364, -0.08130379021167755, -0.06336365640163422, 0.0462823323905468, -0.1904013454914093, -0.01213209331035614, 0.0939483717083931, 0.15749181807041168, 0.1248980388045311, 0.17632120847702026, 0.015058965422213078, -0.017429744824767113, 0.00947667844593525, 0.08200792223215103, -0.2618824243545532, -0.03214195370674133, -0.009752810001373291, 0.08649419248104095, 0.15337495505809784, 0.12845830619335175, 0.09822160750627518, 0.1763187199831009, 0.1381421983242035, 0.17026348412036896, -0.35666948556900024, 0.10942023992538452, -0.3024653196334839, -0.0717235803604126], [-0.062764972448349, -0.0063110291957855225, 0.00036524381721392274, -0.034690629690885544, 0.1762586236000061, -0.05456522852182388, -0.07554756104946136, 0.20617859065532684, 0.08911360800266266, -0.007289174012839794, 0.11485201865434647, -0.23958055675029755, -0.3503783345222473, 0.023499056696891785, 0.013835946097970009, -0.25959160923957825, 0.0013238814426586032, 0.11733213812112808, 0.18743754923343658, -0.006102018989622593, -0.2562333047389984, 0.018355514854192734, 0.03194839507341385, 0.020732663571834564, -0.08240100741386414, 0.07769999653100967, -0.08399094641208649, 0.03354452922940254, 0.028285669162869453, 0.03077639453113079, -0.07413112372159958, -0.07122503221035004, 0.0035755792632699013, -0.3580775856971741, 0.10047530382871628, 0.096652090549469, -0.031272824853658676, -0.07120050489902496, -0.22233226895332336, 0.0384027436375618, 0.01753103733062744, -0.0017812103033065796, 0.13322477042675018, -0.02246861904859543, -0.0027891844511032104, 0.021008897572755814, -0.4902074635028839, -0.27950024604797363, -0.2742719352245331, 0.07467053085565567, -0.07941213250160217, 0.11964993923902512, 0.13011175394058228, 0.11445026844739914, 0.002339467406272888, -0.19199854135513306, 0.05620614439249039, 0.10704891383647919, 0.0059879496693611145, 0.030469819903373718, 0.03277139738202095, 0.09524442255496979, 0.05762204900383949, 0.02707579918205738, 0.06922674924135208, -0.24577702581882477, 0.12603232264518738, 0.07062589377164841, 0.02927567809820175, 0.07489881664514542, 0.05471574515104294, 0.1789359152317047, -0.18946227431297302, -0.01231054961681366, 0.06345473974943161, 0.021056821569800377, 0.07325728982686996, 0.0470813624560833, -0.0058953240513801575, 0.05098939687013626, -0.016318082809448242, -0.012215211987495422, 0.031756699085235596, 0.1560099720954895, -0.2655623257160187, 0.16210941970348358, 0.0918533056974411, 0.03641749173402786, -0.042473647743463516, 0.03632727265357971, -0.2448134869337082, 0.13015946745872498, -0.047924939543008804, 0.09169349074363708, 0.1373046338558197, 0.054235897958278656, 0.022911563515663147, 0.024122310802340508, -0.05608965829014778, 0.025299735367298126, 0.007079936098307371, -0.022952638566493988, 0.08693621307611465, 0.09473615884780884, -0.1797826886177063, 0.0353906974196434, 0.16659030318260193, 0.05723996460437775, 0.132552832365036, 0.04750789329409599, 0.1417970508337021, 0.07353605329990387, 0.07296115905046463, -0.017281703650951385, -0.24340175092220306, -0.05456774681806564, 0.021025925874710083, 0.07738807052373886, 0.08958666771650314, 0.06091705709695816, 0.15695872902870178, 0.08150754868984222, 0.09521562606096268, 0.06438880413770676, -0.31386348605155945, 0.19437873363494873, -0.4447064995765686, 0.07630080729722977], [0.037653692066669464, -0.04176297411322594, -0.09329017996788025, 0.01822512596845627, -0.1436576396226883, 0.04070236533880234, 0.0016924291849136353, -0.03767050802707672, -0.06581995636224747, 0.15331298112869263, -0.19401155412197113, -0.012351414188742638, -0.01603948511183262, 0.05486365407705307, 0.23842109739780426, -0.09447681903839111, -0.03262330964207649, -0.13910754024982452, -0.16397155821323395, 0.15877299010753632, 0.11391717195510864, -0.11073863506317139, -0.040485747158527374, 0.0004723593592643738, 0.1586829125881195, -0.06744013726711273, -0.0020595863461494446, -0.1002286747097969, -0.124606654047966, 0.011449823155999184, 0.009139031171798706, 0.08043824881315231, 0.020493170246481895, -0.03649430349469185, -0.11319804191589355, -0.08661329746246338, 0.04937633499503136, 0.056073956191539764, 0.049142658710479736, -0.002399638295173645, 0.08704174309968948, -0.08363145589828491, -0.17169439792633057, 0.02573586255311966, 0.04328881949186325, -0.161239892244339, 0.06905972212553024, -0.1089865118265152, 0.031351421028375626, 0.07060647755861282, 0.07232619822025299, -0.14950570464134216, -0.12588553130626678, -0.21102023124694824, 0.07428830116987228, 0.09020432829856873, -0.03805624321103096, -0.10213236510753632, -0.08574779331684113, -0.048968177288770676, -0.09370090067386627, -0.2187480628490448, -0.15387283265590668, -0.17271208763122559, -0.05768720060586929, 0.07947597652673721, -0.07634606957435608, -0.15219438076019287, 0.0872662141919136, 0.03997216373682022, 0.07286893576383591, -0.14442235231399536, 0.040828559547662735, -0.018234096467494965, -0.04488368332386017, -0.09832862764596939, -0.09677249193191528, -0.14859598875045776, 0.06811413913965225, 0.08125068992376328, 0.018304891884326935, 0.008693091571331024, -0.13650347292423248, -0.160896435379982, 0.1391531229019165, -0.1964312195777893, -0.02839888632297516, -0.07619403302669525, -0.1742149442434311, -0.004999153316020966, 0.2599828243255615, -0.12419379502534866, -0.06311271339654922, -0.02654106169939041, -0.14449207484722137, -0.08515650779008865, 0.033328622579574585, -0.19278928637504578, 0.07189042121171951, 0.18831872940063477, -0.008631785400211811, 0.057102881371974945, 0.01271463930606842, -0.032017458230257034, 0.16410905122756958, 0.04068397730588913, -0.16924725472927094, -0.1760994791984558, -0.08216982334852219, -0.08740256726741791, -0.0754457414150238, -0.06638380885124207, -0.037721410393714905, -0.08461866527795792, 0.08054400980472565, -0.009902551770210266, -0.01870959997177124, 0.08202074468135834, -0.1490170806646347, -0.1761385202407837, -0.032795440405607224, -0.1803625375032425, -0.1494172066450119, -0.14918406307697296, 0.11146706342697144, -0.04592612758278847, -0.0803646370768547, -0.04597543552517891], [0.03883200138807297, -0.004171609878540039, 0.0377412848174572, 0.026809006929397583, -0.17740538716316223, 0.0782492533326149, -0.05424359440803528, -0.05989506468176842, -0.12019757181406021, 0.07895424962043762, -0.055515628308057785, 0.39261749386787415, 0.42216646671295166, -0.08774689584970474, 0.14765900373458862, 0.24436424672603607, -0.07296367734670639, -0.14879751205444336, -0.06836628913879395, -0.05048917606472969, 0.2765653133392334, -0.050613608211278915, -0.0016872403211891651, -0.07278752326965332, 0.1199318915605545, 0.00745970755815506, 0.008433140814304352, -0.02249010093510151, -0.04441274330019951, -0.05184429883956909, 0.041800446808338165, 0.039748676121234894, -0.07812009006738663, 0.22341036796569824, -0.06127098575234413, -0.048190489411354065, -0.06828781962394714, -0.03517472743988037, 0.06964980065822601, 0.05349605530500412, 0.058918245136737823, -0.031152967363595963, -0.11283082515001297, -0.04804880917072296, -0.08546513319015503, -0.07483819872140884, 0.2948363423347473, 0.26287776231765747, 0.152032271027565, 0.036295950412750244, 0.08598774671554565, -0.09582067281007767, -0.1772979199886322, -0.06016846373677254, 0.026673562824726105, 0.23014460504055023, 0.08294501155614853, -0.08488313108682632, 0.04540368169546127, -0.0572456419467926, -0.04232879355549812, -0.1101190522313118, -0.156261146068573, -0.02457438036799431, 0.05452599376440048, 0.18720223009586334, -0.03601595014333725, -0.02857353910803795, -0.017111197113990784, -0.02961551398038864, 0.08157377690076828, -0.10780421644449234, 0.16911089420318604, 0.02749190479516983, -0.03282804414629936, -0.14744576811790466, -0.14446987211704254, -0.1031908467411995, 0.002812303602695465, -0.08959589153528214, -0.031081467866897583, 0.03089997172355652, -0.0850590318441391, -0.049391597509384155, 0.17403554916381836, -0.05502627417445183, -0.12635058164596558, 0.008944675326347351, -0.08706700801849365, -0.04513297230005264, 0.15132038295269012, -0.014421537518501282, -0.04302647337317467, -0.07959135621786118, -0.12363767623901367, 0.019294247031211853, 0.06702693551778793, -0.16331346333026886, -0.001544177532196045, -0.06859949976205826, -0.08207772672176361, -0.03963347151875496, 0.008556641638278961, -0.04686254262924194, 0.2572486698627472, 0.034305356442928314, -0.18443123996257782, -0.12231974303722382, -0.10761737078428268, -0.18673023581504822, -0.09165651351213455, -0.040512654930353165, -0.058486491441726685, -0.06125495582818985, 0.09637945145368576, 0.012789122760295868, -0.08263636380434036, -0.019226746633648872, -0.15491007268428802, -0.12942872941493988, -0.1405947357416153, -0.018665224313735962, -0.18089386820793152, -0.02322467602789402, 0.16645820438861847, -0.051413439214229584, 0.24231933057308197, 0.007153861224651337], [-0.04914167523384094, -0.06707054376602173, 0.02480136975646019, -0.0150984525680542, 0.06274678558111191, 0.022891230881214142, -0.022174403071403503, 0.03814227506518364, 0.16679900884628296, 0.24650149047374725, 0.04088328033685684, -0.2690950930118561, -0.3289341330528259, -1.3180077075958252e-05, 0.279234379529953, -0.27090466022491455, 0.07167660444974899, 0.10291324555873871, 0.10577618330717087, 0.17648202180862427, 0.1305900365114212, 0.19068382680416107, -0.0388791449368, 0.036362990736961365, -0.23362912237644196, 0.048638902604579926, -0.07555504143238068, 0.026640448719263077, 0.05422336235642433, 0.058073218911886215, -0.058989740908145905, -0.006684973835945129, 0.19413308799266815, -0.2879697382450104, 0.17140206694602966, 0.15540815889835358, 0.005354088731110096, -0.04537830874323845, -0.21660447120666504, 0.02819725126028061, 0.05971547216176987, 0.08763425797224045, 0.11929912865161896, 0.04929520934820175, -0.06993408501148224, 0.1152443140745163, -0.42085960507392883, -0.14997677505016327, -0.2183779627084732, 0.0430021658539772, -0.22839878499507904, 0.07486184686422348, 0.16716070473194122, 0.12773749232292175, 0.03621330112218857, -0.27695339918136597, -0.084531769156456, 0.15571904182434082, 0.06067218631505966, -0.05998988449573517, 0.11012948304414749, 0.047435447573661804, 0.03184356540441513, 0.17598652839660645, -0.07987022399902344, -0.18934057652950287, 0.122132308781147, 0.05988820642232895, 0.07871357351541519, 0.04503730684518814, -0.05458364635705948, 0.06964565813541412, -0.26520058512687683, 0.08517391234636307, -0.04774107411503792, 0.1501539647579193, -0.0004000919288955629, 0.1718894988298416, -0.07976210117340088, 0.18600380420684814, -0.08805469423532486, 0.07230671495199203, 0.08642856776714325, 0.04016361013054848, -0.17450395226478577, 0.20340992510318756, 0.1451462209224701, 0.08402476459741592, -0.01961456425487995, -0.0734344869852066, 0.14570604264736176, 0.11775070428848267, 0.04747258871793747, 0.15679408609867096, 0.0023281751200556755, 0.0863063707947731, 0.04625978320837021, 0.08925433456897736, -0.007851935923099518, 0.025592291727662086, 0.1395045518875122, -0.024707943201065063, -0.028339918702840805, 0.10970976948738098, -0.2949114739894867, -0.0014445856213569641, 0.16643889248371124, 0.10831869393587112, 0.044993605464696884, 0.13197015225887299, 0.1651388257741928, 0.14960743486881256, 0.23949553072452545, 0.018241040408611298, -0.19200299680233002, -0.025347284972667694, 0.002107061445713043, 0.08374761044979095, 0.010164663195610046, 0.032723598182201385, 0.09955236315727234, 0.03188810124993324, 0.1261763572692871, 0.13745592534542084, -0.3561491370201111, 0.03938574716448784, -0.3721769452095032, 0.012699954211711884], [0.06732333451509476, 0.05486232787370682, -0.09825663268566132, -0.021379418671131134, -0.08867790549993515, 0.0591060146689415, 0.07597797363996506, -0.1118503287434578, -0.03769851475954056, -0.24929222464561462, 0.0005336016765795648, 0.28338268399238586, 0.3117308020591736, 0.010206446051597595, -0.274968683719635, 0.21187953650951385, -0.08362302929162979, -0.03896321728825569, -0.045647624880075455, -0.04634597897529602, -0.23252414166927338, -0.13942161202430725, 0.008102518506348133, 0.04327955096960068, 0.0414920374751091, -0.06631879508495331, -0.009427294135093689, -0.031137196347117424, -0.050352759659290314, -0.03213551267981529, -0.02414102852344513, 0.02553965151309967, -0.1388225257396698, 0.28220993280410767, -0.08223453909158707, -0.04717215895652771, -0.03963732719421387, -0.0332472026348114, 0.058322176337242126, -0.0020668506622314453, 0.07983573526144028, 0.062897227704525, -0.00405697338283062, 0.031126394867897034, 0.08176667243242264, -0.13141673803329468, 0.2106700986623764, 0.16651855409145355, 0.13788935542106628, -0.009913362562656403, 0.16233983635902405, 0.01553457323461771, -0.03743240237236023, 0.03273742273449898, -0.06386379897594452, 0.061137061566114426, -0.029955334961414337, -0.02111094631254673, 0.037088774144649506, -0.02469746023416519, -0.04409011825919151, -0.1038423404097557, -0.0008678254671394825, -0.01142361480742693, -8.524954319000244e-05, 0.21547770500183105, 0.006234543398022652, -0.09781011193990707, -0.06392810493707657, -0.013823144137859344, -0.0758846178650856, -0.13010817766189575, 0.18396225571632385, 0.08110598474740982, -0.012140348553657532, -0.13876985013484955, -0.035189200192689896, -0.13802869617938995, 0.03790409117937088, -0.13827304542064667, -0.013533681631088257, -0.06744296848773956, -0.015613257884979248, -0.05632548779249191, 0.219058558344841, -0.1502385437488556, -0.022375721484422684, 0.04264136403799057, 0.06942649930715561, -0.06141716614365578, -0.32515305280685425, -0.09026209264993668, 0.028034552931785583, -0.07714275270700455, -0.053611092269420624, -0.07514391094446182, 0.0532277449965477, -0.13914617896080017, 0.07372792810201645, -0.13905222713947296, -0.12312652915716171, 0.018520280718803406, -0.006702929735183716, -0.04863999783992767, 0.16392782330513, 0.06006007641553879, -0.151142880320549, -0.11100213974714279, -0.01041245087981224, -0.01604980230331421, -0.011582787148654461, -0.12668347358703613, -0.16384285688400269, 0.08223804086446762, 0.17725130915641785, -0.05886838585138321, -0.023452982306480408, -0.07874416559934616, -0.09872296452522278, -0.08974430710077286, -0.005233462899923325, 0.011060236021876335, -0.12039034813642502, -0.0625123679637909, 0.20463331043720245, 0.026056598871946335, 0.2532484531402588, -0.011724129319190979], [0.06875649839639664, -0.06155764311552048, -0.004253927618265152, 0.07188867777585983, 0.06733059138059616, -0.03489973023533821, 0.06949643045663834, 0.044448189437389374, 0.14784838259220123, 0.1866637021303177, 0.07006239891052246, -0.340934693813324, -0.48274126648902893, 0.03713688999414444, 0.14729627966880798, -0.21833866834640503, 0.04768241196870804, 0.024697603657841682, 0.08286244422197342, 0.09832530468702316, 0.17416977882385254, 0.14500360190868378, -0.040494389832019806, -0.043520160019397736, -0.16811497509479523, -0.027995318174362183, -0.06823771446943283, 0.16922970116138458, 0.1016879752278328, 0.17796194553375244, -0.018254771828651428, 0.03950145095586777, 0.07898852229118347, -0.2000695914030075, 0.16078852117061615, 0.009855138137936592, -0.030420182272791862, 0.014355838298797607, -0.19766965508460999, -0.024763979017734528, -0.08434794098138809, -0.029103104025125504, 0.07028766721487045, -0.01037367433309555, -0.025918204337358475, 0.038781095296144485, -0.48469436168670654, -0.24081841111183167, -0.1821674257516861, -0.019048616290092468, -0.13429385423660278, 0.006523094139993191, 0.03416263312101364, 0.07057611644268036, 0.05573681741952896, -0.16849572956562042, 0.035156622529029846, 0.04118786379694939, 0.009283125400543213, 0.0474066361784935, 0.02531447447836399, 0.0001428140967618674, 0.17426475882530212, 0.029067758470773697, -0.04416962340474129, -0.3646024465560913, 0.1875353306531906, 0.14739111065864563, 0.07203375548124313, 0.0689585879445076, -0.0786740779876709, 0.08846130222082138, -0.17424513399600983, -0.07882612198591232, 0.04546939581632614, 0.018754005432128906, 0.05550343915820122, 0.03421188145875931, 0.08132413774728775, 0.06295090168714523, 0.00791679322719574, -0.0676342099905014, 0.055087860673666, 0.0362788625061512, -0.22300082445144653, 0.12678317725658417, 0.18684355914592743, 0.03346708416938782, -0.07822370529174805, 0.07529846578836441, 0.23423703014850616, 0.10112708806991577, 0.04479766637086868, 0.1115611344575882, 0.12451623380184174, 0.0634601041674614, 0.048167042434215546, 0.08118687570095062, 0.0658959373831749, 0.12502966821193695, 0.12272597849369049, 0.048550866544246674, 0.0540880486369133, 0.11965301632881165, -0.22668695449829102, 0.06100497394800186, 0.06392671912908554, 0.06381986290216446, 0.04547682777047157, 0.01869448646903038, 0.15907597541809082, 0.14623191952705383, 0.20030203461647034, 0.05466390401124954, -0.26285508275032043, 0.000792190432548523, -0.07664898037910461, 0.13455861806869507, 0.11744692921638489, 0.11424701660871506, 0.058448560535907745, 0.0835818275809288, 0.023549366742372513, 0.12183896452188492, -0.34699296951293945, 0.02048504911363125, -0.35057154297828674, -0.05252787098288536], [-0.05969169735908508, 0.08689787238836288, -0.028306137770414352, 0.041053496301174164, 0.010427302680909634, -0.00031413882970809937, -0.0654960572719574, 0.03463287651538849, -0.02298157848417759, 0.31528007984161377, 0.020915498957037926, -0.2981250584125519, -0.37166592478752136, 0.0002425462007522583, 0.31328821182250977, -0.19852647185325623, 0.1593129187822342, 0.04225529357790947, 0.1880415678024292, 0.3178197741508484, 0.27962613105773926, 0.06560681760311127, 0.07859525829553604, -0.025468014180660248, -0.1909428983926773, 0.029673002660274506, -0.049940116703510284, 0.19522657990455627, 0.020292602479457855, 0.1706903576850891, 0.06594134122133255, 0.017640024423599243, 0.1350952535867691, -0.34909486770629883, 0.11452242732048035, 0.06807096302509308, 0.06911976635456085, -0.0864916443824768, -0.23476505279541016, -0.023091323673725128, 0.007076635956764221, -0.08646198362112045, 0.07394768297672272, -0.05552004277706146, 0.02308858186006546, 0.0027212125714868307, -0.3923215866088867, -0.2958371639251709, -0.27149122953414917, -0.06824687123298645, -0.12174060195684433, 0.06990835070610046, 0.05890381708741188, 0.03256246820092201, 0.03850159794092178, -0.324299693107605, 0.07321464270353317, 0.16011668741703033, 0.036049969494342804, 0.0841686949133873, 0.14733372628688812, -0.11410809308290482, 0.03753011301159859, 0.026548046618700027, 0.007888011634349823, -0.26508450508117676, 0.07580173015594482, 0.11642773449420929, 0.06422033160924911, -0.0762261152267456, 0.01284729689359665, 0.020402958616614342, -0.27407780289649963, -0.04723809286952019, -0.023719489574432373, 0.10688651353120804, -0.07185330986976624, -0.03662751987576485, -0.04001414403319359, 0.19642743468284607, 0.02285776287317276, 0.0642176941037178, 0.05505722016096115, -0.012560244649648666, -0.34607991576194763, 0.049582820385694504, 0.10748936980962753, 0.06738694757223129, -0.10130314528942108, -0.03062615543603897, 0.21606655418872833, 0.0004018514300696552, 0.07095249742269516, 0.22326768934726715, 0.05586583539843559, 0.03402697294950485, -0.0628318339586258, 0.08193162828683853, 0.01008540391921997, 0.044616688042879105, 0.16538898646831512, -0.06506822258234024, -0.07062215358018875, 0.11958073079586029, -0.28095537424087524, 0.03988916426897049, 0.07846155017614365, -0.02912055514752865, -0.027783837169408798, 0.03020663745701313, 0.22509612143039703, -0.01729639433324337, 0.2935660481452942, 0.057218365371227264, -0.20181147754192352, -0.0659397542476654, -0.022720038890838623, 0.21759501099586487, -0.05967974662780762, 0.05894364416599274, -0.052446480840444565, 0.15589459240436554, 0.10445641726255417, 0.04908795282244682, -0.3824141323566437, 0.03919079154729843, -0.3767924904823303, 0.03151409327983856], [-0.05412250757217407, 0.06199801713228226, -0.1511705368757248, 0.0052420347929000854, 0.1777283102273941, -0.07318077981472015, 0.03372599184513092, 0.18850332498550415, 0.10151690244674683, -0.09840330481529236, 0.08644282072782516, -0.2821832597255707, -0.34145355224609375, 0.06491107493638992, -0.1813449263572693, -0.17485475540161133, 0.08150698989629745, 0.05898424610495567, 0.05615495145320892, 0.01985887624323368, -0.23722270131111145, 0.16846920549869537, 0.05655568465590477, -0.07270871102809906, -0.20709584653377533, 0.036019615828990936, -0.020647689700126648, 0.00594730768352747, 0.0036078065168112516, 0.04990836977958679, 0.06047452241182327, 0.009462043642997742, -0.014841902069747448, -0.34844014048576355, -0.03405188024044037, 0.18166974186897278, -0.10712514817714691, -0.07528287172317505, -0.1223263218998909, 0.04193245619535446, -0.014724820852279663, -0.07061460614204407, 0.16807366907596588, 0.06067972630262375, -0.0039393603801727295, 0.03403740003705025, -0.3502465784549713, -0.3103907108306885, -0.1840324103832245, 0.07223325222730637, -0.1138545349240303, 0.057981859892606735, 0.08126753568649292, 0.1606006771326065, 0.06338999420404434, -0.23469775915145874, -0.08583898097276688, 0.04991339147090912, -0.015373177826404572, -0.02549922466278076, 0.15314486622810364, 0.11336261034011841, 0.04012295603752136, 0.155064195394516, -0.03308027982711792, -0.24142125248908997, 0.10234766453504562, 0.1736929565668106, -0.019354715943336487, -0.06129319220781326, -0.08828969299793243, 0.0933937281370163, -0.1317727267742157, 0.07034578174352646, 0.06737975031137466, 0.0741620659828186, 0.10055378824472427, 0.03708701580762863, 0.046680085361003876, -0.08661576360464096, 0.02502995729446411, -0.07826485484838486, 0.04228178411722183, 0.1820012927055359, -0.308500200510025, 0.13474373519420624, -0.022689079865813255, -0.032348085194826126, -0.0143547672778368, 0.039276085793972015, -0.3383452892303467, 0.12401915341615677, -0.08036353439092636, 0.16196678578853607, 0.08509336411952972, 0.06244490295648575, -0.07862751185894012, 0.05574078485369682, -0.039797138422727585, -0.011358468793332577, -0.047336261719465256, -0.021016031503677368, 0.08437920361757278, 0.025115229189395905, -0.14855033159255981, -0.03970441594719887, 0.08432705700397491, 0.1894262433052063, 0.15036632120609283, 0.13500511646270752, 0.04757653921842575, 0.014595568180084229, 0.07444728910923004, 0.036842189729213715, -0.1572285145521164, -0.050383541733026505, 0.0025103911757469177, 0.012400764971971512, 0.12194039672613144, 0.21269476413726807, 0.1238701120018959, 0.05258598551154137, 0.11396043002605438, 0.12396349012851715, -0.28616246581077576, 0.1654936671257019, -0.3315278887748718, -0.057073816657066345], [0.07151897996664047, -0.042698320001363754, 0.17159347236156464, 0.05298573523759842, -0.2221079021692276, -0.033653561025857925, 0.08039463311433792, -0.05081401392817497, -0.030250631272792816, 0.18441234529018402, -0.08512190729379654, 0.3530922532081604, 0.3485846519470215, -0.05499793961644173, 0.2359015792608261, 0.16591894626617432, 0.03659321740269661, -0.1346006840467453, -0.07899223268032074, 0.24131165444850922, 0.24338260293006897, -0.020328273996710777, 0.007125492673367262, -0.03003682568669319, 0.18311715126037598, -0.025001391768455505, 0.07329715043306351, -0.10150305181741714, -0.11566038429737091, -0.09163693338632584, -0.0824890285730362, 0.06518691033124924, -0.0030213186983019114, 0.18675920367240906, -0.02593378908932209, -0.13570907711982727, 0.06900604814291, -0.02922501415014267, 0.09766142070293427, 0.07918638736009598, -0.05234748125076294, -0.05523456260561943, -0.08674736320972443, 0.015408381819725037, 0.08024390786886215, -0.12060906738042831, 0.2296583652496338, 0.02595764398574829, 0.2043878138065338, -0.07922330498695374, 0.1833050400018692, -0.17922930419445038, -0.0636737197637558, -0.0682031661272049, -0.04281505569815636, 0.09772337973117828, 0.04145585745573044, -0.020045222714543343, -0.06736745685338974, -0.025737091898918152, -0.11509071290493011, -0.057028383016586304, -0.1571931540966034, -0.09419344365596771, -0.0586770623922348, 0.17226317524909973, -0.10991811007261276, -0.044711582362651825, -0.08097885549068451, -0.06070965528488159, 0.007172159850597382, -0.1616927832365036, 0.10934934765100479, -0.04856710880994797, -0.07549650222063065, 0.04225775599479675, -0.12637494504451752, -0.044069550931453705, -0.0345005989074707, 0.12600228190422058, -0.07010110467672348, -0.0878014862537384, -0.09368754178285599, -0.1449095904827118, 0.14863258600234985, -0.22934839129447937, -0.05920357257127762, -0.08189474046230316, -0.029449136927723885, -0.011350251734256744, 0.31424787640571594, -0.020033912733197212, 0.07362479716539383, -0.11134404689073563, -0.06169822812080383, -0.023735903203487396, -0.08204349875450134, -0.03149087354540825, -0.021124452352523804, 0.12600059807300568, -0.020023321732878685, -0.014066196978092194, 0.0149998739361763, 0.03408106043934822, 0.15232475101947784, -0.0655132308602333, -0.11874278634786606, -0.11062698066234589, -0.08315279334783554, -0.12476047873497009, 0.03868788853287697, -0.028034357354044914, 0.012675054371356964, -0.08827664703130722, 0.15031276643276215, -0.0723719522356987, -0.032828666269779205, -0.04138651862740517, -0.05458587780594826, -0.11678306013345718, -0.15376678109169006, -0.1894405037164688, -0.13725586235523224, -0.0418543741106987, 0.25696098804473877, -0.04590815305709839, 0.32895392179489136, 0.059159182012081146], [0.04312204569578171, 0.032244518399238586, -0.11902106553316116, 0.07627982646226883, 0.23245398700237274, -0.0738150104880333, -0.031586408615112305, 0.19481612741947174, 0.13152311742305756, -0.1426353007555008, 0.03838564455509186, -0.3133050799369812, -0.379820853471756, 0.005553796887397766, -0.11379742622375488, -0.28994274139404297, 0.05197170749306679, 0.04163743928074837, 0.085676409304142, -0.11442882567644119, -0.18453554809093475, 0.06829331815242767, -0.07348324358463287, 0.07255924493074417, -0.20468786358833313, -0.06021687760949135, 0.0365208238363266, -0.010993949137628078, 0.13709062337875366, 0.09297417849302292, 0.062084294855594635, -0.07112988829612732, 0.06120636686682701, -0.32272809743881226, 0.10913786292076111, 0.03179457038640976, -0.051728200167417526, -0.013660803437232971, -0.10166261345148087, -0.05901729315519333, 0.0009381398558616638, -0.03222697600722313, 0.058198630809783936, 0.045150019228458405, -0.051513079553842545, 0.11665249615907669, -0.4708717167377472, -0.2896330952644348, -0.22001111507415771, 0.043176643550395966, -0.19014781713485718, 0.0694388747215271, 0.2072618156671524, 0.09419269114732742, -0.054567258805036545, -0.22124092280864716, -0.04061657935380936, 0.03835050389170647, -0.0654146820306778, -0.07350531220436096, 0.08077622950077057, 0.056493230164051056, 0.09728807955980301, 0.19527216255664825, 0.03267579525709152, -0.2614349126815796, 0.12256410717964172, 0.12061361223459244, 0.0006995424628257751, -0.03857339546084404, -0.07672671228647232, 0.04037348926067352, -0.2833500802516937, 0.07832213491201401, -0.0360957607626915, -0.044232480227947235, 0.07317275553941727, 0.04313125088810921, 0.07154790312051773, -0.10292331129312515, -0.0574948750436306, -0.004641219973564148, 0.07556033134460449, 0.19933035969734192, -0.24594412744045258, 0.21145784854888916, -0.025516672059893608, 0.0544053390622139, 0.11333023756742477, -0.04967212677001953, -0.40888094902038574, 0.03463783487677574, -0.015921443700790405, 0.15588879585266113, 0.12683892250061035, 0.0067730918526649475, -0.013953037559986115, 0.03367099538445473, -0.002008989453315735, -0.08862382173538208, 0.07747876644134521, 0.017680346965789795, -0.02814975380897522, 0.03536475822329521, -0.1776261329650879, 0.07537870854139328, 0.16724056005477905, 0.18179042637348175, 0.09049567580223083, 0.09482970833778381, -0.02748560719192028, 0.08717232197523117, 0.0009923989418894053, 0.06400462239980698, -0.2240881770849228, 0.07300948351621628, 0.02260175347328186, 0.0271137747913599, 0.08145434409379959, 0.13925711810588837, 0.13934563100337982, 0.14901919662952423, 0.17449495196342468, 0.14804458618164062, -0.30085489153862, 0.07386267185211182, -0.3281896114349365, -0.02735680341720581], [0.07112707942724228, 0.028733469545841217, -0.07153142243623734, -0.010149665176868439, 0.175459623336792, 0.04101582616567612, -0.009290322661399841, 0.059539973735809326, 0.0471203587949276, 0.19754669070243835, 0.16368995606899261, -0.3579337000846863, -0.3404695391654968, 0.00012184679508209229, 0.13593508303165436, -0.18883948028087616, 0.07967082411050797, 0.15586429834365845, 0.15761372447013855, 0.09911049902439117, -0.11877290159463882, 0.04413769394159317, -0.07396300137042999, 0.06626806408166885, -0.11965883523225784, -0.08070258051156998, -0.07918070256710052, 0.07364967465400696, 0.04505858197808266, 0.1303074061870575, 0.0853104516863823, -0.010437265038490295, 0.001715366612188518, -0.3129265010356903, 0.12481530010700226, 0.12300685793161392, 0.08548229932785034, 0.05780690163373947, -0.15708979964256287, 0.06129636615514755, -0.027869928628206253, 0.07943850010633469, 0.06103547662496567, 0.040682800114154816, 0.0852615162730217, 0.10068812221288681, -0.486972451210022, -0.1958436369895935, -0.2063147872686386, -0.07148011773824692, -0.20394478738307953, 0.06895627081394196, 0.014802359975874424, 0.04970862716436386, -0.02066204696893692, -0.21963846683502197, -0.06732527166604996, 0.04518520087003708, 0.06591413170099258, 0.04547176510095596, 0.19014374911785126, 0.08594342321157455, 0.0442032553255558, 0.17574195563793182, 0.0466572567820549, -0.3178883492946625, 0.09362445026636124, 0.09338365495204926, 0.06348707526922226, -0.0014708638191223145, 0.0299072265625, 0.08697475492954254, -0.27728328108787537, -0.026642214506864548, -0.056802667677402496, 0.04173734411597252, 0.03655780851840973, 0.06066999211907387, 0.05993255227804184, -0.009166502393782139, 0.01945691555738449, -0.02965996041893959, 0.058791372925043106, 0.1495152860879898, -0.17219288647174835, 0.19590654969215393, 0.16242510080337524, 0.08459719270467758, 0.05856248363852501, 0.0340425968170166, 0.2723403573036194, 0.043245766311883926, -0.0462702214717865, 0.21904003620147705, 0.08102812618017197, -0.076680988073349, -0.05493314936757088, 0.08336365967988968, 0.01192697137594223, 0.10081774741411209, 0.013385753147304058, 0.05915264040231705, 0.05114706605672836, 0.17339888215065002, -0.28536373376846313, -0.03977525606751442, 0.11235398799180984, 0.05589776858687401, 0.05716355890035629, 0.02174290269613266, 0.023496661335229874, 0.048813238739967346, 0.12357820570468903, 0.003702200949192047, -0.18947431445121765, -0.05949088931083679, 0.02691904455423355, 0.025534940883517265, 0.1726369708776474, 0.07996038347482681, -0.010582675226032734, 0.10479705780744553, 0.019009944051504135, 0.05820976942777634, -0.4341680407524109, 0.07812158763408661, -0.4244404733181, -0.05770828574895859], [0.003931984305381775, 0.055836863815784454, -0.09256403893232346, -0.07017554342746735, -0.06260348856449127, -0.029799770563840866, -0.08434240520000458, -0.15603718161582947, -0.050772011280059814, -0.22692523896694183, -0.12195237725973129, 0.28217509388923645, 0.29888519644737244, -0.0376504547894001, -0.18699362874031067, 0.11903475970029831, -0.1725379079580307, -0.0361441969871521, -0.06803352385759354, -0.10327426344156265, -0.27757930755615234, -0.13743874430656433, -0.06023465096950531, 0.07904788106679916, 0.1632893681526184, 0.07264246791601181, -0.055234264582395554, 0.004094575997442007, -0.09188827127218246, 0.004877304192632437, 0.022391721606254578, 0.07324805110692978, -0.01354978233575821, 0.12620246410369873, -0.00043098110472783446, 0.005545145366340876, -0.15218374133110046, 0.08104010671377182, 0.0801968052983284, 0.008144386112689972, 0.008853644132614136, 0.07727808505296707, -0.17365549504756927, 0.07727455347776413, -0.041343435645103455, -0.08253545314073563, 0.19965088367462158, 0.23616081476211548, 0.13074949383735657, -0.02282995730638504, 0.14238213002681732, -0.055378589779138565, -0.08357835561037064, -0.030311573296785355, 0.00667070597410202, 0.19887487590312958, -0.06395997107028961, -0.08820267021656036, -0.060237668454647064, 0.07032779604196548, -0.11443762481212616, 0.00019108848937321454, -0.06883807480335236, -0.07097236067056656, -0.028145834803581238, 0.11926601827144623, -0.11607207357883453, -0.09503839164972305, -0.058638181537389755, -0.031394753605127335, -0.03541908413171768, -0.12282847613096237, 0.15926028788089752, -0.03288007155060768, 0.02038595825433731, -0.10806028544902802, -0.13315676152706146, -0.11018180847167969, -0.05399169400334358, -0.09300542622804642, -0.05100233107805252, -0.058167897164821625, -0.12623123824596405, -0.01542255561798811, 0.1297411471605301, -0.13049539923667908, -0.09042242914438248, 0.004574216902256012, 0.13562367856502533, 0.08025563508272171, -0.314254492521286, -0.11650785058736801, 0.060838811099529266, -0.09892814606428146, -0.1325841248035431, 0.004345424473285675, -0.08045212924480438, -0.030794339254498482, 0.05214362591505051, -0.0025976563338190317, -0.08816341310739517, -0.004514485597610474, 0.0596555694937706, -0.1023881658911705, 0.09330949932336807, -0.057221993803977966, -0.12284506857395172, -0.030457474291324615, -0.10181751847267151, 0.003327545477077365, -0.08876888453960419, -0.12638026475906372, -0.17357075214385986, 0.02254490554332733, 0.19512467086315155, -0.07272037863731384, 0.08118358999490738, -0.13836592435836792, -0.07734087109565735, -0.09582599252462387, 0.001298757386393845, -0.017849765717983246, -0.05458156391978264, -0.11715095490217209, 0.2005068063735962, -0.15326812863349915, 0.18414251506328583, 0.07327420264482498], [-0.0660635232925415, 0.08578284829854965, -0.03732607141137123, 0.05645687133073807, -0.0737864300608635, 0.018097423017024994, 0.0012384653091430664, 0.10777340829372406, -0.0044477651827037334, 0.34109023213386536, -0.01383115816861391, -0.3400833010673523, -0.4296339750289917, 0.039342306554317474, 0.31068968772888184, -0.24171613156795502, 0.23916716873645782, -0.03267526999115944, 0.18351376056671143, 0.27598994970321655, 0.21343787014484406, 0.06899723410606384, -0.04914030805230141, -0.0564938560128212, -0.2316237837076187, 0.04833660274744034, -0.07953280955553055, 0.07732445001602173, -0.024852104485034943, 0.13183628022670746, -0.022737957537174225, -0.009511545300483704, 0.20695506036281586, -0.4258154630661011, 0.19830015301704407, -0.018128933385014534, 0.07726607471704483, -0.014054626226425171, -0.3178231120109558, 0.01590881496667862, 0.03467781841754913, 0.04490644484758377, 0.06441882997751236, 0.08685491234064102, -0.07816766947507858, -0.0740315169095993, -0.5513967275619507, -0.306327223777771, -0.3080682158470154, 0.049259163439273834, -0.17783524096012115, 0.07370453327894211, -0.010853610932826996, -0.16109268367290497, 0.05024797469377518, -0.35419756174087524, 0.027569547295570374, 0.09225274622440338, -0.07308053970336914, -0.026233483105897903, 0.08238980174064636, -0.17780065536499023, -0.0730934590101242, 0.00791432335972786, -0.0219743475317955, -0.3051168620586395, 0.0990414023399353, 0.07297134399414062, -0.055783048272132874, 0.06392078846693039, -0.021506652235984802, -0.07089894264936447, -0.3447437584400177, -0.041462644934654236, -0.07906876504421234, 0.16538189351558685, 0.014735627919435501, -0.0726793110370636, -0.02379855513572693, 0.3083040118217468, 0.06089245527982712, 0.04491663724184036, 0.02062063105404377, 0.04697147384285927, -0.2577503025531769, -0.025484193116426468, 0.18122267723083496, -0.05986972153186798, -0.1838563233613968, 0.016236744821071625, 0.2517257034778595, -0.009568803943693638, 0.039889462292194366, 0.20642727613449097, 0.00985751673579216, 0.06767836958169937, -0.03349888324737549, 0.07121884077787399, -0.022360093891620636, 0.11411222070455551, 0.12320224940776825, 0.0031200796365737915, -0.028014544397592545, 0.0741361528635025, -0.3414699137210846, 0.0025722309947013855, 0.05760299041867256, 0.10195469856262207, -0.058644987642765045, -0.06821601092815399, 0.13129198551177979, 0.0057639507576823235, 0.28842857480049133, 0.08122491091489792, -0.289110392332077, -0.012971997261047363, 0.04322949796915054, 0.19050712883472443, -0.10133391618728638, -0.005664000287652016, -0.09739535301923752, 0.1111372709274292, 0.0038118655793368816, -0.0011260792380198836, -0.5171287655830383, -0.14553295075893402, -0.43988755345344543, -0.016354970633983612], [0.009841740131378174, 0.08126256614923477, -0.15614165365695953, 0.011761881411075592, -0.025488201528787613, -0.03939090669155121, -0.019930541515350342, -0.07637914270162582, 0.007579184137284756, -0.3165612816810608, -0.09520084410905838, 0.46738871932029724, 0.24886423349380493, 0.00016458332538604736, -0.39179080724716187, -0.0930091142654419, -0.09807601571083069, -0.051472872495651245, -0.1424058973789215, -0.31297391653060913, -0.22903966903686523, -0.1343095898628235, -0.013758097775280476, 0.07898163050413132, 0.12587352097034454, -0.08446348458528519, -0.05195938050746918, -0.19707313179969788, 0.020102180540561676, -0.12997332215309143, -0.024138204753398895, -0.0019075572490692139, -0.13907475769519806, 0.03018040582537651, -0.13472561538219452, -0.07008182257413864, -0.007823987863957882, 0.040118105709552765, 0.06345400214195251, -0.08510517328977585, -0.0173163041472435, 0.05105713754892349, -0.05205309018492699, 0.006616413593292236, 0.05737776309251785, -0.023310834541916847, 0.17864692211151123, 0.1225031390786171, 0.04815709590911865, -0.003147423267364502, 0.11168916523456573, -0.02565024420619011, -0.08646370470523834, -0.07022106647491455, 0.016307681798934937, 0.2414352297782898, -0.04716219753026962, -0.04382844269275665, -0.06315328925848007, -0.027110591530799866, -0.09348879754543304, -0.04487718641757965, 0.03564886748790741, -0.09127303957939148, -0.027518637478351593, 0.23082686960697174, -0.13145674765110016, -0.14384479820728302, 0.07786553353071213, 0.02266845852136612, -0.044724009931087494, -0.10986556112766266, 0.13083690404891968, -0.004173487424850464, -0.05715577304363251, -0.11626346409320831, -0.10908427089452744, 0.03895960748195648, 0.04547896236181259, -0.22608232498168945, 0.033792488276958466, 0.07664463669061661, -0.04178526997566223, 0.002061685314401984, 0.06834591180086136, -0.08055762201547623, -0.05372760072350502, 0.042713575065135956, 0.017124464735388756, -0.04575750604271889, -0.3615960478782654, -0.044383034110069275, 0.047413162887096405, -0.2159196138381958, -0.02686361037194729, -0.011106148362159729, -0.07203441858291626, -0.12194345146417618, -0.0008584707975387573, -0.2274097055196762, -0.17950312793254852, 0.07188833504915237, -0.06820952892303467, -0.1142735481262207, 0.16490672528743744, -0.07929831743240356, -0.0462455190718174, -0.08060062676668167, -0.10491607338190079, -0.10576517879962921, -0.1607104390859604, -0.045528948307037354, -0.22049064934253693, -0.029335565865039825, 0.1991504430770874, -0.0730440616607666, 0.04293311387300491, -0.10785847157239914, -0.029820837080478668, -0.10849565267562866, -0.07715889066457748, -0.12907224893569946, 0.03220200166106224, -0.10106317698955536, 0.14092424511909485, -0.08117588609457016, 0.12028415501117706, -0.01753753423690796], [-0.025278910994529724, 0.06668000668287277, 0.0803595706820488, 0.04040540009737015, -0.1074778139591217, -0.07030317187309265, 0.02252615988254547, -0.09344198554754257, -0.09070605784654617, 0.13315454125404358, -0.18014179170131683, 0.29107511043548584, 0.22905206680297852, -0.08656007051467896, 0.10682891309261322, -0.004447142593562603, 0.021966973319649696, -0.07186265289783478, -0.14169953763484955, 0.1977475881576538, 0.2059672325849533, -0.04072142019867897, 0.05714503675699234, 0.06023184210062027, 0.15552237629890442, -0.05953337997198105, -0.004977427423000336, -0.05601007863879204, -0.15836213529109955, 0.07360778748989105, -0.024009764194488525, -0.0024217963218688965, 0.13712257146835327, 0.059065114706754684, 0.0486794039607048, -0.10546330362558365, 0.041723426431417465, -0.030372533947229385, 0.09692341834306717, 0.005666382610797882, -0.029826387763023376, -0.0067877396941185, -0.20706455409526825, -0.03376362845301628, -0.06042921170592308, -0.13748842477798462, 0.21331176161766052, 0.10885226726531982, 0.10253100842237473, -0.017761364579200745, 0.20022742450237274, -0.03771311417222023, -0.14072184264659882, -0.09542808681726456, 0.0026858896017074585, 0.28148365020751953, 0.025041863322257996, 0.032425567507743835, 0.025681450963020325, -0.0351283960044384, -0.16652536392211914, -0.07152483612298965, -0.19782528281211853, -0.04184453561902046, -0.03931782394647598, 0.1119140014052391, -0.13703398406505585, -0.13272403180599213, 0.05768824368715286, -0.0049796923995018005, 0.01848328858613968, -0.1829395443201065, 0.26519346237182617, 0.027371838688850403, 0.07735974341630936, -0.0777750238776207, -0.12684209644794464, -0.09749234467744827, 0.051072679460048676, 0.11316802352666855, -0.021406501531600952, 0.006405137479305267, -0.07686947286128998, -0.12575149536132812, 0.25218379497528076, -0.20948147773742676, 0.0781397596001625, 0.035264141857624054, -0.06934601068496704, -0.010647356510162354, 0.21811267733573914, -0.0620640330016613, -0.0139588862657547, -0.0726570412516594, -0.08583536744117737, -0.021752692759037018, -0.0678960457444191, -0.166755810379982, 0.027248330414295197, 0.09566881507635117, 0.006425973027944565, 0.03360554575920105, -0.05659577623009682, -0.015269029885530472, 0.2022372931241989, -0.06567956507205963, -0.11618240177631378, -0.08824103325605392, -0.053742505609989166, -0.16094617545604706, 0.04668889939785004, -0.14496232569217682, 0.1037425696849823, 0.030890963971614838, 0.25412121415138245, 0.05636002868413925, -0.04399769380688667, 0.01417539268732071, -0.07701253145933151, -0.18236283957958221, -0.15982112288475037, -0.14393433928489685, -0.18375255167484283, -0.07640386372804642, 0.2504716217517853, -0.09794306755065918, 0.08382749557495117, -0.08186828345060349], [-0.036252643913030624, 0.051564447581768036, -0.10607369244098663, 0.059097789227962494, 0.07229173928499222, -0.05525315925478935, -0.08797332644462585, 0.03497612476348877, 0.13247817754745483, 0.20456551015377045, 0.10140815377235413, -0.2989283502101898, -0.4332296848297119, 0.03500442951917648, 0.174610435962677, -0.28919973969459534, 0.04928981885313988, 0.06239006295800209, 0.11196227371692657, 0.14199048280715942, -0.12573809921741486, 0.05125957727432251, 0.01434042677283287, 0.0657832995057106, -0.15689757466316223, -0.026161201298236847, -0.02081446349620819, 0.12399999052286148, 0.04512741044163704, 0.17981168627738953, 0.009584702551364899, -0.05678844079375267, 0.09606030583381653, -0.1889115869998932, 0.12475380301475525, 0.05782286822795868, 0.009416046552360058, -0.028158247470855713, -0.20423048734664917, 0.07420135289430618, -0.018177442252635956, -0.07601610571146011, 0.19606541097164154, 0.05965631455183029, -0.02224237471818924, 0.08579878509044647, -0.4312555491924286, -0.21641641855239868, -0.2357940524816513, 0.03856988996267319, -0.09907311946153641, 0.1602664589881897, 0.16838985681533813, 0.1100340411067009, 0.010478183627128601, -0.21562108397483826, 0.047313936054706573, 0.06934566795825958, -0.03150792047381401, 0.049523405730724335, 0.11048730462789536, 0.13474231958389282, 0.04253680631518364, 0.15130767226219177, 0.005533546209335327, -0.3004615902900696, 0.04511646553874016, 0.13353760540485382, -0.05576401948928833, 0.07623571902513504, 0.06180598586797714, 0.1724286824464798, -0.18825332820415497, 0.0019556954503059387, -0.034427106380462646, 0.1385543793439865, 0.07873103022575378, 0.17468516528606415, -0.04991332069039345, 0.13446643948554993, 0.0030469968914985657, -0.05659662187099457, 0.040303487330675125, 0.10241751372814178, -0.19522982835769653, 0.12009843438863754, 0.196975976228714, 0.019190512597560883, -0.11603282392024994, -0.0510273352265358, 0.2772265374660492, 0.02617281675338745, -0.015739373862743378, 0.053200963884592056, 0.024510497227311134, -0.046724721789360046, -0.08206723630428314, 0.05338357388973236, 0.06252757459878922, 0.02943192981183529, 0.023265087977051735, 0.018912136554718018, 0.05596310645341873, 0.1617341786623001, -0.29578742384910583, -0.05734061822295189, 0.1579895168542862, 0.175398051738739, 0.07625434547662735, 0.12611626088619232, 0.08812949806451797, 0.0940849706530571, 0.20311740040779114, -0.08520607650279999, -0.20341245830059052, -0.07815361768007278, 0.08304326981306076, 0.03563260659575462, 0.09395468235015869, 0.14639626443386078, 0.10767024010419846, 0.16722314059734344, 0.025582870468497276, 0.11031143367290497, -0.40793541073799133, 0.053887832909822464, -0.4396073818206787, 0.036727868020534515], [0.009990490972995758, -0.05254004895687103, -0.10132135450839996, 0.05708879977464676, 0.15060405433177948, 0.028507009148597717, 0.06398814171552658, 0.2115866094827652, 0.1611313670873642, 0.15311914682388306, 0.17264530062675476, -0.25223004817962646, -0.38590845465660095, 0.01779327541589737, -0.047607067972421646, -0.269789457321167, 0.11022195965051651, 0.08317706733942032, 0.1286766231060028, 0.09191815555095673, -0.1326688826084137, 0.1294340044260025, 0.05409909039735794, -0.08724885433912277, -0.09374228864908218, -0.07468584924936295, 0.0061784833669662476, -0.0006789953331463039, 0.04377805441617966, 0.08081165701150894, 0.08817080408334732, -0.006292179226875305, 0.12096209824085236, -0.2612307369709015, 0.09563460201025009, 0.12066206336021423, 0.04970969259738922, -0.017977431416511536, -0.19738592207431793, -0.07494865357875824, 0.015332117676734924, -0.012106142938137054, 0.0957113653421402, -0.08644554764032364, 0.06100822240114212, 0.03491653874516487, -0.3522513508796692, -0.2413119673728943, -0.25395557284355164, 0.031073719263076782, -0.11077548563480377, 0.0265438761562109, 0.12107013165950775, 0.027463357895612717, -0.007937707006931305, -0.302425742149353, 0.008918792009353638, 0.1416981965303421, 0.04107200354337692, -0.01577191799879074, 0.18114213645458221, 0.031058041378855705, 0.046209607273340225, 0.14539246261119843, 0.029019072651863098, -0.3210248351097107, 0.038749583065509796, 0.02965756505727768, -0.027025308459997177, -0.08807948231697083, -0.04204227030277252, 0.1276783049106598, -0.20458699762821198, 0.08035439997911453, 0.07379686087369919, 0.1132446676492691, 0.08023142069578171, 0.08531883358955383, 0.08094941824674606, 0.05338040739297867, 0.07464788109064102, -0.056442879140377045, 0.007514739874750376, 0.05097923055291176, -0.18359355628490448, 0.0722823292016983, 0.05830511823296547, -0.049044832587242126, -0.057961463928222656, 0.017008014023303986, -0.2850629687309265, 0.1356586515903473, -0.01526603102684021, 0.14867353439331055, 0.04338080808520317, 0.008798912167549133, 0.05160290747880936, 0.19098272919654846, 0.016458526253700256, 0.08833596110343933, 0.1307404488325119, -0.05797223001718521, -0.04615139961242676, 0.0020615258254110813, -0.2674387991428375, -0.0592350959777832, 0.1518957018852234, 0.0858963206410408, 0.17506735026836395, 0.045597486197948456, 0.11438213288784027, 0.11235414445400238, 0.18389765918254852, 0.048627667129039764, -0.10516293346881866, -0.006804250180721283, 0.02427012473344803, 0.137968510389328, 0.14351068437099457, 0.1520446538925171, 0.17532873153686523, 0.08615662157535553, 0.029643001034855843, 0.02799507975578308, -0.437461793422699, 0.0688987597823143, -0.2759452164173126, 0.030435144901275635], [-0.04683603346347809, -0.04401712492108345, 0.37462830543518066, -0.08260560780763626, -0.1044524610042572, -0.028259333223104477, 0.06542881578207016, -0.05344744399189949, -0.07525726407766342, 0.37164053320884705, -0.14021185040473938, 0.24886642396450043, 0.3688589334487915, 0.02971837669610977, 0.36647436022758484, 0.17465277016162872, 0.2931656837463379, 0.0009426631149835885, -0.007490582298487425, 0.3801133930683136, 0.27769234776496887, -0.031877551227808, -0.022745108231902122, -0.030998773872852325, 0.037406738847494125, 0.025895319879055023, -0.046057410538196564, 0.3169209957122803, -0.04704215005040169, 0.16671766340732574, -0.008970633149147034, 0.045083992183208466, 0.3189535439014435, -0.03540096804499626, 0.2284860908985138, -0.009293220937252045, 0.08625674992799759, -0.06351887434720993, 0.050318643450737, 0.03794271498918533, 0.04210486263036728, 0.018354088068008423, 0.009749454446136951, -0.010340981185436249, 0.07870916277170181, -0.07413338124752045, 0.03996516764163971, 0.16835615038871765, 0.061955876648426056, -0.047133661806583405, 0.14095906913280487, -0.12171243876218796, -0.1577191799879074, -0.06399652361869812, 0.03347507864236832, 0.12980329990386963, -0.07683210074901581, 0.21315164864063263, -0.08138437569141388, -0.027145352214574814, -0.16904032230377197, -0.09781474620103836, -0.1438385397195816, -0.01903238706290722, 0.03790386766195297, 0.08257684856653214, -0.029276961460709572, -0.13045524060726166, 0.07738334685564041, -0.07368689030408859, -0.04808337986469269, -0.09632258862257004, 0.04348989948630333, 0.03651130944490433, 0.011837638914585114, 0.19959919154644012, -0.09392361342906952, -0.16332349181175232, 0.03728117793798447, 0.1921212077140808, 0.01154288649559021, -0.017981380224227905, -0.05791020020842552, -0.09534209221601486, 0.06851767003536224, -0.08837263286113739, 0.3496430516242981, 0.03308698534965515, -0.10343419015407562, 0.01860564947128296, 0.3087228238582611, 0.023094743490219116, 0.06301794201135635, 0.22564996778964996, 0.0969276875257492, -0.046234775334596634, -0.07993640005588531, -0.15652453899383545, -0.02837551385164261, 0.27111896872520447, 0.23541656136512756, -0.028104159981012344, -0.06628428399562836, 0.2499431073665619, 0.04153380170464516, 0.0536472424864769, -0.0025981927756220102, -0.12124776840209961, -0.11465954780578613, -0.07685289531946182, 0.29744577407836914, 0.0707944929599762, 0.26739874482154846, -0.054558463394641876, 0.08215656876564026, 0.035781241953372955, -0.03385184332728386, 0.2898961305618286, -0.15995286405086517, -0.09326918423175812, -0.10679183900356293, -0.07506737858057022, -0.08568456023931503, -0.12012971192598343, 0.16229170560836792, -0.16112437844276428, -0.04243428260087967, 0.08533001691102982], [-0.057132769376039505, 0.05164327472448349, 0.043747469782829285, 0.03715536743402481, 0.027928149327635765, -0.0689372569322586, 0.08708969503641129, 0.059751253575086594, 0.043683309108018875, 0.3162529766559601, -0.07686319202184677, -0.34288904070854187, -0.3709564507007599, -0.06847145408391953, 0.3914264142513275, -0.24391275644302368, 0.23126541078090668, 0.0249989815056324, 0.21005794405937195, 0.31444793939590454, 0.18905626237392426, 0.12933224439620972, 0.06924299895763397, 0.0750437006354332, -0.23455029726028442, -0.015620097517967224, 0.08677277714014053, 0.08085237443447113, -0.16292044520378113, 0.12428496778011322, -0.048763059079647064, 0.06784381717443466, 0.12173180282115936, -0.3680950403213501, 0.22692352533340454, -0.0646369457244873, 0.11242273449897766, -0.03185219690203667, -0.14917398989200592, -0.06280193477869034, 0.07431548088788986, 0.048581935465335846, 0.0944497212767601, 0.06613779813051224, 0.01770559698343277, -0.021088866516947746, -0.5378720164299011, -0.26621130108833313, -0.2502208948135376, 0.030599601566791534, -0.12701445817947388, 0.14511652290821075, 0.05840400978922844, -0.04783719778060913, -0.017467662692070007, -0.21239826083183289, 0.015450961887836456, 0.1491984724998474, 0.05277467519044876, 0.026074908673763275, 0.08592280745506287, -0.07481484860181808, -0.062445856630802155, 0.13181528449058533, -0.07289285957813263, -0.3506203591823578, 0.07252056151628494, 0.08698169142007828, -0.014026552438735962, 0.08618556708097458, -0.0792471393942833, 0.01821000501513481, -0.3464176654815674, -0.05658327043056488, -0.014185942709445953, 0.1493402123451233, -0.08884550631046295, -0.027458397671580315, -0.06253751367330551, 0.21075640618801117, 0.038785941898822784, -0.06493805348873138, -0.09701712429523468, 0.0782921090722084, -0.30294203758239746, -0.033974695950746536, 0.21836329996585846, 0.02413591742515564, -0.21321918070316315, -0.00824803113937378, 0.29894787073135376, 0.06374739110469818, -0.04976082220673561, 0.25073233246803284, 0.06958407908678055, -0.012140505015850067, 0.024342089891433716, 0.16461975872516632, 0.040625326335430145, 0.1454889476299286, 0.06957358121871948, 0.044042252004146576, -0.06222672387957573, 0.09670688211917877, -0.251733660697937, -0.048721641302108765, 0.09622634202241898, 0.0028090262785553932, -0.08023498207330704, -0.07790312170982361, 0.15873607993125916, 0.05814197286963463, 0.24926261603832245, -0.056105103343725204, -0.26853787899017334, -0.023931652307510376, -0.00622008740901947, 0.25099289417266846, 0.03572961315512657, 0.11642690747976303, 0.06473773717880249, 0.05698737874627113, 0.03094063512980938, 0.10961171239614487, -0.37743279337882996, -0.0350031740963459, -0.4522177278995514, 0.03841901570558548], [-0.030663002282381058, 0.03129109740257263, -0.07100377231836319, -0.00484224408864975, 0.22861209511756897, 0.022776149213314056, -0.03444318473339081, -0.008718268945813179, 0.012589797377586365, -0.34552985429763794, 0.1049066036939621, 0.2440035194158554, 0.33008426427841187, 0.07181423157453537, -0.4603520929813385, 0.32047605514526367, -0.317139208316803, -0.14854897558689117, -0.14062754809856415, -0.525593638420105, -0.24518389999866486, -0.06620483100414276, 0.07322622835636139, -0.08661212027072906, 0.17473265528678894, -0.0006589144468307495, -0.047268763184547424, -0.16700121760368347, 0.00033409957541152835, -0.1905588060617447, 0.06485695391893387, 0.042571522295475006, -0.2927859127521515, 0.33954161405563354, -0.22085048258304596, -0.06232006102800369, -0.09400909394025803, 0.027747422456741333, 0.11438363790512085, -0.013023249804973602, -0.009874649345874786, -0.08598041534423828, -0.1044204980134964, -0.08805502951145172, -0.08481545001268387, 0.015022614039480686, 0.3585607409477234, 0.16418400406837463, 0.203933447599411, 0.04711874574422836, 0.07196592539548874, -0.1349373310804367, 0.016318056732416153, 0.1470026671886444, 0.08805646747350693, 0.2038745880126953, 0.07328300923109055, -0.29654747247695923, 0.08112805336713791, 0.016766376793384552, 0.054482877254486084, 0.26700806617736816, 0.07822500169277191, -0.08186949044466019, -0.04390852153301239, 0.15286752581596375, 0.0508732944726944, -0.055579978972673416, -0.0572417750954628, -0.08383098989725113, -0.05850391089916229, -0.006828458979725838, 0.09302636981010437, -0.03919658064842224, 0.018803425133228302, -0.19231675565242767, 0.1440897285938263, -0.02117173932492733, -0.04516633227467537, -0.3631925582885742, -0.06890077888965607, 0.004353567957878113, 0.031343989074230194, 0.17022547125816345, 0.29234394431114197, 0.12192278355360031, -0.1899998039007187, 0.05534809082746506, 0.03696542978286743, 0.0687793418765068, -0.49172401428222656, -0.13553005456924438, -0.06957520544528961, -0.23758460581302643, -0.20687249302864075, 0.00442931056022644, -0.03135232254862785, -0.11268804222345352, -0.049708593636751175, -0.21449409425258636, -0.25662750005722046, -0.08265917748212814, -0.04072032496333122, -0.17197704315185547, 0.16368235647678375, -0.01435767114162445, -0.10730660706758499, 0.0032836715690791607, 0.028870685026049614, 0.11797305196523666, -0.1874123364686966, -0.08760679513216019, -0.2679483890533447, -0.0648903101682663, 0.13921591639518738, -0.01425333321094513, 0.04163282364606857, -0.3362685441970825, 0.26759761571884155, 0.14193317294120789, 0.03849634528160095, 0.07352380454540253, 0.03865678608417511, 0.007926360704004765, 0.4137879014015198, 0.2437986135482788, 0.43430057168006897, 0.02979065477848053], [0.0780111774802208, 0.046638526022434235, -0.07882503420114517, 0.05324380844831467, 0.2260754406452179, 0.08673018962144852, -0.07606691122055054, 0.1945856511592865, 0.06642802059650421, -0.11957400292158127, 0.14291173219680786, -0.2501674294471741, -0.32166340947151184, -0.05839010328054428, -0.1827223002910614, -0.28599339723587036, 0.011423524469137192, 0.13123206794261932, 0.12894189357757568, -0.15844234824180603, -0.12421786040067673, 0.14714504778385162, 0.010185522958636284, 0.05106502026319504, -0.08301886916160583, -0.06903262436389923, -0.022090688347816467, -0.09404108673334122, 0.05280279368162155, 0.057638466358184814, -0.03781452029943466, -0.013420864939689636, -0.09028229862451553, -0.321610689163208, -0.08008325099945068, 0.14855153858661652, -0.12512610852718353, 0.0026041194796562195, -0.10118082910776138, -0.07924187183380127, -0.04970003664493561, 0.005489088594913483, 0.14739368855953217, -0.0037316158413887024, -0.02612174302339554, 0.07438302785158157, -0.31405729055404663, -0.2569931149482727, -0.17235329747200012, -0.04922828823328018, -0.11896472424268723, 0.06309156864881516, 0.11401132494211197, 0.18452055752277374, 0.07782786339521408, -0.20231494307518005, 0.08298648148775101, -0.006790333893150091, -0.05953022092580795, -0.03606158122420311, 0.13135811686515808, 0.16138751804828644, 0.13728953897953033, 0.12618818879127502, 0.07762203365564346, -0.15709148347377777, 0.19037465751171112, 0.043582554906606674, 0.042252905666828156, -0.05497037246823311, 0.02535437047481537, 0.09806977212429047, -0.21957428753376007, -0.0036602988839149475, 0.007134944200515747, 0.01017072144895792, 0.1372140645980835, 0.15561118721961975, -0.01793866604566574, -0.033847909420728683, 0.06491353362798691, -0.05596853792667389, 0.0794239342212677, 0.11532079428434372, -0.17181020975112915, 0.23680905997753143, -0.0009235950419679284, 0.07786852866411209, 0.05730589106678963, 0.026338979601860046, -0.4177529215812683, 0.08298511803150177, 0.04954411834478378, 0.03341930732131004, 0.05856245011091232, -0.04342777654528618, -0.05024544894695282, 0.08366648852825165, 0.08029887825250626, -0.11155065149068832, -0.045151423662900925, -0.08403871953487396, -0.025770045816898346, 0.051723919808864594, -0.13262741267681122, 0.046077288687229156, 0.04381417855620384, 0.02891755849123001, 0.1425129622220993, 0.08941290527582169, 0.04311976209282875, 0.004217773210257292, -0.0623227022588253, 0.022987209260463715, -0.17073707282543182, 0.03445631265640259, 0.04992527514696121, -0.03800816088914871, 0.09409558773040771, 0.19179300963878632, 0.09638183563947678, 0.09583389759063721, 0.14586062729358673, 0.17641331255435944, -0.36146435141563416, 0.09568289667367935, -0.3753490746021271, -0.034905511885881424], [-0.0029691532254219055, -0.06182268261909485, 0.47277531027793884, -0.04187076538801193, -0.31446683406829834, -0.024149924516677856, -0.056081924587488174, -0.022916821762919426, -0.10434559732675552, 0.49670282006263733, -0.19585537910461426, -0.3272513151168823, -0.24676406383514404, -0.05544903501868248, 0.38491764664649963, -0.2847394645214081, 0.49907809495925903, -0.020395448431372643, 0.34370580315589905, 0.47797489166259766, 0.2895444631576538, 0.10909378528594971, -0.07549455761909485, 0.029191896319389343, -0.058054838329553604, -0.04039684683084488, -0.07194554805755615, 0.33083248138427734, -0.21262724697589874, 0.31852176785469055, 0.04171953350305557, -0.06385621428489685, 0.43935394287109375, -0.17473851144313812, 0.43584907054901123, -0.09637008607387543, 0.08379452675580978, 0.049707792699337006, -0.04422275722026825, 0.03382100909948349, -0.05761781707406044, 0.04514697939157486, -0.007112056948244572, -0.008901521563529968, -0.0690993219614029, -0.11866296827793121, -0.28083452582359314, -0.3256690502166748, -0.17469090223312378, -0.04203174635767937, -0.03393899276852608, 0.014344215393066406, -0.25677594542503357, -0.26664072275161743, 0.02521950751543045, -0.06287060678005219, 0.07451952248811722, 0.442475289106369, -0.004445694386959076, 0.0725618377327919, -0.15125061571598053, -0.24433638155460358, -0.2528977692127228, -0.1882137954235077, -0.0011292919516563416, -0.20128194987773895, -0.16703803837299347, -0.1799079030752182, -0.08514171093702316, 0.0580950602889061, -0.022489778697490692, -0.058303430676460266, -0.047304391860961914, -0.027729835361242294, -0.0494903028011322, 0.47615477442741394, -0.14225219190120697, -0.08105220645666122, -0.03399403393268585, 0.34997978806495667, 0.0775017961859703, 0.012828201055526733, -0.19029457867145538, -0.2086583375930786, -0.19430038332939148, -0.33335080742836, 0.4841919243335724, 0.04617776721715927, -0.07908561080694199, 0.021754831075668335, 0.3405227065086365, -0.07185667753219604, 0.011196628212928772, 0.3055117428302765, 0.21186980605125427, -0.045825257897377014, 0.069044329226017, -0.030285516753792763, 0.08506379276514053, 0.4636203944683075, 0.3311350643634796, 0.019942685961723328, 0.05368842929601669, 0.4234473407268524, -0.15763574838638306, -0.0817125141620636, 0.2323169708251953, -0.024870960041880608, -0.11228682100772858, -0.13736870884895325, 0.4406898617744446, 0.21569624543190002, 0.4096311926841736, -0.007779739797115326, -0.06811361014842987, 0.05298589915037155, -0.019223205745220184, 0.38584333658218384, -0.28553512692451477, -0.26581960916519165, -0.10116119682788849, -0.2751622498035431, -0.19510944187641144, -0.07748625427484512, -0.37297287583351135, -0.2562120258808136, -0.21934163570404053, -0.06339367479085922], [-0.012871302664279938, -0.07125556468963623, -0.09693937003612518, 0.012167289853096008, -0.13806498050689697, 0.00043942034244537354, 0.07496156543493271, -0.17007996141910553, -0.08592834323644638, 0.30090978741645813, -0.136832132935524, -0.13377201557159424, -0.29571184515953064, -0.027388256043195724, 0.20402996242046356, -0.26952192187309265, 0.03243506699800491, -0.1345166116952896, 0.004859571810811758, 0.07773438841104507, 0.02100958116352558, -0.0006605460657738149, 0.07074015587568283, 0.04031675308942795, 0.04065994173288345, 0.06079719215631485, -0.07759245485067368, -0.1284625083208084, -0.14272348582744598, -0.023098275065422058, -0.06689298152923584, 0.011028163135051727, 0.012128660455346107, -0.22204449772834778, -0.019219985231757164, -0.093019500374794, -0.00912674143910408, -0.016969963908195496, 0.01439508143812418, -0.06474755704402924, 0.05933160334825516, 0.04825004190206528, -0.17622587084770203, 0.0472317710518837, 0.05919145792722702, -0.12546958029270172, -0.2459600567817688, -0.13887429237365723, -0.2579372227191925, 0.02679731696844101, -0.015549035742878914, -0.1295677274465561, -0.07992516458034515, -0.13076962530612946, 0.04715845733880997, -0.07565353810787201, 0.03875764459371567, -0.018753686919808388, -0.023766376078128815, 9.595602750778198e-05, -0.07286175340414047, -0.11584240943193436, -0.10446655005216599, -0.15817907452583313, -0.06316342949867249, -0.13514100015163422, -0.16468851268291473, -0.0027682697400450706, -0.08299311995506287, 0.022894389927387238, 0.06923631578683853, -0.05761122331023216, -0.032453954219818115, -0.0805995985865593, -0.025546163320541382, -0.10314686596393585, -0.13282117247581482, -0.03908771649003029, -0.07499892264604568, -0.00114578811917454, -0.06295980513095856, -0.056879013776779175, -0.09951884299516678, -0.10874252766370773, -0.05996972694993019, -0.06411892175674438, 0.04733307287096977, -0.07866370677947998, -0.06983064115047455, 0.03958634287118912, 0.09463939070701599, -0.07295957952737808, -0.061434172093868256, -0.01882445439696312, -0.0021013966761529446, 0.08835684508085251, -0.009651288390159607, -0.0788920670747757, -0.06929077953100204, 0.011486202478408813, -0.013850420713424683, -0.06555958837270737, 0.021446578204631805, -0.11377611011266708, 0.015683218836784363, -0.04538802430033684, -0.11949586123228073, -0.07911338657140732, -0.08613169938325882, -0.15793409943580627, -0.06167909875512123, -0.12797731161117554, 0.16884662210941315, -0.0851961001753807, -0.005687733180820942, -0.0630691647529602, 0.04323378950357437, -0.036703478544950485, -0.11102654039859772, -0.12913717329502106, -0.04530009627342224, -0.12186700105667114, -0.11376858502626419, -0.08077581971883774, -0.21698524057865143, -0.05512891709804535, -0.23145265877246857, 0.04875185340642929], [-0.022018268704414368, 0.026269137859344482, -0.06503613293170929, 0.04054068773984909, -0.1777377426624298, 0.035031259059906006, -0.06179121881723404, -0.13015487790107727, -0.08704818785190582, -0.0964820459485054, -0.11393299698829651, 0.1275743693113327, 0.26127368211746216, 0.02191324532032013, -0.03884165361523628, 0.2835504114627838, -0.05571991950273514, -0.08365730941295624, -0.1074175089597702, -0.11409012228250504, -0.08145859837532043, 0.013789346441626549, 0.031250376254320145, 0.029933743178844452, 0.0635438859462738, 0.03325342386960983, 0.03992103785276413, -0.06565771996974945, -0.018043380230665207, -0.008314407430589199, 0.030693158507347107, 0.06049007922410965, 0.027482787147164345, 0.07811080664396286, -0.13140353560447693, -0.0032817015890032053, -0.11965738981962204, -0.07698962837457657, 0.04242672398686409, -0.021515868604183197, -0.007982127368450165, -0.016062818467617035, -0.052526768296957016, 0.08808843046426773, -0.009465046226978302, -0.14486417174339294, 0.26505258679389954, 0.12264256924390793, 0.10366365313529968, 0.040437571704387665, -0.0392676442861557, -0.052537139505147934, -0.12079662084579468, -0.1506059169769287, -0.0711841806769371, 0.11096706986427307, 0.005600385367870331, -0.03388543426990509, 0.03165769577026367, 0.010893061757087708, -0.16701145470142365, -0.08079318702220917, -0.05000454932451248, -0.04533172398805618, -0.059815049171447754, 0.12032251060009003, -0.11288249492645264, -0.02244182862341404, -0.06564223766326904, -0.08342966437339783, -0.01656738668680191, -0.09151195734739304, 0.07311010360717773, 0.04297962039709091, 0.07484803348779678, -0.05297651141881943, -0.042398661375045776, -0.10580388456583023, -0.029283978044986725, -0.029230965301394463, -0.030401766300201416, 0.055256493389606476, -0.12941865622997284, -0.08043777197599411, 0.016629759222269058, -0.1891675889492035, -0.13590312004089355, 0.0686662420630455, 0.049502596259117126, -0.06928648054599762, -0.10642824321985245, -0.10359133780002594, -0.0612185075879097, -0.10650227218866348, -0.13787296414375305, -0.02407936006784439, 0.05200887471437454, -0.0024052623193711042, 0.08147112280130386, -0.11547873169183731, -0.15579679608345032, 0.057132311165332794, -0.05481933057308197, 0.0028146575205028057, 0.0535910502076149, 0.025743044912815094, -0.09301121532917023, -0.1171664297580719, -0.1672825962305069, -0.09504947811365128, -0.1451917588710785, -0.13172340393066406, -0.0977901890873909, 0.05758193880319595, 0.07525027543306351, -0.017571337521076202, 0.033393703401088715, 0.022725356742739677, -0.011413292959332466, -0.15708190202713013, -0.04515088349580765, -0.11442315578460693, -0.11426055431365967, -0.10332543402910233, 0.19332820177078247, -0.05181112512946129, 0.11711215227842331, 0.00010818243026733398], [0.05423607677221298, 0.007907003164291382, -0.08344472944736481, 0.06391697376966476, 0.1425137221813202, 0.0322616770863533, 0.024357758462429047, -0.059771303087472916, 0.013989388011395931, -0.4298667907714844, 0.09514375776052475, -0.02196643128991127, 0.17248040437698364, -0.028759092092514038, -0.32013043761253357, 0.25231271982192993, -0.23930643498897552, -0.021208370104432106, -0.15504726767539978, -0.24388806521892548, -0.1927042454481125, -0.08309909701347351, 0.07364729791879654, 0.06911908835172653, 0.036972206085920334, -0.0739743784070015, 0.07348039001226425, -0.10358968377113342, -0.03182860091328621, -0.07314401119947433, 0.059299103915691376, 0.04372674971818924, -0.04882679507136345, 0.06805320084095001, -0.14868076145648956, -0.023548325523734093, -0.09434989839792252, 0.05187157541513443, 0.12487779557704926, -0.07412564009428024, -0.04599525406956673, 0.03178075700998306, -0.03761756047606468, 0.0247567817568779, 0.04649113863706589, 0.06054949760437012, 0.22987285256385803, 0.22892390191555023, 0.01511978730559349, 0.05254732817411423, 0.08091767877340317, 0.01595293916761875, 0.09611663967370987, 0.11687932163476944, 0.04678034037351608, 0.09641263633966446, -0.06936085224151611, -0.14641129970550537, 0.003096163272857666, 0.08342816680669785, -0.05975254625082016, 0.03249504789710045, 0.09062820672988892, 0.04230079799890518, 0.07712296396493912, 0.02588430978357792, 0.017346160486340523, -0.03619196265935898, -0.03445661813020706, -0.0471256859600544, -0.010946623980998993, 0.0368042029440403, 0.10748618841171265, -0.043302103877067566, 0.07170509546995163, -0.12459159642457962, 0.08481711149215698, -0.06528573483228683, -0.0090213343501091, -0.1671154797077179, 0.06898465007543564, -0.07948324084281921, 0.010078124701976776, 0.03265097737312317, 0.09522083401679993, 0.09775649011135101, -0.10075221955776215, 0.08194652944803238, 0.09786202758550644, 0.0879829004406929, -0.3552379012107849, -0.03762355074286461, -0.08095911890268326, -0.15920965373516083, -0.06904000043869019, 0.04960862547159195, 0.049342624843120575, -0.07704854011535645, -0.05092036724090576, -0.14434652030467987, -0.11553201824426651, 0.021521762013435364, -0.030767302960157394, -0.13068853318691254, 0.10863880813121796, 0.017964310944080353, -0.04472973570227623, -0.10528846830129623, 0.08007173240184784, 0.12003166228532791, -0.05646851658821106, -0.1261177957057953, -0.16409577429294586, 0.08435914665460587, 0.16598360240459442, -0.055468328297138214, -0.049678098410367966, -0.19340689480304718, 0.030418971553444862, 0.04121799021959305, 0.042771369218826294, -0.06522473692893982, -0.09348377585411072, 0.06168973445892334, 0.11008220165967941, 0.005924401804804802, 0.18075774610042572, 0.07532327622175217], [-0.04620017483830452, 0.03375959396362305, -0.12439203262329102, -0.06977161020040512, 0.20455718040466309, 0.0796007439494133, -0.06966407597064972, 0.06467779725790024, 0.12744811177253723, 0.14629985392093658, 0.12190297991037369, -0.241225004196167, -0.43646037578582764, -0.015646472573280334, 0.12657955288887024, -0.30659499764442444, 0.013244809582829475, 0.0428125225007534, 0.19274938106536865, 0.10789281874895096, -0.1905023604631424, 0.07742472738027573, 0.024114087224006653, -0.001511894166469574, -0.20017467439174652, -0.039842721074819565, 0.03377865254878998, 0.11920249462127686, 