{"model": {"state_dict": {"fc1.weight": [[0.2986251413822174, 0.15481925010681152, 0.010178000666201115, 0.233197420835495], [-0.5838748812675476, -0.46559959650039673, 0.12333574146032333, -0.4144817590713501], [0.6052408814430237, 0.6980751156806946, -0.6080843806266785, -0.27564239501953125], [-0.5601816773414612, 0.05194147303700447, 0.2176964282989502, -0.6605880260467529], [0.596579909324646, 0.5626493096351624, -0.3753773868083954, -0.04576750472187996], [-0.11126527935266495, 0.7643208503723145, 0.7202402949333191, 0.37618738412857056], [0.41975754499435425, -0.31806179881095886, -0.31016701459884644, -0.4038802981376648], [0.5385516285896301, 0.2531529664993286, -0.5747286677360535, 0.1698884218931198], [0.07549969106912613, -0.2050510048866272, -0.29382795095443726, -0.533011794090271], [0.25045669078826904, 0.7487696409225464, 0.12861551344394684, -0.2344241589307785], [-0.03350748121738434, 0.2832697629928589, 0.24996578693389893, -0.05764852836728096], [-0.15618684887886047, -0.22965188324451447, 0.5319929718971252, 0.38410884141921997], [0.3792721927165985, 0.29547688364982605, 0.3240368664264679, 0.6736295223236084], [-0.5004751086235046, -0.3810950517654419, -0.7471041679382324, -0.2718062400817871], [0.1536046415567398, -0.6029888391494751, -0.7466701865196228, -0.5983837842941284], [0.07433729618787766, 0.42480719089508057, 0.5738118290901184, 0.2938233017921448], [-0.42435818910598755, -0.5082801580429077, -0.729670524597168, -0.4354535639286041], [0.34199926257133484, 0.19551502168178558, 0.6451181173324585, 0.7285717129707336], [-0.12133374810218811, 0.34883666038513184, 0.5416054129600525, 0.605976939201355], [-0.13680267333984375, 0.14247801899909973, 0.19743120670318604, -0.009111069142818451], [-0.40159064531326294, -0.4038276672363281, 0.6385626196861267, 0.6900047659873962], [0.6191298961639404, 0.30152738094329834, 0.613191545009613, 0.2486373782157898], [0.553721010684967, 0.72527015209198, -0.5512545704841614, -0.7630077600479126], [0.12076301127672195, -0.2397528737783432, -0.5334703922271729, -0.5631986856460571], [0.4217946529388428, -0.22362495958805084, -0.24697093665599823, -0.4291418194770813], [0.5788027048110962, 0.5714525580406189, 0.21293491125106812, 0.0016281212447211146], [0.4656890630722046, 0.21155394613742828, -0.4605771005153656, -0.12434698641300201], [0.638831615447998, 0.08988611400127411, 0.5015369653701782, -0.2999034821987152], [-0.23033426702022552, -0.06389714777469635, 0.40849876403808594, 0.5554308295249939], [-0.4219056963920593, -0.01768283173441887, 0.15053918957710266, -0.26163557171821594], [0.10729638487100601, -0.275150865316391, 0.7200348973274231, 0.6581522822380066], [0.2184937298297882, 0.4490085542201996, 0.4095900058746338, 0.6479870080947876], [-0.480984628200531, -0.42644548416137695, -0.44515460729599, -0.08700136095285416], [-0.21658743917942047, -0.35143402218818665, 0.5762214660644531, 0.2787465453147888], [-0.41215160489082336, -0.5839492082595825, 0.4165804088115692, 0.05803528055548668], [-0.14103840291500092, 0.35704222321510315, 0.6186700463294983, 0.5846680998802185], [0.7356597781181335, 0.07311256974935532, -0.6443037986755371, 0.020689988508820534], [0.06736069172620773, 0.10945826023817062, -0.313989520072937, -0.5784885883331299], [0.49791839718818665, 0.826424777507782, -0.3167080879211426, -0.05496978387236595], [-0.0860435739159584, -0.3048649728298187, 0.6103105545043945, 0.6199856400489807], [0.07474011927843094, -0.1366889774799347, 0.012284317053854465, 0.4013337790966034], [0.3599227964878082, -0.578090250492096, -0.5856286883354187, 0.03209104761481285], [-0.2851889431476593, -0.46203985810279846, 0.31252071261405945, 0.8421355485916138], [-0.13289976119995117, 0.09785043448209763, 0.2462216466665268, 0.08285769820213318], [-0.5084839463233948, -0.13206884264945984, -0.2695990800857544, 0.07288165390491486], [-0.557572603225708, -0.26384827494621277, 0.7295913100242615, 0.7041339874267578], [0.011509050615131855, -0.35688287019729614, 0.3854410648345947, -0.039747755974531174], [0.12551869451999664, -0.001621760311536491, 0.06836199760437012, -0.750622034072876], [0.687816858291626, 0.4696773290634155, 0.18547950685024261, 0.06076383590698242], [0.44786444306373596, 0.4758411943912506, -0.2217998504638672, -0.1365845948457718], [0.6372761130332947, 0.5556414723396301, 0.082517609000206, -0.35345062613487244], [0.5220639109611511, 0.591652512550354, 0.49968957901000977, 0.37310853600502014], [0.6523512005805969, 0.6867053508758545, 0.1371184140443802, -0.267751544713974], [-0.3232262134552002, 0.18161813914775848, 0.16054494678974152, 0.3882848918437958], [-0.6376329064369202, -0.03746577724814415, 0.1132592037320137, -0.42876681685447693], [-0.1636030226945877, 0.6407920122146606, -0.6461930871009827, -0.4522990882396698], [0.31082460284233093, 0.4292413294315338, 0.12159925699234009, -0.39050722122192383], [0.47084271907806396, 0.3268730640411377, 0.6947242021560669, -0.18335454165935516], [0.5825119614601135, 0.6857278347015381, -0.2734478712081909, -0.19312112033367157], [0.580409049987793, 0.7027589082717896, -0.23023897409439087, -0.42399436235427856], [0.6935462355613708, 0.5059607028961182, -0.611149787902832, 0.45697730779647827], [0.04606998711824417, 0.4968284070491791, -0.24903666973114014, -0.4465847909450531], [0.3633217215538025, 0.2207098752260208, 0.4717985987663269, 0.07111810147762299], [0.5263713002204895, 0.6942155957221985, -0.15764689445495605, -0.3173048198223114], [-0.17249137163162231, -0.3548192083835602, -0.2715478539466858, -0.05204453319311142], [-0.3320106565952301, -0.4237775206565857, -0.2619086503982544, -0.40673986077308655], [0.29268333315849304, -0.05538786202669144, -0.6564205288887024, -0.4426620602607727], [-0.28348204493522644, 0.19735179841518402, -0.2624618411064148, -0.6539821028709412], [0.42398473620414734, 0.4014487564563751, -0.1433452069759369, -0.41096243262290955], [-0.5524952411651611, -0.05003799870610237, -0.3235659599304199, 0.5538777112960815], [0.19986020028591156, 0.2973717749118805, -0.7133215665817261, -0.6213347315788269], [0.33399027585983276, 0.4748479425907135, 0.09713596850633621, 0.3185131847858429], [0.3516337275505066, -0.2539357841014862, -0.23677575588226318, -0.33679336309432983], [0.46696245670318604, 0.22778895497322083, 0.28140226006507874, 0.6299208402633667], [-0.4434047043323517, -0.32786285877227783, -0.08082754164934158, -0.04851971194148064], [-0.6174542307853699, 0.1657041758298874, -0.06727821379899979, -0.7524850368499756], [0.16313636302947998, -0.427778035402298, 0.659922182559967, -0.0325952023267746], [-0.26070448756217957, 0.16826662421226501, 0.42155373096466064, 0.5532955527305603], [0.39447689056396484, -0.12988190352916718, 0.15023896098136902, 0.6071323752403259], [0.5223724246025085, 0.6437835097312927, -0.6045732498168945, 0.2308209091424942], [-0.49379050731658936, 0.11786793917417526, -0.2853183448314667, -0.37872928380966187], [0.10415820777416229, -0.4537979066371918, 0.38493186235427856, -0.36225250363349915], [0.3654097020626068, -0.1553339809179306, 0.2923023998737335, 0.438030868768692], [0.6654177308082581, -0.0726471021771431, 0.19651289284229279, 0.53791344165802], [0.49183422327041626, -0.1420799195766449, -0.3732787072658539, -0.34972113370895386], [-0.0413430854678154, -0.46480613946914673, -0.37985411286354065, -0.4423340857028961], [0.04234594851732254, 0.5100893974304199, 0.07971332222223282, -0.12428005039691925], [0.04432394355535507, 0.5988243818283081, -0.09997906535863876, -0.6412407159805298], [-0.2509536147117615, -0.4174461364746094, -0.22639232873916626, -0.5382254719734192], [-0.3183552324771881, -0.41948840022087097, 0.5088220834732056, -0.09416787326335907], [0.0033986049238592386, -0.2138751745223999, 0.009607942774891853, -0.29414045810699463], [0.7437160015106201, 0.23018194735050201, -0.1533062607049942, -0.35970109701156616], [-0.3456462621688843, -0.34961068630218506, 0.09453226625919342, 0.05638464540243149], [0.0041038841009140015, -0.3211330473423004, 0.08818520605564117, 0.2304176539182663], [0.2392081469297409, -0.04048549011349678, 0.08305637538433075, 0.423499196767807], [-0.052396588027477264, 0.5087466239929199, -0.6657974123954773, -0.6656237840652466], [-0.5777723789215088, -0.12639518082141876, -0.32978343963623047, 0.05915957689285278], [-0.21535614132881165, 0.23543526232242584, 0.10400452464818954, 0.5200115442276001], [-0.13610775768756866, 0.271610289812088, 0.1758686751127243, -0.09239111840724945], [0.3570707440376282, 0.48996469378471375, 0.4490368962287903, -0.5134129524230957], [0.7519617676734924, 0.6459143757820129, -0.5153588652610779, 0.03490268066525459], [-0.5494264960289001, 0.18987463414669037, 0.12439730018377304, -0.601949155330658], [0.03504571691155434, -0.6375437378883362, -0.38770467042922974, -0.37427979707717896], [-0.39339587092399597, 0.40693163871765137, 0.1815492957830429, 0.304058700799942], [0.2923874855041504, -0.1983041912317276, -0.43898114562034607, -0.7494067549705505], [-0.474556565284729, -0.5934573411941528, -0.23711331188678741, 0.3273392915725708], [0.07307419925928116, 0.08722295612096786, -0.4767196774482727, 0.09008274227380753], [0.30840209126472473, 0.4847654700279236, -0.3611266613006592, -0.5941217541694641], [0.0764600858092308, -0.16490432620048523, 0.10740920156240463, 0.32280233502388], [0.27139902114868164, -0.2851337194442749, -0.19261115789413452, -0.013064086437225342], [0.7150290608406067, 0.11759067326784134, -0.1325557380914688, -0.6423238515853882], [-0.14175397157669067, -0.4961126446723938, -0.24354338645935059, 0.34196925163269043], [0.532019853591919, 0.4650025963783264, 0.05243179202079773, -0.05222177132964134], [0.1279940903186798, 0.6679685711860657, -0.09706652909517288, 0.6604958176612854], [0.2719569504261017, -0.4705425798892975, -0.4527204632759094, -0.08405683934688568], [-0.40110862255096436, -0.4379178285598755, 0.35749322175979614, -0.5192217826843262], [0.6791479587554932, 0.4646439552307129, 0.3644038736820221, 0.36740970611572266], [-0.5458984375, -0.10989058017730713, -0.6653748154640198, -0.5108253955841064], [0.5608677268028259, 0.022947845980525017, -0.1439441591501236, -0.6269356608390808], [-0.017896611243486404, 0.7140085697174072, -0.3306671380996704, -0.2508434057235718], [-0.3662249743938446, 0.39520153403282166, 0.0495886504650116, -0.5331100821495056], [-0.15724682807922363, -0.19589491188526154, 0.5958355665206909, 0.5270532965660095], [-0.11930003017187119, -0.15160660445690155, -0.38172847032546997, -0.3135477304458618], [-0.3259718716144562, -0.0799821987748146, 0.05591578781604767, 0.6700701713562012], [0.38863280415534973, -0.10996634513139725, 0.4433954954147339, 0.7250492572784424], [-0.32497310638427734, -0.6730772852897644, -0.27268344163894653, -0.5475258231163025], [0.7283979058265686, 0.5909486413002014, 0.3911483883857727, 0.3015989661216736], [0.10788022726774216, 0.05328528955578804, 0.010557211935520172, 0.18824271857738495]], "fc1.bias": [-0.4318719804286957, 0.19839750230312347, -0.2033161073923111, 0.5955265164375305, -0.03819011151790619, -0.20329417288303375, -0.29449543356895447, 0.007133756764233112, -0.07421885430812836, -0.4617730379104614, 0.6632938981056213, 0.0052179391495883465, -0.15379440784454346, 0.37787824869155884, 0.2655840814113617, -0.37583598494529724, 0.2466498613357544, -0.5395035743713379, -0.393113374710083, -0.35787662863731384, 0.23068848252296448, -0.24224252998828888, 0.2255489081144333, 0.43642106652259827, -0.20647017657756805, 0.5754950046539307, -0.3408324122428894, 0.12848535180091858, -0.24233192205429077, -0.33758798241615295, -0.5418874621391296, -0.29557475447654724, -0.3386639356613159, 0.02937794290482998, -0.2377193123102188, -0.4382406175136566, 0.08078677952289581, 0.26437440514564514, -0.4910517632961273, -0.5598746538162231, 0.4995763897895813, 0.5314880609512329, 0.06633886694908142, 0.6171950697898865, 0.12721717357635498, 0.05651084706187248, -0.3927500247955322, 0.5588721036911011, -0.3081066608428955, -0.2588776648044586, -0.481521338224411, -0.17516598105430603, -0.4551742672920227, -0.3209644556045532, 0.3947492241859436, 0.08276016265153885, -0.4994743764400482, -0.37689921259880066, -0.17425639927387238, -0.31070592999458313, 0.05817296728491783, -0.12455098330974579, 0.13602608442306519, 0.3910292983055115, -0.07999355345964432, -0.03767897188663483, -0.026807142421603203, -0.3758859634399414, 0.010533900000154972, 0.21551759541034698, 0.10959865897893906, 0.4079771637916565, -0.3573785424232483, -0.05407552421092987, 0.11572469025850296, 0.5126287341117859, -0.5226484537124634, -0.2555360496044159, -0.11500661820173264, 0.1831900179386139, 0.5613228678703308, -0.3494657576084137, -0.49654725193977356, 0.21586349606513977, -0.33277106285095215, 0.4529974162578583, -0.44757023453712463, 0.0416506789624691, -0.29608914256095886, -0.47185003757476807, 0.39998680353164673, -0.2813173532485962, -0.0945393294095993, -0.2549802362918854, 0.02622082643210888, 0.1610652059316635, -0.2869774103164673, -0.4389333128929138, 0.46624013781547546, -0.4855591058731079, -0.10414345562458038, 0.5269355773925781, 0.5712358355522156, 0.5531351566314697, 0.11887792497873306, -0.14685428142547607, 0.4537505805492401, 0.053987689316272736, -0.3685857653617859, -0.1957336664199829, 0.12283585965633392, 0.22863829135894775, -0.4656437635421753, -0.10471556335687637, 0.5530344843864441, 0.2225583791732788, 0.12894542515277863, 0.12327845394611359, 0.10073433071374893, 0.10301919281482697, 0.40310415625572205, -0.3825743496417999, 0.06809817254543304, -0.383701890707016, -0.059124916791915894, -0.15807731449604034, -0.16827546060085297, -0.012699039652943611], "fc2.weight": [[0.07381031662225723, -0.22513815760612488, 0.21827447414398193, 0.07299194484949112, 0.21737831830978394, -0.3357754647731781, -0.014655277132987976, 0.3224755525588989, -0.036869704723358154, 0.023395651951432228, 0.005230223760008812, -0.4592810571193695, -0.3112981617450714, 0.16651521623134613, 0.19263863563537598, -0.2010556310415268, 0.11775966733694077, -0.37453073263168335, -0.3422778844833374, -0.048887088894844055, -0.18619312345981598, -0.016873041167855263, 0.1294260025024414, 0.22760993242263794, 0.08643510192632675, -0.03236006200313568, -0.038220226764678955, -0.018575500696897507, -0.5135321617126465, -0.029834900051355362, -0.4344789683818817, -0.41248786449432373, -0.03941041976213455, -0.4699772000312805, -0.0703655555844307, -0.31268131732940674, 0.2655574679374695, 0.20146368443965912, 0.10259950906038284, -0.016757845878601074, -0.015751231461763382, 0.14390073716640472, -0.4450134336948395, -0.04107917472720146, 0.08451477438211441, -0.28369027376174927, 0.07216895371675491, 0.04979505017399788, 0.19009532034397125, 0.01826215535402298, 0.18760201334953308, 0.010593634098768234, 0.22543536126613617, 0.08511146903038025, 0.04497455805540085, 0.191526859998703, -0.02365180104970932, -0.04520917683839798, 0.11518259346485138, 0.1989164650440216, 0.06842558830976486, 0.17977339029312134, -0.2049930989742279, 0.19571828842163086, -0.03239976614713669, 0.07093844562768936, 0.09811004996299744, -0.00048270076513290405, 0.13228638470172882, -0.20046153664588928, 0.13712167739868164, -0.02207578532397747, 0.08244160562753677, -0.2795321047306061, 0.01759061962366104, 0.143071249127388, 0.08547414094209671, -0.40618205070495605, -0.4094153940677643, 0.11711106449365616, 0.002717119874432683, -0.03285597637295723, -0.0581304207444191, -0.18868063390254974, 0.029158666729927063, 0.24335217475891113, 0.06759034842252731, 0.3504042327404022, -0.08497048914432526, 0.0646195188164711, 0.1304599791765213, 0.16779793798923492, -0.06309476494789124, -0.08455146849155426, -0.48966312408447266, 0.12731391191482544, -0.042595069855451584, -0.06438834965229034, -0.03506733477115631, -0.08256378024816513, 0.15396417677402496, 0.047020088881254196, 0.04321607947349548, 0.004288891796022654, 0.2539430260658264, -0.07264183461666107, -0.006407829932868481, 0.27463841438293457, 0.014059342443943024, -0.08360351622104645, 0.10956006497144699, -0.2965123653411865, 0.07945465296506882, -0.24301336705684662, 0.14705921709537506, -0.23716117441654205, 0.025368817150592804, 0.15437185764312744, 0.27508121728897095, 0.19831201434135437, 0.06440321356058121, -0.3431716561317444, -0.029056794941425323, -0.04957909137010574, -0.34082910418510437, 0.08333795517683029, 0.11806649714708328, 0.0015505676856264472], [0.06294814497232437, -0.10875576734542847, 0.17968159914016724, -0.25796881318092346, 0.17881537973880768, 0.36002975702285767, -0.01998363435268402, 0.22113874554634094, -0.07058662176132202, 0.13614638149738312, -0.06479699909687042, 0.5349053740501404, 0.3087100386619568, -0.21217399835586548, -0.1247885525226593, 0.193843811750412, -0.19843599200248718, 0.3650234341621399, 0.3087790012359619, 0.08187999576330185, -0.031074319034814835, 0.20774725079536438, 0.17120365798473358, -0.16459447145462036, 0.029506556689739227, 0.005739589687436819, 0.08735441416501999, 0.32872632145881653, 0.4169315695762634, 0.017901375889778137, 0.28465142846107483, 0.334183007478714, -0.08090692013502121, 0.4350222051143646, -0.019206464290618896, 0.3140140175819397, 0.33857911825180054, -0.053913116455078125, 0.0466717928647995, 0.11010836809873581, -0.020627157762646675, -0.22005276381969452, 0.34878596663475037, -0.07970039546489716, 0.027359575033187866, 0.10848687589168549, 0.042193807661533356, -0.09163223206996918, 0.1560746431350708, 0.0092908451333642, 0.017083169892430305, 0.1797981709241867, 0.1683206558227539, -0.06763295084238052, -0.3088957965373993, 0.2965325713157654, -0.05640459060668945, 0.12720642983913422, 0.25999507308006287, 0.10760267823934555, 0.21936672925949097, 0.18956610560417175, 0.3133184313774109, 0.07519620656967163, 0.032050348818302155, -0.03817281126976013, 0.13157986104488373, 0.08193819969892502, 0.3050687611103058, -0.030115723609924316, 0.1176363155245781, 0.029515163972973824, 0.029247306287288666, 0.3826107382774353, 0.08820212632417679, -0.15488526225090027, -0.06908415257930756, 0.48880183696746826, 0.391350656747818, 0.2520437240600586, -0.20991985499858856, 0.009485013782978058, -0.08387693762779236, 0.2311909794807434, 0.06413283199071884, -0.3702579140663147, -0.002060219645500183, 0.36234673857688904, 0.030056215822696686, 0.06174912303686142, -0.15475739538669586, 0.2545972466468811, 0.052940405905246735, 0.06907588988542557, 0.45835310220718384, 0.20636966824531555, -0.04193618893623352, -0.04897778853774071, 0.03432701528072357, 0.0882999524474144, 0.11878448724746704, -0.130872443318367, -0.19494420289993286, -0.0788392573595047, 0.21776750683784485, -0.06794425845146179, -0.11795660853385925, 0.31571921706199646, -0.013242900371551514, -0.012800969183444977, 0.12386073172092438, -0.2102927565574646, 0.07402076572179794, 0.31592506170272827, -0.14782477915287018, -0.1109151840209961, 0.3719314932823181, -0.09933732450008392, 0.3167702853679657, 0.23566700518131256, -0.13677333295345306, 0.2991797626018524, -0.03783194720745087, 0.050606515258550644, 0.3176681399345398, -0.06753430515527725, 0.12087879329919815, -0.006617421749979258], [0.059002988040447235, -0.1039518266916275, 0.25972649455070496, 0.09075373411178589, 0.18509405851364136, -0.1805475652217865, -0.0059969499707221985, 0.26880863308906555, -0.06873086839914322, -0.024086734279990196, -0.05468493700027466, -0.46238043904304504, -0.3784324526786804, -0.03191211074590683, 0.09632409363985062, -0.24005115032196045, 0.02626350335776806, -0.27582523226737976, -0.41056540608406067, -0.06118647754192352, -0.17131465673446655, -0.08837689459323883, 0.23745806515216827, 0.21651962399482727, 0.00748153030872345, 0.05534689128398895, -0.0811985582113266, -0.07635854929685593, -0.46863436698913574, -0.05235356092453003, -0.39007437229156494, -0.36838382482528687, -0.010403014719486237, -0.46323928236961365, -0.05422324687242508, -0.3050574064254761, 0.2443871796131134, 0.11627419292926788, 0.09218446165323257, -0.05718083307147026, -0.03818275034427643, 0.05412038043141365, -0.4761890470981598, 0.052139248698949814, -0.05657916143536568, -0.30095788836479187, -0.07243050634860992, 0.19418492913246155, 0.10003801435232162, 0.14287348091602325, 0.19106483459472656, 0.06573569774627686, 0.13997171819210052, -0.08301422744989395, -0.083624467253685, 0.1737145334482193, 0.03932849317789078, -0.06815329939126968, 0.19063757359981537, 0.23644888401031494, -0.01249923836439848, 0.026884611696004868, -0.09095731377601624, 0.10879620164632797, -0.06148812174797058, -0.057576775550842285, 0.11760786920785904, -0.0785759910941124, 0.23766592144966125, -0.14883996546268463, 0.19531111419200897, -0.0037070598918944597, 0.03879711776971817, -0.40984201431274414, 0.00016808509826660156, 0.11076537519693375, -0.0855940654873848, -0.46941012144088745, -0.44118717312812805, 0.1040995642542839, 0.030318010598421097, 0.06571020931005478, 0.018401026725769043, -0.09453078359365463, -0.05183170735836029, 0.12248478829860687, 0.05790015310049057, 0.40269219875335693, -0.034297071397304535, 0.08404121547937393, 0.02204407937824726, 0.19201257824897766, 0.0340239480137825, 0.0739382728934288, -0.346075177192688, 0.07642633467912674, -0.06533310562372208, -0.00042928755283355713, 0.03836448863148689, 0.07690262049436569, 0.2836843430995941, 0.04046756401658058, -0.01507005374878645, -0.0027204020880162716, 0.19176754355430603, 0.06321489065885544, 0.1278381645679474, 0.2745411694049835, -0.019732333719730377, -0.031260158866643906, 0.20761245489120483, -0.12905144691467285, 0.026989519596099854, -0.27903521060943604, 0.15244893729686737, -0.10134948045015335, -0.08458252996206284, 0.16526605188846588, 0.25231313705444336, 0.24494817852973938, 0.17015008628368378, -0.30869585275650024, -0.07739400118589401, -0.01230502687394619, -0.44446706771850586, 0.053803808987140656, 0.1320602297782898, -0.08058598637580872], [-0.035192206501960754, -0.25141292810440063, 0.3686244785785675, -0.2548576295375824, 0.4381456971168518, 0.14436785876750946, 0.0797630324959755, 0.41273683309555054, 0.07822760194540024, 0.11984910070896149, -0.06584985554218292, 0.13221774995326996, 0.23387376964092255, -0.31662100553512573, -0.26476117968559265, 0.1041024774312973, -0.31130948662757874, 0.11051452159881592, 0.04211951792240143, -0.01920028030872345, -0.1817885935306549, 0.19822271168231964, 0.10246128588914871, -0.0953323245048523, 0.0820908322930336, 0.011274349875748158, 0.0004814342246390879, 0.38631492853164673, 0.09678535163402557, 0.08297932893037796, 0.0071736895479261875, 0.12421395629644394, 0.05752325803041458, 0.18757124245166779, 0.04933958500623703, 0.020290367305278778, 0.40494802594184875, -0.08261331915855408, 0.21262456476688385, 0.04986385628581047, -0.1639714539051056, -0.23564952611923218, 0.04778853803873062, -0.149775892496109, 0.0018792003393173218, 0.06643848866224289, -0.04312899708747864, -0.09689715504646301, 0.21479716897010803, 0.22134238481521606, 0.05441976338624954, 0.24767696857452393, 0.2266416847705841, -0.03863164409995079, -0.29849401116371155, 0.23018163442611694, 0.06965295225381851, 0.17532379925251007, 0.33700627088546753, 0.2562735378742218, 0.33849138021469116, 0.18188972771167755, 0.2535826861858368, 0.13200828433036804, 0.08631040900945663, 0.06478618830442429, 0.11507400870323181, -0.003305964171886444, 0.3243679106235504, 0.048693377524614334, 0.18159472942352295, -0.003856974421069026, 0.014713168144226074, 0.25191372632980347, 0.06652646511793137, -0.17877091467380524, 0.0163995623588562, 0.18466198444366455, 0.29398638010025024, 0.2670193910598755, -0.11334347724914551, -0.059484414756298065, -0.0014003217220306396, 0.25325408577919006, -0.030084390193223953, -0.17408537864685059, 0.08806879073381424, 0.5144315361976624, 0.04696621745824814, 0.012336879968643188, -0.23354610800743103, 0.29526084661483765, -0.062005747109651566, -0.02619946002960205, 0.3955273926258087, 0.13767407834529877, -0.07899175584316254, 0.03845085948705673, -0.04746309295296669, -0.07536512613296509, 0.34999406337738037, -0.1982758790254593, -0.15490064024925232, -0.14006628096103668, 0.15510797500610352, -0.041840776801109314, -0.010136970318853855, 0.4639632999897003, 0.08686705678701401, 0.06364824622869492, 0.2712938189506531, -0.18486268818378448, 0.029675375670194626, 0.41699594259262085, -0.17907407879829407, -0.1403404027223587, 0.2918492555618286, -0.1919471174478531, 0.2633810043334961, 0.3605530560016632, -0.041186027228832245, 0.04028410091996193, 0.006910935044288635, 0.039808426052331924, 0.20484301447868347, 0.07066840678453445, 0.25086820125579834, -0.12847718596458435], [0.030413784086704254, -0.2104089856147766, 0.22317340970039368, -0.020220892503857613, 0.2562262713909149, -0.2055046409368515, 0.045498572289943695, 0.1631331592798233, 0.013914547860622406, 0.05100971460342407, 0.009492894634604454, -0.4224960207939148, -0.3069937527179718, 0.1906227469444275, 0.16318826377391815, -0.08424706012010574, 0.17275109887123108, -0.31864818930625916, -0.3930291533470154, 0.05657336860895157, -0.2879853844642639, -0.0547553151845932, 0.09536201506853104, 0.25470346212387085, 0.051804639399051666, -0.0028306012973189354, -0.00859515368938446, -0.031006846576929092, -0.3661721646785736, -0.0069968923926353455, -0.3623030185699463, -0.2503271996974945, -0.004575051367282867, -0.5451571345329285, -0.050743162631988525, -0.3197536766529083, 0.2543871998786926, 0.18333500623703003, 0.24098509550094604, -0.04919895529747009, -0.10359355062246323, 0.009641722775995731, -0.36515283584594727, -0.04226183518767357, -0.06929564476013184, -0.3512257933616638, -0.02806726098060608, 0.18093927204608917, 0.14971348643302917, 0.11583589017391205, 0.17946067452430725, -0.08333083242177963, 0.12228895723819733, -0.0006088014924898744, -0.005061550531536341, 0.20566196739673615, 0.08803530782461166, -0.03604244813323021, 0.23467522859573364, 0.11380088329315186, 0.024489225819706917, 0.10616980493068695, -0.15757118165493011, 0.16587473452091217, -0.03942466899752617, 0.016560211777687073, 0.0064502558670938015, 0.04700449854135513, 0.17013727128505707, -0.293569415807724, 0.13426557183265686, -0.04561106860637665, -0.001417785882949829, -0.3135911822319031, -0.05233827233314514, 0.12363676726818085, -0.03664524108171463, -0.44412264227867126, -0.43128323554992676, 0.049443379044532776, 0.043428465723991394, 0.029243245720863342, 0.038156427443027496, -0.19834785163402557, 0.0691852793097496, 0.15937648713588715, 0.0515383705496788, 0.2205319106578827, -0.06791016459465027, 0.02347394824028015, -0.03099074400961399, 0.17023055255413055, 0.015335246920585632, -0.038531702011823654, -0.3991853892803192, 0.12934234738349915, -0.07873164862394333, -0.03851925954222679, 0.05319088697433472, 0.04458486661314964, 0.2256251871585846, 0.03427940979599953, 0.06711560487747192, 0.009886659681797028, 0.12394902855157852, -0.06799737364053726, 0.14135386049747467, 0.17533685266971588, 0.0882529690861702, 0.03203678876161575, 0.25053590536117554, -0.2990840971469879, 0.06291978806257248, -0.21543143689632416, 0.09280118346214294, -0.25676026940345764, -0.04806620255112648, 0.18538255989551544, 0.21899940073490143, 0.23958668112754822, 0.09573115408420563, -0.33415675163269043, 0.010772109031677246, -0.0016496697207912803, -0.29299771785736084, 0.04380545765161514, 0.07204905897378922, 0.10703755170106888], [-0.08098923414945602, 0.06492802500724792, -0.0296923965215683, -0.1830538958311081, -0.09095072001218796, 0.25962841510772705, -0.0716932937502861, -0.14281931519508362, -0.06613393872976303, 0.03818374127149582, -0.08402664959430695, 0.5238044857978821, 0.2492016851902008, -0.15769124031066895, -0.17946593463420868, 0.10235040634870529, -0.13335193693637848, 0.20676803588867188, 0.29639676213264465, 0.05425647646188736, 0.09020831435918808, 0.19574512541294098, -0.11293431371450424, -0.20996510982513428, 0.07281183451414108, -0.08556179702281952, -0.03951357677578926, -0.00888088345527649, 0.3610827922821045, 0.05124283581972122, 0.2199956774711609, 0.3111392855644226, 0.038112811744213104, 0.38306349515914917, -0.07285498082637787, 0.21097329258918762, -0.19938510656356812, -0.2398981899023056, 0.1615285873413086, 0.14034973084926605, -0.038799889385700226, -0.1802450716495514, 0.33472397923469543, -0.14205418527126312, -0.014376319944858551, 0.3261016011238098, -0.05395367741584778, -0.1889350712299347, 0.019109316170215607, 0.07166348397731781, 0.07650068402290344, -0.08508914709091187, 0.011930465698242188, -0.0012622012291103601, -0.14236751198768616, -0.2831023633480072, -0.06424465030431747, 0.07291232794523239, -0.02372092939913273, -0.024042492732405663, 0.022283796221017838, -0.02903282828629017, 0.1077491044998169, -0.2419666051864624, -0.06678478419780731, -0.07841818034648895, -0.06870724260807037, 0.0028200745582580566, -0.13015271723270416, 0.21400262415409088, -0.17694011330604553, -0.0970291793346405, 0.0715763047337532, 0.3423409163951874, 0.0869816318154335, -0.2449726015329361, -1.4677643775939941e-05, 0.37819111347198486, 0.1963382512331009, -0.06840083748102188, -0.1884719878435135, -0.03628335893154144, 0.08658812195062637, 0.01637580245733261, 0.08668964356184006, -0.2587195336818695, -0.038388948887586594, -0.20324766635894775, 0.07835680991411209, 0.0460544154047966, -0.15082460641860962, -0.14204631745815277, 0.037274204194545746, -0.033002499490976334, 0.20841093361377716, -0.04771425947546959, -0.0795619934797287, 0.0039732009172439575, -0.129378080368042, 0.08222144842147827, -0.08117575198411942, -0.08575543761253357, -0.1505080759525299, -0.05462326854467392, -0.27395543456077576, 0.08310813456773758, -0.1844971626996994, -0.1722438633441925, 0.03713078051805496, 0.06962762027978897, -0.20452027022838593, -0.05494345724582672, -0.012238645926117897, 0.19038066267967224, -0.11499498784542084, 0.04924802482128143, 0.06409046053886414, -0.10547281056642532, -0.22552281618118286, -0.20983977615833282, -0.15398012101650238, 0.2668718993663788, 0.003873862326145172, 0.013605334796011448, 0.342376172542572, -0.06315299868583679, -0.06177676469087601, 0.020978083834052086], [-0.037862397730350494, 0.22513657808303833, -0.28295978903770447, 0.07367852330207825, -0.29868578910827637, 0.22272653877735138, 0.04167637974023819, -0.17645297944545746, -0.08609846234321594, -0.047783542424440384, -0.1550992876291275, 0.3448219299316406, 0.38113296031951904, 0.03222305700182915, -0.07832106202840805, 0.15966671705245972, 0.17401307821273804, 0.32951927185058594, 0.28987428545951843, 0.06473050266504288, 0.19014988839626312, -0.11913228780031204, -0.14825880527496338, -0.13392674922943115, -0.014880828559398651, -0.23356151580810547, -0.0009363889694213867, -0.07854735851287842, 0.37613216042518616, -0.014602810144424438, 0.311763733625412, 0.4328937530517578, 0.028234407305717468, 0.3674825429916382, 0.03673572093248367, 0.1802126169204712, -0.314985454082489, -0.17396986484527588, -0.19463880360126495, 0.1672225445508957, -0.05986369773745537, -0.18155205249786377, 0.36477160453796387, -0.14781805872917175, -0.04995562508702278, 0.3550986349582672, -0.017172396183013916, -0.13202226161956787, -0.16236791014671326, -0.09684233367443085, -0.0021206759847700596, -0.1990644782781601, -0.12551119923591614, -0.02169264666736126, 0.14194294810295105, -0.30621853470802307, 0.05176018923521042, -0.005452051293104887, -0.24717223644256592, -0.15348096191883087, -0.11993831396102905, -0.09924134612083435, -0.09659505635499954, -0.12807905673980713, -0.05018317699432373, -0.007713533937931061, 0.050604891031980515, 0.021671898663043976, -0.19249188899993896, 0.08370038866996765, -0.20739711821079254, -0.20884718000888824, 0.00021415948867797852, 0.21860279142856598, 0.07625453919172287, -0.016078324988484383, -0.05435887724161148, 0.3725055158138275, 0.42847582697868347, -0.08656658977270126, 0.005984267219901085, 0.005841292440891266, -0.020661182701587677, -0.12298289686441422, -0.04596941918134689, -0.12788695096969604, 0.08601244539022446, -0.3160335421562195, -0.06823231279850006, 0.07804376631975174, -0.10661887377500534, -0.23473715782165527, 0.04830659180879593, 0.06365389376878738, 0.4307665526866913, -0.14889608323574066, -0.05728032439947128, 0.015247687697410583, -0.17821018397808075, -0.013257752172648907, -0.20501182973384857, -0.06865233182907104, -0.09864789992570877, -0.11244069039821625, -0.2678873836994171, 0.01929190754890442, -0.13458950817584991, -0.2596709132194519, 0.02834819257259369, -0.006060466170310974, -0.23777756094932556, 0.07441583275794983, 0.016983777284622192, -0.1331481635570526, -0.18064013123512268, 0.2499810755252838, -0.12649410963058472, 0.16745156049728394, -0.23275142908096313, -0.3028193414211273, -0.12039270251989365, 0.2813704311847687, 0.057553790509700775, -0.04724530503153801, 0.4354272484779358, 0.019939526915550232, -0.2624860405921936, -0.02883773297071457], [-0.0025200992822647095, -0.1377653181552887, 0.324045330286026, -0.11208955198526382, 0.2679235339164734, 0.2881065309047699, -0.02664782851934433, 0.33231303095817566, 0.008250467479228973, 0.022397909313440323, -0.0020659714937210083, 0.3199032247066498, 0.22567938268184662, -0.11367717385292053, -0.14343266189098358, 0.15868034958839417, -0.21654416620731354, 0.2894727289676666, 0.20826569199562073, -0.021712541580200195, -0.14825382828712463, 0.3436209559440613, 0.0706743523478508, -0.1453811079263687, 0.030250951647758484, -0.01637609489262104, -0.034933194518089294, 0.2595091462135315, 0.3573565185070038, -0.05559896305203438, 0.19049736857414246, 0.14143700897693634, -0.04771818593144417, 0.34873372316360474, -0.024933017790317535, 0.11916156113147736, 0.23039092123508453, 0.03655533492565155, 0.08810858428478241, 0.038193222135305405, -0.04861322417855263, -0.12210290133953094, 0.21148037910461426, -0.14457949995994568, -0.04189695045351982, -0.04868873953819275, 0.06242918223142624, -0.09256365150213242, 0.3047539293766022, 0.267473429441452, 0.14436793327331543, 0.25597715377807617, 0.3108976483345032, -0.029275765642523766, -0.1229621022939682, 0.07302538305521011, 0.05820813030004501, 0.02597266063094139, 0.3626905381679535, 0.26226910948753357, 0.29292160272598267, 0.018044855445623398, 0.2603937089443207, -0.07211120426654816, -0.0536692813038826, -0.06267930567264557, -0.0030641271732747555, 0.04869072884321213, 0.37614408135414124, -0.06900579482316971, 0.10531213879585266, 0.007681325078010559, 0.02320323884487152, 0.2658981680870056, 0.008948251605033875, -0.17312000691890717, -0.024342112243175507, 0.2899671196937561, 0.506041407585144, 0.050623394548892975, -0.1430397480726242, 0.04665917903184891, -0.06976354122161865, 0.1795119345188141, 0.0021413564682006836, -0.205566868185997, -0.07433159649372101, 0.5108473896980286, -0.03293800354003906, -0.03520480915904045, -0.035915274173021317, 0.414844810962677, -0.029233958572149277, -0.07920665293931961, 0.4872938096523285, 0.0039040003903210163, -0.07443435490131378, 0.00560249388217926, -0.09884636104106903, 0.04677166789770126, 0.2782910466194153, -0.16887418925762177, -0.18026942014694214, -0.06906963884830475, 0.1369314193725586, -0.03561655059456825, -0.0898827612400055, 0.3595893681049347, 0.056367166340351105, 0.04390885680913925, 0.0913083553314209, -0.20495353639125824, -0.059888798743486404, 0.3369644284248352, -0.12229618430137634, -0.21562254428863525, 0.14957910776138306, -0.06886930763721466, 0.13981662690639496, 0.16188976168632507, -0.04250228777527809, 0.13624896109104156, 0.0194711834192276, 0.062132079154253006, 0.19973936676979065, 0.05409499257802963, 0.26200318336486816, -0.07768677920103073], [0.08543715626001358, -0.049138061702251434, -0.22516609728336334, -0.14776186645030975, -0.2517215609550476, 0.35195687413215637, 0.05171302706003189, -0.3232620656490326, 0.017277345061302185, -0.12395273894071579, -0.01027413085103035, 0.548214316368103, 0.5421577095985413, -0.019361233338713646, -0.08158794045448303, 0.23750588297843933, -0.052955642342567444, 0.31209492683410645, 0.2621797025203705, -0.023690134286880493, -0.052283886820077896, -0.12330319732427597, -0.03721154108643532, -0.20855548977851868, -0.07206287235021591, -0.11170601844787598, -0.029914021492004395, 0.05005102977156639, 0.39753714203834534, 0.06896776705980301, 0.2877781093120575, 0.4296373724937439, 0.08153363317251205, 0.3576298952102661, 0.00833604484796524, 0.40622463822364807, -0.2988039553165436, -0.03380485251545906, -0.1738262176513672, 0.12685081362724304, -0.025015939027071, -0.07189180701971054, 0.15292978286743164, -0.10954675078392029, -0.08530598133802414, 0.0831725224852562, 0.08367826789617538, -0.12743744254112244, -0.3200826346874237, -0.19742439687252045, -0.11804469674825668, -0.16854976117610931, -0.2145257443189621, -0.03535491228103638, -0.07394436001777649, 0.04920779541134834, -0.07692088186740875, 0.05559024587273598, -0.18725386261940002, -0.26449674367904663, 0.019944991916418076, -0.055184029042720795, 0.10655894130468369, -0.11991629749536514, 0.022150486707687378, 0.08498064428567886, -0.09492164850234985, 0.05529933422803879, -0.27275243401527405, -0.061689816415309906, 0.12650498747825623, -0.023107262328267097, -0.03175091743469238, 0.2163042277097702, -0.06334853172302246, -0.17973630130290985, 0.024574637413024902, 0.5164294242858887, 0.467832088470459, -0.004790754057466984, -0.1649530977010727, -0.07990000396966934, 0.05302680283784866, 0.022426273673772812, -0.04354305565357208, -0.05974160507321358, -0.010465949773788452, -0.42320534586906433, 0.005149669945240021, 0.0843362882733345, -0.07462040334939957, -0.3250003457069397, -0.049389246851205826, -0.03960208594799042, 0.5118693113327026, 0.06960716843605042, -0.04208996146917343, 0.05431243032217026, -0.11390785872936249, 0.07761678844690323, -0.2831752300262451, -0.09183454513549805, -0.19940577447414398, -0.1295536905527115, 0.06097596138715744, -0.08677054196596146, -0.1227535754442215, -0.22789379954338074, -0.02545061707496643, -0.07917116582393646, 0.12455917149782181, -0.1916315108537674, -0.007558159995824099, 0.037905748933553696, -0.20520159602165222, 0.004174886271357536, -0.032100874930620193, 0.08673255145549774, -0.04564448446035385, 0.05778508633375168, -0.014368722215294838, 0.39266058802604675, 0.060224197804927826, 0.075541190803051, 0.3752422332763672, -0.04934758320450783, -0.2141677290201187, -0.037113744765520096], [-0.03738504275679588, -0.034309037029743195, -0.27836260199546814, -0.04845637455582619, -0.183706596493721, 0.35877084732055664, -0.07220243662595749, -0.3374725878238678, 0.0027015283703804016, 0.06893307715654373, -0.0828767791390419, 0.5883392691612244, 0.4844292998313904, -0.042355529963970184, -0.1397278755903244, 0.13165520131587982, -0.04724057391285896, 0.2997048497200012, 0.3058454990386963, -0.06004173308610916, 0.05874156951904297, -0.010329252108931541, -0.0016253357753157616, -0.23483702540397644, -0.046673987060785294, -0.04465677961707115, -0.08544864505529404, 0.07776305079460144, 0.4942152500152588, -0.024257346987724304, 0.3468112349510193, 0.48522838950157166, -0.028680920600891113, 0.40151718258857727, 0.05450599640607834, 0.3293849229812622, -0.17388547956943512, -0.16189539432525635, -0.18945175409317017, 0.11949986219406128, -0.1592472493648529, -0.12221904844045639, 0.16899530589580536, -0.13065077364444733, -2.291053533554077e-05, 0.22047513723373413, -0.03263964504003525, -0.09224211424589157, -0.06811729818582535, -0.15018944442272186, -0.1437532901763916, -0.044210247695446014, -0.27614766359329224, -0.05125853046774864, -0.0004683285369537771, -0.10189558565616608, 0.08779800683259964, -0.009683727286756039, -0.25243544578552246, -0.20405398309230804, 0.08359738439321518, -0.1587684005498886, 0.06348530948162079, -0.19796794652938843, 0.05429600924253464, -0.05668429657816887, -0.017991339787840843, -0.017378725111484528, -0.29602551460266113, -0.0933973491191864, -0.11694423854351044, -0.102786123752594, -0.02058640867471695, 0.2957369089126587, -0.06488891690969467, -0.07055005431175232, -0.050698041915893555, 0.5578058362007141, 0.4794614911079407, 0.08187872916460037, -0.1541471928358078, 0.07056169956922531, -0.07578273862600327, -0.06244385614991188, -0.03708583489060402, -0.20127758383750916, -0.01641625165939331, -0.3241005539894104, -0.01893720030784607, -0.024300552904605865, -0.1195264607667923, -0.2662929594516754, -0.0013827979564666748, 0.05441100150346756, 0.417559415102005, 0.04235480725765228, 0.07228661328554153, -0.029465872794389725, -0.09585154056549072, 0.08669862896203995, -0.3034741282463074, -0.04826116934418678, -0.07274308055639267, -0.07481858134269714, -0.11148203164339066, 0.04689336568117142, -0.1603085994720459, -0.16962860524654388, -0.07536657154560089, 0.040164195001125336, 0.02511110156774521, -0.06885119527578354, 0.07009290158748627, 0.11033947765827179, -0.10449979454278946, -0.03045281395316124, 0.07558480650186539, 0.10386724770069122, -0.07252524048089981, -0.09220821410417557, -0.2118520736694336, 0.34188252687454224, 0.033035628497600555, 0.03811821714043617, 0.3137582242488861, -0.055538397282361984, -0.1340605765581131, 0.09866710007190704], [-0.047733645886182785, -0.06501149386167526, -0.02887541428208351, -0.21208830177783966, -0.06643125414848328, 0.5059463977813721, 0.04032929986715317, -0.22609727084636688, -0.019513621926307678, -0.0888814851641655, -0.1406063735485077, 0.5963989496231079, 0.3821862041950226, -0.1959082931280136, -0.14593011140823364, 0.2501218020915985, -0.19134564697742462, 0.26454249024391174, 0.3599373400211334, 0.08076862245798111, 0.04884693771600723, 0.2625575363636017, -0.023668138310313225, -0.21837711334228516, 0.03275245428085327, -0.16803626716136932, 0.007494404911994934, 0.2627210319042206, 0.5110941529273987, 0.02609816938638687, 0.3930266499519348, 0.33869585394859314, 0.04692930728197098, 0.5066552758216858, 0.0480387881398201, 0.3507886826992035, -0.12856537103652954, -0.08502852916717529, -0.17742902040481567, 0.17222821712493896, -0.07009553164243698, -0.25469762086868286, 0.45695042610168457, -0.010084431618452072, -0.009333431720733643, 0.2875398099422455, -0.018726058304309845, -0.07403016835451126, -0.0327700637280941, -0.11420457810163498, -0.1993633657693863, 0.14700834453105927, -0.12416970729827881, 0.00921532791107893, -0.09486345201730728, -0.11114306002855301, -0.008935689926147461, 0.10034731775522232, -0.14234575629234314, -0.07590529322624207, 0.09199416637420654, -0.027247874066233635, 0.2252471148967743, -0.18605142831802368, -0.002003028988838196, 0.0685344710946083, 0.14833691716194153, 0.029099240899086, -0.14386805891990662, -0.03038489818572998, -0.04206312075257301, -0.05607961490750313, 0.07643815129995346, 0.4604845345020294, -0.07383963465690613, -0.14243851602077484, -0.04655945301055908, 0.46396031975746155, 0.366249144077301, -0.03402122110128403, -0.14055514335632324, -0.07011405378580093, 0.02539125084877014, 0.06488588452339172, 0.035454995930194855, -0.17437265813350677, -0.06421221047639847, -0.28053775429725647, 0.021724984049797058, 0.029748886823654175, -0.130283921957016, -0.3087383806705475, 0.04453244060277939, 0.05614132434129715, 0.46510469913482666, -0.15209542214870453, 7.352232933044434e-05, 0.043515436351299286, -0.12526921927928925, 0.001401249784976244, -0.1473877876996994, -0.21903516352176666, -0.09177955985069275, -0.07297815382480621, -0.09778895974159241, 0.03214317560195923, -0.20848079025745392, -0.008175238035619259, 0.05371556431055069, -0.01065206527709961, -0.10554581135511398, -0.0958816334605217, -0.06663043051958084, 0.3237721025943756, -0.1721530258655548, 0.11363433301448822, 0.12249928712844849, -0.14230507612228394, -0.030228951945900917, 0.0327378548681736, -0.1770569086074829, 0.4321829378604889, -0.07794293761253357, 0.07799272984266281, 0.39916542172431946, 0.0643068328499794, 0.08749020844697952, 0.024046873673796654], [-0.08494734764099121, 0.12733371555805206, -0.16043727099895477, 0.1271679848432541, -0.2644479274749756, -0.2560727596282959, -0.006974481046199799, -0.20389777421951294, 0.05931387096643448, -0.08838772773742676, -0.09520933032035828, -0.4612923860549927, -0.33660978078842163, 0.2972525656223297, 0.16941837966442108, -0.13545188307762146, 0.21156691014766693, -0.336839497089386, -0.40794602036476135, 0.0027915462851524353, -0.05660722032189369, -0.28037500381469727, -0.09648305922746658, 0.11079269647598267, -0.00966944545507431, -0.1453595906496048, 0.07332351058721542, -0.33350279927253723, -0.5053390860557556, -0.04308583587408066, -0.3327449560165405, -0.3445517420768738, -0.03900673985481262, -0.41922521591186523, 0.01431363821029663, -0.39276015758514404, -0.2905176877975464, 0.12228702008724213, -0.20825886726379395, -0.09570605307817459, -0.1252313107252121, 0.16841909289360046, -0.41579341888427734, -0.03392636403441429, -0.051767803728580475, -0.19688715040683746, -0.025120951235294342, 0.16224241256713867, -0.17126382887363434, -0.1541961431503296, -0.19709226489067078, -0.19283683598041534, -0.1487441062927246, -0.051508501172065735, 0.20092205703258514, -0.16081787645816803, 0.08565887063741684, -0.12316327542066574, -0.27210894227027893, -0.1038527637720108, -0.32078105211257935, -0.08724336326122284, -0.2536049485206604, 0.07075168192386627, 0.006899714469909668, 0.04490453749895096, 0.02612655609846115, 0.06622626632452011, -0.2275743931531906, -0.20927822589874268, -0.11773144453763962, -0.10990140587091446, -0.00812269002199173, -0.5017616152763367, -0.06394682824611664, 0.2092617303133011, -0.020331375300884247, -0.5393818020820618, -0.49261531233787537, -0.16358038783073425, 0.10752863436937332, 0.07876726239919662, -0.038766343146562576, -0.20053589344024658, 0.060098178684711456, 0.2383350133895874, 0.028081782162189484, -0.28633618354797363, 0.03768298774957657, 0.02079189568758011, 0.041974470019340515, -0.2806639075279236, 0.0032294094562530518, -0.05153339356184006, -0.42024776339530945, 0.06934035569429398, 0.02151351422071457, -0.0469234324991703, -0.008026120252907276, -0.0843740701675415, -0.2957412600517273, 0.06765930354595184, 0.1729671061038971, -0.07249340415000916, -0.10079782456159592, -0.014385096728801727, -0.02934589982032776, -0.1864732950925827, -0.015197835862636566, 0.07843225449323654, -0.09318862855434418, -0.030483102425932884, 0.05797971040010452, -0.32953718304634094, 0.14817622303962708, 0.10101718455553055, -0.14806459844112396, 0.24723011255264282, -0.06747914850711823, -0.12043146789073944, 0.08127979189157486, -0.3815036416053772, 0.04209727793931961, -0.015269836410880089, -0.46067726612091064, -0.026393841952085495, -0.1997136026620865, 0.013420149683952332], [-0.03141671419143677, -0.018440205603837967, 0.09292536228895187, 0.09031493961811066, 0.06765244156122208, -0.3612258732318878, -0.05451417714357376, -0.01857094094157219, 0.01199774444103241, 0.007945661433041096, -0.06347932666540146, -0.5576789379119873, -0.3711528778076172, 0.15026086568832397, 0.2506510615348816, -0.21722353994846344, 0.3216131329536438, -0.38247427344322205, -0.29545971751213074, -0.04921237751841545, -0.25456294417381287, -0.2056879997253418, 0.08940795063972473, 0.13330711424350739, 0.08316589146852493, -0.054635364562273026, 0.005549930036067963, -0.05087640881538391, -0.4271310865879059, 0.0635542944073677, -0.4319586157798767, -0.3296491503715515, -0.05011361464858055, -0.4284413158893585, -0.004910394549369812, -0.2866930067539215, 0.10233897715806961, 0.18981972336769104, -0.16703952848911285, -0.027169549837708473, -0.02315477468073368, 0.06055580824613571, -0.42685365676879883, 0.04487663879990578, 0.03759414702653885, -0.32850944995880127, 0.010967232286930084, 0.08787428587675095, -0.052125971764326096, -0.010250060819089413, -0.07919536530971527, -0.05946251377463341, 0.04427415877580643, -0.014851411804556847, 0.1773585081100464, 0.18892894685268402, -0.04278889298439026, -0.10127958655357361, 0.08569863438606262, 0.013876357115805149, 0.0008399686776101589, -0.05098964646458626, -0.15165641903877258, 0.19138886034488678, 0.010663636028766632, 0.0724397823214531, 0.0280601903796196, 0.08201306313276291, -0.026752326637506485, -0.27446499466896057, 0.10069206357002258, -0.07171940058469772, 0.03753194957971573, -0.4174470007419586, -0.08759964257478714, 0.2068135291337967, 0.05543952435255051, -0.4323788285255432, -0.4169078469276428, 0.08949020504951477, 0.21098977327346802, -0.07338420301675797, -0.014379695057868958, -0.11326117068529129, -0.04232111573219299, 0.18532930314540863, -0.023464679718017578, -0.021935174241662025, 0.07363215833902359, -0.05442012473940849, 0.12296275794506073, 0.027713429182767868, 0.008556514978408813, -0.06387265026569366, -0.3844988942146301, 0.04959147050976753, 0.055295489728450775, -0.07183602452278137, -0.06770201772451401, 0.020669450983405113, 0.023021437227725983, 0.15868458151817322, 0.23421241343021393, -0.09748771041631699, 0.22154594957828522, -0.029387690126895905, 0.1443137526512146, 0.09813881665468216, -0.037117525935173035, -0.037206098437309265, 0.13524511456489563, -0.273360937833786, 0.0560174435377121, -0.3415771722793579, 0.03644859418272972, -0.09279190748929977, -0.07845871895551682, 0.19587229192256927, 0.1362016797065735, 0.041169505566358566, 0.10723292827606201, -0.46137022972106934, -0.026266388595104218, -0.09931857138872147, -0.32405024766921997, -0.005363471806049347, 0.017737556248903275, 0.028471408411860466], [-0.0011296644806861877, 0.2831815779209137, -0.26387932896614075, 0.15744300186634064, -0.2687875032424927, -0.41156136989593506, -0.08055625855922699, -0.35357019305229187, -0.06799792498350143, -0.08978679776191711, -0.07571575790643692, -0.4473382830619812, -0.35295945405960083, 0.30819815397262573, 0.11170316487550735, -0.16255910694599152, 0.39074936509132385, -0.2746390998363495, -0.3944026231765747, -0.006208166480064392, 0.010570199228823185, -0.38936319947242737, -0.23506762087345123, 0.10634888708591461, 0.008067920804023743, -0.23773270845413208, 0.08738545328378677, -0.30339595675468445, -0.49499040842056274, 0.03270972520112991, -0.29742884635925293, -0.3255646824836731, -0.020724229514598846, -0.5439890623092651, -0.03490542992949486, -0.2998861074447632, -0.28620803356170654, -0.015471088699996471, -0.21227391064167023, -0.08163690567016602, -0.04533128812909126, 0.12152743339538574, -0.3883289396762848, -0.07458551228046417, -0.052946124225854874, -0.15902385115623474, 0.016671352088451385, -0.09292800724506378, -0.23690539598464966, -0.29621219635009766, -0.20931732654571533, -0.25802913308143616, -0.16753053665161133, -0.022601919248700142, 0.3116072416305542, -0.2373538762331009, -0.06658279895782471, -0.012175671756267548, -0.3116143047809601, -0.22744861245155334, -0.28217241168022156, -0.050129830837249756, -0.3286774158477783, -0.20132099092006683, -0.003019876778125763, 0.044503532350063324, -0.026231223717331886, 0.08067696541547775, -0.30739256739616394, -0.11673852801322937, -0.13590700924396515, -0.22912757098674774, -0.038373515009880066, -0.4445091485977173, 0.05705093592405319, 0.11936767399311066, 0.013699136674404144, -0.4144638776779175, -0.3794863820075989, -0.22700966894626617, 0.07986177504062653, 0.01569303125143051, -0.08255093544721603, -0.3654133379459381, 0.06284523755311966, 0.24051257967948914, -0.061627015471458435, -0.47006773948669434, 0.08259173482656479, 0.05388692766427994, 0.042029984295368195, -0.2381570190191269, -0.0023371726274490356, 0.045261673629283905, -0.3616700768470764, -0.11136707663536072, -0.006032265722751617, -0.028635136783123016, -0.06853394210338593, -0.020604457706212997, -0.34431931376457214, 0.21427632868289948, 0.24901777505874634, -0.13789518177509308, -0.10736377537250519, 0.036470331251621246, 0.013662656769156456, -0.3154952824115753, 0.06149157136678696, -0.03797087445855141, -0.2441493570804596, 0.06450525671243668, -0.06334065645933151, -0.32689520716667175, 0.13175234198570251, 0.09583807736635208, -0.4195275604724884, 0.24205513298511505, -0.2659722566604614, -0.30374857783317566, 0.03325730562210083, -0.3908216059207916, 0.014581777155399323, -0.04766359180212021, -0.34088951349258423, 0.07423015683889389, -0.21988427639007568, 0.002590515650808811], [-0.07067985087633133, -0.3397911489009857, 0.2809374928474426, -0.15417219698429108, 0.28160643577575684, 0.20192107558250427, -0.048797737807035446, 0.3261542320251465, 0.018689095973968506, 0.10869059711694717, -0.11003684252500534, -0.3716146945953369, -0.21890906989574432, -0.2834480404853821, -0.17898140847682953, -0.19950039684772491, -0.37712493538856506, -0.3313940763473511, -0.273025780916214, 0.04537647217512131, -0.25787490606307983, 0.2840629518032074, 0.16753964126110077, -0.1172078475356102, -0.0858280286192894, 0.0042841676622629166, -0.03190699592232704, 0.22692319750785828, -0.257287859916687, -0.04616686701774597, -0.15839499235153198, -0.3020350933074951, -0.07361933588981628, -0.2237432450056076, -0.019717834889888763, -0.188448965549469, 0.4019126892089844, 0.014276359230279922, 0.22870931029319763, -0.1528485119342804, -0.030126255005598068, -0.16367486119270325, -0.17970994114875793, -0.16793689131736755, 0.08435586839914322, -0.23070253431797028, -0.043790552765131, 0.009037583135068417, 0.2128133922815323, 0.16346324980258942, 0.09693426638841629, 0.273038387298584, 0.2694166898727417, 0.04779359698295593, -0.37391197681427, 0.23995445668697357, -0.008457683026790619, -0.06559211760759354, 0.3205012381076813, 0.16673201322555542, 0.22900104522705078, 0.1475323736667633, 0.12510398030281067, 0.20250798761844635, -0.0003416389226913452, -0.004385262727737427, 0.006820848677307367, 0.047403283417224884, 0.39863693714141846, -0.24766339361667633, 0.18205265700817108, 0.08754146844148636, -0.011309981346130371, 0.17369525134563446, 0.005900979042053223, -0.12861581146717072, 0.05633155256509781, -0.2781725525856018, -0.3962980806827545, 0.27409034967422485, -0.17265857756137848, -0.0671098455786705, 0.0579182431101799, 0.22495479881763458, 0.06193820387125015, -0.19140388071537018, -0.08039864897727966, 0.4251772165298462, 0.02512533962726593, -0.050996728241443634, -0.24397782981395721, 0.3445715606212616, -0.00908660888671875, -0.009108394384384155, -0.4091022312641144, 0.12938377261161804, 0.08387171477079391, -0.08814363181591034, -0.0011308178072795272, 0.04501401633024216, 0.23738425970077515, -0.1539885252714157, -0.23047639429569244, -0.007101445458829403, 0.23584459722042084, -0.06818324327468872, 0.03744124993681908, 0.39553558826446533, 0.06583622843027115, -0.0834711566567421, 0.24218632280826569, -0.3050779402256012, -0.022972529754042625, 0.22353041172027588, -0.21259355545043945, -0.41844746470451355, 0.22581017017364502, -0.29729828238487244, 0.3863416910171509, 0.3056066334247589, -0.05811389163136482, -0.2408009171485901, -0.02204921841621399, 0.044778238981962204, -0.09881546348333359, -0.07039893418550491, 0.30988287925720215, -0.0065333666279911995], [-0.006637729704380035, -0.31050676107406616, 0.30480775237083435, -0.2829589247703552, 0.39248716831207275, 0.39776331186294556, 0.008987687528133392, 0.2949046790599823, -0.030341841280460358, 0.14042218029499054, -0.13071411848068237, 0.5090340971946716, 0.36321237683296204, -0.2147732973098755, -0.257644921541214, 0.167854905128479, -0.2546626329421997, 0.279526948928833, 0.28720784187316895, 0.02380456030368805, -0.24686488509178162, 0.2818814516067505, 0.15525823831558228, -0.1019005998969078, -0.017290174961090088, 0.02155408076941967, 0.0713096633553505, 0.397388756275177, 0.42856863141059875, 0.06644418090581894, 0.2883063852787018, 0.2964400053024292, 0.07903481274843216, 0.398540198802948, -0.07879611104726791, 0.25221505761146545, 0.29344671964645386, -0.08400410413742065, 0.14435064792633057, 0.16091382503509521, -0.1265782117843628, -0.15425078570842743, 0.24953147768974304, -0.03970686346292496, -0.03787202015519142, -0.013735149055719376, -0.06406129896640778, -0.044718388468027115, 0.18998907506465912, 0.1990501880645752, 0.17840345203876495, 0.27794206142425537, 0.2928527593612671, 0.015463070012629032, -0.31513121724128723, 0.3434901535511017, 0.04353863745927811, -0.007926383055746555, 0.3340459167957306, 0.20100443065166473, 0.43399301171302795, 0.06517866253852844, 0.2898062467575073, 0.1766921430826187, 0.012774817645549774, -0.005868740379810333, 0.09607569128274918, 0.015554718673229218, 0.33852702379226685, -0.06852099299430847, 0.25464436411857605, 0.10110603272914886, 0.07751064747571945, 0.3983176350593567, 0.000702396035194397, -0.28068476915359497, -0.005490340292453766, 0.4175010621547699, 0.3922417163848877, 0.3519271910190582, -0.1169665977358818, -0.020176932215690613, 0.017429113388061523, 0.24298284947872162, 0.04524192959070206, -0.21588312089443207, 0.0775693729519844, 0.4053269624710083, 0.07168527692556381, 0.03654376417398453, -0.09933656454086304, 0.39960548281669617, -0.004473753273487091, -0.07581939548254013, 0.4323485195636749, 0.11958833783864975, -0.02814158797264099, 0.0675971731543541, -0.09499852359294891, 0.017298778519034386, 0.35939282178878784, -0.14885151386260986, -0.19317218661308289, -0.15848706662654877, 0.12990689277648926, 0.016898922622203827, -0.058177169412374496, 0.33634984493255615, 0.017428651452064514, 0.06838009506464005, 0.30987855792045593, -0.21239028871059418, 0.09465761482715607, 0.3577643632888794, -0.17635929584503174, -0.26909905672073364, 0.43299174308776855, -0.21829861402511597, 0.3119402825832367, 0.3330558240413666, -0.16176198422908783, 0.2648739516735077, 0.047497086226940155, 0.008225399069488049, 0.2708568572998047, 0.022946633398532867, 0.2848348617553711, -0.008824183605611324], [0.060241855680942535, 0.018156515434384346, 0.18197107315063477, 0.09519076347351074, 0.16446514427661896, -0.22833147644996643, -0.022269606590270996, 0.12360990047454834, 0.07379954308271408, 0.05462333559989929, -0.062370702624320984, -0.4324066638946533, -0.30483439564704895, 0.10066185146570206, 0.09419075399637222, -0.09634717553853989, 0.09989466518163681, -0.23882907629013062, -0.3626907467842102, -0.0461130253970623, -0.1441185623407364, -0.08642557263374329, 0.23166415095329285, 0.16522125899791718, 0.03246913105249405, 0.004201216623187065, 0.041142962872982025, -0.014262467622756958, -0.43506142497062683, -0.02756403759121895, -0.41824737191200256, -0.4099132716655731, 0.010937266051769257, -0.47789266705513, -0.07972494512796402, -0.24126961827278137, 0.11875954270362854, 0.15073877573013306, 0.2115248143672943, -0.003144796472042799, -0.09517107903957367, 0.03336426615715027, -0.33219438791275024, -0.08143691718578339, -0.018927179276943207, -0.2939146161079407, -0.07980089634656906, 0.08164574205875397, 0.12578420341014862, 0.2328309714794159, 0.0833745002746582, 0.019796250388026237, 0.14889676868915558, -0.07454662024974823, 0.0958891361951828, 0.11505655944347382, -0.0781557559967041, -0.04387654736638069, 0.17580121755599976, 0.13909770548343658, -0.0010973276803269982, 0.10636217892169952, -0.04604082554578781, 0.1215556412935257, -0.00179232656955719, -0.02582591027021408, 0.0814536064863205, 0.06727611273527145, 0.19137020409107208, -0.222431018948555, 0.07399044930934906, -0.07029278576374054, -0.07468943297863007, -0.3005661368370056, 0.043375663459300995, 0.21682897210121155, -0.020588018000125885, -0.5043784379959106, -0.49755313992500305, 0.057864442467689514, 0.20285770297050476, 0.059803493320941925, -0.07197467982769012, -0.1636207550764084, -0.07860548049211502, 0.2480364292860031, 0.0682159885764122, 0.24035845696926117, -0.005542866885662079, 0.07690420001745224, 0.13089269399642944, 0.16626469790935516, 0.01469103991985321, 0.024508051574230194, -0.3690703511238098, 0.17325924336910248, 0.021953776478767395, -0.06770584732294083, 0.0602395124733448, -0.015209642238914967, 0.13584499061107635, 0.07132747769355774, 0.057435888797044754, -0.10783208161592484, 0.2209402471780777, 0.044859401881694794, 0.06577114015817642, 0.1237705871462822, -0.030949853360652924, 0.04365900903940201, 0.08144634962081909, -0.0663013681769371, 0.05642971023917198, -0.29534995555877686, 0.0766858235001564, -0.0026653946842998266, -0.09643964469432831, 0.15884387493133545, 0.11875604093074799, 0.1932840198278427, 0.1646127551794052, -0.2884582579135895, 0.024763621389865875, -0.06327292323112488, -0.3531303405761719, 0.07547841221094131, -0.014710241928696632, 0.02633097767829895], [-0.02552340179681778, -0.05414041504263878, -0.06797106564044952, 0.0040663741528987885, -0.033023156225681305, -0.17460201680660248, -0.011493109166622162, -0.17308855056762695, 0.07902295142412186, -0.13029687106609344, -0.14358413219451904, -0.41553056240081787, -0.16515065729618073, -0.010641912929713726, 0.011282576248049736, -0.024715028703212738, -0.023526161909103394, -0.06135964393615723, -0.16666646301746368, -0.071832075715065, -0.24321144819259644, -0.09271770715713501, -0.03738388791680336, 0.0017453775508329272, -0.044632688164711, 0.012924893759191036, -0.08604752272367477, -0.03387821465730667, -0.29029348492622375, 0.057089678943157196, -0.12951025366783142, -0.24797943234443665, -0.036889027804136276, -0.36521315574645996, 0.07233249396085739, -0.06101159006357193, -0.15490445494651794, -0.07293203473091125, -0.12984015047550201, 0.06780019402503967, -0.11678765714168549, -0.03345690667629242, -0.3272058665752411, -0.1531846672296524, -0.0688544511795044, -0.19555769860744476, -0.020130202174186707, -0.13359805941581726, -0.08161897957324982, -0.029873818159103394, -0.019206227734684944, -0.10775502026081085, -0.05449259653687477, 0.013560228049755096, -0.05159522220492363, -0.09203141182661057, -0.06673941016197205, -0.055571623146533966, -0.12975722551345825, 0.020294709131121635, -0.09220752865076065, -0.0849151536822319, -0.15121427178382874, -0.05100564286112785, -0.0015515908598899841, -0.08827995508909225, -0.08442981541156769, 0.06551393121480942, -0.12767696380615234, -0.30713745951652527, -0.12593460083007812, -0.08778832107782364, 0.014307968318462372, -0.27811136841773987, 0.06074758619070053, -0.11730773746967316, 0.020040906965732574, -0.16834022104740143, -0.4050551652908325, -0.07252203673124313, -0.10078082978725433, 0.06388386338949203, 0.07431330531835556, -0.2093648761510849, -0.07801459729671478, -0.002942277817055583, 0.025023825466632843, -0.24421069025993347, -0.04502017796039581, -0.039550960063934326, -0.14843764901161194, -0.1979912966489792, -0.026778433471918106, 0.07661288231611252, -0.33269548416137695, -0.14483706653118134, 0.022938095033168793, 0.015659064054489136, -0.044173311442136765, 0.06675026565790176, -0.13838641345500946, -0.1254936158657074, -0.11710932850837708, -0.09070185571908951, -0.1199536919593811, 0.05673684924840927, -0.07799942046403885, -0.09706219285726547, 0.03485408425331116, -0.04746109992265701, -0.14972101151943207, -0.2529205083847046, 0.029522238299250603, -0.28663551807403564, -0.01105080172419548, -0.1825477033853531, -0.13507460057735443, -0.057649094611406326, -0.04631877318024635, -0.16326633095741272, -0.13186557590961456, -0.13106907904148102, -0.06394387781620026, -0.06159764900803566, -0.2815852761268616, -0.06581221520900726, -0.025952700525522232, 0.04749305546283722], [-0.05364910140633583, 0.08921980857849121, -0.14892403781414032, -0.13694219291210175, -0.0847395732998848, 0.17677351832389832, 0.0880146250128746, -0.30439165234565735, 0.06457466632127762, -0.1309681385755539, -0.044366586953401566, 0.4936254024505615, 0.3668096363544464, -0.08980917185544968, -0.14396452903747559, 0.24242271482944489, 0.01406739093363285, 0.4101783037185669, 0.3000396192073822, 0.01708248257637024, -0.006569053046405315, -0.046292588114738464, -0.11439481377601624, -0.0582389272749424, -0.009810827672481537, -0.12151080369949341, -0.008696936070919037, -0.053895264863967896, 0.5432800054550171, -0.049459461122751236, 0.3872392773628235, 0.32469749450683594, 0.0533636137843132, 0.38700589537620544, 0.01159801334142685, 0.3441857695579529, -0.12472053617238998, 0.0011949539184570312, -0.1454073041677475, 0.11064840108156204, -0.18095119297504425, -0.15990780293941498, 0.28013086318969727, -0.12035078555345535, -0.04895563796162605, 0.18545150756835938, 0.08260258287191391, -0.030770037323236465, -0.1837279200553894, -0.0828142985701561, -0.10370799899101257, -0.08996250480413437, -0.09226439148187637, 0.005196065176278353, -0.1432933509349823, -0.12248525023460388, 0.029390588402748108, 0.04606417566537857, -0.1895531564950943, -0.1569090634584427, 0.006447980646044016, -0.05028877034783363, 0.12817348539829254, -0.14058542251586914, -0.058322787284851074, -0.07520020753145218, -0.10410503298044205, 0.05548898130655289, -0.21281027793884277, -0.04453011229634285, -0.10608145594596863, -0.04897085949778557, 0.036909542977809906, 0.12449666857719421, -0.06175532937049866, -0.07952503859996796, 0.02332666516304016, 0.41404226422309875, 0.36469709873199463, -0.03260912001132965, -0.06431616097688675, -0.0046210214495658875, 0.059555746614933014, -0.11093452572822571, -0.027856402099132538, -0.0874941498041153, 0.0801820233464241, -0.24334557354450226, -0.05490421503782272, 0.030260242521762848, -0.11458924412727356, -0.198910191655159, -0.031155329197645187, -0.005398929119110107, 0.38277021050453186, -0.09479868412017822, -0.008057363331317902, -0.007119633257389069, -0.146747887134552, -0.07999182492494583, -0.16057062149047852, -0.05331152677536011, -0.1941733956336975, -0.09926814585924149, -0.10008183121681213, -0.03036551922559738, -0.1165178045630455, -0.19352218508720398, 0.06661064177751541, 0.04506603628396988, 0.026317186653614044, 0.048461250960826874, -0.02298685535788536, -0.03432094678282738, -0.2067328542470932, 0.15918579697608948, -0.012908215634524822, 0.10383203625679016, -0.09180346876382828, -0.19057443737983704, -0.07337721437215805, 0.3710169494152069, -0.03605025261640549, 0.0454745814204216, 0.25122249126434326, 0.023058690130710602, -0.18181011080741882, 0.05578397214412689], [-0.01503337174654007, -0.1619475930929184, 0.12885089218616486, -0.05498922988772392, 0.159511998295784, -0.18276430666446686, -0.06456391513347626, 0.32188746333122253, -0.05848182737827301, -0.0009887435007840395, 0.020847605541348457, -0.49364203214645386, -0.341653436422348, 0.07206260412931442, 0.19900758564472198, -0.20440667867660522, 0.06771095842123032, -0.2935201823711395, -0.3178575336933136, 0.029436685144901276, -0.31486833095550537, 0.016217464581131935, 0.25093573331832886, 0.10309730470180511, -0.004616931080818176, 0.0655471608042717, 0.07313888520002365, -0.1007092297077179, -0.39567434787750244, 0.07729092985391617, -0.41135361790657043, -0.2275390475988388, 0.08427517861127853, -0.5040555596351624, -0.024841226637363434, -0.2603985071182251, 0.2131320983171463, 0.12257741391658783, 0.180821031332016, -0.016083747148513794, -0.1339731365442276, 0.154031440615654, -0.3304004669189453, -0.11683661490678787, 0.042264483869075775, -0.24264512956142426, -0.010323993861675262, 0.08302349597215652, 0.10194575041532516, 0.22002439200878143, 0.1466389149427414, 0.0698549896478653, 0.10226231068372726, 0.07419277727603912, -0.03308869153261185, 0.3432233929634094, 0.04331076890230179, 0.04770372435450554, 0.2696424424648285, 0.1485145539045334, 0.08356113731861115, 0.11472466588020325, -0.1995345503091812, 0.21290874481201172, -0.019499830901622772, 0.07870260626077652, 0.07914106547832489, 0.03300008922815323, 0.2911698818206787, -0.1567191630601883, 0.15872466564178467, -0.04121696576476097, 0.05387125164270401, -0.40844208002090454, 0.0858762189745903, 0.07594747096300125, -0.029689177870750427, -0.4439294636249542, -0.436397522687912, 0.10052410513162613, -0.024074161425232887, 0.045513816177845, 0.049368999898433685, -0.15295527875423431, -0.008544273674488068, 0.06623626500368118, -0.013409949839115143, 0.26942288875579834, -0.0347268208861351, -0.08467186987400055, 0.07016367465257645, 0.309318482875824, 0.0747750923037529, -0.06211046129465103, -0.4137820303440094, 0.1167527511715889, 0.00025262683629989624, -0.04888265207409859, 0.03306420147418976, 0.012143606320023537, 0.14146089553833008, 0.03804175928235054, 0.06410012394189835, -0.011274568736553192, 0.2918246388435364, 0.020871035754680634, 0.12128511816263199, 0.32782992720603943, 0.02221774309873581, 0.07775557786226273, 0.2253110259771347, -0.28463974595069885, -0.06654968112707138, -0.22390656173229218, -0.024964403361082077, -0.24958154559135437, 0.030535604804754257, 0.07522774487733841, 0.201358824968338, 0.22835703194141388, 0.07458923757076263, -0.3415752649307251, 0.006368681788444519, -0.11884003132581711, -0.3492341935634613, 0.03306228667497635, 0.1396360844373703, -0.023076500743627548], [-0.0039808303117752075, -0.01459029782563448, -0.020708825439214706, -0.12319009006023407, -0.12168342620134354, 0.21392112970352173, -0.034043483436107635, -0.22413495182991028, 0.07551223784685135, -0.07072214782238007, -0.11542187631130219, 0.49641063809394836, 0.4256162643432617, -0.19421826303005219, -0.0791768729686737, 0.20435896515846252, -0.12437300384044647, 0.3105636239051819, 0.377018004655838, 0.03356128931045532, 0.016420982778072357, 0.08251485228538513, -0.07023763656616211, -0.18239666521549225, 0.024912558495998383, -0.07458055764436722, -0.049731213599443436, 0.06141108274459839, 0.46942177414894104, -0.060899294912815094, 0.34568172693252563, 0.3330535292625427, 0.032539188861846924, 0.3937568962574005, -0.0464613139629364, 0.3083655834197998, -0.13834817707538605, -0.09529609978199005, -0.19569286704063416, 0.18177281320095062, -0.0017540677217766643, -0.15822869539260864, 0.3511143624782562, -0.16251429915428162, 0.004051588475704193, 0.16252276301383972, -0.05198844149708748, -0.08375794440507889, -0.15252655744552612, -0.011177697218954563, -0.21983689069747925, -0.08153656125068665, -0.18715663254261017, 0.010977167636156082, -0.18277904391288757, -0.07070141285657883, -0.004143990576267242, -0.016769662499427795, -0.13960935175418854, -0.11612575501203537, -0.01363229751586914, -0.029907962307333946, 0.02777811884880066, -0.05951212719082832, 0.03646278381347656, -0.03788604214787483, -0.09949786961078644, 0.07286686450242996, -0.1707620769739151, 0.11313340812921524, -0.0757875144481659, 0.009986303746700287, -0.06627355515956879, 0.29765206575393677, 0.01966017484664917, -0.18107718229293823, -0.01214282214641571, 0.5371062159538269, 0.4633239209651947, 0.0048353057354688644, -0.10467717051506042, -0.07097376137971878, -0.03423449397087097, -0.026870466768741608, 0.06275593489408493, -0.23815743625164032, -0.07542075216770172, -0.239433154463768, -0.08489155769348145, 0.05773498862981796, -0.061458006501197815, -0.32699188590049744, -0.042528729885816574, -0.06446708738803864, 0.47873422503471375, -0.09930961579084396, -0.07916821539402008, -0.07028982788324356, -0.08244132995605469, -0.0477016344666481, -0.052741918712854385, -0.17493508756160736, -0.153347447514534, -0.1245417594909668, -0.08305839449167252, 0.03273072838783264, -0.10243118554353714, -0.0977349802851677, -0.004536919295787811, 0.024216927587985992, -0.07248993963003159, -0.053387705236673355, 0.03907299041748047, 0.11153088510036469, -0.17786939442157745, 0.12098700553178787, -0.022295281291007996, -0.1167769804596901, -0.05305321887135506, -0.09421639889478683, -0.10386145114898682, 0.41190335154533386, -0.06602723151445389, 0.03973013535141945, 0.36981385946273804, 0.04475388675928116, -0.15414750576019287, 0.006563916336745024], [0.07693126052618027, -0.15355521440505981, -0.018421640619635582, -0.16324032843112946, -0.03660120069980621, 0.3212732970714569, -0.07016488909721375, -0.05007341876626015, -0.050349730998277664, 0.03547743335366249, -0.06685209274291992, 0.5401474237442017, 0.437728613615036, -0.15970617532730103, -0.17017707228660583, 0.171064555644989, -0.1571284830570221, 0.2979300320148468, 0.31468069553375244, 0.04136619716882706, 0.00261206878349185, 0.15463431179523468, -0.004916961304843426, -0.09533751755952835, -0.08817573636770248, -0.16024184226989746, -0.08627297729253769, 0.12305250763893127, 0.5570665001869202, -0.02199656516313553, 0.3277301788330078, 0.3897840678691864, -0.039552804082632065, 0.5076029896736145, 0.011344663798809052, 0.2804234027862549, 0.03746834024786949, -0.09999465942382812, -0.14194102585315704, 0.11513886600732803, -0.10454089194536209, -0.19186021387577057, 0.36759552359580994, -0.11095535010099411, -0.0152248814702034, 0.13982795178890228, 0.07853468507528305, -0.1882544904947281, 0.019989674910902977, -0.07166744768619537, -0.15085521340370178, 0.1277153193950653, -0.08572657406330109, 0.05268137902021408, -0.16679216921329498, -0.038603536784648895, 0.010128647089004517, -0.04645933955907822, -0.11927670985460281, 0.02386113442480564, 0.08398380130529404, -0.11132974177598953, 0.0823521688580513, -0.1580645889043808, 0.007853873074054718, -0.03513532876968384, 0.06491435319185257, -0.07867053896188736, -0.046416036784648895, -0.012833417393267155, -0.1524898111820221, -0.1002204418182373, -0.03542080149054527, 0.4210726320743561, 0.015741854906082153, -0.24626602232456207, 0.07311492413282394, 0.415031373500824, 0.4645853638648987, 0.04081062972545624, -0.10267700999975204, -0.05888654291629791, -0.05023545026779175, 0.07286984473466873, -0.05141516029834747, -0.21250620484352112, 0.08482720702886581, -0.11346781998872757, 0.08577051013708115, -0.03061482682824135, -0.16814935207366943, -0.08241043239831924, 0.012858264148235321, -0.01618485152721405, 0.4740513563156128, -0.1538163721561432, -0.0821051225066185, 0.04320914298295975, -0.03160339966416359, -0.027007456868886948, -0.10371199995279312, -0.22330120205879211, -0.14110928773880005, -0.08428972959518433, -0.19320178031921387, -0.0025804489850997925, -0.12780208885669708, -0.07403938472270966, -0.0114997997879982, -0.028913233429193497, -0.12828610837459564, -0.07009226083755493, 0.06867623329162598, 0.3160580098628998, -0.19547073543071747, 0.02094123698771, 0.10653550177812576, -0.07158641517162323, -0.03053366206586361, 0.04673033580183983, -0.14488211274147034, 0.3338225781917572, -0.025552555918693542, 0.05306229740381241, 0.37464049458503723, -0.07102242112159729, 0.07249399274587631, 0.06817146390676498], [-0.02330651879310608, -0.03361304849386215, -0.059766985476017, -0.22777330875396729, -0.10735899209976196, 0.4587060213088989, 0.03732658177614212, -0.22280454635620117, 0.01167934387922287, -0.09020131081342697, -0.014598265290260315, 0.5856049060821533, 0.4795803725719452, -0.27785956859588623, -0.21803168952465057, 0.2647046446800232, -0.3105015754699707, 0.32669970393180847, 0.37653687596321106, -0.026980672031641006, -0.14985714852809906, 0.17680276930332184, -0.035850752145051956, -0.20222441852092743, -0.08002415299415588, -0.12949471175670624, 0.058624543249607086, 0.32706549763679504, 0.585885226726532, 0.00029696524143218994, 0.33835843205451965, 0.3946007490158081, 0.057111166417598724, 0.48315268754959106, 0.07293648272752762, 0.3159787654876709, -0.059881340712308884, -0.16709747910499573, 0.15110807120800018, 0.15234936773777008, -0.1015762910246849, -0.1276155561208725, 0.26290106773376465, -0.15517465770244598, 0.014197669923305511, 0.03903016820549965, 0.057656340301036835, -0.09582927823066711, -0.10735109448432922, 0.014880637638270855, 0.03389042243361473, 0.13158690929412842, -0.10433066636323929, 0.08012282848358154, -0.2633328139781952, 0.043352432548999786, -0.032823964953422546, -0.00011734128929674625, -0.16139326989650726, -0.16777965426445007, 0.301675409078598, -0.03762795403599739, 0.19374780356884003, -0.11208881437778473, 0.061934299767017365, 0.0024771839380264282, 0.09427844732999802, -0.07319891452789307, -0.0940403938293457, -0.08876223117113113, -0.0031215152703225613, -0.050547901540994644, -0.0023537948727607727, 0.30154892802238464, -0.05978178232908249, -0.21394561231136322, -0.012382373213768005, 0.4112611413002014, 0.44800442457199097, 0.13480158150196075, -0.2687433362007141, -0.03165062889456749, 0.030668556690216064, 0.08551040291786194, -0.03838212415575981, -0.19668665528297424, 0.05165009945631027, -0.27959129214286804, 0.023708485066890717, 0.06640829890966415, -0.1645045131444931, -0.17980517446994781, 0.0710526630282402, 0.007309779524803162, 0.3612607419490814, 0.13408805429935455, 0.08719804137945175, -0.07024841010570526, -0.0239509679377079, -0.012722996063530445, -0.16053520143032074, -0.11931271106004715, -0.1490812748670578, -0.06345970183610916, -0.0039591616950929165, -0.0450829342007637, -0.21388210356235504, -0.042670898139476776, 0.029369622468948364, 0.009229235351085663, 0.1025046557188034, -0.2156762331724167, -0.016726480796933174, 0.25882676243782043, -0.2261383831501007, -0.0434471070766449, 0.20699694752693176, -0.12257213145494461, 0.18920212984085083, 0.13797180354595184, -0.08588127791881561, 0.44638243317604065, -0.08560017496347427, -0.020121559500694275, 0.43407487869262695, -0.05761130526661873, -0.11850772798061371, 0.11531572788953781], [0.02392253279685974, 0.16092470288276672, -0.11857099831104279, -0.20551903545856476, -0.18875765800476074, 0.2617954611778259, -0.017558515071868896, -0.2835828363895416, -0.08783146739006042, -0.06799311935901642, -0.09070347994565964, 0.321334570646286, 0.34868261218070984, -0.17663612961769104, -0.11157761514186859, 0.19247478246688843, -0.11020271480083466, 0.21300776302814484, 0.37329697608947754, 0.0833527222275734, 0.15894512832164764, 0.13054145872592926, -0.03582875803112984, -0.2332170009613037, -0.029323942959308624, -0.03641253337264061, 0.009330123662948608, 0.0699385553598404, 0.34819135069847107, -0.05708128958940506, 0.20273074507713318, 0.22274188697338104, -0.02207973599433899, 0.39362427592277527, -0.012931905686855316, 0.11806364357471466, -0.22684065997600555, -0.056879717856645584, -0.19090664386749268, 0.1770484447479248, -0.15993361175060272, -0.22269342839717865, 0.28519734740257263, -0.03990691527724266, -0.07809865474700928, 0.23299650847911835, -0.07237894833087921, -0.05944140627980232, -0.1769995093345642, 0.018287673592567444, -0.0526157021522522, 0.0016195510979741812, -0.11600593477487564, 0.03771669417619705, -0.08743026107549667, -0.2496989518404007, -0.00020757317543029785, 0.08569991588592529, -0.018857942894101143, -0.1109851598739624, -0.087649405002594, -0.12624767422676086, 0.11865634471178055, -0.15928798913955688, 0.03594183921813965, 0.0007931962609291077, -0.0539221465587616, 0.040543459355831146, -0.18923832476139069, 0.11952955275774002, -0.10627002269029617, -0.03909211978316307, 0.08533263951539993, 0.20368248224258423, 0.02157256007194519, -0.12798820436000824, 0.0022110939025878906, 0.4049793481826782, 0.28311532735824585, -0.015951678156852722, -0.1549680382013321, -0.0319371335208416, 0.06624016910791397, 0.060127560049295425, -0.0869688093662262, -0.20611053705215454, -0.03356831893324852, -0.2520768940448761, 0.036971740424633026, -0.07531485706567764, -0.14405310153961182, -0.19232787191867828, 0.06386060267686844, -0.05376797541975975, 0.24881766736507416, -0.1551288664340973, -0.07478007674217224, -0.0021125078201293945, -0.1167679876089096, 0.07564210146665573, -0.13067273795604706, -0.08399906754493713, -0.09250905364751816, -0.009413404390215874, -0.19756978750228882, 0.08766766637563705, -0.22022269666194916, -0.20339632034301758, 0.02723635733127594, -0.03993130475282669, -0.0299961157143116, 0.08810222148895264, -0.01887059397995472, 0.18935738503932953, -0.23796802759170532, 0.17098483443260193, 0.010198344476521015, -0.012483252212405205, -0.07722314447164536, -0.0730537697672844, -0.12569661438465118, 0.3215464949607849, 0.031081676483154297, 0.0944485142827034, 0.27751320600509644, 0.057971708476543427, -0.15506598353385925, 0.020850811153650284], [0.05873570591211319, -0.4018462300300598, 0.32433876395225525, -0.1817658394575119, 0.41845667362213135, 0.26572245359420776, 0.00861695408821106, 0.462616503238678, 0.0739533081650734, 0.14355869591236115, -0.08382882177829742, -0.12074141949415207, -0.2535015046596527, -0.2659538686275482, -0.25137239694595337, 0.01835455559194088, -0.39322590827941895, 0.0020633365493267775, -0.18976332247257233, -0.05093614012002945, -0.3553260266780853, 0.3382543623447418, 0.12592852115631104, -0.12371882796287537, -0.0781206488609314, 0.10624626278877258, -0.07968922704458237, 0.3277190029621124, -0.10358894616365433, -0.06564511358737946, 0.016923420131206512, -0.2514721155166626, -0.03550077602267265, -0.27603158354759216, -0.08345891535282135, 0.0009939810261130333, 0.4566289484500885, 0.04207196831703186, 0.1262327879667282, -0.14731433987617493, -0.1281038075685501, -0.2686190903186798, -0.15400999784469604, -0.08228094130754471, -0.02698741853237152, -0.2453654259443283, -0.041806552559137344, -0.01973997987806797, 0.18762093782424927, 0.30230653285980225, 0.2673174738883972, 0.2863706052303314, 0.1912452131509781, -0.012485547922551632, -0.2695337235927582, 0.3123106062412262, 0.04736917465925217, 0.07110204547643661, 0.27977457642555237, 0.32456499338150024, 0.319879412651062, 0.10854267328977585, 0.34301039576530457, 0.06261918693780899, -0.04994077980518341, -0.04985043779015541, 0.08351150900125504, 0.04120870679616928, 0.4540983736515045, -0.1127343624830246, 0.32170313596725464, 0.09269192069768906, -0.061176761984825134, 0.13901206851005554, 0.0665067508816719, -0.09896405041217804, 0.031937047839164734, -0.1872664988040924, -0.0575525276362896, 0.2870222330093384, -0.15825940668582916, 0.07101769000291824, 0.01441982388496399, 0.20552588999271393, -0.05976289138197899, -0.2472292184829712, 0.058509595692157745, 0.4773031175136566, 0.06623611599206924, -0.04220008850097656, -0.17305980622768402, 0.29302647709846497, 0.04791615158319473, -0.007651530206203461, -0.1693899929523468, 0.06318330764770508, -0.033652108162641525, 0.014031052589416504, -0.04693729057908058, 0.0036217623855918646, 0.37500670552253723, -0.1829415112733841, -0.2990330159664154, -0.1592685431241989, 0.29012325406074524, -0.019966766238212585, 0.03470667451620102, 0.447127103805542, -0.04444510489702225, 0.05889525264501572, 0.37393078207969666, -0.3988988399505615, -0.05905640497803688, 0.26616549491882324, -0.14592653512954712, -0.35552793741226196, 0.32228565216064453, -0.21527069807052612, 0.370287150144577, 0.3731347322463989, -0.09337214380502701, -0.044271666556596756, -0.016215190291404724, -0.12158205360174179, -0.13291506469249725, -0.056364476680755615, 0.3245050609111786, -0.02960529364645481], [0.0507504865527153, -0.09656421095132828, 0.1316382735967636, 0.09146417677402496, 0.2664949893951416, -0.1752507984638214, 0.013334795832633972, 0.2086205929517746, -0.009098999202251434, 0.09427814930677414, 0.037412919104099274, -0.5855096578598022, -0.4102439284324646, 0.05509975552558899, 0.18874716758728027, -0.22496573626995087, 0.1600627899169922, -0.39065465331077576, -0.4403593838214874, 0.06387517601251602, -0.09673675894737244, -0.08698251098394394, 0.06045151501893997, 0.04737244173884392, 0.08213140815496445, 0.08246883004903793, -0.036901988089084625, -0.0796024352312088, -0.3930969834327698, -0.07636865228414536, -0.3185405731201172, -0.27383577823638916, 0.03241802006959915, -0.4117682874202728, -0.04638850688934326, -0.30828192830085754, 0.15889479219913483, 0.03461751714348793, 0.24669170379638672, -0.1622619777917862, -0.06437685340642929, -0.007732269819825888, -0.38163265585899353, 0.01889289915561676, -0.00984252244234085, -0.17927885055541992, 0.055977024137973785, 0.1341310441493988, 0.14696626365184784, 0.14999932050704956, 0.2221122533082962, -0.0002932398347184062, 0.24817734956741333, 0.039045266807079315, 0.03925411403179169, 0.14411546289920807, -0.06690303236246109, 0.01768009178340435, 0.1485373079776764, 0.18680638074874878, 0.022639211267232895, 0.10222749412059784, -0.081489197909832, 0.16695792973041534, -0.0026891902089118958, 0.047326959669589996, -0.021792298182845116, 0.011993415653705597, 0.3012532591819763, -0.15139305591583252, 0.06466919183731079, 0.013136323541402817, 0.0072500258684158325, -0.4432452321052551, 0.01680527627468109, 0.06224508956074715, -0.017284050583839417, -0.5048115849494934, -0.4187867343425751, 0.1349327117204666, 0.07245013862848282, 0.002323232591152191, -0.023708462715148926, -0.1704396903514862, -0.08273352682590485, 0.06303683668375015, 0.07681570202112198, 0.25404584407806396, -0.08272809535264969, -0.07625472545623779, 0.07834068685770035, 0.26562079787254333, -0.04912935942411423, -0.07726225256919861, -0.42487359046936035, 0.20733772218227386, -0.009272366762161255, -0.052079733461141586, -0.04095620661973953, 0.014477108605206013, 0.13162648677825928, 0.09972678124904633, 0.07481249421834946, 0.0009335781796835363, 0.22137868404388428, 0.04714829474687576, 0.011104525066912174, 0.24838127195835114, -0.058594413101673126, 0.07109888643026352, 0.22696632146835327, -0.07943859696388245, 0.022871896624565125, -0.15177099406719208, 0.009347532875835896, -0.11633720993995667, 0.04945984482765198, 0.16094759106636047, 0.2657868266105652, 0.13117916882038116, 0.06055886670947075, -0.3715033531188965, 0.05778621882200241, -0.024597052484750748, -0.4082229733467102, -0.07624919712543488, 0.1719539910554886, -0.04639590531587601], [0.043174780905246735, -0.2484951913356781, 0.27058643102645874, -0.07531581819057465, 0.30642029643058777, -0.08466965705156326, 0.07763393968343735, 0.398848295211792, 0.08597709983587265, 0.10084983706474304, -0.029825879260897636, -0.3503885269165039, -0.4351274073123932, -0.21271753311157227, -0.06752695888280869, -0.23378510773181915, -0.1401320844888687, -0.3512243330478668, -0.3771827518939972, 0.010788962244987488, -0.18858031928539276, 0.14519423246383667, 0.08671338856220245, 0.03916797414422035, -0.05106566846370697, -0.017229750752449036, 0.07460056990385056, 0.07493031024932861, -0.3113231360912323, 0.014181286096572876, -0.3459910452365875, -0.312176913022995, 0.0645562931895256, -0.39970600605010986, -0.04451308771967888, -0.29712173342704773, 0.33932021260261536, 0.06621050834655762, 0.2512827217578888, -0.07116084545850754, -0.10733161121606827, -0.029311779886484146, -0.34538912773132324, -0.0943644642829895, -0.03053685650229454, -0.0880138948559761, -0.00366152822971344, 0.01195535622537136, 0.29114967584609985, 0.24684841930866241, 0.08703969419002533, 0.21400494873523712, 0.25897273421287537, -0.06495440006256104, -0.17063961923122406, 0.37891778349876404, 0.02009226381778717, 0.05582088604569435, 0.21311098337173462, 0.19568733870983124, 0.27556073665618896, 0.13753479719161987, -0.024979453533887863, 0.04662388563156128, -0.002798795700073242, 0.014778383076190948, 0.015248497948050499, 0.001902550458908081, 0.28152409195899963, -0.017282338812947273, 0.22326229512691498, 0.05102061480283737, 0.0574055090546608, -0.22073708474636078, -0.025073014199733734, -0.198714941740036, 0.00993039458990097, -0.4099421203136444, -0.47341445088386536, 0.09207013994455338, -0.17803722620010376, -0.012814074754714966, -0.04673155024647713, 0.09239032119512558, -0.027051910758018494, -0.05915692821145058, 0.03415197879076004, 0.46432754397392273, 0.028151735663414, 0.04123305529356003, -0.15321794152259827, 0.24826717376708984, 0.06195462495088577, 0.04156898707151413, -0.37387022376060486, 0.146452397108078, 0.035645194351673126, 0.0527709499001503, -0.021480336785316467, -0.044375430792570114, 0.28136759996414185, -0.14195509254932404, -0.10788203775882721, -0.037429776042699814, 0.3276214599609375, 0.008593939244747162, -0.04072783887386322, 0.4126371145248413, -0.019910119473934174, 0.005815178155899048, 0.20119546353816986, -0.11454860121011734, -0.05838730186223984, 0.18388180434703827, -0.041005391627550125, -0.27154719829559326, 0.1667659878730774, -0.1947312355041504, 0.30082979798316956, 0.3772045969963074, -0.06328947097063065, -0.2506939172744751, -0.04157809540629387, -0.112169049680233, -0.3708080053329468, 0.06854497641324997, 0.2774638235569, -0.022439250722527504], [0.0002461075782775879, 0.00033061602152884007, -0.16012956202030182, -0.10548856854438782, -0.10845375806093216, 0.3859037160873413, -0.07578924298286438, -0.12887443602085114, 0.08564818650484085, 0.03780488669872284, -0.035927578806877136, 0.501276969909668, 0.4746920168399811, -0.26817163825035095, -0.2489466667175293, 0.25292089581489563, -0.15111085772514343, 0.2697519063949585, 0.4126493036746979, -0.030836518853902817, -0.007666149642318487, 0.1213037446141243, -0.19240956008434296, -0.24989120662212372, 0.06775135546922684, -0.16200216114521027, 0.08083323389291763, 0.2165217399597168, 0.409959614276886, 0.006956718862056732, 0.3873564302921295, 0.2965419888496399, -0.02398931235074997, 0.5312422513961792, -0.04473040625452995, 0.3352073132991791, -0.06394831836223602, -0.1664191633462906, -0.07822743058204651, 0.17202706634998322, -0.09872839599847794, -0.11121797561645508, 0.36889055371284485, -0.15489770472049713, 0.07395992428064346, 0.19191884994506836, 0.015679724514484406, -0.07031407207250595, -0.05236663296818733, -0.1168673038482666, -0.009827920235693455, 0.09293863922357559, -0.1354045420885086, -0.0782814770936966, -0.09429914504289627, -0.0979808047413826, 0.04985285550355911, 0.11585395038127899, -0.10224545747041702, -0.0680777058005333, 0.1092144250869751, -0.006002076901495457, 0.164131760597229, -0.10303333401679993, -0.06950194388628006, 0.029702946543693542, -0.0015484212199226022, 0.03794626146554947, -0.07089652121067047, 0.02097484841942787, -0.06664058566093445, -0.04636566340923309, -0.03547416999936104, 0.43458396196365356, 0.0022201985120773315, -0.1720895767211914, 0.07538671046495438, 0.5138651132583618, 0.3570098578929901, 0.018281295895576477, -0.11290830373764038, 0.0017843320965766907, 0.050577349960803986, 0.1141686886548996, 0.01069672405719757, -0.19959333539009094, -0.06867730617523193, -0.13959422707557678, 0.046478621661663055, 0.002326488494873047, -0.1706366389989853, -0.11926136910915375, 0.0687602087855339, -0.011601604521274567, 0.3590126931667328, -0.1711706668138504, 0.07516727596521378, -0.05314239114522934, -0.06020763888955116, 0.03060225583612919, -0.0805727019906044, -0.199768528342247, -0.2050856500864029, -0.07509592175483704, -0.1285003274679184, 0.032290905714035034, -0.11361042410135269, -0.08888822048902512, -0.012733690440654755, 0.039298899471759796, -0.10367800295352936, -0.07413950562477112, 0.014644287526607513, 0.24353718757629395, -0.154623344540596, -0.03217870742082596, 0.02369406819343567, -0.1383322924375534, -0.16101936995983124, -0.04597657546401024, -0.11994737386703491, 0.4572228491306305, -0.0746835395693779, 0.10247941315174103, 0.39750173687934875, 0.07756925374269485, 0.09260407835245132, -0.002264462411403656], [-0.0878736674785614, -0.045838918536901474, 0.1695287823677063, -0.06535769253969193, 0.1354231834411621, -0.2634645700454712, -0.0374324806034565, 0.3640068471431732, 0.07577406615018845, 0.07173711061477661, 0.060378801077604294, -0.46424123644828796, -0.33703362941741943, 0.015316039323806763, 0.09829931706190109, -0.12015645205974579, 0.11080343276262283, -0.2812226712703705, -0.3013134002685547, -0.070762999355793, -0.2180878072977066, -0.022589880973100662, 0.18263761699199677, 0.03474867716431618, -0.013075575232505798, -0.002799652749672532, -0.04520368576049805, 0.0744672417640686, -0.47175082564353943, 0.02821844071149826, -0.2829178273677826, -0.25659170746803284, 0.05233103781938553, -0.43359532952308655, -0.010404251515865326, -0.3412906229496002, 0.165679469704628, 0.18525876104831696, 0.2048298418521881, -0.11081403493881226, -0.0029473286122083664, 0.09361261129379272, -0.32556965947151184, 0.018277034163475037, -0.07847009599208832, -0.3011915683746338, -0.02876884862780571, 0.07932756096124649, 0.1242036446928978, 0.1089831069111824, 0.2462642937898636, 0.06298982352018356, 0.2005653977394104, -0.07059550285339355, 0.03123006597161293, 0.24390581250190735, -0.06566527485847473, -0.005738472566008568, 0.2350560575723648, 0.11407369375228882, 0.09436601400375366, 0.19903309643268585, -0.01924898475408554, 0.1222027912735939, 0.07366082817316055, -0.08837542682886124, 0.020490916445851326, 0.06666279584169388, 0.24813872575759888, -0.23014532029628754, 0.12309787422418594, -0.0038699829019606113, -0.04055992513895035, -0.3254440724849701, -0.07578913867473602, -0.016242431476712227, -0.005731813609600067, -0.43527501821517944, -0.39597004652023315, 0.008891187608242035, -0.028127871453762054, -0.027982082217931747, -0.003694698214530945, -0.1408175677061081, -0.0840858519077301, 0.13381993770599365, 0.06213509291410446, 0.4201967418193817, -0.012482844293117523, 0.043463192880153656, 0.00351095013320446, 0.3254029452800751, -0.006163984537124634, -0.01984093338251114, -0.3779626488685608, 0.11793243139982224, -0.0481547974050045, -0.08700399845838547, 0.08262371271848679, -0.05007728189229965, 0.25527024269104004, -0.0608784444630146, 0.08088747411966324, -0.039967961609363556, 0.20248962938785553, -0.015235014259815216, -0.029528554528951645, 0.28701716661453247, 0.02914351224899292, 0.04700104147195816, 0.12674623727798462, -0.0793265625834465, 0.1019112691283226, -0.14380578696727753, -0.01274060271680355, -0.22129099071025848, 0.006498133298009634, 0.03526991978287697, 0.1495327204465866, 0.22948545217514038, 0.1316135823726654, -0.3984209895133972, -0.03941408917307854, -0.07091686129570007, -0.26350870728492737, 0.0588829442858696, 0.06297992914915085, -0.12161783128976822], [0.0713476613163948, -0.13286176323890686, 0.24732521176338196, -0.24305517971515656, 0.3657962381839752, 0.25358086824417114, -0.02015356719493866, 0.3612658679485321, -0.03271352872252464, 0.16835762560367584, -0.004455272573977709, 0.26185083389282227, 0.2357877492904663, -0.30113694071769714, -0.16663968563079834, 0.06932542473077774, -0.3177597224712372, 0.2408921867609024, 0.23947378993034363, -0.020811326801776886, -0.16962496936321259, 0.38063544034957886, 0.18091610074043274, -0.15967649221420288, 0.05203092843294144, -0.01891329325735569, 0.08090465515851974, 0.3098740875720978, 0.2529146075248718, 0.06267807632684708, 0.14490719139575958, 0.2139568030834198, 0.011187270283699036, 0.1679629236459732, -0.029395971447229385, 0.16241846978664398, 0.32465770840644836, 0.07553783059120178, 0.13209614157676697, -0.025874193757772446, -0.15241506695747375, -0.14159417152404785, 0.24652673304080963, -0.10115177184343338, 0.08638636022806168, -0.033477410674095154, -0.04619719088077545, -0.1447104513645172, 0.25668367743492126, 0.17390191555023193, 0.16971455514431, 0.18888123333454132, 0.27375152707099915, 0.02354065328836441, -0.18648752570152283, 0.2732011079788208, 0.0765390619635582, -0.019964559003710747, 0.28741294145584106, 0.23723700642585754, 0.30654317140579224, 0.045236214995384216, 0.2370986044406891, 0.14861300587654114, -0.07467982172966003, -0.005365833640098572, 0.01773919351398945, -0.03519898280501366, 0.3664070665836334, -0.02335190214216709, 0.18960082530975342, 0.029676353558897972, -0.07059603184461594, 0.46812745928764343, -0.057314857840538025, -0.17119714617729187, -0.039374321699142456, 0.16990356147289276, 0.32065606117248535, 0.129209965467453, -0.14136791229248047, -0.019831284880638123, 0.037607841193675995, 0.10149206966161728, 0.01600571721792221, -0.227106511592865, -0.07672729343175888, 0.44257843494415283, -0.00047901272773742676, -0.07858135551214218, -0.079819455742836, 0.2654917538166046, -0.08064085245132446, -0.05191286280751228, 0.3347190320491791, 0.11336246132850647, -0.011782839894294739, 0.045285217463970184, -0.11870941519737244, -0.03754549100995064, 0.19568504393100739, -0.10744533687829971, -0.21782581508159637, -0.021283334121108055, 0.1377800554037094, -0.05838913470506668, 0.009138274937868118, 0.3675910532474518, 0.028287015855312347, -0.0870475322008133, 0.2192467749118805, -0.08873195201158524, 0.09147199988365173, 0.5194462537765503, -0.11726618558168411, -0.0977238342165947, 0.2898711562156677, -0.23086519539356232, 0.27740585803985596, 0.25439777970314026, -0.03147771209478378, 0.21876904368400574, 0.06025315076112747, -0.07497815787792206, 0.3244187533855438, 0.0344521701335907, 0.32494014501571655, -0.09017306566238403], [-0.02791697531938553, -0.13980862498283386, 0.16755884885787964, -0.01661606691777706, 0.2241477221250534, -0.2803749442100525, 0.07440895587205887, 0.3668823540210724, 0.06887992471456528, 0.10794848948717117, 0.03004513867199421, -0.42192983627319336, -0.33336225152015686, 0.004512179177254438, 0.1477428674697876, -0.12170027941465378, -0.008019118569791317, -0.3838081657886505, -0.28809094429016113, -0.021870285272598267, -0.2538904845714569, 0.03615095466375351, 0.1244731992483139, 0.15673711895942688, 0.08656347543001175, -0.006870829965919256, 0.08644773811101913, 0.06639081984758377, -0.44958049058914185, 0.052520014345645905, -0.34358176589012146, -0.40101832151412964, 0.01010015606880188, -0.5195959806442261, -0.08503815531730652, -0.24513959884643555, 0.3198060393333435, 0.0608023963868618, 0.10547761619091034, -0.024399498477578163, 0.003587828716263175, 0.11609991639852524, -0.2818985879421234, 0.021152297034859657, -0.002387620508670807, -0.2373359501361847, -0.058943282812833786, 0.04766416922211647, 0.2102791666984558, 0.12965735793113708, 0.16768305003643036, 0.11340566724538803, 0.22749051451683044, -0.03585600480437279, -0.09149602800607681, 0.22146789729595184, -0.005057737231254578, -0.042185716331005096, 0.23432059586048126, 0.1360742747783661, 0.15419940650463104, 0.03076387569308281, 0.04163235425949097, 0.21003779768943787, -0.07787442207336426, 0.04006931930780411, 0.03041110560297966, 0.029507331550121307, 0.2942401170730591, -0.13505160808563232, 0.27605971693992615, 0.036431096494197845, -0.045327816158533096, -0.2666274309158325, -0.07864899933338165, 0.027089497074484825, 0.06272352486848831, -0.45992305874824524, -0.36918577551841736, 0.08393500000238419, 0.03500320017337799, -0.050469670444726944, -0.06860803067684174, -0.018867047503590584, 0.031187646090984344, -0.03225497156381607, 0.028574414551258087, 0.4772430658340454, 0.037077777087688446, -0.0760069414973259, -0.09158608317375183, 0.2773802578449249, -0.02123083919286728, 0.05125945061445236, -0.4662555456161499, 0.2538563311100006, -0.050565436482429504, 0.059114374220371246, -0.012889827601611614, -0.07481420040130615, 0.2614192068576813, -0.03523167967796326, 0.004192823078483343, -0.07129789888858795, 0.2980292737483978, 0.07201924175024033, 0.09950116276741028, 0.28223443031311035, -0.019413277506828308, -0.036225825548172, 0.14347757399082184, -0.07057341933250427, 0.005717489402741194, -0.1673392951488495, 0.09476218372583389, -0.2163761854171753, -0.0023937856312841177, 0.031275227665901184, 0.2352788746356964, 0.35789355635643005, 0.08487468957901001, -0.28014206886291504, 0.053018711507320404, -0.03878489509224892, -0.3133060336112976, -0.009825870394706726, 0.10659630596637726, -0.034619737416505814], [-0.049428053200244904, -0.21534118056297302, 0.11300843209028244, -0.11409682035446167, 0.005800997838377953, 0.24641895294189453, 0.07901374250650406, 0.12117744982242584, -0.05956663563847542, 0.16380660235881805, -0.14635689556598663, 0.314339816570282, 0.24280023574829102, -0.18080423772335052, -0.16439791023731232, 0.16817989945411682, -0.1754436492919922, 0.2571149468421936, 0.22969971597194672, 0.02562481164932251, -0.11429882049560547, 0.1413673311471939, -0.017531082034111023, -0.19410701096057892, 0.0004315972328186035, -0.059997133910655975, 0.07268501073122025, 0.04246721416711807, 0.22223235666751862, -0.0537455752491951, 0.24647118151187897, 0.14068278670310974, 0.03963812440633774, 0.21433773636817932, 0.07241000980138779, 0.2473634034395218, 0.08044232428073883, -0.04507332295179367, 0.18145793676376343, 0.088629350066185, -0.143452987074852, -0.2137662172317505, 0.1747129261493683, -0.09032990783452988, 0.05984991043806076, -0.0003357746172696352, 