{"model": {"state_dict": {"fc1.weight": [[-0.3260931372642517, 0.6281137466430664, -0.6314877271652222, 0.020736288279294968], [0.20645545423030853, 0.18920832872390747, 0.35952267050743103, 0.3452520966529846], [-0.7178029417991638, -0.5593106746673584, -0.011710132472217083, 0.052841655910015106], [0.6609306931495667, 0.4525032341480255, -0.1657259315252304, 0.013160170055925846], [0.29926201701164246, -0.14425848424434662, -0.6224375367164612, -0.54536372423172], [0.690146803855896, -0.12158698588609695, -0.19420816004276276, 0.2152310013771057], [-0.4835643172264099, -0.43507909774780273, 0.45542797446250916, 0.26614418625831604], [0.5044485330581665, -0.06654122471809387, -0.03667319938540459, -0.3026905357837677], [0.16903658211231232, 0.2761389911174774, -0.5104709267616272, -0.2711188495159149], [-0.15480591356754303, -0.3644527792930603, 0.07068555802106857, 0.3642940819263458], [0.5334629416465759, 0.07532798498868942, 0.034062571823596954, -0.6069230437278748], [0.025881575420498848, -0.31864315271377563, 0.22181014716625214, 0.6571004986763], [-0.3250121474266052, 0.22732186317443848, -0.5589706897735596, -0.4129960536956787], [0.09233372658491135, 0.5090121626853943, -0.7117250561714172, 0.25219470262527466], [0.471352756023407, 0.7292062044143677, -0.42301198840141296, -0.01029144786298275], [0.11343032121658325, 0.19545862078666687, -0.2225978672504425, 0.22014133632183075], [-0.13708938658237457, -0.15878832340240479, -0.5989660620689392, -0.618118941783905], [-0.133164182305336, -0.22593802213668823, -0.2903580963611603, -0.4646854102611542], [0.6326449513435364, 0.12554465234279633, -0.12745685875415802, -0.3095739781856537], [0.6211881637573242, 0.15057329833507538, -0.006591159850358963, -0.33786043524742126], [-0.22913604974746704, 0.6765221357345581, -0.3618249297142029, -0.5312766432762146], [0.49289509654045105, 0.6406775116920471, -0.4218290150165558, -0.6711260676383972], [0.6402790546417236, 0.27497532963752747, -0.11690762639045715, -0.6613237857818604], [0.31704768538475037, -0.15103769302368164, 0.42990338802337646, 0.6154024004936218], [0.30522239208221436, 0.39267686009407043, -0.5966311097145081, 0.11351624131202698], [0.68232661485672, 0.6448097825050354, -0.4781038165092468, -0.2191363275051117], [0.2800796627998352, 0.6044399738311768, -0.5797218680381775, -0.38897180557250977], [-0.2533089220523834, 0.08368240296840668, -0.5328857898712158, -0.2364659309387207], [0.07266426831483841, 0.6047632098197937, -0.02239828184247017, -0.33477017283439636], [-0.0029591566417366266, 0.27725398540496826, 0.5976731181144714, 0.0852833166718483], [0.2704946994781494, 0.5674784779548645, 0.2101392149925232, -0.05557973310351372], [-0.361152321100235, 0.05089007690548897, 0.4890766739845276, 0.5621418356895447], [0.04477626830339432, -0.543949544429779, -0.11567734181880951, -0.2718728482723236], [0.7136492729187012, 0.48062214255332947, -0.7081626653671265, -0.39262527227401733], [-0.13323341310024261, -0.11853619664907455, -0.2262219488620758, 0.5232623219490051], [0.24667450785636902, 0.08356909453868866, -0.36974191665649414, 0.1073334738612175], [0.4157712459564209, 0.4732397496700287, -0.7823342680931091, -0.41147899627685547], [0.6627424359321594, 0.28694725036621094, -0.10725647956132889, 0.13250720500946045], [-0.6740768551826477, -0.21183449029922485, 0.6099531054496765, -0.14578117430210114], [-0.20283243060112, -0.1965501457452774, -0.7535976767539978, -0.3876199722290039], [0.24785968661308289, 0.4315558969974518, -0.2945263981819153, -0.6674885153770447], [-0.22892539203166962, -0.2944374084472656, 0.3462502062320709, 0.774773895740509], [0.06746040284633636, -0.37281113862991333, 0.6847603917121887, 0.5634918808937073], [-0.3011793792247772, 0.010887564159929752, 0.35402268171310425, -0.018877649679780006], [0.16624706983566284, 0.5019971132278442, 0.1497674584388733, -0.4287448227405548], [0.7672887444496155, 0.06081128120422363, -0.6652512550354004, -0.6288347840309143], [0.19660159945487976, 0.6683483123779297, -0.27255576848983765, -0.5727199912071228], [0.7427305579185486, 0.5635372996330261, 0.13448965549468994, -0.1186293438076973], [0.7262716889381409, 0.4813251495361328, -0.3535432815551758, 0.06420250236988068], [0.5636703372001648, 0.5943648815155029, -0.4994320273399353, -0.6140604019165039], [0.7396807074546814, -0.12087874114513397, -0.7211562991142273, -0.7574154734611511], [-0.3848358988761902, -0.4981561005115509, 0.014664661139249802, 0.09665343910455704], [-0.09163538366556168, 0.6457322835922241, -0.506668746471405, -0.5228890776634216], [0.31552404165267944, -0.256580114364624, -0.281096875667572, -0.16641123592853546], [-0.17946450412273407, -0.5622947216033936, 0.572227418422699, 0.45102763175964355], [-0.6725800633430481, -0.49270474910736084, 0.7763951420783997, -0.12024419754743576], [0.20788784325122833, 0.7014950513839722, -0.575997531414032, -0.28783202171325684], [-0.4597616195678711, 0.16285431385040283, 0.3637795150279999, -0.28297215700149536], [0.6206743121147156, 0.2662937343120575, -0.09908920526504517, -0.2676069438457489], [0.29061880707740784, 0.5344334244728088, 0.22413834929466248, 0.1050473004579544], [-0.6412774920463562, -0.6107672452926636, 0.19329291582107544, 0.47160613536834717], [-0.12325543165206909, 0.18320822715759277, -0.08857955038547516, -0.052948933094739914], [-0.31955787539482117, -0.18804408609867096, -0.20830610394477844, 0.5231421589851379], [-0.5810040831565857, -0.1566612869501114, 0.2532345652580261, 0.8002527952194214], [0.6187480688095093, 0.735156774520874, -0.6789097785949707, -0.7360068559646606], [-0.11254065483808517, 0.01234197337180376, 0.13863344490528107, 0.531517744064331], [-0.5438038110733032, -0.2295725792646408, -0.18732982873916626, 0.05100241303443909], [-0.2907749116420746, -0.42189615964889526, 0.735244870185852, 0.5115251541137695], [-0.3430921733379364, -0.6269710659980774, 0.3898017406463623, -0.17898774147033691], [-0.32375335693359375, 0.24869291484355927, 0.7364581227302551, 0.25935888290405273], [-0.31520208716392517, -0.265730082988739, -0.18759043514728546, 0.01573243923485279], [-0.212590754032135, -0.46188852190971375, 0.6591470837593079, -0.28953155875205994], [-0.0661814883351326, -0.15980927646160126, 0.4141903817653656, 0.10682675242424011], [-0.4829528331756592, 0.3629980683326721, -0.2940443754196167, 0.37633416056632996], [0.7323827147483826, 0.4609532654285431, -0.009549098089337349, 0.21866494417190552], [-0.3960113525390625, -0.40958404541015625, 0.07092791050672531, 0.7394875288009644], [0.21175165474414825, -0.12321598827838898, 0.06592652201652527, -0.11906755715608597], [0.07346750050783157, -0.5195068120956421, 0.34737688302993774, 0.5998645424842834], [-0.4560755491256714, -0.23334723711013794, -0.08796700835227966, -0.44511908292770386], [0.3128270208835602, -0.3693126142024994, 0.1343783736228943, -0.019640333950519562], [-0.5671895146369934, -0.19525930285453796, -0.04807942733168602, -0.2454155832529068], [-0.17825476825237274, -0.5685062408447266, 0.24103981256484985, 0.6323680877685547], [-0.5955826640129089, -0.5601788759231567, -0.08025230467319489, 0.5270450711250305], [-0.2768406867980957, 0.07703390717506409, 0.3016883432865143, -0.19155991077423096], [-0.5813436508178711, 0.22284522652626038, 0.32748129963874817, 0.32246479392051697], [0.013684260658919811, -0.25855427980422974, 0.13739509880542755, -0.3398118019104004], [-0.4887488782405853, -0.09225176274776459, -0.44822782278060913, -0.2840142548084259], [-0.4688689410686493, -0.7433608770370483, 0.6578192710876465, 0.42780643701553345], [0.4436379671096802, 0.41319409012794495, -0.39577484130859375, -0.4542491137981415], [0.48692286014556885, 0.4728126525878906, -0.12205024063587189, 0.054387666285037994], [0.22955496609210968, -0.1495966911315918, 0.5866281390190125, 0.05936800688505173], [0.5116209387779236, 0.5554160475730896, -0.05611073598265648, 0.26980921626091003], [0.33599787950515747, 0.4455178678035736, -0.3433037996292114, -0.5631605386734009], [0.15340420603752136, 0.5475821495056152, 0.2687816023826599, -0.0277438722550869], [-0.01074277050793171, 0.07299178093671799, -0.002876666374504566, -0.07175706326961517], [-0.33867180347442627, -0.48855265974998474, 0.6703009009361267, -0.13374529778957367], [-0.02142762392759323, -0.2502114772796631, -0.011286973021924496, -0.4270641505718231], [0.134990856051445, 0.533784031867981, -0.7252981066703796, -0.4977305233478546], [-0.6081684231758118, -0.5513984560966492, -0.127363920211792, -0.16107842326164246], [-0.5382026433944702, -0.360029011964798, -0.02413772977888584, 0.6104177832603455], [0.39612331986427307, 0.31734463572502136, -0.7379758358001709, -0.3883354067802429], [-0.6595973372459412, -0.12042255699634552, 0.30739709734916687, 0.4342929422855377], [0.776005208492279, 0.2653907239437103, -0.5851896405220032, -0.8106307983398438], [0.41056928038597107, 0.44154423475265503, -0.2150367796421051, -0.5666381120681763], [-0.05772162601351738, -0.27238959074020386, -0.09054894000291824, 0.17982928454875946], [-0.0925208330154419, 0.7366147637367249, 0.11862967163324356, -0.5228864550590515], [0.05621672049164772, 0.025730792433023453, -0.25433674454689026, -0.6058402061462402], [-0.329876571893692, -0.4391360580921173, 0.22180558741092682, -0.22232718765735626], [-0.125236377120018, -0.005399599671363831, -0.3034919500350952, -0.2983744442462921], [0.006855216342955828, -0.16546915471553802, -0.046815257519483566, -0.44144701957702637], [-0.13133850693702698, 0.6180950403213501, -0.6212165951728821, 0.17773213982582092], [-0.18164731562137604, 0.021732399240136147, 0.1894727200269699, -0.27961352467536926], [-0.3689211905002594, -0.03480623662471771, 0.046294234693050385, 0.6908186078071594], [-0.0016330907819792628, 0.1311473250389099, -0.33121931552886963, -0.2931678593158722], [-0.4407247304916382, -0.36484068632125854, 0.4623171389102936, 0.6420003771781921], [0.6898213028907776, 0.19568200409412384, -0.6543623805046082, -0.21985022723674774], [-0.09672347456216812, 0.14232581853866577, 0.03929173946380615, -0.2363763153553009], [0.524766743183136, 0.5641116499900818, -0.141371488571167, 0.011346539482474327], [-0.6822481155395508, -0.06334134936332703, 0.6935015916824341, 0.3358474373817444], [0.36974817514419556, -0.02931581810116768, 0.029386207461357117, -0.5357164144515991], [0.23611828684806824, 0.7471855282783508, -0.48547104001045227, -0.4763111472129822], [0.3994292914867401, -0.25100257992744446, -0.1701730638742447, 0.2534431219100952], [-0.4788747727870941, 0.07674342393875122, -0.24181202054023743, -0.520301342010498], [0.7237419486045837, 0.47489023208618164, -0.024901919066905975, -0.5285001993179321], [0.7449625730514526, 0.750226616859436, -0.34862327575683594, -0.14503079652786255], [0.12315131723880768, -0.7061907052993774, 0.7077691555023193, 0.7360556721687317], [-0.19577482342720032, -0.4075164198875427, -0.269102543592453, 0.2649552524089813], [-0.25580644607543945, 0.3867291212081909, -0.18922965228557587, -0.009332087822258472], [-0.45532530546188354, 0.33402836322784424, -0.043164484202861786, 0.3568430244922638], [-0.48746687173843384, -0.0960949957370758, -0.2235572636127472, -0.09710893034934998], [0.14320673048496246, -0.0668596625328064, -0.5265662670135498, -0.6355722546577454], [-0.0855691209435463, 0.6215115189552307, -0.6156001091003418, -0.017072269693017006], [-0.6230412125587463, -0.379280686378479, 0.12097644805908203, 0.3129436671733856], [0.06378558278083801, 0.06573518365621567, -0.5337386727333069, -0.10547931492328644], [0.16616421937942505, 0.2646118402481079, -0.09166879951953888, -0.5073891282081604], [-0.20189139246940613, -0.6051388382911682, 0.34803318977355957, 0.6288813948631287], [0.6852884292602539, 0.7039349675178528, -0.4744121730327606, -0.4034658968448639], [0.5906462073326111, 0.029751641675829887, -0.5632174611091614, -0.41947034001350403], [-0.0017425873083993793, -0.5491092801094055, -0.04020729660987854, -0.5307500958442688], [-0.1509159952402115, 0.47126248478889465, -0.3429432809352875, 0.10149752348661423], [-0.5099340081214905, -0.49400895833969116, 0.7240973114967346, -0.029844164848327637], [-0.36859130859375, 0.11247386038303375, 0.04951981082558632, 0.586955189704895], [0.40755417943000793, 0.7571744918823242, -0.02877035364508629, -0.5684508085250854], [-0.1797444373369217, -0.3345184624195099, -0.5783013701438904, -0.2632702887058258], [-0.3124407231807709, -0.616115152835846, 0.7603282928466797, 0.406261146068573], [-0.6400803923606873, -0.40285876393318176, 0.14440038800239563, 0.19415231049060822], [0.4886365234851837, 0.34484273195266724, -0.20203714072704315, -0.6681265830993652], [0.7138046026229858, 0.6814331412315369, 0.1829766035079956, -0.5981884002685547], [0.08630526065826416, 0.03843645006418228, 0.09203746914863586, -0.47499650716781616], [0.2842464745044708, 0.6664091944694519, -0.2408950924873352, -0.4144025444984436], [-0.5678680539131165, -0.19617794454097748, 0.021624168381094933, 0.44059380888938904], [-0.09272392839193344, -0.28324222564697266, -0.1665869653224945, 0.23728778958320618], [-0.6045922636985779, 0.07135101407766342, 0.14815369248390198, -0.3094797432422638], [-0.28592783212661743, 0.2569425404071808, 0.11169390380382538, 0.25440430641174316], [0.6003304719924927, -0.023351946845650673, -0.5271567702293396, -0.2990035116672516], [0.3991031050682068, -0.12573720514774323, 0.5961963534355164, 0.4521138072013855], [-0.10290107131004333, -0.09034106135368347, 0.20135420560836792, -0.11382647603750229], [0.137019544839859, -0.4188239276409149, 0.6630153059959412, 0.6565527319908142], [0.17691531777381897, 0.3626614212989807, -0.29816755652427673, -0.002443451900035143], [0.4629385769367218, 0.7381138801574707, 0.13721561431884766, -0.27854323387145996], [0.4406636953353882, -0.11221078783273697, -0.5989956259727478, 0.28341609239578247], [-0.06368386000394821, 0.006357493344694376, -0.2879175841808319, 0.20039354264736176], [0.42772406339645386, -0.2887437343597412, -0.3168152868747711, 0.08356894552707672], [0.2991015315055847, 0.6447499990463257, -0.5801699757575989, -0.8053573369979858], [-0.2629287540912628, -0.3032025396823883, -0.7492110729217529, -0.7529191374778748], [0.6272768378257751, 0.6100868582725525, -0.3888227939605713, -0.7521868944168091], [-0.3223743736743927, -0.28089702129364014, 0.41153237223625183, 0.1769203245639801], [0.5120401978492737, 0.4137006998062134, -0.4698656499385834, -0.5903069972991943], [0.1835217922925949, 0.22988848388195038, -0.059138473123311996, -0.5528373718261719], [0.6490418910980225, 0.33274784684181213, 0.17572836577892303, -0.6548200249671936], [0.23756016790866852, 0.1224757507443428, 0.05522739514708519, -0.6581079363822937], [0.02426106482744217, 0.6162759065628052, 0.05374303460121155, -0.5965598225593567], [0.3198235332965851, 0.060779981315135956, -0.6572090983390808, -0.47015514969825745], [-0.5346821546554565, -0.06982440501451492, 0.4864038825035095, 0.6751824021339417], [-0.2894752025604248, -0.48771607875823975, -0.009121430106461048, -0.1841636449098587], [0.528608500957489, -0.2948530316352844, -0.043918926268815994, -0.5495471358299255], [-0.1363186538219452, 0.586498498916626, -0.471943736076355, -0.6481152176856995], [-0.24645082652568817, 0.25533047318458557, 0.6413657665252686, 0.3591088056564331], [0.7430256605148315, 0.16921088099479675, -0.37155476212501526, -0.055238768458366394], [-0.06444791704416275, -0.005664537660777569, 0.043026138097047806, 0.11089717596769333], [-0.5600547194480896, 0.19315242767333984, 0.22722986340522766, 0.30926141142845154], [0.09986373037099838, -0.32238343358039856, 0.004813136998564005, -0.11694839596748352], [0.35537758469581604, 0.6837165355682373, -0.6548560261726379, -0.40934351086616516], [-0.7304637432098389, 0.17427639663219452, 0.8483762145042419, 0.33160945773124695], [0.09472574293613434, -0.6527031064033508, 0.805691123008728, -0.08092108368873596], [-0.6842738389968872, -0.004834470804780722, -0.08033999800682068, 0.5104708671569824], [-0.5005059838294983, 0.1460871398448944, -0.21214134991168976, 0.028254304081201553], [-0.410393625497818, -0.2876487970352173, -0.2002997100353241, 0.3244358003139496], [0.2502499222755432, -0.24811972677707672, -0.2148183435201645, -0.10767784714698792], [0.7377615571022034, 0.01841956004500389, -0.2918781042098999, -0.7121143937110901], [0.5142239332199097, 0.727618932723999, -0.12622356414794922, -0.05128311738371849], [-0.12552569806575775, 0.1830020546913147, -0.09064663201570511, -0.768513560295105], [0.5851810574531555, 0.22189119458198547, -0.3309004604816437, 0.010069615207612514], [-0.5224741101264954, 0.0011871291790157557, -0.13074028491973877, 0.18510831892490387], [0.3695981204509735, 0.44331008195877075, -0.15226341784000397, -0.4518832266330719], [0.5671330094337463, 0.38609206676483154, -0.368018239736557, -0.32101061940193176], [-0.27420714497566223, -0.418556809425354, 0.2596433460712433, 0.6882245540618896], [-0.13858044147491455, 0.39109835028648376, -0.15830472111701965, -0.6554830074310303], [0.6427163481712341, 0.6057329773902893, -0.3896121680736542, -0.7334067225456238], [0.5722023248672485, 0.5148438215255737, 0.19571900367736816, -0.07580876350402832], [-0.12356900423765182, -0.24728482961654663, 0.4571029543876648, 0.20177879929542542], [-0.6352806687355042, -0.8290298581123352, 0.43112561106681824, 0.6888959407806396], [0.7488943934440613, 0.38231316208839417, -0.7677240967750549, -0.48574039340019226], [-0.6949203610420227, -0.5705844759941101, 0.7778637409210205, 0.4020644426345825], [0.0783717930316925, 0.7463685274124146, -0.5007213950157166, -0.8491357564926147], [0.30126869678497314, 0.24638602137565613, -0.20130260288715363, -0.4179977476596832], [0.5534052848815918, 0.5974751710891724, -0.6763026118278503, 0.055167101323604584], [0.10285810381174088, -0.288914293050766, 0.09375208616256714, -0.15285947918891907], [0.09142083674669266, 0.5372742414474487, -0.5006679892539978, -0.33628398180007935], [0.5992699265480042, 0.38391536474227905, 0.12875112891197205, -0.6524776816368103], [0.10162069648504257, -0.45541322231292725, 0.5190603137016296, -0.09031040966510773], [-0.043420664966106415, 0.5766125917434692, -0.7892200946807861, -0.655083179473877], [0.5325303673744202, 0.7118653655052185, -0.6273705363273621, 0.054776065051555634], [-0.09168333560228348, -0.5650615692138672, -0.1052703782916069, 0.764916181564331], [0.0882711261510849, -0.5641664266586304, -0.33592650294303894, 0.1602293848991394], [0.47944173216819763, 0.43135809898376465, -0.13056673109531403, -0.5710564851760864], [0.5461289882659912, -0.2601139545440674, -0.42949730157852173, 0.14733795821666718], [0.4815838634967804, 0.4942147135734558, 0.015562084503471851, -0.7957649230957031], [0.6600920557975769, 0.5136018395423889, -0.23383644223213196, 0.21023985743522644], [0.20482784509658813, 0.22623571753501892, -0.46973302960395813, -0.26382124423980713], [0.6635136604309082, 0.2183862179517746, -0.7076922655105591, -0.804874062538147], [0.33474692702293396, -0.010470524430274963, 0.3375643491744995, -0.4252673089504242], [-0.8090493083000183, -0.4631953835487366, 0.7639869451522827, 0.5240613222122192], [-0.610991895198822, -0.12609997391700745, 0.17375078797340393, 0.4935734272003174], [0.19129902124404907, -0.6793633699417114, 0.2690509855747223, 0.697517454624176], [-0.06282196938991547, -0.06729008257389069, -0.0027255439199507236, -0.3727194368839264], [0.44248127937316895, -0.38193586468696594, 0.5254825949668884, -0.10392828285694122], [-0.16384822130203247, 0.37008148431777954, 0.0972597524523735, 0.11429892480373383], [0.4253980219364166, 0.2919655442237854, 0.1931503862142563, -0.41148805618286133], [-0.5195844173431396, -0.4194284677505493, 0.6822565793991089, 0.4983381927013397], [0.24537737667560577, -0.603772759437561, 0.709727942943573, 0.4903859794139862], [-0.63630610704422, 0.008430326357483864, 0.7114957571029663, 0.5698553323745728], [0.008836840279400349, 0.039560895413160324, 0.010211076587438583, -0.39571481943130493], [0.391248494386673, 0.5684748291969299, 0.21670186519622803, -0.6682981252670288], [-0.013798248954117298, 0.3400726318359375, -0.09361547231674194, -0.285351037979126], [-0.39850881695747375, -0.0747656524181366, 0.045831602066755295, 0.35253092646598816], [-0.7247779965400696, -0.5299727916717529, 0.5577030181884766, 0.2802099883556366], [0.5466505885124207, -0.04114513099193573, -0.5828387141227722, -0.676611602306366], [-0.02258838154375553, -0.36771100759506226, 0.3947962522506714, -0.28951388597488403], [-0.2549525499343872, -0.3833434283733368, -0.043966881930828094, 0.30849939584732056], [-0.6407641172409058, -0.33269694447517395, 0.11881021410226822, 0.5113382935523987], [0.1854180097579956, 0.6246906518936157, -0.27514684200286865, -0.09867776185274124], [0.46293365955352783, 0.6651097536087036, -0.5559599995613098, -0.28534844517707825], [-0.3481968939304352, 0.28325727581977844, -0.4064653217792511, -0.633330225944519], [0.2281864732503891, -0.44710734486579895, -0.3810998797416687, 0.19507063925266266], [0.3931267559528351, -0.03950004279613495, -0.5735993981361389, -0.6083123087882996], [0.7107519507408142, 0.35886237025260925, -0.7046053409576416, 0.026940960437059402], [0.4100477993488312, 0.6595439910888672, -0.5798415541648865, 0.08476632088422775], [-0.2698614001274109, 0.009550969116389751, 0.6528847813606262, -0.19860027730464935], [-0.467802494764328, 0.010501510463654995, 0.3954193890094757, 0.2612789571285248], [0.19158963859081268, -0.061383336782455444, 0.3500569462776184, 0.13545013964176178], [0.3756476640701294, -0.39808064699172974, 0.37110915780067444, -0.020171498879790306], [-0.7179586291313171, -0.6630329489707947, 0.677785336971283, -0.051638826727867126], [-0.4466765224933624, -0.24644799530506134, 0.1402217000722885, 0.5110126733779907], [-0.6809313297271729, -0.4141782820224762, 0.5253292322158813, 0.4532487690448761], [-0.4688039720058441, -0.40268269181251526, 0.18413345515727997, 0.33089005947113037], [0.18567495048046112, -0.10897530615329742, -0.13791772723197937, 0.43444931507110596], [-0.7766604423522949, -0.7361788749694824, 0.19830942153930664, 0.6751192212104797], [0.6730285882949829, 0.7393704056739807, -0.046738483011722565, -0.6357078552246094], [-0.38956207036972046, -0.2708205580711365, 0.4744512438774109, 0.27683156728744507], [0.24824318289756775, -0.24044986069202423, 0.385013222694397, 0.22121179103851318], [0.15185502171516418, 0.20243290066719055, -0.477577269077301, 0.2879801392555237], [-0.47655045986175537, 0.25703665614128113, 0.35620084404945374, 0.34367039799690247], [0.5764197111129761, -0.38097643852233887, -0.45629966259002686, 0.25183457136154175], [0.6934235692024231, 0.5004984140396118, -0.734009325504303, -0.27992767095565796], [0.5332069993019104, -0.1781257688999176, -0.45272594690322876, -0.6044327020645142], [0.07203219085931778, -0.5549919605255127, 0.3794741928577423, 0.14359106123447418], [-0.48963138461112976, 0.20886383950710297, 0.4964104890823364, 0.5006222128868103], [-0.5733240246772766, 0.10971610993146896, 0.3895867168903351, 0.18930566310882568], [-0.45588886737823486, -0.3829512894153595, 0.17012158036231995, 0.7792083024978638], [0.2796174883842468, -0.23452992737293243, -0.3197749853134155, -0.4077068865299225], [0.49276304244995117, 0.5752266645431519, 0.10531367361545563, -0.1428157389163971], [0.708717405796051, 0.14779597520828247, -0.4644858241081238, -0.1155320480465889], [-0.4274412989616394, -0.18764929473400116, -0.035383615642786026, -0.1834763139486313], [-0.5378143787384033, 0.010449184104800224, 0.5937910676002502, 0.4931153357028961], [0.1866443008184433, 0.3855039179325104, -0.13143876194953918, 0.11885227262973785], [0.4457746148109436, 0.07274842262268066, 0.047450337558984756, -0.12626808881759644], [-0.30902889370918274, -0.5896106958389282, 0.2495526671409607, 0.6256667375564575], [0.32461997866630554, 0.7127106785774231, -0.4141887426376343, -0.04304042458534241], [-0.1122584268450737, 0.6740323901176453, -0.27963361144065857, -0.6278799176216125], [-0.09716852009296417, 0.7390233874320984, -0.45093834400177, -0.4023212194442749], [-0.6434875726699829, -0.6643601655960083, 0.8023722767829895, 0.48167791962623596], [-0.06082044541835785, -0.5188063979148865, -0.08899767696857452, 0.4655647575855255], [-0.2794096767902374, 0.20641912519931793, -0.11648190766572952, -0.13338780403137207], [-0.08974279463291168, 0.1932462602853775, -0.04728035628795624, 0.10299424082040787], [0.723196804523468, -0.14783555269241333, -0.5935428738594055, 0.2595481276512146], [-0.4175446927547455, 0.2593652009963989, -0.09289223700761795, 0.028640715405344963], [-0.313709020614624, -0.3533959686756134, 0.2661868929862976, 0.6325638294219971], [0.00048139982391148806, 0.07755541801452637, -0.2759220600128174, -0.21138668060302734], [0.621403694152832, 0.34361279010772705, -0.5679693818092346, -0.4468246102333069], [-0.6827946901321411, -0.1844272017478943, 0.6055405735969543, 0.43075424432754517], [-0.2500818073749542, -0.05110332742333412, 0.3670932650566101, 0.4061899781227112], [-0.48401939868927, -0.37470608949661255, -0.2698229253292084, 0.013008566573262215], [0.24376796185970306, -0.11179494112730026, 0.6736792922019958, 0.49082791805267334], [0.7461816072463989, 0.41739535331726074, -0.427066832780838, -0.0056555187329649925], [0.22001861035823822, 0.06179670989513397, 0.37562379240989685, -0.3481796681880951], [0.07307961583137512, -0.12581272423267365, -0.47854551672935486, -0.3769010603427887], [0.5927228927612305, 0.06463004648685455, -0.3030112385749817, -0.4128345847129822], [0.6902612447738647, 0.6723043322563171, 0.005236281082034111, -0.4286499619483948], [0.4428277611732483, 0.6945845484733582, -0.6029935479164124, -0.29631319642066956], [0.6670951843261719, 0.5969774723052979, -0.6697049736976624, 0.042535487562417984], [-0.2677585482597351, -0.5424563884735107, 0.16627129912376404, 0.12347085773944855], [0.12095146626234055, -0.12882429361343384, -0.29232317209243774, -0.7019250988960266], [-0.5535727739334106, -0.44190752506256104, -0.03506143391132355, -0.2206508070230484], [-0.6417573094367981, -0.012633192352950573, 0.0007296166731975973, 0.26608285307884216], [0.44795992970466614, 0.19168658554553986, 0.16638599336147308, -0.5047352910041809], [-0.27507513761520386, 0.22590063512325287, -0.22632575035095215, 0.32272279262542725], [0.4059082567691803, 0.6325212717056274, -0.0015718418871983886, -0.6986010670661926], [-0.8044350743293762, -0.03905890882015228, -0.017547493800520897, 0.6534140706062317], [-0.33748313784599304, 0.39753004908561707, -0.23378531634807587, -0.08222518861293793], [-0.1514093279838562, 0.12835422158241272, -0.030703570693731308, 0.2683074474334717], [-0.5054076313972473, -0.5221811532974243, 0.03195584937930107, 0.7929117679595947], [-0.36168643832206726, -0.6327438950538635, 0.18828879296779633, -0.056865766644477844], [-0.35604190826416016, -0.07152382284402847, -0.3986741006374359, 0.07597830891609192], [0.3722415864467621, 0.2713036835193634, -0.7023240923881531, -0.3003908097743988], [-0.8083239197731018, -0.31818848848342896, -0.0006054610712453723, 0.6211662292480469], [-0.31654128432273865, 0.5546305775642395, -0.3865717053413391, 0.2263297736644745], [0.6350047588348389, 0.6660212278366089, 0.17526942491531372, -0.3741217851638794], [0.6654369235038757, 0.35770007967948914, -0.1335725337266922, -0.2437206357717514], [-0.55795818567276, -0.055286988615989685, -0.2571678161621094, 0.17711681127548218], [0.33783119916915894, 0.25860396027565, -0.3275270462036133, -0.3431761562824249], [0.1967749446630478, 0.4049031436443329, -0.2024345099925995, -0.4938645362854004], [-0.7901328206062317, -0.22529149055480957, 0.4476744830608368, 0.25728297233581543], [0.6656298041343689, 0.387294739484787, -0.23268555104732513, -0.30870142579078674], [0.4806150197982788, -0.31044355034828186, 0.20245231688022614, -0.3701994717121124], [0.3127860128879547, -0.24921275675296783, 0.34945106506347656, -0.13704143464565277], [-0.1889815777540207, 0.2349538654088974, -0.1633683443069458, -0.4817175269126892], [0.7759149670600891, 0.7533032298088074, -0.29925093054771423, -0.059975966811180115], [-0.12578429281711578, -0.4765815734863281, 0.06318502128124237, -0.18773458898067474], [0.6669532656669617, 0.2437654584646225, 0.11465074867010117, -0.40031933784484863], [-0.5184170007705688, -0.3393312692642212, 0.7395579814910889, 0.6721002459526062], [0.39827847480773926, 0.3267337679862976, -0.6405462622642517, -0.3273860216140747], [-0.44331055879592896, 0.10409974306821823, 0.2529485821723938, 0.18208840489387512], [0.23219448328018188, 0.7430719137191772, -0.24972279369831085, -0.525572657585144], [0.5478777885437012, 0.2656722962856293, -0.88084876537323, -0.7167404890060425], [-0.041726548224687576, -0.33971545100212097, 0.2989080548286438, 0.7927010655403137], [-0.5259190201759338, -0.5353586077690125, 0.22295868396759033, 0.38669151067733765], [0.3810085356235504, 0.12299060821533203, -0.44501495361328125, -0.7813684344291687], [-0.8535689115524292, -0.719735860824585, 0.545769453048706, 0.8513006567955017], [0.7019007205963135, 0.5348838567733765, -0.2448316216468811, -0.06942801922559738], [-0.4304828643798828, -0.39467424154281616, 0.08887206763029099, 0.2806220054626465], [0.38963279128074646, 0.3903335630893707, -0.10060212016105652, -0.3141449987888336], [-0.44820019602775574, -0.4195546507835388, 0.8091902136802673, 0.2728154957294464], [-0.47490793466567993, -0.3599838614463806, -0.02295990288257599, -0.16251668334007263], [0.11434417963027954, -0.11301499605178833, -0.14941047132015228, -0.27826306223869324], [-0.6800792217254639, 0.09561540931463242, 0.47097212076187134, 0.31064099073410034], [0.6580367684364319, 0.2514841854572296, -0.04016214236617088, -0.5346717834472656], [-0.06902705878019333, 0.692215085029602, -0.6767648458480835, -0.13058483600616455], [-0.38080376386642456, -0.05269144847989082, 0.4846153259277344, -0.08047055453062057], [-0.4682006537914276, -0.07131284475326538, 0.6482771039009094, 0.6793336868286133], [-0.31638893485069275, 0.05660530552268028, -0.10431570559740067, -0.5521301627159119], [0.7270631194114685, 0.442592978477478, -0.6262173652648926, -0.511931300163269], [-0.22597827017307281, -0.3270225524902344, 0.10245435684919357, -0.39485234022140503], [-0.16823606193065643, 0.2651449143886566, -0.055448997765779495, 0.07947245985269547], [0.5105933547019958, 0.4528543949127197, -0.24110867083072662, -0.6511287093162537], [-0.31367963552474976, -0.03254653513431549, 0.5452764630317688, 0.7247043251991272], [0.547958493232727, 0.700588047504425, -0.27235642075538635, -0.1294458508491516], [0.14408434927463531, 0.0792677029967308, 0.5873376131057739, 0.313839852809906], [-0.21167679131031036, -0.6137396693229675, 0.5584646463394165, -0.08606023341417313], [-0.02050897106528282, 0.16501154005527496, 0.02600107528269291, -0.17986354231834412], [0.42091262340545654, 0.312928706407547, 0.14281488955020905, -0.5146310925483704], [-0.6523910164833069, -0.15083885192871094, 0.5919955372810364, 0.05484304577112198], [0.16960400342941284, 0.5632579922676086, -0.09397248178720474, -0.7058607339859009], [-0.22402900457382202, -0.2393612414598465, -0.2908139228820801, -0.23703651130199432], [-0.39503905177116394, -0.7026203274726868, 0.3825208842754364, -0.10717806965112686], [-0.22428052127361298, -0.2910301983356476, -0.181886225938797, -0.07340237498283386], [-0.37355557084083557, -0.115452840924263, 0.19586551189422607, 0.2958841025829315], [0.3480915129184723, 0.7160613536834717, -0.180540531873703, -0.6988576650619507], [-0.24884618818759918, -0.4973940849304199, 0.5005232095718384, -0.04330861195921898], [0.22674481570720673, -0.36257871985435486, -0.09631415456533432, -0.09881939738988876], [0.6561301946640015, 0.6270935535430908, -0.5367392301559448, 0.005670120939612389], [0.6374180316925049, 0.14335978031158447, -0.7674933671951294, -0.21273483335971832], [0.5555141568183899, -0.10757484287023544, 0.3790176212787628, -0.4391176998615265], [0.6632279753684998, -0.0938941165804863, -0.10536722093820572, -0.3155324161052704], [0.4857710897922516, 0.4842039942741394, -0.7734782099723816, -0.27130162715911865], [0.6645205020904541, 0.3954525291919708, -0.724511444568634, -0.529122531414032], [0.307845801115036, -0.4470089077949524, 0.210706889629364, -0.0731363371014595], [-0.04396253079175949, 0.17010453343391418, -0.032107796519994736, -0.2860840857028961], [-0.5566008687019348, -0.1904596984386444, 0.20639371871948242, 0.7547962665557861], [0.24667321145534515, 0.7839810848236084, -0.24457675218582153, 0.09864452481269836], [-0.6223046779632568, -0.6655890941619873, 0.5031514167785645, -0.22162292897701263], [0.04653806611895561, 0.1131354570388794, 0.28511252999305725, 0.41231173276901245], [0.6786109209060669, 0.2580867409706116, -0.7281090021133423, -0.4043164551258087], [0.3977155387401581, 0.6432434916496277, -0.6768603324890137, -0.03750795125961304], [0.15436629951000214, -0.49267682433128357, -0.3807893991470337, -0.16682927310466766], [-0.14699983596801758, 0.03574350103735924, 0.5858271718025208, 0.10237015783786774], [-0.7493538856506348, -0.7655205130577087, 0.46530649065971375, 0.6669169664382935], [0.4298877716064453, 0.7140812873840332, -0.42251405119895935, 0.04997323825955391], [0.5016490817070007, 0.5829521417617798, -0.4215896725654602, 0.023118823766708374], [0.5603864789009094, 0.0828256756067276, -0.715491771697998, -0.3584591746330261], [0.5168122053146362, 0.5009524822235107, -0.05907123535871506, 0.008913456462323666], [0.42991358041763306, 0.022405311465263367, -0.6705235838890076, -0.1449517160654068], [-0.28906014561653137, -0.453696072101593, 0.6532402634620667, 0.5871229767799377], [-0.41160258650779724, -0.36734795570373535, -0.22044028341770172, 0.28455621004104614], [0.09779384732246399, 0.0750303864479065, -0.26887038350105286, -0.40082883834838867], [-0.45455533266067505, -0.37952038645744324, 0.21775756776332855, 0.18308302760124207], [0.6641243100166321, 0.05485157296061516, -0.5107651948928833, 0.07035256922245026], [0.03320813924074173, -0.3954543471336365, 0.5658203959465027, 0.6092031598091125], [-0.19405075907707214, 0.003132621059194207, -0.6748487949371338, -0.22616712749004364], [0.748533308506012, 0.4684242606163025, 0.12134162336587906, -0.5195060968399048], [0.00028048286912962794, 0.16512583196163177, -0.7947554588317871, -0.40345707535743713], [0.16410844027996063, -0.18757285177707672, 0.08768248558044434, 0.2987798750400543], [-0.3220946788787842, -0.14326676726341248, 0.13228894770145416, -0.5487509965896606], [-0.22263163328170776, -0.3999645709991455, 0.223756805062294, -0.040852271020412445], [0.013124671764671803, 0.18714091181755066, 0.26786819100379944, -0.11218047887086868], [0.24807795882225037, 0.01410741452127695, -0.6750831007957458, -0.6652898788452148], [0.4363340735435486, 0.08725084364414215, -0.01310033816844225, -0.4151443541049957], [-0.0782744362950325, 0.0038241257425397635, -0.524658203125, -0.0511833019554615], [0.47961485385894775, 0.581278920173645, -0.655627965927124, -0.061252474784851074], [0.40717974305152893, 0.4683205187320709, -0.5015841126441956, 0.21697451174259186], [0.37609604001045227, 0.09780050069093704, -0.2037850022315979, -0.5302367806434631], [0.29591578245162964, 0.22688689827919006, -0.41992372274398804, -0.15910881757736206], [-0.3917432725429535, -0.0018191024428233504, 0.48389288783073425, 0.7056914567947388], [-0.6911910772323608, -0.08636796474456787, -0.16165529191493988, 0.14489716291427612], [-0.5772136449813843, -0.45381760597229004, 0.04043775051832199, 0.6434125900268555], [-0.6612744927406311, -0.5147022008895874, 0.4969727396965027, 0.16516077518463135], [-0.1752004325389862, -0.1817602664232254, -0.23822933435440063, -0.6709246635437012], [-0.008356167003512383, -0.5652730464935303, 0.15345461666584015, 0.5717965364456177], [-0.7442814707756042, 0.027653295546770096, 0.7869454026222229, 0.14817364513874054], [0.45635947585105896, -0.09755390882492065, -0.5780449509620667, -0.4872777462005615], [-0.5026492476463318, -0.2487841546535492, 0.1205303817987442, 0.18411822617053986], [0.4999951124191284, 0.6776432991027832, 0.1583290994167328, -0.18397389352321625], [0.03298370912671089, 0.4560542404651642, -0.35503512620925903, -0.15349605679512024], [0.5325686931610107, 0.6004325747489929, 0.0612926222383976, -0.24537242949008942], [-0.3672659993171692, 0.06410466879606247, -0.6908578276634216, -0.40511366724967957], [0.5416902899742126, 0.26418736577033997, -0.6660111546516418, 0.08717477321624756], [-0.37622833251953125, -0.4271811246871948, -0.10363458096981049, 0.7949833273887634], [-0.7097161412239075, -0.54164057970047, 0.5273756980895996, 0.5295727849006653], [0.35203975439071655, -0.20879177749156952, -0.09630518406629562, 0.16011345386505127], [-0.4979928731918335, -0.4769529700279236, 0.8950564861297607, 0.10505203902721405], [0.09767094254493713, 0.13918383419513702, -0.24872834980487823, -0.10358097404241562], [-0.41189703345298767, -0.5084418654441833, 0.3303999602794647, 0.21990227699279785], [-0.27900955080986023, -0.09528691321611404, 0.8322585821151733, -0.0008451102185063064], [-0.04677889496088028, -0.37688949704170227, 0.4438513219356537, 0.7194065451622009], [-0.40396466851234436, 0.29182693362236023, 0.4245927333831787, 0.17070578038692474], [0.6068053245544434, 0.6280789971351624, -0.1021437868475914, -0.12339485436677933], [-0.34933391213417053, 0.3878704607486725, -0.5266402959823608, -0.146253764629364], [0.23498019576072693, -0.5412777066230774, 0.2312285304069519, 0.6528093814849854], [-0.6272703409194946, -0.5681975483894348, 0.5462993383407593, 0.3182574212551117], [0.6769846081733704, 0.3219250738620758, 0.24706727266311646, -0.18480417132377625], [0.6369487643241882, 0.17814655601978302, -0.3345680832862854, -0.3273536264896393], [-0.042095839977264404, -0.02959282509982586, -0.27405285835266113, 0.10031792521476746], [0.620212197303772, 0.6776643395423889, -0.7150024175643921, -0.6321069002151489], [-0.4326689541339874, -0.2964925169944763, -0.1645861268043518, 0.6201198101043701], [0.6104863882064819, 0.35933250188827515, -0.13378572463989258, 0.1729802042245865], [-0.7027468681335449, -0.6343226432800293, -0.05135786160826683, 0.7103766798973083], [-0.12818270921707153, 0.41790542006492615, -0.6267852783203125, -0.27806755900382996], [0.1832401156425476, 0.4591038227081299, -0.24005763232707977, -0.1863487958908081], [0.15651848912239075, 0.050468429923057556, -0.032061316072940826, -0.590985119342804], [0.11197227239608765, 0.055977966636419296, 0.5729597210884094, 0.43632179498672485], [-0.3524174392223358, -0.12686707079410553, -0.0745481327176094, -0.2773256003856659], [-0.0905921459197998, -0.5646997690200806, -0.05720400810241699, 0.3408491611480713], [-0.6315334439277649, 0.036713145673274994, -0.2020309567451477, -0.15369562804698944], [0.5720352530479431, 0.6234281659126282, -0.15859347581863403, -0.1304003745317459], [-0.6402486562728882, -0.5964146852493286, -0.2078077495098114, 0.3096909523010254], [0.5886986255645752, 0.33326926827430725, -0.5224480032920837, 0.12928059697151184], [0.03781210631132126, -0.30796968936920166, 0.14432524144649506, -0.4617978036403656], [0.6349533796310425, -0.011759793385863304, -0.42277204990386963, -0.4291732609272003], [-0.1855553537607193, -0.565413236618042, 0.6455949544906616, 0.3425702154636383], [0.10700029134750366, -0.05022186040878296, 0.12246710062026978, -0.2497788518667221], [0.06683890521526337, -0.1927199810743332, -0.23917418718338013, -0.1345849335193634], [0.09345177561044693, 0.5484795570373535, 0.0854448676109314, -0.1732700765132904], [0.19949112832546234, -0.13661625981330872, -0.29303061962127686, -0.4154489040374756], [0.581759512424469, 0.38668590784072876, -0.6192554831504822, -0.025594575330615044], [0.4540284276008606, -0.15748195350170135, 0.23709647357463837, -0.1370600461959839], [-0.08945955336093903, -0.4104079604148865, 0.02372130937874317, 0.47464922070503235], [0.4904398024082184, 0.7317621111869812, -0.28774407505989075, -0.38765615224838257], [-0.2401561588048935, -0.21069027483463287, -0.5171394944190979, -0.6532487869262695], [0.3810582756996155, 0.7371947169303894, -0.3876776397228241, 0.2130177915096283], [0.5967568159103394, 0.7482278347015381, -0.19330503046512604, -0.26084673404693604], [0.4475997984409332, 0.6833949685096741, -0.04772290587425232, -0.526836097240448], [-0.5393112897872925, -0.6378704309463501, 0.47249674797058105, 0.7779445052146912], [-0.464004784822464, 0.18045015633106232, 0.719839334487915, 0.7639474272727966], [0.49037137627601624, -0.021953903138637543, 0.026008365675807, -0.5835921168327332], [-0.7179058790206909, -0.2849912643432617, 0.06525496393442154, 0.6122434735298157], [-0.0718422457575798, 0.34281253814697266, 0.029418155550956726, -0.18731050193309784], [0.7153804898262024, 0.37207964062690735, -0.15327440202236176, -0.12577350437641144], [0.674572765827179, 0.6383055448532104, 0.15296541154384613, 0.14377973973751068], [-0.7464615106582642, -0.4610178768634796, 0.5398854613304138, 0.627497673034668], [-0.3352339565753937, -0.5126858353614807, 0.2576320469379425, 0.5450211763381958], [0.6493510603904724, 0.5435614585876465, -0.6669877767562866, -0.11120335757732391], [0.17279767990112305, 0.20251798629760742, -0.15459850430488586, -0.20069409906864166], [-0.25595301389694214, -0.3133704662322998, 0.49355611205101013, 0.3230805993080139], [0.04670467600226402, 0.1331973671913147, -0.584053099155426, 0.0392136350274086], [0.7328081727027893, 0.7828306555747986, -0.609089732170105, -0.33781638741493225], [0.19992682337760925, 0.7645434141159058, -0.07026513665914536, -0.3045355975627899], [-0.11470231413841248, -0.32911595702171326, 0.6578204035758972, 0.5276628732681274], [-0.009036066010594368, -0.017220307141542435, -0.2637613117694855, -0.3409527540206909], [-0.25815561413764954, -0.1997140347957611, -0.07843662053346634, -0.04430351033806801], [-0.527927041053772, -0.41152408719062805, 0.6890252828598022, -0.14342018961906433], [-0.16547709703445435, -0.06769723445177078, -0.39809003472328186, -0.3521059453487396], [-0.11572851240634918, 0.5595081448554993, -0.22495312988758087, 0.03704068809747696], [-0.5083759427070618, -0.5934019088745117, 0.06619042903184891, 0.5095595121383667], [0.07225006818771362, -0.5801622867584229, 0.7096716165542603, 0.5365824699401855], [-0.16986167430877686, -0.2285064160823822, -0.5254727602005005, -0.4702190160751343], [-0.26809582114219666, 0.052465785294771194, 0.19724923372268677, 0.44237563014030457], [-0.37875819206237793, -0.5505500435829163, 0.30148929357528687, 0.45538681745529175], [0.00525698671117425, -0.4887967109680176, 0.5043588876724243, 0.2715738117694855], [-0.2763330042362213, -0.30280154943466187, 0.5765378475189209, 0.6048415303230286], [-0.5759071111679077, -0.4413943886756897, 0.18850384652614594, -0.14396624267101288], [0.47281599044799805, 0.4856300950050354, -0.3486638069152832, -0.15629741549491882], [-0.439206063747406, 0.06934179365634918, 0.0774916559457779, 0.5462567806243896], [0.3100546598434448, 0.7347139716148376, -0.641250729560852, 0.017796559259295464], [-0.4250747263431549, -0.6713456511497498, 0.4652145802974701, -0.3180689215660095], [-0.3382687568664551, -0.5054177641868591, 0.014496790245175362, -0.22823156416416168], [0.6494056582450867, 0.026910407468676567, -0.3016989827156067, -0.020949581637978554], [0.0851997584104538, -0.3172443211078644, -0.4156932234764099, 0.36497125029563904], [0.5513631105422974, 0.6785531044006348, -0.1974748969078064, -0.2840913236141205], [-0.3288484215736389, -0.49600350856781006, 0.5941452980041504, -0.1094503179192543], [-0.14821915328502655, 0.22272637486457825, -0.6317897439002991, 0.13758474588394165], [-0.08254081010818481, 0.7158282399177551, -0.5222073793411255, -0.5329341292381287], [-0.17736491560935974, -0.284254252910614, -0.025825686752796173, -0.4049849808216095]], "fc1.bias": [0.48234859108924866, 0.005534223280847073, 0.1722222864627838, -0.29875919222831726, 0.31851744651794434, -0.13639968633651733, 0.024742834270000458, 0.10680170357227325, -0.30831313133239746, -0.5388381481170654, 0.1930496096611023, 0.2571934163570404, -0.0769500806927681, 0.08237060904502869, 0.05535665526986122, -0.27089911699295044, -0.08626502752304077, -0.47472187876701355, -0.06165650114417076, -0.13054724037647247, 0.27546173334121704, 0.22143474221229553, 0.21090708673000336, -0.05798087269067764, 0.517174482345581, -0.4247708320617676, -0.06879560649394989, -0.3757125735282898, 0.4883367419242859, -0.12022048234939575, -0.11362466961145401, 0.34900104999542236, -0.339083731174469, -0.35011598467826843, -0.1643287092447281, -0.3783484101295471, -0.20950080454349518, -0.3115859627723694, -0.018208878114819527, -0.48056334257125854, 0.27829304337501526, 0.1721496880054474, -0.1297626793384552, -0.09811744838953018, -0.22689104080200195, -0.13094550371170044, 0.10763981193304062, 0.21073828637599945, 0.07654833048582077, 0.42207831144332886, -0.22622691094875336, 0.33441758155822754, 0.4011310338973999, -0.10749513655900955, 0.06909741461277008, 0.2284955233335495, -0.1887127310037613, 0.48726922273635864, -0.15875908732414246, 0.5074833631515503, 0.43346449732780457, -0.1622137874364853, 0.3212986886501312, -0.11221770942211151, -0.33380424976348877, -0.2146836817264557, 0.3789016604423523, -0.18440528213977814, 0.49503880739212036, -0.08875876665115356, -0.04717768356204033, 0.3854857087135315, -0.22980788350105286, -0.29401731491088867, -0.2772546112537384, 0.028949737548828125, -0.22029414772987366, 0.4307996928691864, 0.4301823675632477, -0.33406850695610046, 0.03742916136980057, 0.11181313544511795, 0.3066352307796478, -0.06784886866807938, -0.229608952999115, 0.5330374836921692, 0.05595185607671738, -0.18302078545093536, 0.4529585838317871, -0.10944519191980362, -0.008274753578007221, -0.18924519419670105, -0.04612298682332039, 0.4510188400745392, -0.48206812143325806, 0.2896359860897064, -0.33518147468566895, 0.34684914350509644, -0.2299305647611618, 0.1776694357395172, 0.16373604536056519, 0.13441020250320435, -0.26718226075172424, -0.08978769928216934, -0.1499045044183731, 0.09673340618610382, -0.24837926030158997, -0.4775150418281555, 0.5138657093048096, 0.15001514554023743, 0.05397207662463188, -0.08294698596000671, -0.13750362396240234, -0.406789630651474, -0.2150394469499588, -0.026178011670708656, -0.2111128270626068, 0.322775274515152, -0.14945736527442932, 0.426445871591568, -0.031131545081734657, -0.5228648781776428, -0.11775630712509155, 0.24363583326339722, 0.298298180103302, 0.10113999247550964, 0.2553049921989441, -0.26568666100502014, -0.35310378670692444, 0.1291857659816742, -0.5276960134506226, 0.0005077120149508119, 0.1980474591255188, -0.25757718086242676, 0.02007785625755787, 0.1464122235774994, 0.17087295651435852, 0.05614405870437622, -0.3701789677143097, 0.23005031049251556, 0.16213102638721466, -0.10466359555721283, -0.21438321471214294, -0.2135041505098343, 0.3126784563064575, -0.20526805520057678, 0.015336696058511734, -0.20529013872146606, -0.19062168896198273, -0.1847967654466629, -0.13832581043243408, -0.255786269903183, -0.10457096993923187, -0.22233177721500397, -0.3524063527584076, 0.5177358984947205, -0.40472397208213806, 0.11546842008829117, -0.41625282168388367, -0.06396101415157318, 0.3497995138168335, 0.4265827536582947, -0.4072151482105255, -0.2303759604692459, -0.10748524963855743, -0.019970474764704704, -0.361934632062912, -0.09858392924070358, 0.5000512599945068, -0.21894687414169312, -0.4102814793586731, -0.4155517816543579, -0.287776380777359, 0.04396301135420799, -0.10378735512495041, 0.4498419761657715, -0.11682241410017014, 0.3623136579990387, 0.26400089263916016, -0.33323103189468384, -0.34781375527381897, -0.4916345775127411, -0.2614838778972626, -0.1798340529203415, -0.14711637794971466, 0.2719937264919281, -0.026623236015439034, -0.07461221516132355, -0.12350145727396011, -0.22822263836860657, -0.3278149366378784, -0.4986819922924042, 0.27581948041915894, -0.02233709581196308, 0.019676171243190765, 0.489662766456604, -0.14283578097820282, -0.1562415212392807, -0.37303707003593445, -0.009706133976578712, 0.10932474583387375, -0.16139158606529236, -0.2806931436061859, -0.21877554059028625, -0.28787872195243835, 0.3398014008998871, 0.3331868052482605, -0.4978511929512024, -0.4917507469654083, -0.22476588189601898, -0.19614849984645844, 0.03589105233550072, -0.21101900935173035, 0.06013830006122589, 0.2445470243692398, 0.2740921080112457, -0.3539351522922516, -0.39945459365844727, 0.5160610675811768, 0.3433036208152771, -0.33265021443367004, 0.10747376829385757, -0.2659507393836975, -0.03636639937758446, 0.28531062602996826, -0.33659297227859497, 0.5236570239067078, -0.15444356203079224, 0.5229523777961731, -0.17439605295658112, -0.23919068276882172, -0.25538548827171326, -0.012482214719057083, -0.06664120405912399, -0.48009833693504333, -0.03961925581097603, -0.08411438018083572, 0.261686772108078, 0.45747339725494385, -0.467963308095932, 0.31729838252067566, 0.1968580037355423, -0.28867772221565247, -0.3765794038772583, -0.23170672357082367, 0.36801111698150635, -0.2992047369480133, 0.4149044156074524, 0.010024555027484894, -0.11019685864448547, -0.420416921377182, 0.27878692746162415, 0.01930733025074005, -0.05913018435239792, 0.2796514332294464, -0.4272046685218811, -0.31119975447654724, 0.061147380620241165, -0.29311391711235046, -0.21468426287174225, -0.5259858965873718, 0.3412153422832489, -0.16205769777297974, 0.42158275842666626, -0.3315781354904175, -0.03803885355591774, 0.49164560437202454, 0.2653329372406006, 0.4291794002056122, 0.19551323354244232, -0.10605983436107635, -0.41758257150650024, -0.20632432401180267, -0.02598811313509941, -0.18318350613117218, -0.4462071657180786, 0.2366771697998047, -0.07539798319339752, -0.2200261652469635, -0.08348061889410019, -0.22855983674526215, 0.21124058961868286, 0.16985425353050232, -0.19001220166683197, 0.4558599293231964, -0.18139870464801788, -0.20360879600048065, 0.26106956601142883, -0.48721036314964294, -0.0934947207570076, 0.32196980714797974, 0.31057459115982056, -0.014355341903865337, -0.02669014409184456, -0.2788509428501129, 0.24530640244483948, -0.0808824896812439, 0.15104258060455322, -0.24190962314605713, 0.16643716394901276, -0.11431057751178741, -0.39044326543807983, 0.044210657477378845, 0.41664421558380127, -0.22341856360435486, 0.2282339334487915, 0.443373441696167, 0.3389257490634918, -0.05432393029332161, -0.14779767394065857, -0.18526314198970795, -0.16459594666957855, -0.27881860733032227, 0.49240368604660034, 0.329894483089447, -0.08345625549554825, -0.30113843083381653, -0.18394482135772705, 0.23590323328971863, 0.3584575355052948, 0.49821674823760986, 0.14918021857738495, 0.0019354568794369698, 0.17563293874263763, 0.0562625452876091, -0.1674433946609497, -0.5178167819976807, -0.027850935235619545, 0.14761647582054138, -0.2960137724876404, -0.23963859677314758, -0.25663241744041443, -0.3865271508693695, -0.17527712881565094, -0.33337655663490295, -0.13221687078475952, 0.35032474994659424, -0.4328590929508209, -0.2313835769891739, 0.2159222811460495, 0.4103672504425049, -0.12259533256292343, -0.023274382576346397, -0.40435850620269775, -0.5677618384361267, 0.40357425808906555, -0.16807223856449127, -0.02923501655459404, -0.34501761198043823, 0.10272430628538132, -0.390519380569458, 0.023164331912994385, 0.04622920975089073, -0.4199461340904236, -0.16249577701091766, -0.12569530308246613, 0.5149023532867432, 0.05591411888599396, -0.2687298059463501, -0.36074012517929077, -0.4134170114994049, -0.004508807323873043, -0.32572320103645325, 0.5326846241950989, 0.3776288330554962, 0.1922132819890976, 0.5266794562339783, 0.15944628417491913, 0.01619967445731163, -0.22785788774490356, 0.1428142935037613, 0.2168397754430771, 0.45532748103141785, -0.027038399130105972, 0.13674655556678772, 0.09012818336486816, -0.24783194065093994, -0.23132796585559845, 0.2705661952495575, -0.47441229224205017, 0.01912061870098114, -0.5223098993301392, -0.05762071534991264, -0.14725375175476074, -0.2517288029193878, -0.2590055465698242, -0.165045365691185, -0.359169602394104, 0.4720478355884552, 0.46323952078819275, 0.0831720307469368, 0.1780206859111786, -0.22775784134864807, -0.2544688582420349, -0.11068866401910782, -0.19894810020923615, 0.29519665241241455, -0.27574703097343445, -0.13659638166427612, -0.15151748061180115, -0.5073490738868713, -0.11419735848903656, -0.29121947288513184, 0.025762934237718582, -0.4703715145587921, -0.4715457856655121, -0.28275009989738464, -0.12838837504386902, -0.2638899087905884, 0.4266014099121094, -0.47386330366134644, 0.21374063193798065, -0.2238672375679016, -0.2079460620880127, 0.39935410022735596, 0.47010180354118347, -0.0506531223654747, -0.10991257429122925, -0.116828553378582, -0.029717598110437393, -0.3039599359035492, 0.3033219575881958, -0.3893974721431732, -0.2829906940460205, 0.12060805410146713, -0.2427501380443573, -0.1642947494983673, -0.030520064756274223, -0.46059754490852356, -0.2518511712551117, 0.3473246097564697, -0.13457909226417542, -0.24083498120307922, 0.25415435433387756, -0.2978094816207886, -0.20619840919971466, 0.479993611574173, 0.39099884033203125, -0.09955605119466782, -0.36475488543510437, 0.2128608673810959, -0.4809723198413849, -0.16248837113380432, -0.00706919189542532, 0.24255691468715668, 0.07525128871202469, -0.3306313753128052, 0.14700143039226532, -0.3980279862880707, 0.31746339797973633, 0.4970376491546631, -0.11655283719301224, -0.3901328146457672, -0.31073713302612305, 0.43834999203681946, 0.5056997537612915, 0.5336437821388245, 0.2803875505924225, -0.11629565060138702, -0.20192810893058777, 0.15721046924591064, -0.16037696599960327, -0.4983147978782654, -0.13376018404960632, -0.45784902572631836, -0.5138531923294067, 0.3077397048473358, -0.39538782835006714, 0.09036201983690262, 0.36578676104545593, -0.10081438720226288, 0.10931047052145004, -0.2538643181324005, 0.22498996555805206, 0.2703498899936676, -0.22396910190582275, -0.31871533393859863, -0.4548644721508026, 0.0911012515425682, -0.06153804063796997, -0.0338088758289814, 0.4227003753185272, -0.015668552368879318, -0.49277642369270325, -0.09203588217496872, -0.14265525341033936, 0.3751370310783386, -0.3029196560382843, -0.11732438206672668, 0.08164539933204651, 0.12412433326244354, 0.11647308617830276, 0.3422696888446808, 0.32062646746635437, -0.0388229601085186, -0.16741175949573517, 0.1985277533531189, -0.20112545788288116, 0.2383083999156952, 0.249564066529274, -0.10722842067480087, 0.35187608003616333, -0.1819811910390854, 0.4658188819885254, -0.0283015388995409, -0.33358824253082275, 0.5333674550056458, -0.1688661128282547, 0.3534437119960785, -0.40722617506980896, 0.2841806709766388, 0.34090694785118103], "fc2.weight": [[-0.03808939456939697, -0.03922270983457565, -0.10342653095722198, 0.011049443855881691, 0.08827245980501175, -0.017946626991033554, 0.11216796934604645, 0.007861031219363213, 0.024134252220392227, -0.014595100656151772, 0.04482679441571236, -0.05986369028687477, 0.007386598736047745, 0.016009364277124405, 0.0032310807146131992, -0.010785099118947983, -0.034023310989141464, -0.03377419337630272, 0.0064919330179691315, -0.041017085313797, 0.053083665668964386, 0.04149346426129341, 0.016073228791356087, -0.021137773990631104, 0.013962045311927795, 0.013805517926812172, -0.010881834663450718, 0.01005684956908226, 0.005195688456296921, 0.02032085508108139, -0.02883642166852951, -0.05249900743365288, -0.03589340299367905, 0.05355244129896164, -0.008052736520767212, -0.016668645665049553, 0.14215032756328583, 0.028452452272176743, 0.053248967975378036, -0.010861754417419434, -0.0002749149571172893, -0.18815918266773224, 0.03675384446978569, -0.03748377785086632, 0.028557579964399338, -0.012172909453511238, 0.006232442334294319, -0.007760221138596535, 0.0001536136696813628, 0.01450294628739357, -0.005624215584248304, -0.08043035119771957, 0.005620553158223629, 0.0344366617500782, -0.08075863867998123, -0.12734781205654144, -0.05038248002529144, 0.008818046189844608, 0.018401896581053734, -0.03524143993854523, -0.07926313579082489, 0.013288367539644241, 0.007924545556306839, 0.07865876704454422, -0.0054829660803079605, -0.024780940264463425, -0.034920647740364075, 0.06087092310190201, -0.04701006039977074, 0.04086701571941376, -0.023755159229040146, -0.02254858799278736, 0.02357069030404091, 0.01656213030219078, -0.010136089287698269, -0.027310358360409737, 0.036311451345682144, -0.05604654550552368, -0.009855242446064949, -0.007091153413057327, -0.03434472903609276, -0.0937095656991005, -0.11588673293590546, -0.013204038143157959, 0.009956616908311844, -0.005511506926268339, -0.033729806542396545, 0.030147956684231758, 0.026755699887871742, 0.01068418100476265, -0.02841346152126789, 0.023916073143482208, -0.06210581213235855, -0.007825753651559353, -0.039277441799640656, -0.11172312498092651, 0.017919976264238358, 0.03512784466147423, -0.024677837267518044, -0.1775231957435608, 0.09331300109624863, -0.08879902958869934, -0.0261614341288805, -0.03412599861621857, 0.02999812737107277, 0.09972137212753296, 0.014528673142194748, 0.025544848293066025, -0.006208533421158791, -0.018107255920767784, 0.0036729248240590096, 0.005833283066749573, 0.09447674453258514, 0.00848337635397911, 0.01804484613239765, 0.008159114047884941, 0.036671821027994156, 0.042350832372903824, 0.061665624380111694, 0.018916716799139977, -0.0020702825859189034, -0.03792040795087814, 4.965439438819885e-05, 0.024572474882006645, -0.010463612154126167, -0.1428375542163849, -0.022433992475271225, -0.03461318463087082, -0.010393504053354263, 0.010822799056768417, -0.022583408281207085, -0.037300847470760345, -0.11537518352270126, -0.0065042488276958466, 0.17394600808620453, -0.1786402314901352, 0.03294005244970322, 0.003723631612956524, -0.008209995925426483, 0.011596519500017166, -0.22964274883270264, 0.042396534234285355, -0.020470459014177322, -0.008207127451896667, -0.06444806605577469, 0.02362855151295662, -0.05780811235308647, -0.027331188321113586, 0.0013797096908092499, -0.021873291581869125, -0.004370223265141249, 0.005088232457637787, -0.009459059685468674, -0.0002199523150920868, -0.021138720214366913, -0.029735589399933815, -0.028156939893960953, -0.08724956214427948, -0.04315270483493805, -0.05451689660549164, -0.025837508961558342, -0.025466937571763992, 0.043769944459199905, 0.1058570072054863, 0.00706874206662178, -0.030403023585677147, -0.010392289608716965, -0.06962258368730545, -0.0419469028711319, -0.027031391859054565, -0.03826131299138069, -0.005340207368135452, -0.0001141279935836792, -0.06807439774274826, -0.010747276246547699, 0.0017097501549869776, -0.0005333885201252997, -0.03888661786913872, 0.03116867132484913, 0.00414179265499115, -0.01127709075808525, -0.011136461049318314, -0.06641008704900742, 0.11437007784843445, 0.07866312563419342, -0.05336768925189972, 0.01205936074256897, -0.008638739585876465, -0.009588003158569336, 0.007818491198122501, -0.04642137885093689, -0.01549852266907692, 0.00037807138869538903, 0.034155625849962234, -0.056388262659311295, 0.02715025655925274, 0.07186032831668854, 0.008387859910726547, -0.01092506479471922, -0.03448532894253731, 0.008082032203674316, 0.13719116151332855, -0.03896111249923706, 0.09977573156356812, 0.07154707610607147, -0.010166510008275509, -0.0033936449326574802, -0.024464759975671768, 0.04146421328186989, -0.025260550901293755, -0.02124229073524475, 0.005656203255057335, -0.07084980607032776, -0.04078922048211098, 0.04066885635256767, 0.025077495723962784, -0.010768156498670578, 0.08371865749359131, 0.0017821546643972397, 0.025610068812966347, 0.1003435030579567, 0.0003618717601057142, 0.04585331678390503, 0.1274477243423462, -0.047590699046850204, 0.03015631064772606, 0.00445979367941618, 0.013492424041032791, 0.018351910635828972, 0.07721523940563202, 0.03700131177902222, 0.0407542884349823, -0.027208050712943077, -0.052978239953517914, 0.015775658190250397, 0.03375047445297241, 0.034220363944768906, 0.02974160946905613, -0.0010139044607058167, 0.001537121832370758, -0.12398809939622879, 0.0732511654496193, -0.025769654661417007, -0.003413483500480652, 0.023968998342752457, 0.04097669571638107, 0.07286886125802994, -0.022150255739688873, -0.0163587499409914, -0.03586258739233017, 0.00034363940358161926, -0.05810832604765892, -0.0027907423209398985, 0.04150567948818207, -0.15243923664093018, -0.020478975027799606, -0.02627379260957241, -0.09440968930721283, -0.010615227743983269, -0.039444632828235626, -0.020649468526244164, -0.038300350308418274, 0.02893156185746193, -0.006728839594870806, 0.009819616563618183, -0.018014730885624886, 0.0009712562314234674, -0.09648115187883377, -0.007701650261878967, -0.19640961289405823, -0.038213472813367844, -0.0022737488616257906, 0.01707136631011963, -0.026460107415914536, 0.06378708779811859, -0.034029245376586914, -0.008542281575500965, 0.07167385518550873, -0.0027022187132388353, 0.0019910840783268213, -0.026976285502314568, -0.19784511625766754, -0.1609024703502655, 0.0035201050341129303, 0.029193971306085587, -0.0311447624117136, -0.03133692592382431, -0.06524015963077545, 0.01274198293685913, -0.026739707216620445, -0.12902909517288208, -0.041507452726364136, -0.020444735884666443, -0.018855897709727287, 0.012437211349606514, -0.02701619267463684, 0.03744041547179222, 0.09132921695709229, -0.05808427184820175, 0.07144351303577423, 0.018938180059194565, 0.02614324912428856, 0.02952270582318306, -0.07375598698854446, -0.03833480924367905, -0.004165183752775192, 0.008788015693426132, 0.03846842050552368, 0.060159459710121155, -0.029274968430399895, 0.004442915320396423, 0.09900914132595062, 0.03864913806319237, 0.0009516855934634805, 0.04000914469361305, 0.050455641001462936, -0.0012423060834407806, 0.009761407971382141, 0.014774227514863014, -0.03395705670118332, -0.03517152741551399, 0.20691318809986115, 0.070768803358078, 0.05549338459968567, -0.005269555374979973, 0.04224103316664696, -0.030673660337924957, 0.011047321371734142, 0.04143158718943596, -0.034371521323919296, 0.06776020675897598, 0.14398129284381866, -0.0329756960272789, -0.018561404198408127, 0.10695099830627441, 0.04410518705844879, -0.03768369182944298, -0.0012684501707553864, 0.12241185456514359, 0.06315524876117706, -0.08265217393636703, -0.03229646384716034, 0.03591208904981613, 0.04188832268118858, -0.03507550060749054, -0.08729081600904465, -0.05430192872881889, -0.04886185750365257, 0.025820810347795486, -0.12056747078895569, 0.04327354207634926, -0.04016740620136261, -0.0017379261553287506, -0.022686436772346497, -0.0031280224211513996, 0.06208709999918938, -0.003027423284947872, -0.010381906293332577, 0.042365435510873795, 0.01523614302277565, 0.07426304370164871, 0.08678730577230453, 0.1003788560628891, 0.012181950733065605, -0.023018507286906242, -0.018124694004654884, -0.04414878785610199, 0.07267802953720093, 0.10640214383602142, -0.0170036181807518, 0.016352083534002304, 0.0592922642827034, 0.013493978418409824, -0.03135068714618683, 0.062628373503685, 0.04654398560523987, -1.3008713722229004e-05, 0.034467343240976334, -0.137950137257576, 0.10155025869607925, 0.04855094477534294, -0.03735712170600891, 0.008454106748104095, -0.000653949799016118, -0.036810070276260376, -0.042622458189725876, 0.11848408728837967, -0.03431989252567291, -0.0332060381770134, 0.014554382301867008, 0.039232172071933746, 0.16281817853450775, 0.08905163407325745, 0.04151974245905876, 0.021213572472333908, 0.0354621596634388, -0.01785125583410263, 0.08087309449911118, -0.023466331884264946, 0.0034219627268612385, 0.017895523458719254, -0.021667109802365303, -0.04064476117491722, 0.014536410570144653, 0.015589896589517593, 0.0022526010870933533, -0.0214423518627882, -0.004183880984783173, -0.06674153357744217, -0.020398367196321487, -0.008751656860113144, 0.08904232084751129, 0.09552011638879776, 0.011420082300901413, -0.10162142664194107, -0.05065813288092613, 0.03421781584620476, 0.08582571148872375, 0.03708556294441223, 0.013379990123212337, -0.01782398112118244, -0.0028120409697294235, -0.03732917830348015, -0.03841991722583771, -0.04147317260503769, 0.02514297515153885, 0.11038775742053986, 0.04769182950258255, -0.0007212795317173004, 0.07146818190813065, 0.002675096970051527, 0.02539912238717079, 0.02081689052283764, -0.09917706251144409, -0.04004672169685364, -0.03632215037941933, -0.01716558262705803, -0.05608431622385979, 0.12139295041561127, 0.01845092698931694, 0.04576228931546211, -0.014792341738939285, -0.05539046972990036, 0.12804308533668518, 0.019568558782339096, -0.09719672054052353, 0.02663521096110344, 0.15153241157531738, -0.04075920954346657, -0.03972381725907326, -0.048021480441093445, 0.004599425941705704, 0.028632614761590958, -0.02209966443479061, -0.03184440732002258, 0.003621004754677415, 0.030390843749046326, 0.04168826341629028, 0.15166381001472473, 0.015037421137094498, 0.014432183466851711, -0.0051775709725916386, -0.041025035083293915, -0.008178656920790672, 0.011383116245269775, 0.01671988144516945, 0.017722271382808685, -0.043409597128629684, 0.015850942581892014, 0.025641363114118576, -0.021198531612753868, -0.15821462869644165, 0.0015593309653922915, 0.0602351576089859, -0.13081860542297363, 0.006795648485422134, 0.007682429626584053, -0.04684880003333092, -0.1446882039308548, 0.08459598571062088, -0.05558965727686882, -0.046134985983371735, 0.0425356961786747, 0.0005706511437892914, 0.01730838045477867, 0.014844042249023914, -0.0928218811750412, 0.036647502332925797, 0.00984203815460205, -0.09181059151887894, -0.018354931846261024, 0.05740048736333847, -0.07623188197612762, -0.08861521631479263, 0.029309812933206558, -0.02606845274567604, -0.19849476218223572, 0.026822391897439957, -0.125508114695549, -0.12142588943243027, -0.03381466865539551, -0.030835697427392006, -0.052091334015131, -0.015288206748664379, -0.02681123837828636, 0.11301467567682266, 0.01628122664988041, -0.05614153668284416, -0.10390034317970276, 0.037267547100782394, 0.005685931071639061, 0.010517812334001064], [-0.07008740305900574, -0.05108265206217766, 0.1641840934753418, -0.07541701942682266, -0.1006801426410675, -0.023959161713719368, 0.10744001716375351, -0.14926202595233917, -0.029339879751205444, -0.03936825692653656, -0.15701977908611298, 0.09654949605464935, 0.004223823547363281, -0.10257910937070847, -0.13126304745674133, -0.03445364534854889, 0.023401211947202682, 0.002952996641397476, -0.07195644080638885, -0.08964300155639648, -0.10895545035600662, -0.2423049807548523, -0.24262961745262146, -0.047682683914899826, -0.0848935917019844, -0.02871185727417469, -0.09721393883228302, -0.04275662451982498, -0.03962009400129318, -0.03749428689479828, -0.012005587108433247, 0.06069563329219818, -0.028600197285413742, -0.1395183652639389, -0.01064733974635601, -0.02996755763888359, -0.142863467335701, -0.05890960618853569, 0.09007909893989563, -0.017437752336263657, -0.19774428009986877, 0.2649346888065338, 0.015047349967062473, 0.006326209753751755, -0.033966366201639175, -0.052684485912323, -0.22641994059085846, -0.1747675985097885, -0.15316663682460785, -0.13265426456928253, -0.048414137214422226, 0.10129088908433914, -0.13497008383274078, -0.013576427474617958, 0.21790537238121033, 0.2866054177284241, -0.016380559653043747, 0.0274906437844038, -0.09807185083627701, -0.02707546018064022, 0.09692215174436569, 0.014513392001390457, 0.07767368108034134, 0.05775899440050125, 2.5388193535036407e-05, -0.004945510532706976, 0.013444898650050163, 0.0563470721244812, 0.018926091492176056, -0.024362236261367798, -0.017571773380041122, 0.05147552490234375, 0.009936247020959854, -0.013643329963088036, -0.015088656917214394, 0.17398232221603394, -0.036476630717515945, 0.03349064663052559, 0.02048148401081562, -0.031024716794490814, -0.00490865483880043, 0.21856418251991272, 0.15195557475090027, -0.028496485203504562, 0.022496487945318222, -0.0050126416608691216, -0.03425539284944534, 0.07501712441444397, -0.08172610402107239, 0.0030842681881040335, 0.03334136679768562, -0.014775140210986137, -0.08312315493822098, -0.01881488785147667, -0.02281533181667328, 0.16468939185142517, 0.010770700871944427, -0.16361451148986816, -0.0030099377036094666, 0.24576899409294128, -0.22103829681873322, 0.25803142786026, -0.12531626224517822, -0.05005434527993202, -0.011186663061380386, -0.2262982726097107, 0.016477316617965698, -0.0194912888109684, -0.03733475133776665, -0.03956446796655655, -0.17649398744106293, 0.029603037983179092, 0.07500232011079788, 0.009019546210765839, 0.04896565526723862, -0.03475649282336235, -0.019097689539194107, -0.08473648130893707, 0.04635744169354439, -0.11179201304912567, -0.09142210334539413, 0.040066126734018326, 0.004606761038303375, -0.13419704139232635, -0.1258271485567093, 0.2567308247089386, 0.11087910085916519, 0.00764036551117897, 0.00603027269244194, 0.03174451366066933, -0.007658921182155609, -0.09182178974151611, 0.2355910837650299, -0.0199264083057642, -0.13547316193580627, 0.2944779694080353, -0.2706248462200165, -0.13457921147346497, 0.04117809608578682, -0.021805910393595695, 0.3291943371295929, -0.0037644440308213234, -0.01887759193778038, 0.0392807312309742, 0.21282127499580383, -0.006346292793750763, -0.0868234932422638, -0.04755865037441254, -0.03790812939405441, -0.07039337605237961, -0.03397231921553612, 0.035259734839200974, 0.041649650782346725, 0.040387820452451706, 0.038979824632406235, -0.013031253591179848, 0.025081906467676163, 0.15032406151294708, 0.03286520764231682, -0.028031226247549057, -0.051194433122873306, -0.04763730242848396, 0.016956515610218048, -0.05647244304418564, -0.009926710277795792, -0.1427222490310669, 0.013999991118907928, -0.015675880014896393, -0.1111278086900711, -0.047397010028362274, 0.04342728480696678, -0.020477762445807457, -0.0304378941655159, 0.18788616359233856, 0.015085574239492416, -0.03686439245939255, -0.11858628690242767, 0.023383310064673424, -0.10832972824573517, 0.01693015545606613, 0.03742009773850441, 0.019382711499929428, 0.006825295276939869, 0.1256922036409378, 0.07687634229660034, 0.10435556620359421, 0.017910834401845932, -0.03510312736034393, -0.00854111835360527, -0.11625577509403229, -0.021768048405647278, 0.002770818769931793, -0.1485566645860672, 0.019523385912179947, -0.019613822922110558, -0.06454641371965408, 0.07212647050619125, 0.002382926642894745, -0.026828249916434288, -0.05966851860284805, 0.09207123517990112, 0.06401267647743225, -0.06830476224422455, 0.11229315400123596, -0.09216222167015076, -0.08550386875867844, -0.17840738594532013, 0.026532728224992752, 0.015337154269218445, -0.025941291823983192, -0.0150283332914114, -0.129935622215271, -0.04033225029706955, 0.1942499727010727, 0.03989399969577789, -0.15040776133537292, -0.0024912990629673004, -0.10533934086561203, -0.08622809499502182, -0.07961957901716232, -0.147737517952919, 0.04819940775632858, 0.03337150812149048, -0.04992114007472992, 0.054166004061698914, -0.021186677739024162, -0.0032578748650848866, -0.033607855439186096, -0.04826793447136879, 0.1450134664773941, 0.02128385193645954, 0.06294119358062744, 0.00954904779791832, -0.007894886657595634, 0.0006338693201541901, -0.0023965423461049795, 0.10358469933271408, -0.1837616115808487, 0.0002995815593749285, 0.034369613975286484, 0.18147435784339905, -0.2308572679758072, -0.023072313517332077, -0.02274978905916214, -0.0031346455216407776, -0.13062722980976105, -0.07845655083656311, -0.12822920083999634, 0.06453965604305267, 0.036469776183366776, -0.0010113753378391266, 0.008243988268077374, 0.1534295380115509, -0.05609854310750961, 0.25676292181015015, -0.02142326906323433, 0.0069532617926597595, 0.26119816303253174, -0.03942885622382164, 0.012391764670610428, -0.0161008071154356, -0.056783732026815414, 0.02772427722811699, -0.04675539955496788, -0.05928981304168701, -0.09056393802165985, 0.020488694310188293, 0.08741317689418793, 0.021122250705957413, 0.304872065782547, -0.030758686363697052, 0.008990339934825897, -0.09643080830574036, -0.02816816046833992, 0.07363028824329376, 0.00044569745659828186, -0.02072896622121334, 0.13275769352912903, -0.0698276236653328, -0.08105006068944931, -0.055476002395153046, 0.3176079988479614, 0.18471777439117432, 8.06860625743866e-05, 0.005157966632395983, -0.04598924145102501, 0.010644707828760147, 0.2140713334083557, 0.007116552442312241, -0.08727435022592545, 0.16057267785072327, 0.0789828896522522, 0.016343042254447937, 0.015650590881705284, -0.023140696808695793, -0.04931320622563362, -0.04305887222290039, -0.22317887842655182, -0.06292724609375, -0.22711990773677826, -0.04677291959524155, -0.007532849907875061, -0.022452078759670258, 0.09576889127492905, 0.00923200324177742, -0.13511735200881958, 0.0005781284417025745, -0.1242358386516571, 0.04189523681998253, 0.04102228954434395, -0.0008083805441856384, 0.040359653532505035, -0.009597033262252808, -0.05700387805700302, -0.1244053915143013, 0.053236786276102066, 0.02567683532834053, -0.005590483080595732, -0.14193645119667053, 0.03757855296134949, -0.06064928323030472, -0.24630099534988403, 0.11291716247797012, -0.2814537584781647, -0.010368847288191319, -0.0023250989615917206, 0.01799648255109787, -0.13167598843574524, 0.003142658621072769, -0.00011707967496477067, 0.0712522491812706, -0.08177822828292847, -0.00024192407727241516, -0.014170653186738491, -0.07110327482223511, 0.03274562582373619, 0.13964012265205383, 0.015098538249731064, 0.1053643599152565, -0.21201708912849426, 0.09508071839809418, -0.039744116365909576, 0.10413104295730591, 0.002473551779985428, 0.02830113098025322, 0.06774835288524628, -0.04174068570137024, -0.11555134505033493, 0.029550787061452866, 0.2852925658226013, 0.018789570778608322, -0.11855442076921463, -0.03340071812272072, 0.0014971420168876648, -0.044857535511255264, 0.01843377947807312, -0.10527626425027847, 0.0023689281661063433, -0.006596982479095459, 0.025405507534742355, 0.028227195143699646, 0.09904342144727707, -0.027296707034111023, -0.05523593723773956, 0.14725910127162933, -0.026890262961387634, -0.03006836585700512, -0.22959043085575104, 0.16860347986221313, 0.009881045669317245, -0.23409055173397064, -0.22249819338321686, -0.03275340422987938, -0.13119781017303467, -0.2254849076271057, -0.19866761565208435, 0.03177477791905403, -0.01281113550066948, 0.17109766602516174, -0.08084049075841904, 0.10441270470619202, 0.04346529766917229, -0.02047453448176384, -0.020273737609386444, -0.023686692118644714, 0.03910099342465401, 0.059923142194747925, -0.06263371556997299, -0.07877059280872345, -0.11262840777635574, -0.165852352976799, -0.2759819030761719, 0.05843685194849968, -0.019912932068109512, 0.03130531683564186, 0.03261014446616173, -0.0856209546327591, 0.020712340250611305, 0.025597941130399704, -0.04192190244793892, -0.0383308045566082, -0.005403414368629456, -0.025118157267570496, -0.029887724667787552, 0.007300466299057007, 0.03940634801983833, 0.030928809195756912, 0.030066151171922684, 0.0035000706557184458, -0.07175913453102112, -0.015112385153770447, -0.15713754296302795, 0.04857012629508972, -0.011235728859901428, 0.10352669656276703, 0.09284789860248566, -0.02902691811323166, 0.0021778056398034096, 0.14729030430316925, -0.09615767747163773, -0.01628130115568638, -0.06363528966903687, -0.019513195380568504, 0.0041505577974021435, 0.015649210661649704, -0.06135789677500725, 0.05545153468847275, 0.1070256382226944, 0.02460296079516411, 0.03275183215737343, -0.03599150478839874, 0.024280037730932236, -2.0964565919712186e-05, 0.08217719197273254, -0.03302973136305809, -0.011074009351432323, -0.019926846027374268, -0.008555000647902489, 0.12760159373283386, 0.007092247251421213, -0.20917880535125732, 0.0019185282289981842, -0.07681145519018173, 0.10211839526891708, -0.11558624356985092, 0.26843130588531494, 0.03489115461707115, -0.27323052287101746, 0.027430731803178787, 0.017274342477321625, 0.013794413767755032, 0.013540923595428467, 0.011681031435728073, -0.018405389040708542, 0.12210632115602493, -0.13075625896453857, -0.024686837568879128, -0.1310352087020874, 0.1025194600224495, 0.012625481933355331, 0.015006989240646362, -0.058255959302186966, -0.0194243174046278, -0.02693082019686699, 0.016578931361436844, -0.026204127818346024, -0.1278172880411148, -0.026073604822158813, -0.2205209583044052, -0.1421116441488266, -0.058516889810562134, 0.24027913808822632, 0.039372291415929794, -0.15533706545829773, 0.21316751837730408, -0.043448012322187424, -0.014790352433919907, -0.010609976947307587, 0.2298932522535324, 0.04500533640384674, -0.09342783689498901, -0.03848091885447502, 0.06931362301111221, -0.040878549218177795, -0.06720133870840073, -0.04776734113693237, 0.04269351065158844, -0.004670407623052597, -0.04003004729747772, 0.2902849614620209, 0.019794132560491562, -0.250288188457489, 0.13317939639091492, 0.07019167393445969, 0.04257446154952049, 0.0031109265983104706, 0.25200891494750977, 0.004572032950818539, 0.24140360951423645, 0.16048334538936615, -0.03351901099085808, 0.014358320273458958, -0.05343244597315788, 0.055519893765449524, -0.03486547991633415, -0.05916157737374306, -0.03928982838988304, -0.03226470574736595, 0.13127385079860687, -0.012769531458616257, -0.1451769322156906, 0.021222352981567383], [-0.03508147597312927, -0.07124971598386765, -0.018866363912820816, 0.05967696011066437, -0.06433653831481934, 0.02322588488459587, -0.06472686678171158, 0.04109031707048416, -0.014151636511087418, -0.020274266600608826, -0.05642113834619522, 0.05825047194957733, 0.04254448786377907, 0.023635713383555412, 0.031085694208741188, -0.02285890094935894, -0.00889570266008377, -0.017202330753207207, 0.09887515753507614, 0.10124360769987106, -0.06709957122802734, -0.05603002384305, -0.04185036942362785, -0.07704672962427139, -0.020261116325855255, 0.06728274375200272, 0.03798859938979149, -0.03689419478178024, 0.006989268120378256, -0.05980101600289345, -0.02884005755186081, 0.031211601570248604, 0.02611071988940239, 0.21180126070976257, 0.04233256354928017, 0.031395357102155685, 0.1830047219991684, -0.0898142158985138, -0.08012662082910538, -0.01738082244992256, -0.02019084431231022, 0.05302507430315018, -0.07952652126550674, -0.04294498637318611, 0.0009999059839174151, 0.0686776265501976, -0.05081581696867943, 0.021583683788776398, -0.04764235019683838, -0.022367889061570168, 0.07738738507032394, 0.047470174729824066, 0.012394614517688751, -0.02871798351407051, 0.02495584264397621, 0.07230494171380997, 0.10357075184583664, 0.03401841223239899, 0.10457663238048553, -0.0385805107653141, 0.05073361098766327, 0.015609662979841232, 0.020433519035577774, -0.07325823605060577, 0.03040778450667858, 0.03765760362148285, -0.015265506692230701, -0.0348484180867672, -0.01646835170686245, -0.005371370818465948, 0.004839565604925156, 0.0029151407070457935, -0.027826502919197083, -0.005666401237249374, -0.012650884687900543, -0.04544396698474884, -0.0162424948066473, 0.005224352702498436, -0.03818024322390556, -0.02277858555316925, 0.01887689158320427, 0.03839680179953575, 0.011049624532461166, 0.02832658216357231, -0.03727668523788452, -0.004687066655606031, -0.03489884361624718, -0.09387115389108658, -0.031443823128938675, -0.022777501493692398, -0.012533866800367832, -0.009484904818236828, 0.05990494042634964, 0.03918292000889778, 0.04363918676972389, 0.008123421110212803, -0.032054442912340164, -0.0083401994779706, 0.00020712614059448242, 0.0959918424487114, -0.06334217637777328, 0.0877612829208374, 0.1743432730436325, 0.005047276150435209, -0.010521180927753448, 0.03947838768362999, 0.02880850061774254, 0.038851987570524216, -0.007287579122930765, -0.015383489429950714, 0.058273591101169586, -0.038697607815265656, -0.07151000201702118, -0.0334990993142128, 0.009144204668700695, 0.030378200113773346, -0.011714968830347061, 0.0002857681247405708, -0.044341012835502625, -0.05550006404519081, 0.056961964815855026, -0.03046809881925583, -0.03180873394012451, -0.08306092768907547, -0.011856096796691418, 0.03413780778646469, -0.018407221883535385, 0.027724463492631912, -0.022077351808547974, 0.04337297007441521, 0.036828961223363876, 0.16594897210597992, 0.09375295788049698, 0.03852640464901924, 0.17589329183101654, 0.0541159063577652, -0.05822943150997162, 0.05702367424964905, 0.036582086235284805, 0.01646875962615013, 0.10262821614742279, -0.12166395038366318, 0.07891082763671875, -0.023136965930461884, 0.038987886160612106, -0.041709959506988525, 0.06530670076608658, 0.020111551508307457, -0.01959901675581932, 0.025184476748108864, 0.014191190712153912, -0.02808290347456932, 0.0363437794148922, -0.023382017388939857, 0.022309552878141403, 0.005931680090725422, -0.03414571285247803, 0.03892619535326958, 0.04331358149647713, 0.05763455107808113, -0.05139974504709244, 0.04330739751458168, 0.009115956723690033, 0.17033758759498596, 0.033155832439661026, 0.031002696603536606, 0.019535932689905167, 0.08871069550514221, 0.01109075266867876, 0.07941804826259613, -0.023229973390698433, -0.027784893289208412, 0.02694249525666237, -0.01745915599167347, -0.026570068672299385, 0.015630044043064117, 0.09758234769105911, 0.013723071664571762, -0.015134555287659168, 0.002657368779182434, 0.03654703125357628, 0.018592793494462967, 0.027009349316358566, -0.1067083328962326, -0.05480964854359627, 0.07772842794656754, 0.013673823326826096, -0.011825677007436752, 0.017340276390314102, 0.08914419263601303, -0.006068584509193897, 0.030001524835824966, -0.03807457536458969, -0.03524002805352211, 0.0659460499882698, -0.0578763522207737, -0.13253986835479736, -0.02297847718000412, 0.07508013397455215, 0.034077130258083344, 0.02490146830677986, -0.10753708332777023, 0.010597446002066135, -0.03138510882854462, 0.08729707449674606, 0.001354619045741856, -0.06569845974445343, -0.018586164340376854, 0.030594628304243088, 0.040131423622369766, -0.008401710540056229, 0.12129609286785126, 0.04421958327293396, 0.03844565898180008, 0.037404805421829224, -0.024687092751264572, -0.04072587564587593, 0.13805890083312988, 0.031333692371845245, -0.014049769379198551, 0.069096140563488, 0.03971659019589424, -0.06287550926208496, -0.17882730066776276, 0.04745250940322876, -0.01909150555729866, 0.033305805176496506, 0.01990653946995735, 0.009777139872312546, -0.007746322080492973, -0.05996472015976906, -0.08306921273469925, 0.0035565085709095, 0.04657810181379318, 0.02563764527440071, -0.03405935317277908, -0.06971532106399536, -0.06276243180036545, 0.010032204911112785, 0.003974348306655884, 0.04099775850772858, -0.032946836203336716, 0.046124886721372604, 0.007887981832027435, -0.03162400797009468, -0.07709946483373642, -0.037486057728528976, -0.019612859934568405, -0.027379371225833893, 0.04111483320593834, -0.043513745069503784, -0.012915084138512611, -0.03386799246072769, -0.1072135716676712, 0.05776616558432579, 0.02309182658791542, 0.01952812448143959, 0.03581976518034935, 0.0312538743019104, 0.009077545255422592, -0.002395767718553543, -0.007339057046920061, -0.019303172826766968, -0.04701365903019905, 0.12685468792915344, 0.139634370803833, 0.0215001218020916, 0.0634731724858284, 0.03460867330431938, 0.07978416234254837, 0.025059621781110764, 0.07892873883247375, 0.0643337070941925, -0.031651683151721954, -0.009024099446833134, -0.02858307585120201, -0.01391529105603695, -0.06973455101251602, 0.08256787061691284, 0.16115215420722961, 0.0957428365945816, 0.03198103606700897, 0.14057934284210205, 0.021402720361948013, 0.019528957083821297, -0.014707780443131924, 0.035335902124643326, -0.002305304631590843, -0.01512831635773182, 0.08622325211763382, 0.05029681324958801, 0.04738989472389221, 0.036665868014097214, -0.03926561772823334, 0.03986991196870804, -0.0430634431540966, -0.024897217750549316, -0.020944127812981606, 0.014848975464701653, -0.06262297928333282, 0.035698097199201584, 0.03374854847788811, -0.020934443920850754, -0.009122262708842754, 0.0037944912910461426, -0.06611768901348114, -0.010967164300382137, -0.058289915323257446, -0.04262392595410347, -0.02805386483669281, -0.0030624382197856903, -0.10548685491085052, 0.022289570420980453, -0.03541475161910057, -0.06864499300718307, -0.1227974221110344, -0.02657920867204666, -0.0076248375698924065, -0.0565197579562664, 0.018484143540263176, -0.024787411093711853, -0.05272004380822182, -0.06018991395831108, -0.05845636501908302, 0.00204637018032372, 0.03229979798197746, -0.015081563964486122, -0.02831326797604561, -0.008274827152490616, 0.05195209011435509, -0.013721922412514687, 0.03242778033018112, -0.036705221980810165, 0.05835309997200966, 0.09008064866065979, -0.08831404149532318, -0.007139372173696756, -0.019165879115462303, -0.12377004325389862, -0.006342105567455292, -0.02065194770693779, 0.05881945788860321, -0.008929100818932056, 0.04181158170104027, 0.01222211867570877, -0.025078892707824707, 0.06798151880502701, 0.13075685501098633, -0.016869686543941498, 0.026371590793132782, -0.023238301277160645, -0.002839716151356697, 0.011627499014139175, 0.03873563930392265, -0.00033497586264275014, -0.02008090727031231, -0.04096962884068489, 0.031102681532502174, -0.02263568714261055, -0.04408285766839981, -0.017540907487273216, -0.09547614306211472, 0.020662793889641762, 0.015033305622637272, -0.017602870240807533, -0.042453501373529434, -0.0006556663429364562, -0.05806076526641846, -0.12482282519340515, 0.025157388299703598, -0.023688893765211105, -0.053527530282735825, -0.005381633527576923, 0.16118717193603516, -0.10636787861585617, -0.06546841561794281, -0.010271281003952026, -0.023458650335669518, 0.013329697772860527, 0.07657433301210403, -0.07309313863515854, 0.033190663903951645, 0.10193634778261185, 0.01736322231590748, 0.004795093089342117, -0.004060287028551102, -0.20602110028266907, 0.008282766677439213, 0.0055012572556734085, 0.001584563753567636, 0.00519707752391696, -0.11606919020414352, -0.0185988936573267, 0.03276728466153145, -0.005747660994529724, 0.011731017380952835, 0.01865224912762642, -0.029080186039209366, -0.006585933268070221, 0.03808121010661125, -0.04137350618839264, -0.011958472430706024, -0.010606218129396439, 0.015900883823633194, 0.030215341597795486, -0.04153066128492355, -0.027704503387212753, 0.01260429248213768, 0.015541816130280495, -0.03669188544154167, -0.0009371042251586914, -0.0733451321721077, -0.09913196414709091, -0.03251003473997116, -0.012027928605675697, 0.015183337032794952, 0.002425599843263626, -0.04956027865409851, -0.01270372699946165, 0.11975123733282089, -0.019779251888394356, -0.004835112486034632, -0.028419924899935722, 0.0448937751352787, -0.03853830695152283, -0.08838683366775513, -0.09044762700796127, -0.04408176988363266, -0.03209167346358299, -0.06038355827331543, -0.0070767891593277454, 0.026775915175676346, -0.07257022708654404, 0.04491226747632027, -0.030833527445793152, 0.025830194354057312, -0.006004721391946077, -0.005918086972087622, -0.11053253710269928, 0.04701010137796402, -0.04211902990937233, -0.0077473074197769165, 0.015462224371731281, -0.05142957717180252, -0.0015150861581787467, 0.02645798586308956, 0.03128841891884804, -0.03433595970273018, -0.010898657143115997, -0.009894256480038166, 0.00020208602654747665, 0.030249271541833878, -0.03416604548692703, 0.06472830474376678, 0.017154907807707787, -0.05097895860671997, 0.016758490353822708, -0.02968057245016098, -0.18261684477329254, 0.014737777411937714, -0.015544433146715164, -0.02971433848142624, 0.013604018837213516, 0.021142415702342987, 0.02517249807715416, -0.024040356278419495, -0.017689725384116173, -0.029560796916484833, -0.012754249386489391, -0.046992164105176926, 0.028333505615592003, 0.039632197469472885, -0.08183588087558746, -0.029283873736858368, 0.04882172495126724, -0.034000933170318604, -2.4166613002307713e-05, 0.009289246052503586, 0.04259487986564636, -0.021177668124437332, 0.013799652457237244, -0.025993987917900085, -0.02144790068268776, 0.040241170674562454, 0.04067177325487137, 0.05217992141842842, -0.00424136221408844, 0.000638272613286972, -0.021551979705691338, 0.05615122616291046, -0.020784443244338036, 0.06882534921169281, 0.06877593696117401, -0.00873907096683979, 0.043640974909067154, 0.011578913778066635, 0.11450804024934769, 0.028929229825735092, 0.044604938477277756, 0.05472767353057861, 0.02938276343047619, 0.02765621803700924, 0.039181165397167206, -0.015124755911529064, -0.019748631864786148, -0.0023322722408920527, -0.005456124432384968, 0.057554058730602264, 0.030830800533294678, -0.013762226328253746, -0.07446613162755966, 0.0023621278814971447], [0.01218622736632824, 0.0025725618470460176, -0.054436732083559036, 0.05534179508686066, 0.12525682151317596, -0.03390725329518318, -0.16009211540222168, 0.07442477345466614, 0.01450904831290245, 0.00738120824098587, 0.1901460587978363, -0.13644574582576752, 0.03465046361088753, 0.0012770944740623236, 0.1327325403690338, 0.022867586463689804, -0.03168293088674545, 0.029695522040128708, 0.10208462923765182, 0.06676245480775833, 0.12605151534080505, 0.15979450941085815, 0.15981586277484894, 0.02466338500380516, -0.028228437528014183, 0.06303322315216064, 0.06861705332994461, 0.035137150436639786, 0.028322231024503708, 0.007113848812878132, 0.013057691045105457, -0.053488004952669144, 0.007603328675031662, -0.12012805789709091, 0.028429396450519562, -0.0011204257607460022, -0.14690491557121277, -0.03110872209072113, -0.12267450243234634, -0.0245005264878273, 0.09519728273153305, -0.1566719114780426, -0.06254446506500244, 0.02877630665898323, 0.027871262282133102, 0.08163493871688843, 0.2093046009540558, 0.05183003842830658, 0.15969669818878174, 0.08933011442422867, 0.07544577866792679, -0.07146048545837402, 0.053117748349905014, 0.019124973565340042, -0.1363113820552826, -0.15611816942691803, 0.035252053290605545, -0.029264317825436592, 0.046691544353961945, -0.034055158495903015, -0.1384667605161667, -0.0423111729323864, -0.06704816967248917, -0.05130944401025772, -0.0025350223295390606, 0.022463355213403702, -0.00970464013516903, -0.05791555345058441, -0.05945413559675217, 0.0030019956175237894, 0.005602400749921799, -0.08505086600780487, -0.04351150989532471, -0.029276074841618538, 0.050258588045835495, -0.04888841137290001, -0.02493605576455593, -0.11245715618133545, -0.019918566569685936, -0.010343119502067566, -0.00238766148686409, -0.11643477529287338, -0.13135066628456116, 0.019014153629541397, 0.0399886779487133, -0.04800388589501381, 0.029909323900938034, -0.03801707923412323, 0.07467047870159149, 0.05868176743388176, -0.012801488861441612, -0.022157389670610428, 0.054373688995838165, 0.017200246453285217, -0.0031087473034858704, -0.15569090843200684, 0.02342388406395912, 0.1288270652294159, 0.013733472675085068, -0.20234398543834686, 0.2517690062522888, -0.13531382381916046, 0.08367295563220978, 0.0005939617985859513, 0.037830498069524765, 0.1695862114429474, 0.010416634380817413, -0.0011086352169513702, -0.012217341922223568, -0.0035821907222270966, 0.05908990651369095, -0.005962498486042023, -0.06644948571920395, 0.02655436471104622, -0.05053842440247536, 0.09343503415584564, -0.04298021271824837, 0.023242468014359474, -0.03787069022655487, -0.018944978713989258, 0.04251967743039131, -0.0331767238676548, -0.004168063402175903, 0.08659824728965759, 0.06643228232860565, -0.13292807340621948, -0.0883001983165741, -0.0003290809690952301, 0.01090792566537857, 0.0036699846386909485, 0.03283734992146492, 0.11136338114738464, -0.2370513677597046, 0.02833705022931099, -0.12986046075820923, -0.20091737806797028, 0.22541606426239014, 0.1604558229446411, -0.012293294072151184, -0.01801992766559124, -0.19876758754253387, -0.029665391892194748, -0.004305378999561071, -0.001248188316822052, -0.10380598902702332, -0.020269103348255157, 0.09035089612007141, 0.04034174606204033, 0.02437141165137291, 0.03693131357431412, 0.034873828291893005, 0.005283482372760773, 0.024016793817281723, 0.01670864224433899, 0.022742416709661484, -0.0545562244951725, 0.034080203622579575, -0.1642082780599594, -0.02710626646876335, 0.006185400299727917, 0.00850995909422636, -0.00890820100903511, 0.03642524406313896, 0.07063037157058716, 0.025346767157316208, 0.1066088080406189, 0.0243275947868824, -0.001604536548256874, 0.021843772381544113, 0.00010225886217085645, -0.0038395263254642487, -0.03904394432902336, 0.022894050925970078, -0.11009907722473145, 0.026677165180444717, -0.022635839879512787, 0.09982743114233017, -0.07435869425535202, 0.12192386388778687, 0.017772607505321503, -0.02139018289744854, 0.027447041124105453, 0.05549640953540802, -0.09332152456045151, -0.1184108778834343, -0.10098368674516678, 0.01684681326150894, 0.03486257418990135, 0.008678078651428223, 0.10701575130224228, 0.04471142590045929, -0.03104007989168167, 0.05628812685608864, -0.026502644643187523, 0.05544978380203247, 0.013226557523012161, -0.12570101022720337, -0.005209740251302719, -0.0053063309751451015, -0.0011873432667925954, -0.11819060146808624, -0.10146983712911606, 0.03452156484127045, -0.0706854984164238, 0.02096657082438469, 0.08893023431301117, 0.07215915620326996, 0.03238188102841377, -0.005721151828765869, 0.0745200663805008, -0.04187970608472824, 0.17562581598758698, 0.015347921289503574, -0.12619411945343018, -0.06629475951194763, 0.10750211775302887, 0.0364927239716053, -0.09909723699092865, 0.004647544585168362, 0.04637943208217621, -0.1519659459590912, -0.021303007379174232, -0.07604123651981354, -0.12201306968927383, -0.0758826732635498, 0.03158072009682655, -0.01633506268262863, 0.02754320576786995, -0.003668837249279022, -0.1366652101278305, -0.0599978007376194, -0.046239279210567474, -0.04369378089904785, 0.04305782541632652, 0.03277337923645973, -0.027716072276234627, -0.06095575913786888, 0.16570433974266052, -0.028493644669651985, 0.0007731616497039795, -0.16818591952323914, 0.1622488647699356, 0.06271156668663025, 0.04237685725092888, 0.008823886513710022, 0.043479666113853455, 0.002860154490917921, 0.002267071045935154, -0.008700728416442871, 0.010789535939693451, -0.04034140333533287, -0.07817067205905914, -0.06760548055171967, -0.05972352251410484, -0.16705124080181122, 0.030769865959882736, 0.007991299033164978, -0.1543644219636917, 0.02632836066186428, -0.0383194237947464, -0.019180119037628174, -0.04715683311223984, 0.015310753136873245, -0.02613864652812481, 0.00699262460693717, 0.1117587760090828, -0.09433259814977646, -0.07926535606384277, -0.05787153169512749, -0.17291678488254547, -0.041078832000494, 0.03996020182967186, 0.05229941010475159, -0.04278254508972168, -0.07041176408529282, 0.022038932889699936, -0.017626849934458733, -0.05605226010084152, 0.07827258110046387, 0.12716513872146606, 0.02582189440727234, -0.19541838765144348, -0.19043560326099396, 0.018737774342298508, -0.02171582356095314, 0.0420873798429966, -0.0037962868809700012, -0.12438493967056274, 0.035788726061582565, 0.032787203788757324, -0.13415446877479553, -0.1170172318816185, 0.020525764673948288, 0.020688246935606003, 0.03169802948832512, -0.05470634251832962, 0.019445855170488358, 0.22007566690444946, 0.020238779485225677, 0.22009322047233582, 0.025829676538705826, 0.00632549449801445, -0.012960776686668396, -0.01008762326091528, -0.007510125637054443, 0.04836408048868179, -0.04161151126027107, 0.0460071787238121, -0.10469218343496323, -0.04187165945768356, -0.041032254695892334, -0.1022927388548851, -0.03427595645189285, -0.05658920481801033, 0.13799281418323517, -0.120535708963871, -0.03638647869229317, 0.022479601204395294, 0.14694282412528992, -0.08964654058218002, 0.0156325064599514, 0.22827354073524475, -0.12273479253053665, 0.22685448825359344, -0.0054972912184894085, -0.023394254967570305, -0.03663164749741554, 0.07170344889163971, 0.03210904076695442, 0.026981348171830177, -0.08921987563371658, -0.12196405977010727, 0.043974701315164566, 0.07532940804958344, -0.14565829932689667, -0.08036473393440247, -0.16298413276672363, 0.03111884370446205, -0.07247437536716461, 0.1372929811477661, -0.10959864407777786, -0.00018806985463015735, 0.009427949786186218, -0.003975443542003632, 0.008962363004684448, -0.07067620754241943, 0.015409383922815323, 0.13630685210227966, -0.03373226150870323, -0.19090710580348969, -0.028142819181084633, 0.07132105529308319, 0.033216092735528946, 0.025904003530740738, 0.03258029371500015, -0.0609087236225605, 0.04719219729304314, 0.004823721945285797, 0.0064879655838012695, -0.004608511924743652, -0.02976740524172783, -0.07598452270030975, -0.018670476973056793, -0.013466568663716316, -0.10400032252073288, 0.028795640915632248, -0.08074622601270676, 0.20007707178592682, -0.12031775712966919, 0.03800865635275841, 0.21521884202957153, 0.1821785569190979, 0.02204268053174019, 0.08021612465381622, 0.2400292307138443, 0.12643682956695557, 0.031595807522535324, -0.0335330106317997, -0.14196963608264923, -0.16426241397857666, -0.1184433326125145, 0.007158193737268448, 0.07449162751436234, 0.019020404666662216, 0.020515333861112595, 0.014668653719127178, -0.10243818163871765, 0.025097059085965157, 0.04157567396759987, 0.09983241558074951, 0.07071147859096527, 0.18646912276744843, -0.0315975621342659, -0.0005462765693664551, -0.025790931656956673, 0.02994786575436592, 0.00925854779779911, -0.011244281195104122, 0.005649268627166748, 0.06585054844617844, -0.0013131313025951385, -0.0003551095724105835, -0.0014011263847351074, -0.00956008955836296, 0.042927246540784836, 0.006340913474559784, 0.02766544744372368, -0.007489599287509918, 0.03875988721847534, 0.010685613378882408, 0.0027335770428180695, 0.10741005837917328, -0.07361773401498795, -0.03930239379405975, -0.12029746174812317, -0.1046144962310791, -0.02374817430973053, 0.028721388429403305, -0.08859499543905258, 0.11001401394605637, 0.011380180716514587, 0.057803958654403687, -0.03946702554821968, 0.060126323252916336, 0.023064155131578445, 0.0602603405714035, -0.023953987285494804, -0.015893731266260147, 0.0047319307923316956, -0.08344917744398117, 0.0031499702017754316, 0.009123563766479492, -0.0548887737095356, -0.11671524494886398, 0.0377342589199543, 0.0398537702858448, 0.024708792567253113, -0.0828566774725914, -0.06637497246265411, -0.006862018723040819, 0.18295098841190338, 0.007866013795137405, 0.01826000213623047, -0.09765477478504181, 0.012343787588179111, -0.17495517432689667, 0.011574652045965195, 0.18542273342609406, -0.006583109498023987, -0.038215260952711105, -0.03339478000998497, -0.029814843088388443, 0.002015288919210434, 0.030766034498810768, -0.11399932950735092, 0.041241537779569626, -0.03359311446547508, 0.13446930050849915, -0.1549699604511261, -0.041155390441417694, -0.033184152096509933, -0.016222404316067696, -0.022844335064291954, 0.07144561409950256, 0.020229090005159378, -0.010852482169866562, 0.12146811932325363, 0.003601241856813431, 0.08099988847970963, 0.09558574855327606, 0.02204388938844204, -0.177871435880661, -0.08764123916625977, 0.10532744973897934, -0.1421707570552826, -0.013839665800333023, 0.05103125795722008, 0.03285481780767441, -0.10970982164144516, -0.09165485948324203, 0.08377689123153687, 0.012686479836702347, -0.03038104996085167, 0.016179941594600677, 0.09704578667879105, 0.04653429985046387, -0.09296105057001114, -0.02359050139784813, -0.03740939870476723, -0.20218142867088318, -0.03268050402402878, 0.04412264749407768, -0.17082446813583374, -0.09683474153280258, 0.013923190534114838, -0.03299650549888611, -0.2419624775648117, -0.009728514589369297, -0.16868416965007782, -0.10199683159589767, 0.04890336096286774, -0.053956538438797, 0.058139245957136154, -0.05216247960925102, 0.039517197757959366, -0.020465819165110588, -0.0017128253821283579, 0.0071799261495471, -0.09692011028528214, -0.007472451776266098, 0.1242615282535553, 0.0008675867575220764], [0.03464096039533615, -0.06630957871675491, -0.058730848133563995, 0.04371126368641853, 0.11009589582681656, -0.022317593917250633, -0.06407418847084045, 0.07174626737833023, -0.020993191748857498, -0.008759241551160812, 0.21310827136039734, 