{
    "model": {
        "state_dict": {
            "encoder.0.weight": [
                [
                    -0.07465292513370514,
                    -0.18599528074264526,
                    -0.08694560080766678,
                    -0.07911413908004761
                ],
                [
                    -0.05058130621910095,
                    -0.25908854603767395,
                    0.07321888208389282,
                    -0.21386970579624176
                ],
                [
                    -0.11514715850353241,
                    -0.17877154052257538,
                    -0.07041241973638535,
                    -0.06297328323125839
                ],
                [
                    -0.20428018271923065,
                    -0.12577255070209503,
                    0.013946888968348503,
                    -0.137814000248909
                ],
                [
                    -0.4621764123439789,
                    -0.4764143228530884,
                    -0.7246140241622925,
                    -0.7497644424438477
                ],
                [
                    -0.08733629435300827,
                    -0.04773746058344841,
                    0.1345229297876358,
                    -0.010204807855188847
                ],
                [
                    -0.2721171975135803,
                    -0.2758495509624481,
                    -0.30491626262664795,
                    -0.2871231734752655
                ],
                [
                    0.11456862837076187,
                    0.14902231097221375,
                    0.1774798482656479,
                    0.09614875167608261
                ],
                [
                    -0.15264549851417542,
                    -0.21439464390277863,
                    0.056456319987773895,
                    -0.058693017810583115
                ],
                [
                    -0.046788010746240616,
                    -0.2178272157907486,
                    -0.11971400678157806,
                    -0.04022698104381561
                ],
                [
                    0.03424983099102974,
                    0.16310152411460876,
                    0.051129620522260666,
                    0.21148288249969482
                ],
                [
                    0.188314288854599,
                    0.14737118780612946,
                    0.2605757713317871,
                    0.18257661163806915
                ],
                [
                    0.32397326827049255,
                    0.3913867473602295,
                    0.17387016117572784,
                    0.3270297348499298
                ],
                [
                    0.1811213344335556,
                    0.20516681671142578,
                    0.05538310110569,
                    0.046371329575777054
                ],
                [
                    0.17427876591682434,
                    0.31188663840293884,
                    0.31022581458091736,
                    0.2535955011844635
                ],
                [
                    0.19490018486976624,
                    0.14929060637950897,
                    0.24277548491954803,
                    0.1786053329706192
                ]
            ],
            "encoder.0.bias": [
                1.0594420433044434,
                1.2514196634292603,
                0.9811372756958008,
                1.0559927225112915,
                1.7332301139831543,
                -0.6951543688774109,
                -0.28762179613113403,
                1.7703907489776611,
                0.8658646941184998,
                1.0040488243103027,
                1.2138961553573608,
                1.7398641109466553,
                0.761062502861023,
                1.2391138076782227,
                1.0167328119277954,
                1.9503329992294312
            ],
            "encoder.1.threshold": 1,
            "encoder.1.graded_spikes_factor": 1.0,
            "encoder.1.reset_mechanism_val": 0,
            "encoder.1.beta": 0.30000001192092896,
            "encoder.2.weight": [
                [
                    0.463599294424057,
                    1.6832408905029297,
                    0.587253987789154,
                    0.8455541133880615,
                    3.027493953704834,
                    -0.5590720772743225,
                    -0.06986593455076218,
                    0.7008786797523499,
                    0.3674934208393097,
                    0.7836400866508484,
                    1.7958234548568726,
                    0.21624457836151123,
                    1.6814438104629517,
                    0.6632201075553894,
                    -0.5014685988426208,
                    1.095044732093811
                ],
                [
                    -0.09149129688739777,
                    -0.18832379579544067,
                    -0.12833388149738312,
                    -0.12157595157623291,
                    -0.5292717814445496,
                    0.29336845874786377,
                    0.6544106006622314,
                    0.38019588589668274,
                    -0.19820564985275269,
                    -0.12651129066944122,
                    0.0930715799331665,
                    0.48804423213005066,
                    0.5190522074699402,
                    0.09389078617095947,
                    0.3767951726913452,
                    0.5433679819107056
                ],
                [
                    0.06692376732826233,
                    0.2922790050506592,
                    0.09741894155740738,
                    0.07430871576070786,
                    0.1653166562318802,
                    -0.6409846544265747,
                    0.6425226926803589,
                    -0.36397868394851685,
                    0.25668179988861084,
                    0.08780840784311295,
                    -0.15481922030448914,
                    -0.4833908975124359,
                    -0.025668520480394363,
                    -0.1333930641412735,
                    -0.22936448454856873,
                    -0.43988487124443054
                ],
                [
                    0.2353765070438385,
                    0.30539557337760925,
                    0.2914130985736847,
                    0.24299666285514832,
                    0.6246300935745239,
                    1.7990578413009644,
                    0.33742085099220276,
                    -0.02818739041686058,
                    0.29120656847953796,
                    0.26050201058387756,
                    -0.1328973025083542,
                    0.08221861720085144,
                    -0.6278747916221619,
                    -0.1942356526851654,
                    -0.5060665607452393,
                    0.5917044878005981
                ]
            ],
            "encoder.2.bias": [
                0.4458244740962982,
                0.6794699430465698,
                0.5120852589607239,
                1.317413091659546
            ],
            "encoder.3.threshold": 1,
            "encoder.3.graded_spikes_factor": 1.0,
            "encoder.3.reset_mechanism_val": 0,
            "encoder.3.beta": 0.30000001192092896,
            "decoder.0.weight": [
                [
                    0.3315289616584778,
                    -1.785954475402832,
                    3.0280983448028564,
                    -0.6335409879684448
                ],
                [
                    -0.31596601009368896,
                    -0.10976617783308029,
                    0.0524078793823719,
                    -0.2948429584503174
                ],
                [
                    2.5381741523742676,
                    0.8303348422050476,
                    -0.19328193366527557,
                    -4.040342330932617
                ],
                [
                    2.4125449657440186,
                    -1.747541904449463,
                    -1.9039044380187988,
                    2.810812473297119
                ],
                [
                    1.7331750392913818,
                    -1.8004828691482544,
                    3.2512028217315674,
                    0.14409074187278748
                ],
                [
                    -2.0884411334991455,
                    0.07223884016275406,
                    0.8876274228096008,
                    -0.19265516102313995
                ],
                [
                    0.6339548826217651,
                    1.7068368196487427,
                    1.0050159692764282,
                    -2.0099587440490723
                ],
                [
                    -1.894732117652893,
                    0.44630396366119385,
                    0.3298282325267792,
                    0.8783573508262634
                ],
                [
                    2.5905544757843018,
                    -2.9175124168395996,
                    0.40248027443885803,
                    0.6541651487350464
                ],
                [
                    0.2713267505168915,
                    1.1227684020996094,
                    1.2504819631576538,
                    -3.7565925121307373
                ],
                [
                    -3.473895311355591,
                    0.07555598765611649,
                    1.2400575876235962,
                    0.18965184688568115
                ],
                [
                    3.2275471687316895,
                    2.4998226165771484,
                    -3.572850465774536,
                    -2.2394371032714844
                ],
                [
                    0.4441276490688324,
                    -4.561753273010254,
                    -1.643203616142273,
                    3.3263959884643555
                ],
                [
                    -1.1289416551589966,
                    -2.2701334953308105,
                    4.696642875671387,
                    -2.9362828731536865
                ],
                [
                    -0.0017907561268657446,
                    -0.4685705006122589,
                    -0.32766231894493103,
                    0.3999374210834503
                ],
                [
                    0.42979925870895386,
                    -0.7410772442817688,
                    0.7569466829299927,
                    0.9819785952568054
                ]
            ],
            "decoder.0.bias": [
                1.2659281492233276,
                -0.4022148549556732,
                0.17222270369529724,
                0.06291941553354263,
                -1.1552668809890747,
                0.6821194887161255,
                0.4521203935146332,
                0.4636695683002472,
                -0.4452041685581207,
                0.3716132938861847,
                0.7682435512542725,
                1.317000389099121,
                1.435111165046692,
                1.5722475051879883,
                -0.40959861874580383,
                0.7685012221336365
            ],
            "decoder.1.threshold": 1,
            "decoder.1.graded_spikes_factor": 1.0,
            "decoder.1.reset_mechanism_val": 0,
            "decoder.1.beta": 0.30000001192092896,
            "decoder.2.weight": [
                [
                    -0.3021036982536316,
                    0.007476595230400562,
                    1.0107417106628418,
                    -0.20882606506347656,
                    -1.1158727407455444,
                    0.05383020266890526,
                    0.030842619016766548,
                    -0.021855900064110756,
                    -0.5626436471939087,
                    0.1060033068060875,
                    0.04823045805096626,
                    1.408782720565796,
                    -0.25320738554000854,
                    -0.7450472712516785,
                    -0.032864850014448166,
                    0.007973873056471348
                ],
                [
                    -0.32978755235671997,
                    0.03311361372470856,
                    1.3876135349273682,
                    -0.3061995506286621,
                    -1.4451755285263062,
                    0.0535987988114357,
                    0.1221483051776886,
                    -0.0701511949300766,
                    -0.7351440191268921,
                    0.28308892250061035,
                    0.024420036002993584,
                    1.821273922920227,
                    -0.2538823187351227,
                    -1.1417971849441528,
                    0.0295551884919405,
                    -0.030833590775728226
                ],
                [
                    -0.47178614139556885,
                    -0.02786824479699135,
                    0.9350975155830383,
                    -0.1343127340078354,
                    -1.3434258699417114,
                    0.06598503142595291,
                    -0.0031536398455500603,
                    0.06140189990401268,
                    -0.6171780228614807,
                    0.06587900966405869,
                    0.08188144862651825,
                    1.2816271781921387,
                    -0.3339829742908478,
                    -0.6514710187911987,
                    -0.09816153347492218,
                    0.06362438946962357
                ],
                [
                    -0.48781904578208923,
                    -0.03653573989868164,
                    1.3098127841949463,
                    -0.24902816116809845,
                    -1.7255722284317017,
                    0.060596764087677,
                    0.06179141253232956,
                    0.005574464797973633,
                    -0.7338412404060364,
                    0.17259615659713745,
                    0.0783814936876297,
                    1.5986748933792114,
                    -0.3298235833644867,
                    -0.950326144695282,
                    0.019493574276566505,
                    -0.0004652336938306689
                ]
            ],
            "decoder.2.bias": [
                0.01398899033665657,
                -0.24909323453903198,
                0.14737007021903992,
                0.006705734878778458
            ],
            "decoder.3.threshold": 1,
            "decoder.3.graded_spikes_factor": 1.0,
            "decoder.3.reset_mechanism_val": 0,
            "decoder.3.beta": 0.30000001192092896
        },
        "parameters": [
            [
                [
                    -0.07465292513370514,
                    -0.18599528074264526,
                    -0.08694560080766678,
                    -0.07911413908004761
                ],
                [
                    -0.05058130621910095,
                    -0.25908854603767395,
                    0.07321888208389282,
                    -0.21386970579624176
                ],
                [
                    -0.11514715850353241,
                    -0.17877154052257538,
                    -0.07041241973638535,
                    -0.06297328323125839
                ],
                [
                    -0.20428018271923065,
                    -0.12577255070209503,
                    0.013946888968348503,
                    -0.137814000248909
                ],
                [
                    -0.4621764123439789,
                    -0.4764143228530884,
                    -0.7246140241622925,
                    -0.7497644424438477
                ],
                [
                    -0.08733629435300827,
                    -0.04773746058344841,
                    0.1345229297876358,
                    -0.010204807855188847
                ],
                [
                    -0.2721171975135803,
                    -0.2758495509624481,
                    -0.30491626262664795,
                    -0.2871231734752655
                ],
                [
                    0.11456862837076187,
                    0.14902231097221375,
                    0.1774798482656479,
                    0.09614875167608261
                ],
                [
                    -0.15264549851417542,
                    -0.21439464390277863,
                    0.056456319987773895,
                    -0.058693017810583115
                ],
                [
                    -0.046788010746240616,
                    -0.2178272157907486,
                    -0.11971400678157806,
                    -0.04022698104381561
                ],
                [
                    0.03424983099102974,
                    0.16310152411460876,
                    0.051129620522260666,
                    0.21148288249969482
                ],
                [
                    0.188314288854599,
                    0.14737118780612946,
                    0.2605757713317871,
                    0.18257661163806915
                ],
                [
                    0.32397326827049255,
                    0.3913867473602295,
                    0.17387016117572784,
                    0.3270297348499298
                ],
                [
                    0.1811213344335556,
                    0.20516681671142578,
                    0.05538310110569,
                    0.046371329575777054
                ],
                [
                    0.17427876591682434,
                    0.31188663840293884,
                    0.31022581458091736,
                    0.2535955011844635
                ],
                [
                    0.19490018486976624,
                    0.14929060637950897,
                    0.24277548491954803,
                    0.1786053329706192
                ]
            ],
            [
                1.0594420433044434,
                1.2514196634292603,
                0.9811372756958008,
                1.0559927225112915,
                1.7332301139831543,
                -0.6951543688774109,
                -0.28762179613113403,
                1.7703907489776611,
                0.8658646941184998,
                1.0040488243103027,
                1.2138961553573608,
                1.7398641109466553,
                0.761062502861023,
                1.2391138076782227,
                1.0167328119277954,
                1.9503329992294312
            ],
            [
                [
                    0.463599294424057,
                    1.6832408905029297,
                    0.587253987789154,
                    0.8455541133880615,
                    3.027493953704834,
                    -0.5590720772743225,
                    -0.06986593455076218,
                    0.7008786797523499,
                    0.3674934208393097,
                    0.7836400866508484,
                    1.7958234548568726,
                    0.21624457836151123,
                    1.6814438104629517,
                    0.6632201075553894,
                    -0.5014685988426208,
                    1.095044732093811
                ],
                [
                    -0.09149129688739777,
                    -0.18832379579544067,
                    -0.12833388149738312,
                    -0.12157595157623291,
                    -0.5292717814445496,
                    0.29336845874786377,
                    0.6544106006622314,
                    0.38019588589668274,
                    -0.19820564985275269,
                    -0.12651129066944122,
                    0.0930715799331665,
                    0.48804423213005066,
                    0.5190522074699402,
                    0.09389078617095947,
                    0.3767951726913452,
                    0.5433679819107056
                ],
                [
                    0.06692376732826233,
                    0.2922790050506592,
                    0.09741894155740738,
                    0.07430871576070786,
                    0.1653166562318802,
                    -0.6409846544265747,
                    0.6425226926803589,
                    -0.36397868394851685,
                    0.25668179988861084,
                    0.08780840784311295,
                    -0.15481922030448914,
                    -0.4833908975124359,
                    -0.025668520480394363,
                    -0.1333930641412735,
                    -0.22936448454856873,
                    -0.43988487124443054
                ],
                [
                    0.2353765070438385,
                    0.30539557337760925,
                    0.2914130985736847,
                    0.24299666285514832,
                    0.6246300935745239,
                    1.7990578413009644,
                    0.33742085099220276,
                    -0.02818739041686058,
                    0.29120656847953796,
                    0.26050201058387756,
                    -0.1328973025083542,
                    0.08221861720085144,
                    -0.6278747916221619,
                    -0.1942356526851654,
                    -0.5060665607452393,
                    0.5917044878005981
                ]
            ],
            [
                0.4458244740962982,
                0.6794699430465698,
                0.5120852589607239,
                1.317413091659546
            ],
            [
                [
                    0.3315289616584778,
                    -1.785954475402832,
                    3.0280983448028564,
                    -0.6335409879684448
                ],
                [
                    -0.31596601009368896,
                    -0.10976617783308029,
                    0.0524078793823719,
                    -0.2948429584503174
                ],
                [
                    2.5381741523742676,
                    0.8303348422050476,
                    -0.19328193366527557,
                    -4.040342330932617
                ],
                [
                    2.4125449657440186,
                    -1.747541904449463,
                    -1.9039044380187988,
                    2.810812473297119
                ],
                [
                    1.7331750392913818,
                    -1.8004828691482544,
                    3.2512028217315674,
                    0.14409074187278748
                ],
                [
                    -2.0884411334991455,
                    0.07223884016275406,
                    0.8876274228096008,
                    -0.19265516102313995
                ],
                [
                    0.6339548826217651,
                    1.7068368196487427,
                    1.0050159692764282,
                    -2.0099587440490723
                ],
                [
                    -1.894732117652893,
                    0.44630396366119385,
                    0.3298282325267792,
                    0.8783573508262634
                ],
                [
                    2.5905544757843018,
                    -2.9175124168395996,
                    0.40248027443885803,
                    0.6541651487350464
                ],
                [
                    0.2713267505168915,
                    1.1227684020996094,
                    1.2504819631576538,
                    -3.7565925121307373
                ],
                [
                    -3.473895311355591,
                    0.07555598765611649,
                    1.2400575876235962,
                    0.18965184688568115
                ],
                [
                    3.2275471687316895,
                    2.4998226165771484,
                    -3.572850465774536,
                    -2.2394371032714844
                ],
                [
                    0.4441276490688324,
                    -4.561753273010254,
                    -1.643203616142273,
                    3.3263959884643555
                ],
                [
                    -1.1289416551589966,
                    -2.2701334953308105,
                    4.696642875671387,
                    -2.9362828731536865
                ],
                [
                    -0.0017907561268657446,
                    -0.4685705006122589,
                    -0.32766231894493103,
                    0.3999374210834503
                ],
                [
                    0.42979925870895386,
                    -0.7410772442817688,
                    0.7569466829299927,
                    0.9819785952568054
                ]
            ],
            [
                1.2659281492233276,
                -0.4022148549556732,
                0.17222270369529724,
                0.06291941553354263,
                -1.1552668809890747,
                0.6821194887161255,
                0.4521203935146332,
                0.4636695683002472,
                -0.4452041685581207,
                0.3716132938861847,
                0.7682435512542725,
                1.317000389099121,
                1.435111165046692,
                1.5722475051879883,
                -0.40959861874580383,
                0.7685012221336365
            ],
            [
                [
                    -0.3021036982536316,
                    0.007476595230400562,
                    1.0107417106628418,
                    -0.20882606506347656,
                    -1.1158727407455444,
                    0.05383020266890526,
                    0.030842619016766548,
                    -0.021855900064110756,
                    -0.5626436471939087,
                    0.1060033068060875,
                    0.04823045805096626,
                    1.408782720565796,
                    -0.25320738554000854,
                    -0.7450472712516785,
                    -0.032864850014448166,
                    0.007973873056471348
                ],
                [
                    -0.32978755235671997,
                    0.03311361372470856,
                    1.3876135349273682,
                    -0.3061995506286621,
                    -1.4451755285263062,
                    0.0535987988114357,
                    0.1221483051776886,
                    -0.0701511949300766,
                    -0.7351440191268921,
                    0.28308892250061035,
                    0.024420036002993584,
                    1.821273922920227,
                    -0.2538823187351227,
                    -1.1417971849441528,
                    0.0295551884919405,
                    -0.030833590775728226
                ],
                [
                    -0.47178614139556885,
                    -0.02786824479699135,
                    0.9350975155830383,
                    -0.1343127340078354,
                    -1.3434258699417114,
                    0.06598503142595291,
                    -0.0031536398455500603,
                    0.06140189990401268,
                    -0.6171780228614807,
                    0.06587900966405869,
                    0.08188144862651825,
                    1.2816271781921387,
                    -0.3339829742908478,
                    -0.6514710187911987,
                    -0.09816153347492218,
                    0.06362438946962357
                ],
                [
                    -0.48781904578208923,
                    -0.03653573989868164,
                    1.3098127841949463,
                    -0.24902816116809845,
                    -1.7255722284317017,
                    0.060596764087677,
                    0.06179141253232956,
                    0.005574464797973633,
                    -0.7338412404060364,
                    0.17259615659713745,
                    0.0783814936876297,
                    1.5986748933792114,
                    -0.3298235833644867,
                    -0.950326144695282,
                    0.019493574276566505,
                    -0.0004652336938306689
                ]
            ],
            [
                0.01398899033665657,
                -0.24909323453903198,
                0.14737007021903992,
                0.006705734878778458
            ]
        ]
    },
    "optimizer": {
        "state": {
            "0": {
                "step": 4500.0,
                "exp_avg": [
                    [
                        2.4314867914654315e-06,
                        -1.4159493730403483e-05,
                        -0.00015806751616764814,
                        -9.591024718247354e-05
                    ],
                    [
                        -0.00035455881152302027,
                        -0.0005864428821951151,
                        -0.00063022889662534,
                        -0.0006712743197567761
                    ],
                    [
                        -1.895309833344072e-05,
                        -7.40919349482283e-05,
                        -0.0002171272353734821,
                        -0.0001751808449625969
                    ],
                    [
                        -9.829689952312037e-05,
                        -0.00013651393237523735,
                        -0.00026757424348033965,
                        -0.00025843194453045726
                    ],
                    [
                        -0.00026155641535297036,
                        -0.00017488842422608286,
                        -0.00030846649315208197,
                        -0.0004213968641124666
                    ],
                    [
                        8.777524635661393e-05,
                        0.00011977132089668885,
                        0.00010035526065621525,
                        0.00016227472224272788
                    ],
                    [
                        0.00023931149917189032,
                        0.00037595286266878247,
                        -7.416522566927597e-05,
                        0.00012401181447785348
                    ],
                    [
                        0.000900908256880939,
                        0.001403805217705667,
                        0.001431791577488184,
                        0.0013915349263697863
                    ],
                    [
                        -0.000309387338347733,
                        -0.00032348904642276466,
                        -0.0006794759538024664,
                        -0.0006567316595464945
                    ],
                    [
                        1.5409314073622227e-06,
                        -4.215267108520493e-05,
                        -0.0001982449903152883,
                        -0.00012941373279318213
                    ],
                    [
                        5.329783380148001e-05,
                        0.00010333672253182158,
                        0.0002114269882440567,
                        0.000212626313441433
                    ],
                    [
                        0.0008324505761265755,
                        0.0010184318525716662,
                        0.00123425608035177,
                        0.001334373140707612
                    ],
                    [
                        0.00021261602523736656,
                        0.00013240466068964452,
                        0.0003146911330986768,
                        0.000361008191248402
                    ],
                    [
                        -1.6050253179855645e-06,
                        3.479164297459647e-05,
                        0.00018109801749233156,
                        0.00012256347690708935
                    ],
                    [
                        0.00030597293516620994,
                        0.00023077339574228972,
                        0.0004542916431091726,
                        0.0003892410604748875
                    ],
                    [
                        0.0010625484865158796,
                        0.0016859209863469005,
                        0.0014068195596337318,
                        0.001456841710023582
                    ]
                ],
                "exp_avg_sq": [
                    [
                        5.857509677298367e-06,
                        8.792627340881154e-06,
                        7.315662969631376e-06,
                        1.0013158316724002e-05
                    ],
                    [
                        5.964775027678115e-06,
                        8.941441592469346e-06,
                        7.121214821381727e-06,
                        9.667897757026367e-06
                    ],
                    [
                        6.4116393332369626e-06,
                        1.0037572792498395e-05,
                        8.103483196464367e-06,
                        1.1256764082645532e-05
                    ],
                    [
                        6.786800440750085e-06,
                        1.085415806301171e-05,
                        8.306329618790187e-06,
                        1.1508072930155322e-05
                    ],
                    [
                        2.0100314941373654e-06,
                        3.792500592680881e-06,
                        2.160995563826873e-06,
                        3.9313658817263786e-06
                    ],
                    [
                        4.482435087993508e-06,
                        6.566704087163089e-06,
                        6.033359568391461e-06,
                        8.09867287898669e-06
                    ],
                    [
                        1.209870333696017e-05,
                        1.9216704458813183e-05,
                        1.591144609847106e-05,
                        2.2278385586105287e-05
                    ],
                    [
                        1.7824660972109996e-05,
                        2.885398680518847e-05,
                        2.1188541722949594e-05,
                        3.074067353736609e-05
                    ],
                    [
                        7.446792096743593e-06,
                        1.1542280844878405e-05,
                        9.223569577443413e-06,
                        1.2836397218052298e-05
                    ],
                    [
                        7.415424079226796e-06,
                        1.1480598914204165e-05,
                        9.253859388991259e-06,
                        1.2930013326695189e-05
                    ],
                    [
                        2.1851565179531462e-06,
                        3.5794521409115987e-06,
                        2.454655259498395e-06,
                        3.3518695090606343e-06
                    ],
                    [
                        1.7738739188644104e-05,
                        2.8980155548197217e-05,
                        2.143295932910405e-05,
                        3.058706352021545e-05
                    ],
                    [
                        1.7687609670247184e-06,
                        2.7825526558444835e-06,
                        2.1128623757249443e-06,
                        2.885718231482315e-06
                    ],
                    [
                        5.433223122963682e-06,
                        8.037830411922187e-06,
                        7.1476206358056515e-06,
                        9.783464520296548e-06
                    ],
                    [
                        5.019833679398289e-06,
                        7.839979843993206e-06,
                        6.092447165428894e-06,
                        8.91734362085117e-06
                    ],
                    [
                        2.4835700969561003e-05,
                        3.760813706321642e-05,
                        3.2273561373585835e-05,
                        4.4514039473142475e-05
                    ]
                ]
            },
            "1": {
                "step": 4500.0,
                "exp_avg": [
                    -5.069293547421694e-05,
                    0.001112701720558107,
                    -3.2909731089603156e-05,
                    7.5024640864285175e-06,
                    -0.0007753116078674793,
                    -0.0001284792524529621,
                    0.0005058619426563382,
                    -0.0015448170015588403,
                    0.0005328733241185546,
                    2.791891347442288e-05,
                    -0.00037998714833520353,
                    -0.001006982522085309,
                    0.0012182423379272223,
                    -0.00021100557933095843,
                    0.0002827507851179689,
                    -0.002593287266790867
                ],
                "exp_avg_sq": [
                    8.437706128461286e-06,
                    1.526296910014935e-05,
                    8.294539838971104e-06,
                    1.0327397831133567e-05,
                    5.518620127986651e-06,
                    7.940417162899394e-06,
                    1.5669487765990198e-05,
                    1.614819120732136e-05,
                    8.640578926133458e-06,
                    9.956294888979755e-06,
                    9.227481314155739e-06,
                    1.9629360394901596e-05,
                    2.1953783289063722e-05,
                    6.670986294921022e-06,
                    8.96943765837932e-06,
                    3.455834666965529e-05
                ]
            },
            "2": {
                "step": 4500.0,
                "exp_avg": [
                    [
                        -4.542887381830951e-06,
                        -1.148594674305059e-05,
                        -1.9667952528834576e-06,
                        -4.5232959564600606e-06,
                        -7.7098829933675e-06,
                        3.6871094112773305e-38,
                        2.745796109593357e-06,
                        2.1298624233168084e-06,
                        -1.3985718396725133e-06,
                        -2.3156583210948156e-06,
                        1.019133924273774e-05,
                        5.93736331211403e-06,
                        7.73240844864631e-06,
                        8.471311048197094e-06,
                        7.995156011020299e-06,
                        7.012904916336993e-06
                    ],
                    [
                        0.0004093062598258257,
                        -0.0004988267901353538,
                        0.0004653401265386492,
                        8.843623800203204e-05,
                        -0.0008473299676552415,
                        -1.2233546348844687e-36,
                        -0.0005060550174675882,
                        0.0010486000683158636,
                        0.00017411239969078451,
                        0.000287637987639755,
                        0.00046097798622213304,
                        0.001686405623331666,
                        0.0007108150748535991,
                        0.0004012546269223094,
                        0.0005180902080610394,
                        0.0004556383937597275
                    ],
                    [
                        0.001717081293463707,
                        0.003151971148326993,
                        0.002160073956474662,
                        0.0015514432452619076,
                        0.004244009964168072,
                        -8.524970726652058e-38,
                        -0.0002752438886091113,
                        0.0009258846985176206,
                        0.00209425063803792,
                        0.002123635495081544,
                        0.002005508868023753,
                        0.001480933278799057,
                        -5.651490209857002e-05,
                        0.0017510849284008145,
                        0.0007082254160195589,
                        0.0012234174646437168
                    ],
                    [
                        -0.00046843517338857055,
                        -0.0006751895416527987,
                        -0.00022024483769200742,
                        -0.0003790242481045425,
                        -0.0006034448742866516,
                        5.3587403889926516e-36,
                        0.00013536112965084612,
                        -0.0004250315250828862,
                        -0.0005962879513390362,
                        -8.15876410342753e-06,
                        -8.505515870638192e-05,
                        -0.0002839634253177792,
                        0.0001898029149742797,
                        0.0003348367172293365,
                        0.00014028155419509858,
                        -0.0004224879085086286
                    ]
                ],
                "exp_avg_sq": [
                    [
                        4.0927693589765113e-07,
                        7.212007062662451e-07,
                        4.1297192865386023e-07,
                        4.0925556277215946e-07,
                        2.466645412368962e-07,
                        4.151801476837136e-06,
                        8.677388336764125e-07,
                        3.028571654795087e-06,
                        1.5994759223758592e-06,
                        3.936593770959007e-07,
                        3.390728352314909e-06,
                        3.246512960686232e-06,
                        3.2993157219607383e-06,
                        2.6819845970749157e-06,
                        4.0921318031905685e-06,
                        2.8889139684906695e-06
                    ],
                    [
                        2.388291250099428e-05,
                        5.949270780547522e-05,
                        2.6099680326296948e-05,
                        2.9797229217365384e-05,
                        7.644516153959557e-05,
                        2.493902502465062e-05,
                        2.2367448764271103e-05,
                        6.082250547478907e-05,
                        2.0145926100667566e-05,
                        2.4620241674710996e-05,
                        2.8145632313680835e-05,
                        6.222116644494236e-05,
                        8.837519089865964e-06,
                        5.1324343075975776e-05,
                        3.169920819345862e-05,
                        6.284924893407151e-05
                    ],
                    [
                        4.2510295315878466e-05,
                        7.712961087236181e-05,
                        4.130774686927907e-05,
                        4.406484367791563e-05,
                        0.0001023588192765601,
                        1.1975488632742781e-05,
                        2.2385598640539683e-05,
                        5.090392369311303e-05,
                        3.1720588594907895e-05,
                        4.192524284007959e-05,
                        1.76658923010109e-05,
                        5.3685471357312053e-05,
                        9.051617780642118e-06,
                        6.177185423439369e-05,
                        2.8441079848562367e-05,
                        5.335378591553308e-05
                    ],
                    [
                        7.522898613387952e-06,
                        7.704893505433574e-06,
                        1.1075996553699952e-05,
                        5.244360181677621e-06,
                        1.1628786523942836e-05,
                        7.984077456058003e-06,
                        7.13833969712141e-06,
                        9.892508387565613e-06,
                        5.4101737987366505e-06,
                        7.79559832153609e-06,
                        5.614378096652217e-06,
                        1.0159326848224737e-05,
                        4.6027539610804524e-06,
                        1.5616713426425122e-05,
                        8.816244189802092e-06,
                        9.498132385488134e-06
                    ]
                ]
            },
            "3": {
                "step": 4500.0,
                "exp_avg": [
                    -1.5562318367301486e-06,
                    -0.0001920128706842661,
                    0.004108956083655357,
                    -0.00045812566531822085
                ],
                "exp_avg_sq": [
                    4.788338173966622e-06,
                    0.00010663692955859005,
                    0.00013044546358287334,
                    2.5323659428977408e-05
                ]
            },
            "4": {
                "step": 4500.0,
                "exp_avg": [
                    [
                        -0.0002121158759109676,
                        -1.828499443945475e-05,
                        -5.93910735915415e-05,
                        -4.708781489171088e-05
                    ],
                    [
                        6.686016718049359e-08,
                        1.5432118516400806e-06,
                        -1.222419882651593e-06,
                        -8.231619972320914e-07
                    ],
                    [
                        4.703049853560515e-06,
                        -1.8190203263657168e-05,
                        -1.6301979712807224e-06,
                        2.317205144208856e-05
                    ],
                    [
                        0.00015935554984025657,
                        0.0001970156008610502,
                        2.0095405488973483e-05,
                        -3.0800962122157216e-05
                    ],
                    [
                        0.0005069159669801593,
                        9.490350930718705e-05,
                        -8.871503086993471e-05,
                        0.000635976146440953
                    ],
                    [
                        1.6684257388988044e-06,
                        -1.6613356592642958e-06,
                        3.621142468546168e-06,
                        2.9288862606335897e-06
                    ],
                    [
                        9.54448914853856e-05,
                        0.00010021698835771531,
                        -1.515670919616241e-05,
                        8.309652912430465e-05
                    ],
                    [
                        3.8591660995734856e-06,
                        -4.467807229957543e-06,
                        5.253785730019445e-06,
                        7.832970368326642e-06
                    ],
                    [
                        -1.6205438441829756e-05,
                        -1.5002333384472877e-06,
                        7.701817594352178e-06,
                        -3.682091846712865e-05
                    ],
                    [
                        -0.00013921376375947148,
                        -0.00016633473569527268,
                        -2.2521209757542238e-05,
                        1.9019491446670145e-05
                    ],
                    [
                        1.351689775219711e-06,
                        -8.749954076847644e-07,
                        2.3553138817078434e-06,
                        1.9951462491007987e-06
                    ],
                    [
                        -0.0002477954840287566,
                        -8.706328662810847e-05,
                        -7.069236016832292e-05,
                        -0.0002600208390504122
                    ],
                    [
                        -3.282846591901034e-05,
                        5.384100950323045e-05,
                        3.636025212472305e-05,
                        -7.253958028741181e-05
                    ],
                    [
                        0.0010048418771475554,
                        4.0894843550631776e-05,
                        0.0005322702345438302,
                        0.0010071014985442162
                    ],
                    [
                        -6.201295946084429e-06,
                        2.9183468086557696e-06,
                        -4.3019981603720225e-06,
                        -1.0547854799369816e-05
                    ],
                    [
                        5.298432370182127e-06,
                        -2.7865677111549303e-05,
                        1.3207740266807377e-05,
                        3.133874270133674e-05
                    ]
                ],
                "exp_avg_sq": [
                    [
                        2.8821393698308384e-06,
                        8.558569675187755e-07,
                        5.42423208571563e-07,
                        1.9586134385463083e-06
                    ],
                    [
                        3.4543552462906746e-09,
                        5.368885336309859e-09,
                        2.3011600958078304e-10,
                        1.939091803793147e-10
                    ],
                    [
                        1.1114817652924103e-06,
                        1.4491029105556663e-06,
                        6.684674502821508e-08,
                        1.095305890430609e-07
                    ],
                    [
                        4.676759090216365e-06,
                        4.209079634165391e-06,
                        1.0246350257148151e-06,
                        3.7949951092741685e-07
                    ],
                    [
                        2.289704207214527e-05,
                        1.242724738403922e-05,
                        8.355004865734372e-06,
                        9.81250104814535e-06
                    ],
                    [
                        5.546494463715135e-08,
                        1.279417887189993e-07,
                        1.297347694162454e-06,
                        1.4086219835007796e-06
                    ],
                    [
                        6.632935196648759e-07,
                        5.923417916164908e-07,
                        8.163336673305821e-08,
                        3.1332612593359954e-07
                    ],
                    [
                        1.395059427977685e-07,
                        2.169334862855976e-07,
                        2.2924618860997725e-06,
                        2.8706156172120245e-06
                    ],
                    [
                        5.287703515932662e-06,
                        4.305491984268883e-06,
                        1.981699369935086e-06,
                        5.5579780564585235e-06
                    ],
                    [
                        1.995460934267612e-06,
                        1.7092695543396985e-06,
                        4.7464882868553104e-07,
                        3.6560322769219056e-07
                    ],
                    [
                        1.2238974278488968e-08,
                        1.571122680843473e-07,
                        2.0590258031916164e-07,
                        2.9291700798239617e-07
                    ],
                    [
                        5.745655926148174e-06,
                        1.1762923577407491e-06,
                        3.948899120587157e-06,
                        3.09912479679042e-06
                    ],
                    [
                        1.6686149137967732e-06,
                        1.3026658507442335e-06,
                        3.06686075646212e-07,
                        1.7417349909010227e-06
                    ],
                    [
                        3.577419875000487e-06,
                        1.4633540104114218e-06,
                        1.1680845091177616e-06,
                        2.595077603473328e-06
                    ],
                    [
                        5.469490194087712e-09,
                        6.724111045741665e-09,
                        1.4700700212699758e-08,
                        2.726697090338348e-08
                    ],
                    [
                        6.775927658964065e-07,
                        6.281827609200263e-07,
                        2.275186670885887e-05,
                        2.832810059771873e-05
                    ]
                ]
            },
            "5": {
                "step": 4500.0,
                "exp_avg": [
                    -0.00021211590501479805,
                    6.685995401767286e-08,
                    4.703044396592304e-06,
                    0.00015935565170366317,
                    0.0005069159669801593,
                    1.668426307332993e-06,
                    9.54448914853856e-05,
                    3.859167009068187e-06,
                    -1.620545117475558e-05,
                    -0.00013921374920755625,
                    1.351689775219711e-06,
                    -0.0002477954840287566,
                    -3.282846591901034e-05,
                    0.0010048418771475554,
                    -6.201295946084429e-06,
                    5.298430551192723e-06
                ],
                "exp_avg_sq": [
                    3.574221409508027e-06,
                    1.6452460727123253e-08,
                    2.4481375930918148e-06,
                    4.997535143047571e-06,
                    2.3240343580255285e-05,
                    3.630424544098787e-06,
                    9.555706128594466e-07,
                    1.215976908497396e-06,
                    6.7718060563493054e-06,
                    4.8940441956801806e-06,
                    2.5503015876893187e-07,
                    6.772527285647811e-06,
                    2.2784290649724426e-06,
                    3.764755092561245e-06,
                    2.0059752969814326e-08,
                    2.2736814571544528e-05
                ]
            },
            "6": {
                "step": 4500.0,
                "exp_avg": [
                    [
                        -0.0004889317788183689,
                        -5.605193857299268e-45,
                        -0.0003695100895129144,
                        0.0004961669910699129,
                        -0.0005024583078920841,
                        -5.605193857299268e-45,
                        -9.26223219721578e-05,
                        5.605193857299268e-45,
                        -0.00022595777409151196,
                        -0.00016001728363335133,
                        -5.605193857299268e-45,
                        0.00025768973864614964,
                        -0.000331703427946195,
                        -0.0003327021258883178,
                        5.605193857299268e-45,
                        6.892794044688344e-05
                    ],
                    [
                        -0.0004832072008866817,
                        -5.605193857299268e-45,
                        5.331212014425546e-05,
                        3.0619121389463544e-06,
                        -0.0005684893694706261,
                        5.605193857299268e-45,
                        0.000579004583414644,
                        5.605193857299268e-45,
                        -0.0005250346730463207,
                        -5.814483301946893e-05,
                        5.605193857299268e-45,
                        8.136648102663457e-05,
                        -0.0008773785666562617,
                        -0.00015846540918573737,
                        5.605193857299268e-45,
                        -0.0004553468315862119
                    ],
                    [
                        0.0007271674694493413,
                        5.605193857299268e-45,
                        -0.0006032405071891844,
                        0.0006979780155234039,
                        0.00024158114683814347,
                        -5.605193857299268e-45,
                        -0.0006157101597636938,
                        5.605193857299268e-45,
                        0.0007340430747717619,
                        -0.0005604022881016135,
                        -5.605193857299268e-45,
                        -0.0006044635083526373,
                        0.0008102708379738033,
                        0.0005955945234745741,
                        5.605193857299268e-45,
                        0.000569920870475471
                    ],
                    [
                        -5.4785938118584454e-05,
                        5.605193857299268e-45,
                        0.00022263379651121795,
                        0.00022928467660676688,
                        -0.00012213065929245204,
                        -5.605193857299268e-45,
                        0.0005468902527354658,
                        -5.605193857299268e-45,
                        -2.8301103156991303e-05,
                        -0.00013083554222248495,
                        -5.605193857299268e-45,
                        -0.00015392072964459658,
                        -0.0002601620217319578,
                        0.0004733370733447373,
                        5.605193857299268e-45,
                        -0.0002834710176102817
                    ]
                ],
                "exp_avg_sq": [
                    [
                        5.321926437318325e-06,
                        1.1395876242659142e-08,
                        7.620259111718042e-06,
                        7.885883860581089e-06,
                        5.010825589124579e-06,
                        8.21422872832045e-07,
                        1.7874968762043864e-05,
                        3.6527019346976886e-06,
                        7.459639618900837e-06,
                        2.169371146010235e-05,
                        7.677705866626638e-07,
                        1.1271305993432179e-05,
                        6.747875886503607e-06,
                        5.959722784609767e-06,
                        1.8452901429100166e-08,
                        9.771898476174101e-06
                    ],
                    [
                        1.144053203461226e-05,
                        1.5469156622316405e-08,
                        1.6314728782163e-05,
                        1.3833429875376169e-05,
                        1.0891661986534018e-05,
                        2.183596279792255e-06,
                        3.050533268833533e-05,
                        1.1260469364060555e-05,
                        1.366351807519095e-05,
                        3.289577944087796e-05,
                        1.433127977179538e-06,
                        2.1292531528160907e-05,
                        1.131598310166737e-05,
                        1.1942201126657892e-05,
                        4.082231797042368e-08,
                        2.1763034965260886e-05
                    ],
                    [
                        1.1145607459184248e-05,
                        2.0275670920000266e-08,
                        1.4745621228939854e-05,
                        1.1012937648047227e-05,
                        1.0311663572792895e-05,
                        1.3783994745608652e-06,
                        2.065061744360719e-05,
                        4.684158739109989e-06,
                        1.3157190551282838e-05,
                        2.026251604547724e-05,
                        1.0246437796013197e-06,
                        2.1346000721678138e-05,
                        1.3051544556219596e-05,
                        1.1703557902364992e-05,
                        2.8261569084975235e-08,
                        1.2422990948834922e-05
                    ],
                    [
                        8.25765891931951e-06,
                        1.7412746800005152e-08,
                        1.702093504718505e-05,
                        1.3308459529071115e-05,
                        7.307730811589863e-06,
                        1.3970770851301495e-06,
                        1.878095827123616e-05,
                        1.801584403438028e-05,
                        1.1284889296803158e-05,
                        2.0964420400559902e-05,
                        9.902984174914309e-07,
                        1.622161471459549e-05,
                        1.005145713861566e-05,
                        8.519757102476433e-06,
                        4.186939861483552e-08,
                        2.8752714570146054e-05
                    ]
                ]
            },
            "7": {
                "step": 4500.0,
                "exp_avg": [
                    4.666065069613978e-05,
                    -5.6395496358163655e-05,
                    -0.00016434790450148284,
                    4.554496263153851e-05
                ],
                "exp_avg_sq": [
                    4.4581876863958314e-05,
                    1.8137909137294628e-05,
                    0.0001192770796478726,
                    0.0002780919603537768
                ]
            }
        },
        "param_groups": [
            {
                "lr": 0.01,
                "betas": [
                    0.9,
                    0.999
                ],
                "eps": 1e-08,
                "weight_decay": 0,
                "amsgrad": false,
                "maximize": false,
                "foreach": null,
                "capturable": false,
                "differentiable": false,
                "fused": false,
                "params": [
                    0,
                    1,
                    2,
                    3,
                    4,
                    5,
                    6,
                    7
                ]
            }
        ]
    }
}
