{"model": {"state_dict": {"encoder.0.weight": [[-0.12024206668138504, -0.30760663747787476, 0.18796999752521515, 0.16215553879737854, -0.035983383655548096, 0.1292199194431305, -0.18018223345279694, -0.3618208169937134], [-0.09582239389419556, -0.07833380252122879, -0.4420095682144165, -0.3032195568084717, 0.202114075422287, -0.036029599606990814, -0.47005027532577515, -0.24981410801410675], [0.010923541150987148, -0.11494623869657516, -0.05271539464592934, 0.014603334479033947, 0.08838584274053574, 0.07441167533397675, -0.30680111050605774, -0.2725672125816345], [-0.5430477857589722, -0.16705401241779327, -0.12052711844444275, 0.14281713962554932, -0.06248597800731659, 0.04227831959724426, 0.14971798658370972, -0.5215556025505066], [-0.1363310068845749, -0.2704566419124603, 0.1830921620130539, -0.5909565091133118, -0.3091757595539093, -0.014367886818945408, 0.02663802169263363, 0.13323825597763062], [-0.4523699879646301, 0.1816585808992386, -0.1129804253578186, -0.29914727807044983, 0.12164302915334702, 0.5972117781639099, 0.16127271950244904, -0.39936745166778564], [-0.2296619415283203, -0.2777864336967468, 0.1887304037809372, 0.17062166333198547, -0.1917140781879425, 0.32513296604156494, -0.057628557085990906, 0.22415246069431305], [0.8326906561851501, -0.49215835332870483, -0.023853454738855362, 0.6914647817611694, 0.06299048662185669, -0.0034165733959525824, -0.38340550661087036, 0.1329859048128128], [0.6117528676986694, -0.06018873676657677, 0.04385663941502571, 0.09204347431659698, 0.4706863462924957, 0.722230076789856, 0.654655396938324, 0.6437704563140869], [0.2895776629447937, -0.425336629152298, -0.039336737245321274, 0.2611226737499237, -0.7123662233352661, -0.0753258690237999, -0.5170975923538208, 0.2333025336265564], [0.5447535514831543, 0.4979485869407654, 0.4802844822406769, 0.5885684490203857, 0.8261827230453491, -0.13848859071731567, 0.5854204297065735, -0.1433558166027069], [0.24924275279045105, 0.42307049036026, -0.11748998612165451, -0.4987662434577942, -0.6037057042121887, -0.3148832321166992, -0.10630876570940018, -0.15228749811649323], [0.5238624811172485, 0.653556227684021, -0.1879890114068985, 0.3670042157173157, 0.4643198549747467, 0.018172642216086388, -0.469978004693985, -0.5710629820823669], [0.005933290813118219, -0.21822196245193481, -0.01407650951296091, -0.36029312014579773, -0.07173864543437958, -0.03115937113761902, 0.4694100618362427, 0.028134362772107124], [-0.2656008005142212, -0.31690022349357605, -0.45641446113586426, -0.1837780773639679, 0.16956786811351776, -0.25418853759765625, 0.22506840527057648, -0.19477100670337677], [0.7686052918434143, 0.7085450887680054, 0.44779714941978455, 0.4789580702781677, -0.01747225970029831, 0.0726262629032135, -0.16275238990783691, -0.274286150932312], [0.2265789806842804, -0.34395986795425415, 0.09010905772447586, -0.3662071228027344, 0.18739119172096252, 0.047999437898397446, 0.597996175289154, 0.24816729128360748], [0.37519019842147827, -0.37967202067375183, 0.6228118538856506, 0.18836134672164917, 0.2744350731372833, 0.6149401068687439, -0.009617669507861137, 0.5068806409835815], [0.034403156489133835, -0.14250728487968445, -0.19062204658985138, 0.10919018089771271, 0.5185580849647522, -0.21948307752609253, -0.6745817065238953, 0.106299988925457], [0.6923527717590332, 0.5731000900268555, 0.3915735185146332, 0.506603479385376, 0.16664433479309082, 0.12015780061483383, -0.08323700726032257, 0.3394309878349304], [-0.3572212755680084, -0.27037596702575684, 0.7278375029563904, 0.36765024065971375, 0.10683868825435638, -0.4702860713005066, 0.016855381429195404, -0.03460625559091568], [-0.16176681220531464, -0.08446121960878372, 0.7221357226371765, -0.42306452989578247, -0.18273429572582245, -0.413174569606781, 0.553616464138031, -0.006568128243088722], [-0.22244605422019958, 0.12343527376651764, -0.48528704047203064, -0.1271226555109024, -0.6193645000457764, -0.45528048276901245, 0.007454726845026016, 0.017852183431386948], [0.1520662009716034, -0.46934258937835693, 0.029887285083532333, 0.11705587804317474, -0.09213349223136902, -0.061129577457904816, 0.2266862988471985, -0.26316097378730774], [0.20721204578876495, 0.1750655621290207, 0.13395938277244568, -0.3848861753940582, 0.15023042261600494, 0.24911916255950928, 0.14983293414115906, -0.19365309178829193], [0.059859052300453186, 0.16566792130470276, -0.0487704761326313, -0.10475263744592667, -0.06306964159011841, -0.3863021433353424, 0.011110907420516014, -0.08616536855697632], [-0.2339974045753479, 0.2011003941297531, 0.20717953145503998, -0.7266964912414551, -0.18803055584430695, -0.002933001611381769, -0.1701372116804123, 0.2606237828731537], [0.17027297616004944, 0.11966896057128906, -0.20903201401233673, -0.1476391851902008, -0.15401938557624817, 0.03566882759332657, -0.17883217334747314, -0.029059316962957382], [0.33916139602661133, 0.41815751791000366, 0.40403762459754944, 0.4856078326702118, 0.4680854380130768, 0.34173884987831116, -0.17763228714466095, 0.5979046821594238], [-0.0697694644331932, 0.3747239410877228, -0.3964432179927826, -0.0077546387910842896, 0.2815175950527191, -0.5870014429092407, 0.6232315301895142, -0.24591529369354248], [-0.45985546708106995, 0.21113231778144836, -0.38542982935905457, -0.47148147225379944, 0.3367505669593811, 0.022335296496748924, -0.07268983870744705, -0.23151998221874237], [-0.41140100359916687, -0.10977020859718323, 0.20497013628482819, -0.1032358780503273, -0.05752550810575485, 0.0623091422021389, 1.1399692296981812, 0.31030943989753723], [0.05925896018743515, -0.6179841756820679, -0.17668704688549042, 0.06233660876750946, -0.1946820169687271, -0.1071397140622139, -0.08906116336584091, 0.887909471988678], [-0.32312336564064026, -0.08049991726875305, 0.05006340518593788, 0.33526739478111267, 0.7038439512252808, 0.9715448617935181, 0.5172982215881348, -0.20088879764080048], [-0.3021116256713867, -0.030708588659763336, 0.3592776954174042, 0.12122373282909393, 0.42256492376327515, 0.0998886451125145, 0.13248218595981598, -0.11622057855129242], [-0.29534652829170227, -0.07533445954322815, 0.2559623718261719, 0.2060222625732422, -0.358289897441864, -0.13116993010044098, -0.26752108335494995, -0.5743062496185303], [0.22098107635974884, 0.8928510546684265, -0.09993893653154373, 0.6145169734954834, -0.24331875145435333, -0.3934374451637268, 0.16058193147182465, 0.03747708722949028], [-0.44821661710739136, -0.4303964674472809, -0.07873228937387466, 0.3023529350757599, -0.37412962317466736, -0.02936518006026745, -0.02217879518866539, -0.09579116851091385], [-0.2309553474187851, -0.28552550077438354, 0.5548766255378723, 0.7880987524986267, -0.04560210183262825, -0.23089686036109924, 0.09911614656448364, 0.0050020478665828705], [0.4375403821468353, -0.22514855861663818, 0.2241685390472412, 0.2902781665325165, 0.41260257363319397, 0.45412784814834595, 0.20888102054595947, -0.07002067565917969], [-0.012208166532218456, -0.4554426670074463, 0.09643525630235672, -0.3976913392543793, -0.03124917671084404, -0.029751239344477654, -0.2899625301361084, -0.35432061553001404], [-0.14615312218666077, 0.42097368836402893, 0.0651194229722023, -0.14205338060855865, -0.37434062361717224, -0.07452625036239624, 0.1191507950425148, 0.40062856674194336], [-0.034880246967077255, 0.4727816581726074, 0.5980580449104309, 0.42786628007888794, 0.18140827119350433, 0.24473488330841064, -0.17339418828487396, -0.3321309983730316], [-0.10316289216279984, 0.12755009531974792, -0.06620970368385315, 0.7046393752098083, -0.158829003572464, -0.012341120280325413, 0.4217228889465332, 0.2710215747356415], [0.002605089684948325, -0.2794337272644043, -0.16135206818580627, -0.5171687602996826, -0.26871922612190247, 0.3520943224430084, -0.11936520785093307, 0.09396857768297195], [0.42597177624702454, 0.08561880886554718, 0.47541359066963196, 0.048041969537734985, 0.01915161870419979, -0.06365585327148438, 0.02653011865913868, 0.009712101891636848], [-0.11347699910402298, -0.09655402600765228, 0.5179327726364136, -0.4129825234413147, -0.13863882422447205, 0.26315200328826904, -0.18287688493728638, 0.21707268059253693], [0.46861377358436584, -0.0039011251647025347, 0.4160136580467224, 0.6042789816856384, 0.11589556187391281, -0.01810806803405285, -0.6467141509056091, -0.418687641620636], [-0.19848528504371643, -0.1584053933620453, -0.16322274506092072, -0.08097600936889648, -0.42922523617744446, 0.12646125257015228, 0.09387210011482239, -0.05914461985230446], [0.1494087129831314, 0.2373218983411789, -0.4623793959617615, 0.19396835565567017, -0.735455334186554, -0.048447754234075546, -0.08768577128648758, 0.2519949674606323], [-0.0432116761803627, 0.6551143527030945, -0.27569252252578735, 0.10386276245117188, -0.3910924196243286, -0.5106515884399414, 0.44694602489471436, 0.06734710931777954], [-0.34641364216804504, -0.4562905728816986, -0.4182043969631195, -0.12915749847888947, -0.2682451903820038, 0.24384915828704834, -0.2668769061565399, -0.040697600692510605], [-0.35532695055007935, -0.47027966380119324, -0.26667147874832153, 0.2933748960494995, 0.17228880524635315, 0.23214666545391083, -0.09900590777397156, -0.3888839781284332], [-0.2360110580921173, 0.14503879845142365, 0.9417338967323303, 0.010613728314638138, 0.06260320544242859, 0.5038145184516907, -0.1680326759815216, -0.3649221956729889], [-0.21642564237117767, -0.5362936854362488, -0.1830337643623352, -0.08179778605699539, 0.852762758731842, -0.6024894714355469, -0.1534736007452011, 0.1239008679986], [-0.41567760705947876, -0.13869646191596985, 0.15100139379501343, -0.08559464663267136, 0.15346099436283112, 0.027006126940250397, -0.5262154936790466, -0.22491469979286194], [-0.40182605385780334, -0.017056647688150406, -0.28817108273506165, -0.32223987579345703, -0.6331173181533813, 0.1365661323070526, -0.001707836170680821, -0.3307609558105469], [-0.05595441535115242, 0.17872174084186554, 0.41550737619400024, 0.5793939232826233, -0.0160670205950737, -0.139030322432518, -0.028535882011055946, 0.16917107999324799], [-0.7106766104698181, 0.3265228867530823, -0.059837087988853455, 0.08736929297447205, 0.12512335181236267, 0.06678839772939682, 0.46058017015457153, -0.029478009790182114], [0.31654223799705505, -0.07851266115903854, 0.8914639353752136, 0.11535188555717468, 0.22643929719924927, -0.0469803586602211, -0.2570313811302185, 0.04089369997382164], [-0.08701760321855545, 0.5562174916267395, 0.43983688950538635, 0.42716702818870544, 0.5657327175140381, 0.4894030690193176, -0.08728047460317612, 0.04358582943677902], [-0.2561075985431671, -0.500576913356781, -0.14468064904212952, -0.1524595320224762, 0.199727401137352, 0.29155755043029785, 0.0800330638885498, -0.009729595854878426], [0.2009642869234085, 0.03676145523786545, 0.17597118020057678, 0.25135537981987, 0.23916961252689362, 0.0653904378414154, -0.24471943080425262, -0.08635263890028], [0.6236871480941772, -0.654050350189209, 0.4537903368473053, -0.02083473466336727, 0.5206981897354126, 0.7364036440849304, -0.300983726978302, 0.16305097937583923], [-0.40164387226104736, 0.21456092596054077, -0.24470944702625275, 0.4684109389781952, -0.6489461064338684, -0.5228641033172607, -0.3898662328720093, 0.29369282722473145], [-0.18916819989681244, -0.12003278732299805, 0.08186320960521698, -0.04431198537349701, -0.13772249221801758, -0.12377359718084335, -0.31304827332496643, -0.30861639976501465], [0.00501316599547863, -0.04878026247024536, 0.12174201011657715, -0.15863008797168732, 0.5437384843826294, 0.05970931053161621, -0.23713883757591248, 0.23630426824092865], [0.1128012016415596, 0.21055622398853302, 0.3627491593360901, 0.9889569878578186, -0.09810203313827515, 0.3000625669956207, -0.3896271884441376, -0.23025579750537872], [0.1947847455739975, 0.3891914188861847, 0.10639867931604385, -0.024613048881292343, 0.24274864792823792, 0.2063816785812378, 0.13725414872169495, -0.0342513844370842], [0.66632479429245, -0.09681066870689392, -0.08220028877258301, -0.09724246710538864, 0.6222212314605713, 0.33506831526756287, 0.5996461510658264, 0.3693743646144867], [-0.5075111985206604, 0.2045842856168747, -0.3191598951816559, -0.25169774889945984, 0.26184582710266113, 0.19840283691883087, 0.34772056341171265, -0.4332817494869232], [-0.044441111385822296, 0.001288012252189219, 0.07603613287210464, -0.3598819077014923, 0.700361430644989, -0.3498882055282593, 0.5279339551925659, 0.05652288720011711], [-0.24487023055553436, 0.2190762758255005, 0.26682761311531067, 0.05775566026568413, -0.08324259519577026, -0.06305709481239319, 0.8038806319236755, 0.5974843502044678], [-0.19748561084270477, 0.32835838198661804, -0.21781684458255768, -0.27840369939804077, -0.6590746641159058, -0.12163615226745605, -0.36031144857406616, -0.46650430560112], [0.37120625376701355, 0.443559467792511, 0.8493316769599915, -0.6134825944900513, 0.06681782752275467, 0.2564178705215454, -0.010115283541381359, -0.06624734401702881], [-0.1482538878917694, -0.2660568654537201, 0.02745615877211094, -0.42841020226478577, 0.5505077242851257, 1.1102452278137207, 0.3867235779762268, -0.10667227953672409], [-0.2862503230571747, 0.3063800632953644, 0.10994422435760498, -0.10331832617521286, -0.2929307222366333, 0.026454873383045197, -0.5442882776260376, -0.17072793841362], [-0.015359852463006973, 0.20151729881763458, 0.47433823347091675, -0.31203895807266235, 0.026597142219543457, 0.3008381724357605, -0.2500150203704834, -0.43360891938209534], [-0.002250932389870286, -0.04078175872564316, -0.08587028831243515, 0.17697422206401825, -0.07899527251720428, -0.5293677449226379, 0.6539464592933655, 0.16904886066913605], [-0.10952549427747726, 0.44714677333831787, 0.0004707870539277792, -0.014861996285617352, -0.047695696353912354, -0.5515368580818176, -0.024819307029247284, -0.43334487080574036], [0.2119561731815338, 0.43281036615371704, 0.5107137560844421, 0.5448319315910339, 0.1328769028186798, 0.27189674973487854, 0.5711879134178162, -0.027415987104177475], [-0.44785308837890625, -0.254250705242157, 0.08071240782737732, 0.08110638707876205, -0.46531733870506287, 0.575687050819397, 0.3159019947052002, 0.4452361464500427], [-0.03515937551856041, 0.2652561664581299, -0.008871333673596382, 0.04813528433442116, -0.06928405910730362, 0.2052101343870163, 0.18180513381958008, 0.0518907755613327], [-0.22380872070789337, -0.0986153781414032, -0.07850997895002365, -0.5628093481063843, -0.0819992646574974, 0.10301710665225983, -0.2936707139015198, -0.15250785648822784], [0.2044835090637207, -0.06438705325126648, -0.14884744584560394, 0.21774636209011078, -0.022188108414411545, 0.18345406651496887, -0.3779936730861664, 0.11170710623264313], [0.25704169273376465, 0.009906774386763573, -0.0680457353591919, 0.04243806004524231, 0.16099810600280762, -0.1464068591594696, 0.26550817489624023, -0.3573688864707947], [-0.3524504005908966, 0.06159035488963127, -0.42274168133735657, -0.36152422428131104, -0.33289119601249695, -0.46705368161201477, 0.22160983085632324, -0.09613630175590515], [0.1062101200222969, 0.3235764801502228, 0.3828818202018738, -0.22569964826107025, 0.06751237064599991, -0.5969045162200928, -0.2682492136955261, -0.278415322303772], [0.18339796364307404, -0.5565932989120483, -0.036354560405015945, -0.4490238130092621, 0.24333156645298004, 0.010156387463212013, 0.23130008578300476, 0.5929593443870544], [0.012968461960554123, 0.6555963158607483, 0.5640156269073486, 0.07027727365493774, -0.5185129046440125, -0.15013130009174347, -0.3672701120376587, -0.6116052269935608], [-0.37995919585227966, 0.4009162485599518, -0.2464989274740219, -0.28371870517730713, -0.014104501344263554, 0.04335150122642517, -0.39206063747406006, -0.5111141800880432], [0.16607841849327087, -0.6998712420463562, 0.07575294375419617, -0.2563156187534332, -0.14456090331077576, 0.18285579979419708, -0.08316841721534729, -0.22775819897651672], [-0.5532190203666687, 0.1385645717382431, 0.15248465538024902, -0.06826573610305786, -0.3530319333076477, -0.00716168200597167, 0.08388036489486694, -0.42230984568595886], [0.12899598479270935, -0.2725077271461487, 0.3997431993484497, -0.23159529268741608, 0.2430412471294403, 0.16246631741523743, 0.19160418212413788, -0.24522866308689117], [-0.16521808505058289, -0.6188719272613525, 0.013944526202976704, -0.2172422707080841, 0.4090147614479065, 0.2533843517303467, -0.149212047457695, -0.1742112934589386], [0.4350593686103821, -0.07951629161834717, -0.11046257615089417, 0.08124865591526031, -0.05558847635984421, 0.171037495136261, -0.018507571890950203, 0.2767636477947235], [0.17268016934394836, -0.25310400128364563, -0.21625442802906036, -0.16567738354206085, -0.18537987768650055, -0.11713644862174988, 0.29354560375213623, -0.08685272186994553], [0.18505649268627167, 0.15248093008995056, 0.16016341745853424, -0.10745725780725479, 0.055067528039216995, -0.4819885790348053, 0.3116353154182434, -0.45782220363616943], [1.0340083837509155, 0.25313425064086914, 0.5319397449493408, -0.3808835744857788, -0.41221335530281067, -0.11067791283130646, 0.05590823292732239, 0.10957368463277817], [0.02229386381804943, 0.9800918698310852, -0.22738848626613617, 0.2641371488571167, 0.1765880286693573, -0.08511217683553696, -0.05893268063664436, -0.11429154127836227], [0.1445096731185913, -0.0030752818565815687, -0.3489720821380615, -0.42441341280937195, -0.06156172975897789, -0.16838839650154114, -0.12033136934041977, -0.09960244596004486], [-0.07068425416946411, -0.21778689324855804, -0.025206800550222397, -0.5183746218681335, 0.20300860702991486, -0.03838692978024483, 0.28253889083862305, -0.08018174767494202], [-0.6044578552246094, -0.2950604259967804, -0.3160785138607025, -0.235905721783638, -0.3771880567073822, -0.17479786276817322, -0.4192333519458771, -0.4266415238380432], [-0.1546243578195572, 0.09023162722587585, 0.007654860150068998, 0.4286870062351227, -0.6955626606941223, -0.1453706920146942, -0.09468088299036026, 0.014297331683337688], [-0.2745189964771271, -0.2993911802768707, 0.4096679985523224, 0.32035836577415466, 0.4351778030395508, 0.07847288995981216, -0.02842484600841999, 0.0008599507273174822], [-0.1418595314025879, -0.3489862084388733, -0.5364452600479126, 0.32835763692855835, -0.40169280767440796, -0.28689613938331604, 0.2573207914829254, 0.2890608608722687], [-0.45541220903396606, 0.1125461608171463, -0.3819969594478607, -0.22499702870845795, 0.1537100374698639, -0.356747031211853, -0.26124677062034607, -0.2124393880367279], [0.5058541297912598, 0.02858353592455387, 0.5256034731864929, -0.3305242359638214, 0.21023570001125336, 0.054339002817869186, -0.13148380815982819, -0.13365434110164642], [0.6402130722999573, 0.27656859159469604, -0.2836299538612366, 0.4511170983314514, -0.4290125072002411, 0.2624344229698181, 0.18857914209365845, 0.5017591118812561], [-0.2917577028274536, -0.14496056735515594, 0.03438970446586609, 0.1837904006242752, -0.05751660093665123, 0.4109111428260803, -0.14439211785793304, 0.037731438875198364], [0.05356644093990326, 0.4234873354434967, -0.004713296424597502, -0.23635423183441162, 0.041685644537210464, -0.016385164111852646, -0.060849759727716446, -0.3029352128505707], [-0.012279239483177662, -0.38826051354408264, 0.36078011989593506, -0.3026273250579834, 0.25400757789611816, -0.17233173549175262, -0.45219317078590393, -0.13601398468017578], [-0.26911383867263794, -0.36965811252593994, -0.14311563968658447, -0.18357974290847778, -0.1381550431251526, -0.10116244852542877, -0.20523864030838013, -0.2561328411102295], [0.5866398811340332, 0.11383897066116333, 0.6921056509017944, 0.4145132601261139, 0.24620382487773895, 0.6170217990875244, 0.41151800751686096, 0.48557889461517334], [0.8188011646270752, 0.3462274372577667, -0.07282597571611404, 0.11384681612253189, 0.17274406552314758, -0.004789503291249275, -0.2650867700576782, 0.047866564244031906], [0.687216579914093, 0.19393064081668854, 0.32961592078208923, 0.15403015911579132, 0.24347032606601715, 0.33743032813072205, 0.514487087726593, 0.5346315503120422], [0.27109020948410034, 0.7202233076095581, -0.008532592095434666, 0.38535603880882263, -0.4317116439342499, -0.48381152749061584, -0.6895068287849426, -0.11430446803569794], [-0.13278044760227203, 0.035340212285518646, 0.23337601125240326, -0.3504638969898224, 0.4869237542152405, -0.034953415393829346, 0.2635360658168793, -0.22307270765304565], [-0.11631167680025101, -0.4348641633987427, 0.17259900271892548, -0.36545631289482117, -0.32335788011550903, 0.3400622606277466, -0.026475436985492706, -0.011665311641991138], [0.06344307959079742, 0.17914046347141266, -0.2804786264896393, 0.12835681438446045, -0.28069251775741577, -0.2512514889240265, -0.03153145685791969, -0.22978682816028595], [0.6652007102966309, 0.1656651645898819, 0.6617177724838257, 0.6516931056976318, 0.5088546872138977, -0.11572905629873276, -0.01071985624730587, 0.363207072019577], [0.18043874204158783, -0.011513655073940754, -0.08686940371990204, 0.184663787484169, 0.35406041145324707, -0.1507546752691269, -0.23832814395427704, -0.09995738416910172], [0.3063405454158783, 0.28748032450675964, -0.05305284261703491, 0.14136342704296112, -0.09507622569799423, -0.40523868799209595, 0.023670384660363197, -0.2903887927532196], [-0.36613398790359497, -0.17814882099628448, 0.18079541623592377, -0.2713763415813446, -0.1643136739730835, 0.1606147736310959, 0.1557167023420334, -0.21520207822322845], [0.27942386269569397, 0.5763659477233887, -0.6220681667327881, -0.1360974758863449, -0.10197943449020386, -0.16341443359851837, -0.24785113334655762, 0.21055163443088531], [-0.5678560733795166, 0.6043161749839783, -0.06596698611974716, -0.2827991247177124, 0.0006699093501083553, -0.3017803430557251, -0.18795235455036163, -0.14296308159828186], [0.20084263384342194, -0.5585523843765259, 0.32706910371780396, -0.0820343866944313, 0.5215738415718079, -0.15383560955524445, -0.28434979915618896, 0.5097032785415649], [0.02043968439102173, 0.2742743492126465, -0.03458058089017868, 0.5532240867614746, 0.03862498328089714, -0.007086919620633125, 0.08200113475322723, -0.17896012961864471]], "encoder.0.bias": [0.036144692450761795, -0.38969045877456665, -0.16402290761470795, -0.009679975919425488, -0.5180907249450684, -0.1524442434310913, -0.13306474685668945, 0.37180718779563904, 0.5655493140220642, -0.17667095363140106, 0.3450026214122772, 0.5599786043167114, -0.16428112983703613, 0.16455881297588348, 0.21750688552856445, 0.5098962783813477, 0.021076509729027748, 0.2830924093723297, -0.1809636950492859, 0.36995282769203186, 0.14180295169353485, -0.055875182151794434, -0.19188137352466583, 0.49369505047798157, -0.2727907598018646, -0.4800461232662201, -0.1146983876824379, -0.16646118462085724, 0.6082397699356079, 0.1298559010028839, -0.07298428565263748, 0.41399648785591125, 0.782228410243988, 0.07493199408054352, -0.18696977198123932, 0.29197728633880615, 0.1124458909034729, -0.0684942975640297, 0.4150190055370331, 0.31166309118270874, -0.4941466152667999, 0.580234944820404, -0.05448527634143829, -0.020612021908164024, -0.42258134484291077, -0.45192670822143555, 0.16945821046829224, 0.1818409115076065, 0.271737664937973, -0.08055472373962402, 0.1447603851556778, -0.6021384000778198, -0.19943301379680634, 0.3954033851623535, 0.37027379870414734, -0.21050700545310974, 0.28517839312553406, 0.26721665263175964, 0.3615141212940216, 0.24094608426094055, 0.6008576154708862, -0.4182130694389343, -0.10795553773641586, 0.28254759311676025, -0.21456024050712585, -0.5734740495681763, 0.35706159472465515, 0.1604800820350647, 0.23973259329795837, 0.8216353058815002, 0.031399134546518326, 0.38969025015830994, 0.2487790882587433, -0.07825686782598495, 0.4066222310066223, 0.15479676425457, 0.23207998275756836, -0.01609053835272789, 0.2417679727077484, -0.20636150240898132, 0.507892370223999, 0.23279821872711182, -0.36675065755844116, -0.0647868886590004, 0.04348739981651306, -0.05963720381259918, 0.09103325009346008, -0.33714693784713745, 0.34722602367401123, 0.12338045984506607, -0.17167246341705322, -0.41143491864204407, 0.031787626445293427, 0.39606773853302, 0.009495311416685581, -0.15327028930187225, 0.005024398677051067, 0.15552759170532227, 0.33367517590522766, 0.4155897796154022, 0.36881592869758606, -0.49571114778518677, -0.4545974135398865, 0.11724326014518738, -0.050610627979040146, 0.5160163640975952, 0.3166244626045227, -0.13799194991588593, 0.44297534227371216, 0.12562838196754456, 0.0819573774933815, -0.023568566888570786, -0.05590685456991196, -0.2100166231393814, 0.2136770784854889, -0.01551275234669447, -0.04142966493964195, -0.3141409158706665, 0.6427526473999023, -0.23369906842708588, 0.4629449248313904, -0.09037883579730988, 0.21959643065929413, 0.08400174975395203, -0.07780151814222336, 0.21090099215507507, 0.5941764116287231, 0.053682636469602585], "encoder.1.threshold": 1, "encoder.1.graded_spikes_factor": 1.0, "encoder.1.reset_mechanism_val": 0, "encoder.1.beta": 0.800000011920929, "encoder.2.weight": [[0.0010450957342982292, -0.01552186906337738, -0.041761573404073715, -0.06934407353401184, -0.033760108053684235, -0.051717471331357956, 0.06710601598024368, 0.20599009096622467, -0.0017102842684835196, 0.0403442308306694, 0.22826029360294342, -0.375662624835968, 0.027946464717388153, 0.08277060836553574, 0.0348067507147789, -0.03678065165877342, 0.13221313059329987, 0.08137398213148117, -0.06050843745470047, 0.11716292798519135, -0.13010628521442413, -0.001263245940208435, -0.08020107448101044, -0.040427424013614655, 0.05483723431825638, -0.0006103515625, -0.02660840004682541, -0.01552148163318634, 0.20635375380516052, -0.2654425799846649, 0.02638816088438034, 0.09184364229440689, -0.26605573296546936, 0.26159894466400146, -0.08171787112951279, 0.1859062761068344, -0.0567556731402874, 0.004176564514636993, 0.6121178269386292, 0.3341674506664276, 0.02804579585790634, -0.02112790010869503, 0.18739770352840424, 0.255618691444397, -0.0765143632888794, 0.06917040795087814, 0.06970138102769852, 0.28204289078712463, 0.012642085552215576, 0.0036210566759109497, 0.021305454894900322, 0.02890928089618683, 0.06705620139837265, -0.46260517835617065, -0.1312885284423828, -0.04176243767142296, -0.07460620999336243, 0.25627538561820984, 0.1999838948249817, -0.09051748365163803, 0.12923359870910645, 0.08664596825838089, 0.030709393322467804, -0.060838211327791214, 0.02263621985912323, 0.08784616738557816, -0.43453484773635864, 0.6152678728103638, -0.059894513338804245, -0.07141213864088058, 0.0692533627152443, 0.218470960855484, 0.08061369508504868, -0.014887340366840363, -0.7706208825111389, 0.17923781275749207, 0.017039157450199127, -0.026115957647562027, -0.05118905380368233, -0.05901644006371498, 0.32292085886001587, -0.004116304684430361, 0.004728436470031738, 0.04660647362470627, 0.021962709724903107, -0.0713030993938446, 0.0696180984377861, -0.060595396906137466, 0.038382768630981445, -0.3888629078865051, -0.07428750395774841, 0.06277484446763992, -0.03338950127363205, 0.04487749561667442, 0.07052449136972427, -0.0560777522623539, -0.02936280146241188, -0.030568528920412064, -0.5214651226997375, 0.03149127960205078, -0.062154535204172134, -0.02172829955816269, 0.006702989339828491, 0.029040619730949402, 0.07610899955034256, 0.1691121757030487, -0.0662328451871872, 0.008599944412708282, 0.2778339684009552, 0.0004597976803779602, -0.019259236752986908, -0.010340690612792969, 0.004938565194606781, 0.17308136820793152, 0.11378452926874161, 0.06960311532020569, 0.4266214966773987, -0.000848427414894104, -0.07181667536497116, -0.04138410463929176, 0.28613030910491943, 0.08266133815050125, 0.007575192488729954, -0.0480119064450264, 0.08791457861661911, -0.0712197870016098, -0.341957688331604, 0.04954690486192703], [0.0054191704839468, 0.08754708617925644, -0.0259685255587101, -0.08269015699625015, 0.005387201905250549, 0.050631411373615265, -0.08796564489603043, -0.36149704456329346, 0.13008993864059448, -0.03666376322507858, 0.19915038347244263, 0.6794165372848511, -0.026206810027360916, 0.01568698137998581, -0.05445238947868347, 0.15820392966270447, 0.02083251066505909, 0.09646932035684586, -0.07095591723918915, 0.22012266516685486, -0.109687440097332, 0.023504652082920074, -0.0755753219127655, -0.05219494178891182, 0.07992390543222427, -0.05322948843240738, 0.08269374817609787, 0.008042760193347931, 0.2373735010623932, -0.34815356135368347, 0.025783099234104156, -0.041152384132146835, -0.20442317426204681, 0.10278314352035522, -0.05776918679475784, -0.07122164964675903, -0.4257315695285797, -0.06538064777851105, -0.5320595502853394, 0.10084979236125946, 0.0528683140873909, -0.07331430912017822, 0.01727900840342045, -0.15069329738616943, 0.023639142513275146, -0.08498965948820114, 0.06926508247852325, -0.2102358490228653, -0.027657300233840942, 0.03676820546388626, -0.08081124722957611, -0.0020612329244613647, 0.024807319045066833, -0.15407519042491913, -0.16792502999305725, 0.04154934734106064, 0.018466338515281677, -0.13839469850063324, 0.04541242867708206, 0.07711048424243927, 0.03545843064785004, 0.07626927644014359, 0.06806928664445877, 0.247323140501976, 3.584474325180054e-05, -0.024755626916885376, -0.2116401344537735, -0.6713088154792786, -0.04528111591935158, -0.01942768506705761, 0.03755833953619003, -0.029809731990098953, -0.2171461582183838, 0.0670570656657219, 0.49195724725723267, 0.03704620525240898, -0.02225244790315628, -0.0542488731443882, -0.01453216653317213, -0.060451749712228775, 0.21097663044929504, -0.11117231845855713, -0.00439867377281189, 0.010246902704238892, -0.036396563053131104, 0.0010568127036094666, 0.03945552557706833, 0.07353537529706955, -0.152449369430542, 0.1426423043012619, -0.029681000858545303, -0.05369514599442482, -0.05090057849884033, 0.06707290560007095, -0.08351467549800873, -0.07081650197505951, 0.01251985877752304, -0.07720531523227692, 0.3845783770084381, 0.03053530678153038, -0.014745011925697327, 0.0713334009051323, -0.03075912594795227, -0.020606406033039093, 0.019798025488853455, -0.1323014199733734, 0.033412061631679535, 0.1025797426700592, -0.07860508561134338, -0.07605922222137451, -0.006073884665966034, -0.012761443853378296, -0.07411536574363708, 0.2539921700954437, -0.017841152846813202, 0.25861552357673645, -0.2162250429391861, -0.014588572084903717, -0.01359047181904316, -0.059803806245326996, -0.1391804963350296, -0.006889998912811279, 0.08337987959384918, -0.005923084914684296, -0.08743470162153244, -0.0406295508146286, -0.26798686385154724, 0.033311016857624054], [-0.025268523022532463, -0.05154389888048172, -0.07063072919845581, 0.07430801540613174, -0.021459728479385376, -0.04033942148089409, 0.03679605573415756, 0.21253043413162231, 0.3242429494857788, -0.02353072166442871, 0.3905089795589447, -0.01171275693923235, -0.1483072191476822, -0.07692519575357437, -0.030238837003707886, 0.02762720175087452, 0.10031107068061829, 0.22955788671970367, -0.08603358268737793, 0.2283719927072525, 0.04574575275182724, -0.0093916654586792, 0.0007015541195869446, 0.020276054739952087, -0.015010789036750793, -0.011479780077934265, 0.01540655642747879, -0.012113533914089203, 0.14497728645801544, -0.42125195264816284, -0.03081977739930153, -0.13633127510547638, -0.33229970932006836, 0.438457190990448, 0.0625307634472847, -0.03377280384302139, -0.689895510673523, -0.060783278197050095, 0.03762900456786156, 0.1255444437265396, -0.06203940138220787, -0.13590295612812042, -0.26691934466362, 0.029221875593066216, 0.007025144994258881, 0.0511118546128273, -0.05291721224784851, -0.25836119055747986, 0.06422444432973862, 0.023724794387817383, -0.3172026574611664, -0.05295656621456146, 0.05156809836626053, -0.09000202268362045, 0.1608901172876358, 0.0007805302739143372, -0.08754872530698776, -0.02046421729028225, -0.13693463802337646, 0.4556907117366791, 0.3690105974674225, -0.054971132427453995, -0.06265048682689667, 0.04844546318054199, -0.05941301956772804, 0.0157807394862175, -0.20072978734970093, -0.3508647084236145, -0.07121694087982178, 0.44171518087387085, -0.08490797877311707, 0.11377403140068054, -0.15803809463977814, -0.040943924337625504, 0.17444656789302826, 0.28745266795158386, -0.05102783069014549, 0.057505689561367035, 0.006473930552601814, -0.05466723442077637, 0.41922783851623535, -0.2435346394777298, -0.04858727753162384, 0.06673026829957962, -0.003416784107685089, 0.07189822942018509, -0.06754030287265778, -0.022742941975593567, -0.22049514949321747, -0.41099312901496887, 0.04434306174516678, 0.06423967331647873, -0.06634093821048737, -0.0679929107427597, 0.0012511536478996277, -0.07570238411426544, 0.06733980029821396, 0.050494126975536346, 0.2306363582611084, -0.4075102210044861, -0.0032268911600112915, 0.05258958786725998, -0.028955020010471344, -0.04404422640800476, -0.03724846616387367, 0.008122346363961697, -0.025611720979213715, -0.03332842141389847, -0.02222750335931778, 0.07905300706624985, 0.06210612505674362, -0.071233369410038, -0.025196842849254608, 0.2077808380126953, 0.18731312453746796, 0.21318453550338745, -0.3231593668460846, 0.008387483656406403, -0.018500257283449173, -0.016927093267440796, 0.40950530767440796, 0.005515344440937042, -0.14117814600467682, -0.026404451578855515, -0.04348490387201309, -0.05143354833126068, -0.13327191770076752, -0.05172809213399887], [-0.0017660579178482294, -0.035002365708351135, -0.0452699176967144, -0.018722303211688995, 0.020628750324249268, 0.06567462533712387, 0.02802177518606186, 0.40192270278930664, -0.07076211273670197, 0.07177341729402542, -0.15421105921268463, -0.6331648230552673, 0.2072555422782898, -0.01619604229927063, 0.08312202244997025, -0.12710760533809662, 0.0018276580376550555, 0.32104191184043884, 0.016024060547351837, 0.0776219516992569, 0.03432575985789299, -0.030248750001192093, -0.07519456744194031, 0.051325149834156036, 0.028959795832633972, 0.07492802292108536, 0.0013006404042243958, 0.07512631267309189, 0.14308947324752808, 0.04031198099255562, 0.0687250867486, -0.5478711128234863, -0.19720521569252014, 0.3224238157272339, 0.016797341406345367, -0.0330950990319252, -0.11521100252866745, 0.056244321167469025, 0.45451048016548157, 0.3367883861064911, -0.020445533096790314, -0.12056542187929153, 0.005131319165229797, 0.04866747930645943, -0.03247235342860222, -0.07466080039739609, 0.019573863595724106, 0.5117972493171692, 0.07512325793504715, 0.015293627977371216, -0.03403289616107941, -0.08138793706893921, 0.03287894278764725, -0.1261231005191803, -0.25188010931015015, 0.05277276784181595, -0.050365157425403595, 0.17504841089248657, -0.2103261500597, 0.002755269641056657, 0.05498538911342621, -0.028335388749837875, 0.08299059420824051, 0.5009618401527405, 0.0776476040482521, 0.0364372581243515, 0.0018030620412901044, 0.6738265156745911, -0.022194238379597664, -0.10605638474225998, 0.0006163045763969421, -0.19545558094978333, -0.5183103680610657, -0.03328537940979004, -0.3955143392086029, 0.2262750267982483, 0.047158218920230865, -0.011825785040855408, 0.10456986725330353, 0.041092269122600555, 0.13284790515899658, -0.05378060042858124, 0.052544184029102325, -0.03884322941303253, 0.07185601443052292, -0.027908947318792343, 0.00412258505821228, 0.05015011876821518, -0.12283048033714294, -0.1585732251405716, 0.061797283589839935, -0.06939050555229187, -0.0690259337425232, -0.07446929067373276, -0.024153903126716614, -0.06094192713499069, 0.07326913625001907, -0.04952933266758919, -0.11282675713300705, -0.14368566870689392, 0.0005515739321708679, -0.05600566789507866, 0.04181522876024246, 0.08400661498308182, -0.028769470751285553, 0.04142162948846817, -0.011509798467159271, 0.037632595747709274, 0.09937246888875961, 0.08229658752679825, -0.07319461554288864, 0.028109952807426453, -0.06619982421398163, 0.09981946647167206, 0.10284072160720825, -0.04363742843270302, 0.2990410625934601, -0.0349646657705307, 0.01749548874795437, -0.027003727853298187, 0.011587297543883324, 0.015467248857021332, 0.0167724397033453, -0.07169701159000397, -0.07853513211011887, 0.046549178659915924, -0.030990755185484886, 0.07894780486822128], [-0.07744412124156952, -0.08468655496835709, -0.05573173612356186, -0.04700509458780289, -0.08129937946796417, -0.026492401957511902, -0.07632517069578171, 0.12202363461256027, 0.310983806848526, 0.02979167550802231, 0.10546477884054184, -0.1574094146490097, -0.13611270487308502, -0.06093181297183037, -0.05174235627055168, 0.12497428059577942, 0.03606370836496353, 0.1134864017367363, -0.010581284761428833, -0.012579066678881645, 0.11230865120887756, 0.04410059005022049, 0.042217932641506195, -0.002107478678226471, -0.01775418221950531, 0.01161118596792221, 0.01257093995809555, -0.0025472939014434814, 0.3317006230354309, -0.3330942690372467, -0.03191908448934555, -0.1661851406097412, 0.9829514026641846, -0.015183902345597744, 0.05378340929746628, 0.09007151424884796, -0.815690279006958, 0.04268345981836319, 0.1633887141942978, -0.15737475454807281, -0.03373837098479271, 0.04333431273698807, -0.11705375462770462, 0.0026202420704066753, 0.06396082788705826, -0.0687311589717865, -0.05360141023993492, -0.06620506942272186, 0.013659939169883728, -0.04929877817630768, -0.25857990980148315, 0.04613550752401352, 0.08646944910287857, 0.0062525006942451, 0.07344164699316025, -0.003490172326564789, -0.07584800571203232, -0.1255224645137787, -0.03288348764181137, 0.3009524643421173, 0.2522532641887665, 0.05823216587305069, 0.06356141716241837, 0.09447526931762695, 0.0037548914551734924, 0.060790933668613434, -0.09150027483701706, -0.43861255049705505, 0.0276537723839283, 0.30359530448913574, 0.01563195139169693, -0.08287429809570312, 0.055905260145664215, -0.029258236289024353, 0.018560994416475296, -0.011412949301302433, 0.07804780453443527, -0.042933277785778046, 0.055857736617326736, 0.06160683184862137, 0.183542862534523, -0.32600149512290955, -0.03922700881958008, 0.021781407296657562, 0.08776015788316727, -0.04953237622976303, -0.08642813563346863, 0.059646718204021454, 0.1477937400341034, -0.2546091377735138, -0.08543556183576584, -0.010245747864246368, 0.049034230411052704, -0.05391274765133858, -0.002197064459323883, 0.07961168140172958, -0.06343205273151398, -0.0477006658911705, -0.013051903806626797, -0.3533592224121094, 0.07191676646471024, -0.06548670679330826, -0.08343770354986191, 0.04479602724313736, 0.0391315296292305, 0.08716017752885818, -0.07962293922901154, 0.06417190283536911, -0.014871575869619846, -0.0351656973361969, -0.02950447052717209, -0.06227048113942146, 0.021738164126873016, 0.21422088146209717, 0.002077770419418812, 0.13211432099342346, -0.5130960941314697, -0.029566992074251175, -0.03287515789270401, -0.046611905097961426, 0.3208163380622864, -0.009377673268318176, -0.03543960303068161, -0.070742666721344, 0.052659206092357635, 0.03325307369232178, 0.1081833764910698, -0.0018685981631278992], [0.04056504741311073, 0.047236181795597076, 0.07129993289709091, -0.07008510828018188, -0.08726129680871964, 0.020264655351638794, 0.058672212064266205, 0.1012413427233696, 0.27874401211738586, -0.010756172239780426, 0.28129634261131287, -0.13242897391319275, -0.14050567150115967, -0.0746704638004303, -0.0160558819770813, 0.2751323878765106, 0.07681673765182495, 0.08888890594244003, -0.059023793786764145, 0.14804479479789734, -0.09264906495809555, 0.03580406308174133, -0.05477382242679596, 0.06595683842897415, 0.05537685006856918, -0.015822745859622955, 0.02082929015159607, 0.05992376059293747, 0.08374498039484024, -0.01379382610321045, -0.02566075325012207, 0.6437722444534302, 0.28050121665000916, 0.118265800178051, 0.07080661505460739, -0.14091867208480835, -0.31708407402038574, -0.0007858052849769592, 0.07843535393476486, 0.14153839647769928, 0.07599497586488724, -0.0941706970334053, -0.4639453589916229, -0.1431071013212204, 0.07686405628919601, -0.03136520832777023, 0.09181775897741318, -0.027011847123503685, 0.08720789104700089, -0.06977290660142899, 0.0812482014298439, -0.000514104962348938, -0.044662024825811386, -0.341696560382843, -0.001517977099865675, -0.03166789934039116, 0.07539165765047073, 0.08438626676797867, 0.08927696943283081, 0.2554606795310974, 0.03050594963133335, -0.03905856981873512, 0.038311101496219635, -0.0540592335164547, -0.048121098428964615, -0.0103081613779068, -0.32103848457336426, -0.1787683367729187, -0.06498774141073227, 0.23126308619976044, 0.031542323529720306, 0.08854793757200241, 0.20418299734592438, 0.05965960770845413, 0.08485578745603561, -0.12531858682632446, 0.061692140996456146, -0.07342053949832916, 0.07699541002511978, 0.05846870690584183, 0.213894322514534, 0.13868752121925354, 0.07212182134389877, -0.06944914162158966, -0.03372626751661301, 0.0618496909737587, -0.0077070146799087524, 0.009085617959499359, -0.1301306039094925, -0.32370680570602417, -0.01829259842634201, 0.08622058480978012, -0.06861132383346558, -0.04532164707779884, -0.055948033928871155, -0.03807762265205383, -0.03929562494158745, 0.04255887120962143, -0.049026500433683395, -0.14590801298618317, 0.034816011786460876, 0.061715610325336456, 0.015724599361419678, 0.06601185351610184, 0.07178310304880142, 0.0665123388171196, -0.05998235195875168, -0.0821695327758789, -0.18854203820228577, 0.0015601739287376404, 0.0632237121462822, 0.004669353365898132, 0.05565955489873886, 0.1679726243019104, -0.051867853850126266, 0.08288773894309998, -0.17868433892726898, 0.0867149755358696, -0.09953009337186813, 0.05159885436296463, -0.011196337640285492, -0.028909090906381607, 0.030513165518641472, 0.04625145345926285, -0.014481328427791595, -0.008743815124034882, -0.4819919168949127, -0.07269221544265747], [-0.08229681849479675, -0.039052531123161316, -0.02393413335084915, 0.07278939336538315, -0.07055023312568665, -0.004557475447654724, 0.00851123034954071, -0.1163158044219017, 0.1305604726076126, -0.03387363255023956, 0.12032876908779144, 0.10990055650472641, -0.17165236175060272, 0.07397989183664322, 0.014618858695030212, -0.2255922555923462, 0.042833831161260605, 0.06870733201503754, -0.025152377784252167, -0.18565936386585236, -0.026922689750790596, 0.054529644548892975, 0.039791859686374664, 0.022007852792739868, 0.06991193443536758, 0.017616406083106995, -0.016449525952339172, 0.0235702246427536, -0.16974548995494843, 0.3212757408618927, 0.03495393693447113, 0.7471786141395569, 0.17369206249713898, 0.11145344376564026, -0.02023826539516449, 0.006001767702400684, 0.04044046252965927, 0.06594502180814743, 0.07754737138748169, 0.016240475699305534, -0.0317084975540638, -0.00913986936211586, -0.3735046684741974, 0.2054951936006546, -0.039485834538936615, 0.03273073583841324, -0.08133374154567719, -0.31786441802978516, 0.00036241859197616577, -0.006834007799625397, 0.19554096460342407, -0.011885538697242737, -0.08688578754663467, -0.2661755084991455, -0.0770602598786354, -0.07576282322406769, 0.05421043187379837, 0.15954943001270294, 0.20571866631507874, -0.11282960325479507, -0.13903339207172394, -0.041844192892313004, 0.07028702646493912, -0.15365226566791534, -0.0877167135477066, -0.016975894570350647, -0.07417917996644974, -0.18978148698806763, -0.02619558945298195, 0.26147982478141785, 0.05090249329805374, 0.1014089286327362, 0.4360126554965973, 0.05661972612142563, -0.32988524436950684, 0.051420025527477264, -0.01103733479976654, -0.008431680500507355, 0.1718984842300415, 0.001823335886001587, 0.13737963140010834, 0.333124577999115, 0.05575556308031082, 0.032370708882808685, -0.014828749001026154, -0.07870401442050934, 0.0016979500651359558, -0.058722108602523804, -0.00047024275409057736, -0.21781191229820251, -0.057271867990493774, 0.03800114244222641, 0.01424078643321991, 0.06938281655311584, 0.02385622262954712, -0.07372633367776871, 0.0852520540356636, -0.02115800231695175, -0.2054557502269745, 0.1276402473449707, 0.011308714747428894, 0.07684274762868881, -0.0022719353437423706, -0.05933336168527603, 0.02938740700483322, 0.029721491038799286, -0.018570102751255035, -0.031483300030231476, 0.2017325907945633, -0.07916200160980225, -0.037163954228162766, 0.01608925312757492, -0.04995076730847359, -0.06559731066226959, -0.2837754189968109, 0.12735962867736816, -0.19516560435295105, 0.04619578272104263, 0.022436030209064484, 0.05417657643556595, -0.15614578127861023, -0.07724053412675858, -0.012203539721667767, 0.06551282852888107, -0.02818438783288002, 0.03232832998037338, -0.1068696677684784, -0.0628366619348526], [-0.037232980132102966, 0.013099871575832367, -0.0858951210975647, -0.05144324153661728, 0.0842902734875679, -0.04075620323419571, -0.017048411071300507, 0.18879029154777527, 0.22167496383190155, 0.051551006734371185, -0.13408561050891876, 0.2923338711261749, -0.04600105434656143, -0.07600086182355881, -0.043910618871450424, 0.18035632371902466, -0.09092611819505692, -0.10448303073644638, -0.03744503855705261, -0.01788925752043724, -0.08753318339586258, 0.023558318614959717, 0.0638890191912651, -0.04553935304284096, -0.04309305548667908, 0.005019575357437134, 0.08687486499547958, -0.0513281375169754, 0.12061721831560135, 0.034395698457956314, 0.05089182406663895, 0.1150912195444107, 0.2319851666688919, -0.3970302939414978, 0.012212671339511871, 0.1101205125451088, 0.3693546652793884, -0.019028954207897186, -0.0725245550274849, -0.08606309443712234, -0.05760866403579712, 0.1076827198266983, -0.19429342448711395, -0.3169400095939636, -0.07597730308771133, 0.019720464944839478, 0.03435438871383667, -0.09095321595668793, 0.04286644607782364, -0.02971736341714859, 0.0005731484852731228, -0.03390461951494217, -0.03712432458996773, -0.36200809478759766, 0.05865144729614258, 0.07868378609418869, -0.027039889246225357, -0.11270707845687866, -0.029006175696849823, -0.4462147355079651, -0.00553390895947814, -0.07300888001918793, -0.013570308685302734, -0.19558127224445343, 0.07142861932516098, -0.08481524884700775, -0.021668968722224236, 0.12762847542762756, -0.06999925523996353, 0.27179989218711853, -0.06100236624479294, 0.12023501098155975, 0.12844537198543549, -0.0652664378285408, -0.19318000972270966, -0.5143507719039917, -0.045551881194114685, 0.03211615979671478, -0.0044691977091133595, -0.06927669048309326, 0.024388454854488373, -0.16091765463352203, -0.08585554361343384, -0.06426070630550385, 0.07920623570680618, 0.046616800129413605, -0.07357567548751831, -0.04467592388391495, 0.05375874415040016, -0.3631516993045807, 0.011507689952850342, 0.036385297775268555, -0.027690522372722626, -0.07505522668361664, -0.025105729699134827, -0.013162314891815186, -0.021812908351421356, 0.026395738124847412, 0.08921436965465546, 0.49950340390205383, 0.061236731708049774, 0.06123442202806473, -0.019961833953857422, -0.05023491382598877, -0.059951722621917725, 0.03597351163625717, -0.05068298429250717, -0.002010134980082512, -0.012933987192809582, 0.0665363147854805, 0.08583248406648636, -0.028243444859981537, 0.006669044494628906, -0.24547037482261658, 0.32922524213790894, 0.11693507432937622, 0.003344951895996928, -0.08538276702165604, 0.04541030526161194, -0.026858795434236526, -0.03897366672754288, 0.07941832393407822, 0.10100987553596497, -0.03508014976978302, 0.03369104117155075, 0.05594930797815323, 0.15935151278972626, 0.0033551231026649475], [0.014046742580831051, -0.01764693856239319, -0.02035708725452423, -0.0316263847053051, 0.019026190042495728, -0.032235026359558105, -0.035353049635887146, 0.14040499925613403, 0.35032159090042114, 0.05244529992341995, 0.07104811072349548, 0.15011237561702728, 0.1231633722782135, -0.043724868446588516, -0.08640851080417633, 0.0028567954432219267, 0.025930393487215042, 0.019189611077308655, -0.016495108604431152, 0.03919171169400215, -0.07633400708436966, 0.061414726078510284, 0.01626194268465042, 0.08707768470048904, 0.04732946306467056, 0.0379781648516655, -0.043728988617658615, 0.00029994547367095947, -0.029600704088807106, -0.17085133492946625, -0.027006909251213074, -0.5277208685874939, -0.2361358106136322, -0.05799541994929314, -0.015334516763687134, -0.06570837646722794, -0.32649797201156616, -0.03785241022706032, -0.1618037223815918, 0.18303050100803375, 0.002393752336502075, -0.14119412004947662, 0.19241298735141754, -0.1688700020313263, -0.08671717345714569, 0.0002914145588874817, 0.08862970024347305, 0.06673572212457657, -0.05387642979621887, -0.036329686641693115, -0.27234581112861633, 0.048272229731082916, -0.02011660486459732, 0.2960318922996521, 0.03877059370279312, 0.07558617740869522, -0.015481293201446533, -0.025051383301615715, -0.08764311671257019, 0.19926048815250397, 0.18268662691116333, -0.03525223582983017, 0.0649319663643837, 0.39353910088539124, -0.07697196304798126, -0.0881216898560524, 0.10502683371305466, -0.22667555510997772, 0.02204267680644989, 0.3243066072463989, -0.0032014399766921997, -0.06075776368379593, -0.2823983430862427, -0.04028095304965973, 0.23270538449287415, 0.17272503674030304, 0.04095608741044998, -0.011729471385478973, -0.12276464700698853, 0.08520752936601639, -0.1234714686870575, -0.0284578800201416, 0.08658242970705032, 0.06574101001024246, 0.009760767221450806, -0.07759615033864975, 0.01140160858631134, -0.06303764879703522, 0.1659262329339981, -0.09936954081058502, 0.037566669285297394, 0.0687716081738472, 0.03179720789194107, 0.05565295368432999, 0.03117411583662033, -0.05224006995558739, 0.051777251064777374, -0.05380072444677353, 0.27147045731544495, -0.4381183385848999, 0.02602449804544449, 0.022913426160812378, 0.06028301268815994, -0.032950837165117264, 0.06555596739053726, -0.14708071947097778, 0.03725939244031906, 0.052517037838697433, 0.04892517998814583, -0.0323471799492836, 0.0004061087965965271, 0.018845945596694946, 0.05730747431516647, 0.23851686716079712, 0.24576734006404877, 0.14259585738182068, -0.12558305263519287, 0.034015119075775146, 0.05800507962703705, 0.01254110038280487, 0.05980916693806648, -0.08007845282554626, 0.07820042222738266, 0.013595320284366608, -0.054939016699790955, -0.06027939170598984, 0.22171993553638458, -0.060647040605545044], [0.056883614510297775, -0.04611971601843834, -0.0678582713007927, 0.07419339567422867, 0.05054553598165512, 0.07354109734296799, 0.016354992985725403, 0.005491118412464857, -0.022228196263313293, 0.02970355749130249, 0.06231100484728813, -0.1346759796142578, 0.146334707736969, 0.036027856171131134, -0.011342927813529968, 0.05381820723414421, 0.04241737723350525, 0.1694371998310089, 0.08416428416967392, -0.018974699079990387, 0.14251911640167236, 0.05295147746801376, -0.04987167939543724, -0.07060406357049942, 0.03406298905611038, -0.016943462193012238, 0.05754753202199936, 0.0700046643614769, -0.04875839874148369, -0.0239880234003067, 0.03675449639558792, -0.30946648120880127, -0.3327198624610901, -0.04992753639817238, -0.0025283023715019226, -0.11568684130907059, -0.21557076275348663, -0.029189832508563995, 0.1315164715051651, 0.16881906986236572, 0.06273164600133896, -0.07753859460353851, 0.16234005987644196, -0.04090278968214989, -0.043784432113170624, -0.00943976640701294, 0.005919435527175665, 0.23224958777427673, -0.07182501256465912, -0.04762744531035423, -0.055834684520959854, 0.05107768625020981, -0.08122048527002335, 0.6063257455825806, -0.025507090613245964, 0.050497688353061676, -0.06180645525455475, 0.1701473742723465, -0.023325351998209953, 0.5046268105506897, 0.034068554639816284, -0.05288923531770706, 0.0669856145977974, 0.04878529533743858, 0.040505461394786835, 0.01416795700788498, -0.3301551043987274, 0.05740031972527504, -0.05277729779481888, -0.09631603211164474, 0.03650660067796707, -0.0008028893498703837, -0.0750097706913948, -0.07169128209352493, 0.3032242953777313, -0.08073509484529495, -0.020042553544044495, 0.06423897296190262, -0.01242519449442625, -0.07210944592952728, -0.10175536572933197, -0.14250142872333527, -0.002853088080883026, -0.081487737596035, -0.04347000643610954, -0.02970600500702858, 0.03933238238096237, 0.08322031050920486, -0.22566421329975128, 0.18539150059223175, -0.014908358454704285, -0.039848875254392624, 0.07744968682527542, -0.06231263652443886, -0.005931586027145386, 0.03323119133710861, -0.06996920704841614, 0.07467319816350937, -0.0027576256543397903, -0.06418941169977188, -0.06594632565975189, 0.02057524025440216, -0.0399196520447731, 0.04918553680181503, 0.07651210576295853, 0.026332514360547066, 0.04594694823026657, 0.0230025015771389, 0.10868371278047562, 0.035262927412986755, 0.06868555396795273, 0.007273025810718536, -0.0031191855669021606, 0.385138601064682, 0.20872531831264496, 0.20963691174983978, 0.2112601399421692, 0.0004675164818763733, 0.12113706022500992, -0.05100852996110916, 0.051910508424043655, 0.034716032445430756, 0.0424228273332119, -0.027948807924985886, 0.004036709666252136, 0.04153010994195938, -8.538453403161839e-05, -0.05509595200419426], [0.036032915115356445, -0.049386002123355865, -0.0411808006465435, -0.043932292610406876, -0.07338416576385498, -0.022054381668567657, 0.011830948293209076, 0.38059887290000916, 0.047155436128377914, 0.0050162747502326965, -0.08416196703910828, -0.47625502943992615, -0.33272960782051086, -0.03521653637290001, -0.08204294741153717, 0.017858430743217468, -0.17920804023742676, 0.17694216966629028, -0.006192155182361603, 0.027390364557504654, 0.06755105406045914, 0.03298378735780716, 0.03332532197237015, -0.03293834999203682, -0.06643213331699371, 0.01484910398721695, 0.07723086327314377, -0.026032496243715286, 0.2550780773162842, -0.2086561620235443, -0.051372792571783066, -0.2690103054046631, 0.1401010900735855, -0.23397454619407654, -0.048823077231645584, 0.046205081045627594, -0.21198992431163788, -0.035017117857933044, 0.21648092567920685, -0.02104789763689041, 0.05302197486162186, -0.02064184471964836, 0.1298263967037201, -0.026155496016144753, -0.012490279972553253, -0.016331352293491364, -0.042043283581733704, 0.23718026280403137, -0.05213475599884987, -0.03323505446314812, -0.03770272806286812, -0.017973236739635468, 0.05770988017320633, -0.0350385382771492, -0.1871984750032425, 0.06964319199323654, 0.011988840997219086, 0.25487151741981506, -0.03144323453307152, 0.013681710697710514, 0.07942932844161987, 0.03960328549146652, -0.013990290462970734, 0.2687593400478363, -0.06986609101295471, -0.06193831190466881, -0.1289319097995758, 0.3581068217754364, 0.05374880135059357, -0.04740123823285103, 0.06970281153917313, -0.4406939744949341, -0.3682611286640167, 0.03817591816186905, -0.2705574035644531, 0.05175333097577095, 0.047115035355091095, 0.048650987446308136, 0.2332022339105606, 0.08690195530653, 0.2906125485897064, 0.2009253203868866, -0.050685398280620575, 0.06681569665670395, 0.07581862062215805, 0.06740961223840714, 0.07915408164262772, -0.06613501906394958, -0.07478879392147064, -0.07111585885286331, 0.006589703261852264, 0.061015449464321136, -0.06183789670467377, 0.05621325969696045, -0.05242328345775604, -0.014829054474830627, 0.017330743372440338, -0.006582118570804596, -0.11782491952180862, -0.4824008047580719, -0.018928341567516327, -0.047747235745191574, -0.06255756318569183, 0.026171423494815826, -0.059045374393463135, -0.006443545687943697, -0.0883062556385994, -0.06693543493747711, 0.13197556138038635, 0.028914570808410645, -0.024656474590301514, 0.02014150470495224, -0.02563568204641342, 0.03848003223538399, -0.005649069789797068, -0.10672739148139954, 0.2130625694990158, -0.014001533389091492, 0.042862772941589355, -0.07284499704837799, 0.13940028846263885, 0.06731966882944107, -0.0348399393260479, -0.07844541221857071, -0.06538254022598267, 0.00014856457710266113, -0.1197541356086731, 0.03979737311601639], [-0.063810795545578, 0.013885647058486938, -0.033003877848386765, -0.006229229271411896, -0.029336556792259216, 0.0757250264286995, 0.009294584393501282, 0.16657386720180511, 0.1435176432132721, 0.07343827933073044, -0.035593077540397644, 0.019901011139154434, 0.053309593349695206, 0.07856831699609756, 0.040398843586444855, 0.11918363720178604, 0.011084760539233685, 0.10563034564256668, 0.07600540667772293, 0.05220550671219826, -0.3089069724082947, 0.03873380273580551, 0.028631173074245453, 0.030130572617053986, 0.06060812622308731, -0.06992866843938828, -0.03071770817041397, 0.044942907989025116, 0.05305090919137001, 0.5090206265449524, -0.019333243370056152, -0.08889850974082947, 0.20005148649215698, -0.029417943209409714, -0.01681174337863922, 0.3114311397075653, 0.10254845768213272, -0.0695660412311554, -0.1582581251859665, -0.0030603702180087566, 0.01133834570646286, 0.14518101513385773, -0.31870028376579285, 0.08503679931163788, -0.076754130423069, 0.0075274184346199036, -0.07370727509260178, 0.12670569121837616, 0.08625205606222153, 0.06443535536527634, -0.14244920015335083, 0.06414034217596054, -0.044795744121074677, -0.3717518150806427, -0.19835840165615082, -0.07590386271476746, 0.07609698921442032, 0.060635413974523544, 0.14619649946689606, -0.3020397126674652, -0.15316344797611237, 0.04546009749174118, 0.06779149919748306, 0.2607377767562866, 0.03080739825963974, 0.04386927932500839, -0.0014851812738925219, 0.13464072346687317, -0.05538773909211159, 0.18549427390098572, -0.05557488650083542, -0.22336173057556152, -0.03393525630235672, -0.04801703989505768, 0.0911438837647438, 0.17633315920829773, -0.07365220785140991, -0.0467018261551857, 0.018045714125037193, 0.07920282334089279, -0.0389179103076458, 0.18720752000808716, 0.06108284741640091, 0.04052894562482834, 0.07637431472539902, -0.06336943805217743, -0.06361236423254013, -0.033416274935007095, 0.15707606077194214, -0.07174646854400635, -0.04511228948831558, 0.051424793899059296, -0.06877917796373367, -0.07512771338224411, 0.08518854528665543, 0.08447057753801346, 0.05011623352766037, 0.05506251007318497, 0.35556238889694214, 0.257574200630188, -0.0026190057396888733, -0.0724998190999031, 0.06532729417085648, -0.004032433032989502, 0.04421635717153549, 0.09411634504795074, 0.07083553820848465, -0.08287204802036285, 0.5078473687171936, -0.0440526120364666, -0.07011449337005615, -0.022122323513031006, 0.033484332263469696, 0.2024095356464386, 0.27101704478263855, 0.20079202950000763, 0.1455918550491333, -0.04665582254528999, -0.021763062104582787, 0.0011506527662277222, 0.15738925337791443, -0.03463200107216835, -0.11525271087884903, -0.012701891362667084, 0.0784955695271492, -0.08374207466840744, -0.04142326861619949, 0.07615149766206741], [0.018451808020472527, -0.049518994987010956, 0.006155326962471008, -0.01829051971435547, -0.04168134555220604, 0.03098822385072708, -0.04799358546733856, -0.21952137351036072, -0.1493605226278305, -0.01951506733894348, 0.11494971811771393, -0.03132909908890724, 0.2258177548646927, -0.06028808653354645, 0.00012777000665664673, 0.2306695282459259, -0.06531906872987747, -0.11454010009765625, -0.06265166401863098, 0.15830814838409424, -0.1593376249074936, 0.0841526910662651, -0.033889289945364, 0.01635434478521347, 0.013808980584144592, -0.004208140075206757, -0.03543831408023834, 0.06595683842897415, 0.2208377867937088, 0.19687315821647644, 0.010057501494884491, 0.42956459522247314, -0.34416115283966064, -0.2576051652431488, 0.08004312962293625, 0.19516624510288239, 0.3367343544960022, -0.07121633738279343, -0.18166305124759674, 0.06532321870326996, -0.0653817430138588, 0.13352380692958832, 0.1324937641620636, -0.13310077786445618, 0.02678951621055603, -0.015186265110969543, 0.07390512526035309, -0.18830938637256622, -0.04035082459449768, -0.05516217276453972, 0.06079193577170372, 0.07016237825155258, -0.041386909782886505, -0.18867868185043335, -0.011295462027192116, 0.007037028670310974, -0.0456862673163414, -0.02794436365365982, 0.3245449960231781, -0.03732080012559891, 0.13116425275802612, 0.023461833596229553, 0.0020168498158454895, -0.20002201199531555, -0.01939167082309723, 0.0522397980093956, -0.22438369691371918, 0.04631248861551285, 0.07033591717481613, -0.19403624534606934, 0.051046498119831085, 0.026481283828616142, 0.21073497831821442, -0.03835706785321236, 0.06403829157352448, -0.24703750014305115, 0.08330098539590836, -0.009654000401496887, -0.092893585562706, 0.06289828568696976, 0.04279051721096039, 0.007102354429662228, -0.05185653269290924, 0.08353341370820999, 0.06767722219228745, -0.08126265555620193, 0.047073133289813995, -0.08252298831939697, -0.33781129121780396, 0.22218380868434906, 0.0208478644490242, 0.03407176584005356, 0.037696294486522675, 0.11000283807516098, -0.054719313979148865, 0.04751425236463547, 0.07657977193593979, 0.03193490207195282, -0.00404744129627943, 0.7141836285591125, -0.08169065415859222, 0.05746256560087204, 0.03861948102712631, 0.07490845769643784, 0.037986062467098236, -0.0655306875705719, -0.027752328664064407, 0.04086873680353165, 0.15740066766738892, -0.047947000712156296, 0.08636368066072464, 0.002770662307739258, -0.08749672025442123, 0.03224082663655281, 0.02126442827284336, 0.06249580532312393, 0.44657108187675476, -0.04216718301177025, 0.029653001576662064, 0.04078776389360428, 0.022108441218733788, -0.005530931055545807, 0.12295901775360107, -0.0429471954703331, -0.0762757733464241, 0.03656084090471268, -0.29412901401519775, 0.06554359942674637], [0.04925249144434929, 0.0823267474770546, 0.019972309470176697, 0.05133775621652603, -0.0264846570789814, -0.06693357974290848, 0.04031733423471451, 0.0884111076593399, 0.24665144085884094, 0.08070933073759079, -0.7036346197128296, -0.05692986398935318, -0.1581881046295166, -0.03290901705622673, 0.05628586560487747, -0.29116129875183105, 0.007385995239019394, -0.02084728144109249, -0.06512486934661865, -0.005663725547492504, -0.031672295182943344, -0.04889121651649475, 0.03333403915166855, 0.014958314597606659, -0.06207049638032913, -0.08434736728668213, 0.02631308138370514, 0.08414343744516373, 0.1731506586074829, -0.03415768966078758, 0.07030563801527023, -0.30466195940971375, 0.6504876017570496, 0.025355525314807892, 0.030893683433532715, 0.00034559855703264475, -0.0623159296810627, -0.02386004477739334, 0.14368881285190582, -0.06767372041940689, -0.07053782790899277, 0.2678936719894409, -0.36466819047927856, 0.16797201335430145, 0.03405813127756119, -0.06093698740005493, 0.059825997799634933, -0.24271847307682037, 0.06484685093164444, 0.006548754870891571, -0.11125383526086807, -0.05414583534002304, -0.006884731352329254, -0.20519454777240753, -0.21122029423713684, -0.01904434710741043, 0.03869429975748062, -0.252712219953537, -0.00032315714634023607, -0.28560328483581543, -0.05115758255124092, 0.059545986354351044, -0.025631271302700043, 0.05898052453994751, 0.04202490299940109, 0.016284234821796417, 0.08847629278898239, -0.2661004662513733, -0.011396155692636967, 0.2691968083381653, 0.06918144971132278, -0.3808481693267822, -0.07835488766431808, 0.004746079444885254, -0.3324584364891052, -0.08667745441198349, -0.059949442744255066, -0.07867853343486786, -0.011600450612604618, -0.024491719901561737, -0.04690985381603241, 0.14989328384399414, -0.05666391924023628, 0.05348994582891464, 0.029141709208488464, -0.033956367522478104, -0.060582805424928665, -0.025257974863052368, 0.22807541489601135, -0.3788239359855652, -0.061426036059856415, 0.016112804412841797, -0.07892650365829468, -0.10825934261083603, -0.046636804938316345, 0.08796233683824539, -0.08040095120668411, -0.0594693198800087, -0.17116789519786835, -0.21033748984336853, 0.04965122789144516, -0.053606029599905014, -0.07365821301937103, 0.07233769446611404, 0.0717567726969719, 0.06364896148443222, 0.0874924436211586, 0.03572864457964897, 0.3870113790035248, -0.05493341013789177, -0.06270498037338257, -0.07273921370506287, -0.04839484393596649, 0.16515368223190308, -0.1563407927751541, 0.08796525001525879, -0.1696501076221466, 0.0018771365284919739, 0.003820685436949134, -0.04300113394856453, -0.4192882478237152, -0.011958897113800049, -0.04169351980090141, 0.0702977105975151, 0.012425258755683899, -0.05921851098537445, 0.022905491292476654, -0.04708376154303551], [0.04757938161492348, -0.026443354785442352, 0.04154811054468155, 0.030165910720825195, 0.04082902520895004, -0.01716412603855133, 0.01343826949596405, -0.010248093865811825, -0.052112411707639694, -0.003875426948070526, 0.08172588050365448, -0.1667165905237198, -0.02776668779551983, 0.03921438008546829, -0.025386206805706024, 0.11938199400901794, 0.1917208731174469, 0.19785583019256592, -0.07206709682941437, 0.04449067637324333, 0.07539787143468857, -0.002282455563545227, -0.03493032604455948, 0.005712397396564484, -0.0010091960430145264, -0.0009004473686218262, 0.07649289816617966, -0.007580123841762543, -0.016993781551718712, 0.0182934682816267, 0.05871409922838211, 0.11144382506608963, 0.11572728306055069, 0.05904918909072876, 0.013111621141433716, -0.1993425488471985, -0.21083621680736542, 0.07277970761060715, -0.013430722057819366, 0.07598958164453506, -0.049522947520017624, 0.07097429037094116, 0.18263468146324158, 0.0554884634912014, 0.04484792798757553, -0.0069134533405303955, 0.02075158804655075, 0.20562511682510376, 0.04170789569616318, 0.019717790186405182, 0.2191920280456543, 0.0004915669560432434, 0.027384966611862183, 0.5190225839614868, -0.00011557905963854864, -0.00293886661529541, 0.04657234996557236, 0.0639977976679802, -0.06546054035425186, 0.4548506736755371, -0.07691098004579544, -0.017394602298736572, -0.012126140296459198, -0.10456407815217972, 0.001867547631263733, 0.0443563237786293, 0.0660821795463562, 0.032434817403554916, 0.14287759363651276, -0.07534509897232056, -0.041786596179008484, 0.08103236556053162, 0.3545854091644287, 0.005476146936416626, 0.6066555380821228, 0.04203406721353531, 0.00026844441890716553, 0.002992667257785797, 0.12787646055221558, 0.06742524355649948, 0.0828431025147438, 0.26530393958091736, 0.036595769226551056, 0.006412334740161896, 0.08235279470682144, 0.03817044943571091, -0.06287845224142075, 0.03411219269037247, 0.34362730383872986, 0.32947584986686707, 0.019208669662475586, 0.017199784517288208, 0.039514414966106415, 0.09082750976085663, 0.04922813922166824, 0.01980803906917572, 0.012061208486557007, 0.05187351256608963, -0.025223463773727417, -0.1983763873577118, 0.06710367649793625, 0.015528008341789246, -0.047232486307621, 0.0007016360759735107, -0.01739829033613205, 0.06622350960969925, -0.07326370477676392, 0.09675457328557968, 0.036519087851047516, -0.044808756560087204, 0.060182057321071625, 0.0036059394478797913, -0.01821616291999817, 0.26454466581344604, -0.0832909420132637, 0.1226760670542717, -0.05597605183720589, -0.07415051758289337, -0.027126777917146683, -0.06708496063947678, 0.04223635792732239, 0.05592022091150284, -0.051295556128025055, -0.030773404985666275, 0.0035577192902565002, -0.05901221185922623, 0.04536788538098335, -0.028166726231575012], [-0.027290362864732742, -0.08122549206018448, -0.0045533329248428345, 0.009142987430095673, 0.0054610371589660645, 0.02802322804927826, -0.0821194127202034, -0.1981801688671112, 0.22897140681743622, -0.007947996258735657, -0.23530858755111694, 0.32257434725761414, 0.05641115829348564, 0.04104148596525192, -0.007074899971485138, 0.04669683054089546, 0.10073988139629364, 0.08822812139987946, -0.03861353173851967, -0.15579189360141754, -0.023946644738316536, 0.00947955995798111, -0.0005681589245796204, 0.02536594122648239, -0.018770232796669006, -0.0699210837483406, 0.03372231125831604, 0.04370374232530594, -0.0012444653548300266, 0.4831499755382538, 0.0791373923420906, 0.3876646161079407, 0.04110236465930939, 0.30908459424972534, -0.08723806589841843, -0.09840632230043411, 0.013119399547576904, 0.07223289459943771, -0.10806600749492645, -0.022932449355721474, 0.014223404228687286, -0.133290633559227, -0.1718498170375824, 0.20305544137954712, -0.07283718138933182, 0.030567973852157593, -9.362124546896666e-05, -0.2930537760257721, 0.07549392431974411, 0.03584211319684982, 0.30566009879112244, 0.05847594887018204, -0.012631051242351532, -0.21394431591033936, -0.01234495546668768, 0.026568718254566193, 0.049019165337085724, 0.11002877354621887, 0.22437039017677307, -0.13209769129753113, 0.09261912852525711, -0.08264893293380737, 0.006734937429428101, 0.041420016437768936, -0.0764499232172966, 0.0645219162106514, -0.022140737622976303, -0.23531734943389893, -0.06634274870157242, 0.2584134638309479, -0.06125808507204056, -0.031219620257616043, 0.03156600520014763, -0.059925831854343414, -0.34840092062950134, 0.21707439422607422, -0.07885194569826126, -0.07364580780267715, 0.10470736771821976, -0.06737781316041946, 0.1897057294845581, 0.3266978859901428, 0.0708269253373146, -0.023862354457378387, -0.07736183702945709, 0.05970970541238785, 0.07800578325986862, 0.03542017936706543, 0.16528813540935516, -0.18480484187602997, 0.04301803559064865, 0.03785327821969986, -0.0672890767455101, 0.061906374990940094, 0.0168081596493721, 0.08784321695566177, 0.03908326476812363, -0.018834657967090607, -0.13948826491832733, -0.03682156279683113, 0.06425417214632034, -0.02248239517211914, 0.04390989989042282, 0.079787977039814, -0.030476629734039307, -0.15946835279464722, -0.05862145870923996, 0.006671595387160778, 0.05343576520681381, 0.029316946864128113, -0.05690427124500275, -0.0704951137304306, 0.006892867386341095, 0.13784165680408478, -0.1569773256778717, 0.10755319148302078, -0.05219677835702896, -0.0023265257477760315, 0.09556782245635986, -0.04716230183839798, -0.1664583384990692, 0.051190949976444244, 0.018418919295072556, 0.031410008668899536, 0.0201922208070755, -0.044200073927640915, -0.031564995646476746, 0.07857327908277512], [-0.06302542984485626, -0.07936491817235947, 0.03992881625890732, 0.02868156135082245, 0.06344424933195114, 0.04889389127492905, -0.04035449028015137, -0.014636035077273846, 0.1629779189825058, -0.04494653642177582, -0.11071093380451202, -0.12884677946567535, 0.5055357217788696, -0.05205204337835312, -0.014906294643878937, -0.18639734387397766, 0.05113552138209343, -0.008760012686252594, 0.06339988857507706, -0.1266741007566452, -0.1073170080780983, 0.0377182736992836, 0.08829731494188309, -0.01722341775894165, 0.07641901820898056, -0.025879092514514923, 0.07723324745893478, 0.05001372843980789, -0.1278482973575592, 0.07047895342111588, 0.003903008997440338, -0.09862687438726425, -0.21622632443904877, -0.21827787160873413, -0.07795654982328415, 0.05332198366522789, 0.3213903307914734, -0.06493134796619415, -0.21803666651248932, -0.09702741354703903, -0.047789476811885834, -0.13532450795173645, 0.11485257744789124, -0.11416996270418167, 0.05901852995157242, -0.03437531739473343, 0.028943940997123718, 0.2712891101837158, -0.008206978440284729, 0.0324108749628067, -0.27918484807014465, 0.07785382121801376, 0.037807397544384, 0.07795561850070953, 0.0343458391726017, -0.06799358129501343, -0.05316217988729477, 0.03329293057322502, 0.022320810705423355, -0.03893786668777466, -0.05140269175171852, 0.046205706894397736, 0.05928025394678116, -0.13557839393615723, -0.04626995697617531, 0.0733264908194542, -0.29594874382019043, 0.18382850289344788, 0.01640043593943119, 0.1004590168595314, -0.06160644814372063, -0.0007599628297612071, 0.04596559703350067, -0.020497307181358337, 0.03316415473818779, -0.2834838926792145, -0.07347266376018524, 0.06244320422410965, -0.011167716234922409, -0.021621093153953552, -0.09293381869792938, -0.14399123191833496, 0.03179454803466797, 0.03122364729642868, -0.018201224505901337, -0.03620050847530365, 0.07739614695310593, 0.08738356083631516, -0.10440036654472351, 0.3604333698749542, -0.02144157886505127, 0.036822833120822906, 0.010682709515094757, -0.0830296128988266, 0.033533573150634766, -0.006915867328643799, -0.07458721101284027, -0.05844798684120178, 0.01562502048909664, 0.17350038886070251, -0.0632188469171524, 0.04999420791864395, 0.06280487030744553, -0.08663704246282578, 0.01469341665506363, 0.06957051903009415, -0.07872363924980164, -0.04524454474449158, 0.06266966462135315, -0.03303064405918121, 0.008262582123279572, -0.06344598531723022, -0.02607489377260208, 0.10079380869865417, 0.17720896005630493, 0.22585852444171906, 0.2550816237926483, -0.06154981255531311, -0.020571287721395493, 0.06587309390306473, -0.09657928347587585, -0.06317322701215744, 0.09073997288942337, 0.055523134768009186, 0.010164700448513031, 0.012624718248844147, -0.16413556039333344, 0.08153330534696579], [0.06314601749181747, -0.03538869693875313, -0.0507243312895298, 0.08580736070871353, -0.05075649917125702, 0.020806558430194855, 0.015536203980445862, 0.39965274930000305, 0.3100103735923767, -0.03789189085364342, 0.28726592659950256, -0.028675030916929245, -0.1756771206855774, 0.041150324046611786, -0.039159562438726425, -0.018067557364702225, -0.13009779155254364, -0.05731426924467087, -0.03118249401450157, -0.2680392563343048, -0.054222892969846725, -0.03352588042616844, 0.017487145960330963, 0.030364535748958588, 0.042518697679042816, -0.06593956798315048, -0.06746398657560349, -0.06979603320360184, -0.06358630955219269, -0.20047235488891602, -0.05749153345823288, -0.014862936921417713, -0.7495549917221069, 0.5634592175483704, -0.043698325753211975, -0.23750317096710205, -0.09813448041677475, -0.034904301166534424, -0.01987038366496563, 0.20590341091156006, -0.0005885735154151917, -0.11836326867341995, -0.05833953246474266, 0.024939464405179024, -0.07195591181516647, -0.05703156441450119, 0.035577427595853806, 0.1888611763715744, -0.0650346428155899, 0.007839679718017578, -0.08258205652236938, 0.04027102142572403, -0.02828250452876091, 0.13232283294200897, -0.03538460657000542, 0.054092638194561005, -0.026180293411016464, -0.0099954130128026, -0.07575279474258423, 0.2215072065591812, 0.1570924073457718, 0.014174774289131165, -0.008379943668842316, 0.3657977283000946, 0.04670662432909012, -0.04237658903002739, -0.2829919755458832, 0.0636887326836586, -0.09871719032526016, 0.23125270009040833, 0.08439715951681137, 0.2406480759382248, -0.20186249911785126, -0.0730806440114975, 0.09799609333276749, 0.5436376929283142, -0.028359264135360718, 0.07565817981958389, -0.02846958301961422, -0.05982581526041031, 0.1105508878827095, -0.4271595776081085, -0.07597388327121735, -0.0010520070791244507, -0.032195430248975754, 0.0697392150759697, -0.0690358504652977, -0.010416612029075623, -0.5114791989326477, -0.3996847867965698, 0.04949534684419632, 0.07177004963159561, -0.05132294446229935, 0.10743562132120132, 0.07671024650335312, -0.057636383920907974, 0.00616820901632309, 0.04829246550798416, 0.15266558527946472, -0.6897813081741333, -0.028105616569519043, -0.06504344940185547, -0.008389338850975037, -0.0817880630493164, -0.027322664856910706, 0.09187339246273041, 0.08450900763273239, -0.12146257609128952, -0.24426856637001038, 0.024368800222873688, -0.0682467371225357, 0.056520141661167145, -0.0021444708108901978, -0.18179267644882202, 0.062446415424346924, -0.3317480683326721, -0.18880510330200195, -0.010961182415485382, 0.05930045619606972, 0.07002639025449753, -0.2453073263168335, 0.03270185738801956, 0.03363575413823128, 0.02239169180393219, 0.08568587154150009, 0.06506786495447159, -0.11631955951452255, 0.05312139540910721], [0.08085290342569351, -0.03380759805440903, -0.03376293182373047, -0.06100492924451828, 0.0769466832280159, 0.08805475383996964, -0.08064881712198257, -0.2455933690071106, 0.2801695764064789, -0.08553224056959152, -0.09157414734363556, -0.010920853354036808, -0.21032504737377167, 0.06233295053243637, 0.08484042435884476, -0.23109814524650574, 0.020368248224258423, 0.16178514063358307, -0.03815167397260666, -0.2634141445159912, 0.030331769958138466, 0.028207190334796906, 0.005282536149024963, 0.02595105767250061, 0.04636590927839279, 0.009374365210533142, 0.006486460566520691, -0.06812413036823273, -0.030130770057439804, 0.09074381738901138, 0.08834933489561081, 0.35714077949523926, 0.07238839566707611, 0.1880750060081482, 0.05966677516698837, -0.10386457294225693, 0.07856941223144531, -0.03575354069471359, -0.27082523703575134, -0.011552279815077782, 0.06734894961118698, -0.05062193050980568, -0.23991693556308746, 0.005155618768185377, 0.02370493859052658, -0.07116533070802689, -0.030906997621059418, -0.36879369616508484, -0.05812353640794754, 0.08828947693109512, 0.07586520165205002, 0.02085186541080475, -0.017861098051071167, -0.2357967048883438, 0.0435870997607708, -0.04227348789572716, -0.05709725245833397, 0.06430242955684662, -0.011278720572590828, -0.14763309061527252, 0.013674872927367687, -0.030064590275287628, -0.06391236186027527, -0.03439730033278465, 0.005183495581150055, -0.05977065861225128, 0.2836044132709503, -0.2490359991788864, 0.10047972947359085, 0.38170698285102844, 0.08658876270055771, -0.012801343575119972, 0.07738793641328812, 0.05676724761724472, -0.24379315972328186, 0.13296616077423096, -0.01876983791589737, -0.06007064878940582, -0.11693799495697021, 0.04865703731775284, -0.0029326360672712326, 0.18542180955410004, -0.017533227801322937, 0.04372368007898331, 0.030907101929187775, -0.08422587811946869, 0.01285175234079361, -0.02431102842092514, 0.18598704040050507, -0.05726020410656929, -0.06173769384622574, -0.0732593759894371, -0.032854754477739334, -0.03953615203499794, 0.05248893052339554, 0.0005668103694915771, -0.0029367059469223022, 0.008762180805206299, -0.4056642949581146, 0.0561613030731678, -0.04949355870485306, 0.046669863164424896, -0.08333626389503479, -0.01395445317029953, 0.02719772607088089, -0.11418773978948593, -0.021206870675086975, -0.06893966346979141, -0.17313772439956665, -0.08004146814346313, 0.0352037250995636, -0.04467790201306343, -0.024974778294563293, 0.0915578156709671, -0.3525862991809845, 0.12791374325752258, -0.30197370052337646, -0.059600457549095154, -0.00943788606673479, 0.04234036058187485, -0.25494441390037537, 0.024345315992832184, -0.11125078797340393, 0.08072557300329208, -0.01548498123884201, 0.02835811674594879, -0.10111286491155624, 0.015851706266403198], [-0.02123803272843361, 0.021321795880794525, -0.08758923411369324, -0.003183022141456604, -0.05621570721268654, 0.042365796864032745, 0.022349126636981964, -0.06365770846605301, 0.31906265020370483, 0.031440168619155884, 0.11144427210092545, 0.12471075356006622, -0.17453676462173462, 0.040017686784267426, 0.005370691418647766, -0.25220566987991333, 0.10501493513584137, 0.14670126140117645, 0.03837498277425766, -0.09908606857061386, -0.037677839398384094, -0.02648960053920746, -0.056389130651950836, -0.009962178766727448, 0.031461723148822784, -0.04094788432121277, 0.06676173955202103, -0.01739165186882019, 0.07223497331142426, -0.10034320503473282, 0.0696324035525322, -0.09311886131763458, 0.1767093986272812, 0.35722965002059937, 0.07767752557992935, -0.06897827237844467, -0.1788855940103531, -0.04903055727481842, -0.00686136307194829, -0.04078454151749611, 0.03755795210599899, -0.17291831970214844, -0.21431031823158264, 0.025191018357872963, -0.028948035091161728, -0.018355026841163635, -0.013916170224547386, -0.3833988308906555, 0.0007855221629142761, -0.03772084787487984, -0.06555050611495972, -0.012721002101898193, -0.04660746082663536, -0.09639273583889008, 0.1948411613702774, 0.010333932936191559, 0.016204535961151123, -0.054433222860097885, -0.00990535318851471, -0.21657991409301758, 0.22283297777175903, -0.0632362887263298, -0.027653969824314117, -0.02124374732375145, -0.06780707836151123, -0.0660637766122818, 0.4426029920578003, -0.3007654547691345, 0.07374866306781769, 0.24861890077590942, 0.05642222613096237, 0.19476334750652313, -0.2887882888317108, -0.06880346685647964, -0.09324779361486435, 0.4145034849643707, 0.08512075990438461, -0.004465639591217041, -0.08180496841669083, -0.055499590933322906, -0.09520437568426132, 0.022544901818037033, -0.07374824583530426, -0.04692891240119934, -0.06586514413356781, -0.06463713198900223, 0.001698516309261322, -0.07498309761285782, 0.05743873119354248, -0.24146001040935516, 0.05289944261312485, -0.015649907290935516, 0.05276777595281601, -0.09759500622749329, 0.028526775538921356, 0.0800040140748024, 0.05991365760564804, -0.037189703434705734, -0.24351336061954498, -0.2108607143163681, -0.07034969329833984, -0.023856885731220245, -0.006579756736755371, -0.0206633061170578, 0.0792720690369606, -0.12628136575222015, 0.0031366944313049316, 0.02492689900100231, -0.23612087965011597, 0.07252489775419235, -0.05448354780673981, -0.06828613579273224, 0.03944016247987747, -0.01032345276325941, -0.46740129590034485, 0.0073695071041584015, -0.34939709305763245, 0.018160253763198853, 0.06346452236175537, -0.024032972753047943, -0.12912710011005402, 0.08441746979951859, -0.06652429699897766, -0.06194758415222168, 0.04725343734025955, 0.0014963895082473755, 0.010105408728122711, -0.01743357628583908], [0.008897923864424229, 0.07662486284971237, 0.05516684800386429, -0.04570639133453369, 0.040729276835918427, 0.08409834653139114, -0.056629326194524765, -0.06735560297966003, 0.2651253640651703, -0.045524127781391144, -0.3814951777458191, 0.15305233001708984, -0.18174250423908234, 0.03214253485202789, -0.004404999315738678, -0.40458306670188904, 0.10334040224552155, 0.17535340785980225, -0.037992022931575775, -0.18173539638519287, 0.026727747172117233, -0.0386582687497139, -0.05538168549537659, -0.028191257268190384, -0.05751757323741913, -0.04815468192100525, 0.05688080936670303, -0.005416199564933777, 0.2265789806842804, 0.08329267054796219, 0.05110561102628708, -0.04855730012059212, 0.34043094515800476, 0.2392061948776245, -0.08522593230009079, -0.023496415466070175, -0.39199498295783997, 0.048269785940647125, -0.09252645820379257, -0.06101973354816437, -0.018412701785564423, -0.07899259775876999, -0.21732307970523834, 0.06250541657209396, 0.06752317398786545, -0.045181430876255035, 0.015339603647589684, -0.2927328646183014, -0.013764791190624237, 0.077504463493824, 0.07100863009691238, -0.018586494028568268, -0.03431841731071472, -0.04472876340150833, -0.1539221554994583, 0.04226020723581314, 0.029231451451778412, -0.27303996682167053, -0.13289916515350342, -0.1629789173603058, 0.13487698137760162, 0.017157234251499176, 0.025633156299591064, 0.14745371043682098, 0.07836931198835373, -0.03028203547000885, 0.31769928336143494, -0.3547774851322174, -0.012944472953677177, 0.2935968041419983, -0.05565093085169792, 0.10807008296251297, -0.20754803717136383, -0.06441091001033783, -0.05308128148317337, 0.2177972048521042, -0.037015702575445175, 0.057905904948711395, 0.043623704463243484, -0.04387376084923744, -0.12372087687253952, 0.06783148646354675, 0.08602292090654373, -0.04805668815970421, -0.06016194075345993, -0.054464612156152725, 0.04816260188817978, -0.02258407324552536, 0.28851962089538574, -0.2607051432132721, -0.07489541172981262, -0.043359339237213135, -0.014889456331729889, 0.01679924689233303, 0.005730420351028442, -0.043714627623558044, 0.008047118782997131, -0.033491022884845734, -0.08014628291130066, -0.2879955768585205, -0.05893164873123169, 0.025767549872398376, 0.062235377728939056, -9.161978960037231e-05, 0.04600977152585983, 0.07016538083553314, -0.040131185203790665, -0.059875234961509705, -0.15374650061130524, -0.023632720112800598, 0.03540225327014923, 0.0014878809452056885, -0.001495562493801117, 0.1171598955988884, -0.35783684253692627, 0.2638275623321533, -0.20995721220970154, 0.07560073584318161, -0.06473097205162048, 0.03827925771474838, -0.21378126740455627, -0.07129063457250595, -0.09075254201889038, 0.026143066585063934, 0.00040196627378463745, 0.07895223051309586, 0.09735945612192154, 0.07228382676839828], [-0.04284360632300377, -0.08361624926328659, -0.008138865232467651, -0.08779190480709076, -0.0700858011841774, 0.047949112951755524, 0.0803881362080574, -0.7138925790786743, 0.21401777863502502, -0.04553930088877678, 0.2119416892528534, 0.5344534516334534, -0.06962502002716064, -0.023039482533931732, 0.003291890025138855, 0.5213512182235718, -0.007088283076882362, -0.15085889399051666, -0.007113121449947357, 0.06716150045394897, -0.03216922655701637, 0.0762881264090538, -0.04637899249792099, -0.06059283763170242, 0.013095594942569733, -0.03977164253592491, 0.021296851336956024, 0.056313805282115936, 0.3042561709880829, 0.2471863329410553, 0.0203622505068779, -0.004025381989777088, -0.019520653411746025, -0.18385837972164154, 0.008403308689594269, -0.16101612150669098, 0.025514179840683937, 0.08009140938520432, -0.18907159566879272, -0.148789644241333, 0.08736183494329453, 0.10285795480012894, 0.059640709310770035, -0.034864578396081924, -0.06117966026067734, 0.021446265280246735, 0.0252579003572464, -0.1701621413230896, -0.0636206790804863, 0.022749140858650208, -0.03617265820503235, -0.05816006660461426, -0.03289451822638512, 0.11512748152017593, 0.13537190854549408, 0.05156976729631424, -0.07037222385406494, -0.22862111032009125, 0.08010661602020264, 0.2881641387939453, 0.32404330372810364, -0.04662815481424332, -0.06615500897169113, -0.36441776156425476, -0.04926709458231926, 0.06729809194803238, -0.2674773931503296, -0.5230773091316223, -0.08048691600561142, 0.23567429184913635, -0.057209014892578125, 0.60326087474823, 0.1339523196220398, 0.07804714888334274, 0.5536518692970276, -0.20400872826576233, -0.07686692476272583, 0.02512156218290329, -0.0529446080327034, -0.03655087202787399, 0.003762879641726613, -0.21120814979076385, -0.002803616225719452, 0.049928389489650726, -0.07101412862539291, -0.05126526579260826, 0.02024064213037491, 0.022874146699905396, 0.142628014087677, 0.012545270845293999, -0.07768663763999939, -0.05032598227262497, -0.021409019827842712, 0.02844266965985298, -0.04007307440042496, -0.05516190081834793, -0.0014020279049873352, 0.02185700833797455, 0.12061267346143723, 0.3523394465446472, 0.06089595705270767, -0.04742474853992462, -0.03412257134914398, 0.008835211396217346, -0.025985967367887497, -0.10794706642627716, 0.008724428713321686, 0.08198387175798416, -0.35423386096954346, -0.04124043881893158, -0.020832017064094543, -0.046848613768815994, 0.023738324642181396, 0.01563187874853611, -0.3385942876338959, -0.18580617010593414, -0.3331471085548401, -0.013243749737739563, 0.02362717129290104, 0.06992962211370468, -0.02113231085240841, -0.08615437150001526, -0.06205325201153755, 0.019786827266216278, -0.004126489162445068, 0.06922664493322372, 0.19611722230911255, -0.037127189338207245], [0.05365177243947983, 0.04122426360845566, 0.07611001282930374, 0.04606892913579941, 0.032967790961265564, 0.04046953469514847, -0.08250190317630768, -0.06291916221380234, -0.06597691774368286, -0.05750999599695206, 0.008485271595418453, -0.15188102424144745, 0.08974293619394302, -0.06564617902040482, -0.02846820279955864, 0.12287508696317673, 0.09596721082925797, 0.23801279067993164, -0.03936315327882767, 0.03899078816175461, 0.15010173618793488, 0.029160067439079285, -0.01353539526462555, -0.07701476663351059, -0.012812785804271698, 0.032142847776412964, -0.0027849897742271423, 0.020678222179412842, 0.1470249593257904, 0.03282676637172699, -0.01318332552909851, -0.5645875930786133, 0.05928948149085045, 0.0464780293405056, -0.010451048612594604, -0.2954423725605011, -0.1620968133211136, 0.07047861069440842, 0.10252991318702698, 0.17372344434261322, -0.052543096244335175, 0.10423611849546432, 0.20020943880081177, -0.06123609095811844, 0.02920638769865036, -0.014311365783214569, 0.052189845591783524, 0.07391393929719925, -0.0013549253344535828, 0.06510791927576065, -0.06078750640153885, -0.0673416256904602, 0.02299843728542328, 0.6317619681358337, -0.05604293942451477, 0.03439987450838089, 0.03025810420513153, 0.08285471796989441, -0.06790382415056229, 0.4869176745414734, 0.25570148229599, 0.06755609065294266, 0.08305937796831131, 0.2188325971364975, 0.037566207349300385, 0.07489711791276932, 0.10830438137054443, -0.19304120540618896, -0.016611220315098763, -0.07774196565151215, 0.04812506586313248, -0.3679807484149933, -0.3124770224094391, 0.045718394219875336, 0.4474255442619324, -0.06468615680932999, 0.0035711750388145447, 0.031454361975193024, -0.06302987784147263, -0.054707787930965424, 0.00548738706856966, -0.02973414771258831, 0.08280488103628159, -0.0006754472851753235, 0.07866702228784561, -0.056879922747612, 0.032529570162296295, -0.07226050645112991, 0.08098043501377106, 0.15511973202228546, 0.07297775894403458, -0.025717340409755707, -0.017145559191703796, -0.1394350528717041, -0.054044291377067566, 0.07500974088907242, -0.02677517756819725, 0.06078643351793289, -0.22415655851364136, -0.18540751934051514, 0.0815562978386879, -0.03419928997755051, 0.059061236679553986, -0.07940341532230377, 0.042102597653865814, 0.03944328427314758, 0.05362819880247116, -0.04362882301211357, -0.0891641154885292, -0.009618669748306274, -0.005579560995101929, 0.07935815304517746, 0.04420635849237442, 0.1759428083896637, -0.25819024443626404, 0.10994933545589447, -0.22242377698421478, -0.005498699843883514, 0.12753158807754517, 0.06637515872716904, -0.032395679503679276, 0.0603971853852272, 0.0397840179502964, -0.02940422296524048, -0.08709755539894104, 0.029390841722488403, 0.052153512835502625, 0.04203050583600998], [-0.03020974062383175, -0.07887206971645355, 0.06488808244466782, -0.03003891184926033, 0.0009332597255706787, 0.005517065525054932, -0.06002967059612274, 0.3225313127040863, 0.2524231970310211, 0.03758498281240463, 0.409916490316391, 0.10948198288679123, -0.05895949527621269, 2.968311309814453e-05, 0.02338208258152008, 0.20530208945274353, -0.01479311566799879, 0.12460504472255707, -0.007599547505378723, 0.3130997121334076, 0.09706123173236847, 0.022885762155056, 0.060422368347644806, -0.01905123144388199, 0.013078264892101288, 0.038645125925540924, -0.04069160297513008, -0.07926461845636368, 0.26505813002586365, -0.13593755662441254, -0.048542991280555725, 0.15577849745750427, -0.011594551615417004, -0.10587681084871292, -0.04442494735121727, 0.1307123303413391, -0.36249446868896484, 0.002926543354988098, 0.1567915827035904, 0.40456825494766235, -0.020078957080841064, -0.11067803204059601, -0.42193880677223206, 0.129470556974411, 0.005328290164470673, -0.08042054623365402, -0.01179695688188076, -0.005458773113787174, -0.05518940091133118, 0.004178956151008606, -0.26426956057548523, 0.001179814338684082, -0.05137858912348747, -0.553879976272583, 0.09873635321855545, -0.03736047446727753, -0.02214980125427246, 0.18236957490444183, -0.009900889359414577, -0.16305318474769592, 0.20426137745380402, -0.06638143211603165, 0.01679593324661255, -0.0837838277220726, 0.002363339066505432, 0.03210984170436859, 0.10790914297103882, 0.061745211482048035, -0.0022918900940567255, 0.2696515619754791, -0.06569664925336838, 0.6544247269630432, -0.22849014401435852, -0.05360184609889984, -0.33990776538848877, -0.3742383122444153, -0.0007371678948402405, -0.0737108662724495, 0.14392009377479553, -0.0455508679151535, 0.29501035809516907, -0.575239360332489, -0.0012183412909507751, -0.062484011054039, 0.027584925293922424, 0.026293322443962097, -0.08599479496479034, -0.07439851015806198, -0.004747716709971428, -0.4726065993309021, 0.039621613919734955, -0.03785206377506256, 0.0034905076026916504, -0.0893675908446312, 0.010828971862792969, 0.0003866031765937805, 0.0035865455865859985, -0.06690936535596848, -0.11213978379964828, -0.32840216159820557, -0.044470835477113724, 0.01217225193977356, -0.011237561702728271, 0.07597390562295914, -0.054831214249134064, 0.14503560960292816, 0.04519065469503403, -0.08687832206487656, -0.05487972870469093, -0.08621837198734283, 0.08154819160699844, -0.07346753776073456, -0.08725114911794662, -0.09018445014953613, 0.1917831152677536, -0.03759080544114113, 0.08328353613615036, -0.054620131850242615, -0.08458926528692245, -0.058663301169872284, 0.16204112768173218, 0.05852598696947098, -0.009266925975680351, -0.03768029436469078, -0.06413808465003967, -0.07302965223789215, 0.16065725684165955, 0.012105241417884827], [0.007330761291086674, -0.02338312566280365, -0.042586956173181534, -0.02813306450843811, -0.026456639170646667, 0.08656812459230423, -0.04725275933742523, -0.008053315803408623, 0.00291339005343616, -0.0879332646727562, 0.47691836953163147, -0.18430185317993164, 0.10410957038402557, -0.04125053063035011, 0.0643489733338356, 0.16479212045669556, 0.013391174376010895, -0.0039445930160582066, 0.001236848533153534, -0.16133815050125122, -0.07914683222770691, 0.0011250749230384827, 0.016740404069423676, -0.00012068450450897217, -0.006538882851600647, -0.08697614073753357, -0.0306103378534317, -0.023752212524414062, 0.21990767121315002, 0.08050123602151871, 0.03176908195018768, -0.3099750578403473, -0.25563308596611023, 0.19211582839488983, 0.014165818691253662, -0.02376890368759632, -0.4153271019458771, 0.043955884873867035, 0.05620858818292618, 0.453755646944046, -0.005521222949028015, -0.14906980097293854, -0.02858486957848072, -0.14178325235843658, 0.06495698541402817, -0.03773089125752449, -0.02048935368657112, -0.5465620160102844, -0.001863040030002594, -0.07411573827266693, -0.19020675122737885, 0.07943984121084213, -0.018524199724197388, -0.5914579629898071, 0.23776744306087494, -0.07183665782213211, 0.06696373969316483, -0.020503859966993332, -0.038376372307538986, -0.4238347113132477, 0.36634382605552673, 0.06841947883367538, 0.0153408944606781, 0.07580766826868057, -0.07745512574911118, -0.04457462206482887, 0.27463725209236145, -0.3474988043308258, 0.025917716324329376, 0.02454361878335476, 0.07691704481840134, 0.5378828048706055, -0.1378035843372345, -0.03849068284034729, -0.5338854193687439, 0.07243182510137558, -0.04754463583230972, -0.05300409719347954, 0.04706278443336487, -0.012157365679740906, 0.0848851352930069, -0.6728969812393188, 0.05930624157190323, 0.03916122764348984, 0.06891583651304245, 0.024556830525398254, 0.04625254124403, 0.05367719382047653, 0.33009105920791626, -0.34676453471183777, 0.0003575831651687622, -0.053233250975608826, -0.056312404572963715, 0.08242230862379074, 0.061741702258586884, -0.0034602656960487366, 0.003304407000541687, -0.05145495757460594, -0.3489209711551666, 0.21420085430145264, -0.019398726522922516, -0.027214642614126205, -0.0455046147108078, -0.0001552477478981018, 0.06464935094118118, 0.026941386982798576, -0.034702640026807785, 0.046524785459041595, -0.43056586384773254, 0.025044173002243042, -0.02349148690700531, 0.0823388621211052, 0.020888663828372955, 0.030839568004012108, 0.05860522761940956, 0.11836657673120499, -0.07965107262134552, -0.03193450719118118, -0.028696361929178238, 0.049709685146808624, -0.06550265103578568, 0.02053935080766678, 0.13324393332004547, 0.07016874104738235, 0.013017609715461731, -0.03924749419093132, 0.37916305661201477, 0.011759109795093536], [-0.03859012946486473, -0.08665081858634949, 0.009236335754394531, 0.006055109202861786, 0.03482197970151901, -0.04727255925536156, -0.00689002126455307, 0.2149811089038849, 0.3297666013240814, 0.037663914263248444, -0.047666992992162704, 0.25413572788238525, 0.15603595972061157, -0.016133494675159454, 0.003519125282764435, 0.18444481492042542, -0.04640502855181694, 0.12987101078033447, 0.006045155227184296, 0.05131144821643829, -0.19148355722427368, -0.0587737038731575, -0.011114515364170074, 0.05355820804834366, 0.08471786230802536, 0.04099809378385544, -0.002503924071788788, -0.06937157362699509, 0.15248242020606995, 0.01394715253263712, -0.07530932873487473, -0.6179504990577698, 0.08695385605096817, -0.18346430361270905, -0.007432609796524048, -0.06055648624897003, -0.12939518690109253, -0.08718966692686081, -0.22583268582820892, -0.09899067133665085, 0.0424654558300972, 0.04421330615878105, 0.011585277505218983, -0.28069695830345154, 0.006023131310939789, -0.008415669202804565, 0.04927001893520355, 0.19641637802124023, 0.012948073446750641, -0.08694782108068466, -0.1274208426475525, -0.023525476455688477, -0.08520308881998062, -0.10454065352678299, -0.08298886567354202, -0.07504002004861832, -0.07423201948404312, -0.11173539608716965, -0.12786181271076202, -0.08726722747087479, 0.05021423101425171, -0.017111629247665405, 0.08353432267904282, 0.05047368258237839, -0.004974737763404846, -0.00370064377784729, 0.1971665322780609, -0.17744553089141846, 0.06540688127279282, 0.36442965269088745, -0.07069393247365952, -0.1820601373910904, -0.3722158968448639, -0.018113724887371063, 0.06317602097988129, -0.13513042032718658, -0.07562610507011414, 0.06325573474168777, -0.005143800284713507, -0.07035554945468903, -0.09323751926422119, -0.013308368623256683, 0.041366226971149445, -0.008652716875076294, 0.08715500682592392, -0.029615260660648346, -0.05971560254693031, 0.03350292146205902, 0.1375863403081894, -0.21290314197540283, -0.022208847105503082, -0.06840565800666809, 0.045044906437397, -0.15503253042697906, 0.030459076166152954, 0.008258715271949768, 0.07212316244840622, -0.04261717572808266, 0.3438800573348999, -0.14176420867443085, 0.06526694446802139, 0.017780542373657227, -0.061676181852817535, -0.03166690841317177, -0.05823884159326553, -0.03923594951629639, -0.06593918800354004, -0.014561822637915611, 0.11833184957504272, 0.04379699379205704, -0.0698842778801918, 0.03772980719804764, -0.08593437820672989, 0.056481409817934036, 0.5957794785499573, 0.26380953192710876, 0.12833207845687866, 0.02018585056066513, -0.019070539623498917, 0.044701941311359406, 0.05614957585930824, 0.011824280023574829, 0.026831621304154396, -0.016423776745796204, -0.02770012989640236, 0.03674720972776413, 0.25721701979637146, -0.047678135335445404], [0.05919517204165459, 0.022020414471626282, 0.01344124972820282, -0.03338140994310379, -0.006511479616165161, -0.061121612787246704, -0.05395711213350296, -0.0870419293642044, -0.0028491676785051823, 0.0493672713637352, 0.0811096578836441, -0.09257985651493073, 0.3002028465270996, 0.04622941464185715, -0.0666847750544548, 0.11813288182020187, 0.03387800604104996, -0.24352297186851501, 0.008732080459594727, 0.007839219644665718, -0.17873314023017883, -0.07821401953697205, 0.0066842809319496155, -0.05865151062607765, -6.257742643356323e-05, -0.0666065365076065, -0.05864041671156883, 0.02971041202545166, -0.07582532614469528, 0.46652013063430786, -0.0816890075802803, 0.0822979062795639, -0.2879257798194885, -0.10918758064508438, 0.007085129618644714, 0.12393145263195038, 0.41999125480651855, 0.0327315554022789, -0.1971849948167801, -0.07946351915597916, 0.003966405987739563, 0.017978189513087273, 0.06187356263399124, 0.15787522494792938, -0.07372809946537018, -0.03633103519678116, -0.06322061270475388, 0.3396350145339966, -0.05373420566320419, 0.0680970773100853, 0.3726407289505005, 0.05485483258962631, -0.02270381897687912, -0.053700435906648636, -0.05242183431982994, -0.016982637345790863, 0.0016930997371673584, -0.043247684836387634, 0.17885302007198334, -0.17145061492919922, -0.08994085341691971, -0.0167439803481102, -0.03982361778616905, -0.14675548672676086, -0.019960664212703705, -0.03522939234972, -0.22802995145320892, 0.33591336011886597, 0.1292130947113037, -0.03307996690273285, -0.009876206517219543, -0.016307126730680466, 0.3440261483192444, -0.06908321380615234, 0.07875175774097443, -0.2834233045578003, -0.07275822013616562, -0.07205064594745636, 0.1436643749475479, 0.07237286120653152, -0.04084326699376106, -0.049987394362688065, 0.03141557425260544, 0.007703676819801331, 0.08068100363016129, 0.07897495478391647, -0.05640839412808418, 0.056007467210292816, -0.14024370908737183, 0.14985650777816772, -0.013689033687114716, -0.06794340908527374, 0.03574395924806595, -0.07452458143234253, -0.06212928891181946, -0.0045322999358177185, 0.015351295471191406, 0.07527021318674088, -0.03465397283434868, 0.39628148078918457, 0.0650235190987587, 0.08235374838113785, -0.06941688060760498, 0.021059304475784302, -0.02654499188065529, 0.18038979172706604, -0.06564650684595108, 0.054648466408252716, 0.33719170093536377, -0.0038668811321258545, 0.026278488337993622, -0.07176479697227478, 0.07747823745012283, -0.022600581869482994, 0.389360636472702, 0.0671754777431488, 0.4924616515636444, 0.08315014094114304, -0.04498321935534477, -0.04285336658358574, 0.05446441099047661, -0.01449943333864212, 0.03683725371956825, 0.059588514268398285, -0.0317094661295414, -0.03962291404604912, -0.13094249367713928, -0.058339931070804596], [-0.011828201822936535, 0.06121952086687088, 0.05340578407049179, 0.04281637817621231, -0.0037768036127090454, 0.05397631973028183, 0.04122432321310043, -0.4101541042327881, -0.12732665240764618, 0.06214148551225662, 0.23180514574050903, 0.22795233130455017, 0.3034030497074127, 0.04610610753297806, -0.05339297652244568, 0.32759448885917664, 