{
    "model": {
        "state_dict": {
            "encoder.0.weight": [
                [
                    0.32230299711227417,
                    0.764315664768219,
                    0.7261832356452942,
                    0.4095936715602875,
                    -0.3190116882324219,
                    -0.16860276460647583,
                    -0.10127989947795868,
                    0.2591518461704254
                ],
                [
                    -0.31135544180870056,
                    0.34656181931495667,
                    -0.13158352673053741,
                    0.6936331987380981,
                    0.21610987186431885,
                    0.2929685413837433,
                    0.07422449439764023,
                    -0.19795912504196167
                ],
                [
                    0.6551226377487183,
                    0.4611199200153351,
                    0.147487610578537,
                    -0.32122623920440674,
                    0.3447249233722687,
                    0.11882877349853516,
                    0.8810574412345886,
                    0.01061392854899168
                ],
                [
                    -0.09773875027894974,
                    -0.40300968289375305,
                    -0.04292949289083481,
                    0.21684272587299347,
                    -0.09307076036930084,
                    -0.4448971748352051,
                    -0.38102805614471436,
                    -0.30368611216545105
                ],
                [
                    0.019419314339756966,
                    -0.10922139137983322,
                    0.3083975613117218,
                    -0.1549946665763855,
                    0.24226289987564087,
                    -0.2566143870353699,
                    0.10353469103574753,
                    -0.3858068287372589
                ],
                [
                    0.1790972352027893,
                    -0.011825405061244965,
                    0.10426229983568192,
                    0.22560901939868927,
                    0.09668382257223129,
                    -0.7048484683036804,
                    0.4481533467769623,
                    -0.24796062707901
                ],
                [
                    0.2460842877626419,
                    -0.16043341159820557,
                    -0.06649311631917953,
                    0.23733173310756683,
                    0.3143865466117859,
                    -0.1813168227672577,
                    0.5788692235946655,
                    0.4909798204898834
                ],
                [
                    0.2048463523387909,
                    0.43023696541786194,
                    0.692078173160553,
                    -0.47587084770202637,
                    -0.47468864917755127,
                    0.2906881868839264,
                    -0.07681255787611008,
                    0.017902815714478493
                ],
                [
                    0.12154877185821533,
                    -0.04612087458372116,
                    -0.007227552589029074,
                    0.8944617509841919,
                    0.456325888633728,
                    0.15263496339321136,
                    0.12247170507907867,
                    -0.3031553030014038
                ],
                [
                    -0.03827426955103874,
                    0.054051224142313004,
                    -0.04691259562969208,
                    0.30308929085731506,
                    0.22082890570163727,
                    -0.11829934269189835,
                    -0.12131684273481369,
                    -0.041364651173353195
                ],
                [
                    0.28297659754753113,
                    -0.021107248961925507,
                    -0.0007249611662700772,
                    0.09488563239574432,
                    0.2374224215745926,
                    -0.2251070886850357,
                    -0.3265630602836609,
                    -0.14669585227966309
                ],
                [
                    -0.46109601855278015,
                    -0.3296067714691162,
                    -0.006520239170640707,
                    0.037058275192976,
                    0.4182389974594116,
                    0.0842239186167717,
                    0.19232533872127533,
                    -0.027811981737613678
                ],
                [
                    -0.4218619465827942,
                    0.17812342941761017,
                    -0.1899329274892807,
                    0.25929513573646545,
                    0.5053114295005798,
                    -0.42376020550727844,
                    0.37793877720832825,
                    0.006489371415227652
                ],
                [
                    0.20231419801712036,
                    -0.2530232071876526,
                    -0.13628999888896942,
                    0.08578380942344666,
                    0.5146299600601196,
                    0.012021699920296669,
                    0.5175647735595703,
                    0.22932499647140503
                ],
                [
                    0.4292662739753723,
                    -0.5584363341331482,
                    0.24503296613693237,
                    -0.33662736415863037,
                    0.21819639205932617,
                    0.04612056538462639,
                    0.32729578018188477,
                    0.6852178573608398
                ],
                [
                    0.5977358818054199,
                    0.5668474435806274,
                    -0.027957653626799583,
                    -0.05348256975412369,
                    0.5273774862289429,
                    0.013884104788303375,
                    0.26609328389167786,
                    -0.41494008898735046
                ],
                [
                    -0.08722621947526932,
                    -0.2343267947435379,
                    -0.2382550686597824,
                    -0.5656368732452393,
                    0.2400776892900467,
                    0.5825014114379883,
                    0.2644912302494049,
                    0.24402230978012085
                ],
                [
                    -0.008734975010156631,
                    -0.3089180290699005,
                    0.23339685797691345,
                    0.09665873646736145,
                    0.2390754669904709,
                    -0.11142825335264206,
                    -0.20844756066799164,
                    -0.09926468878984451
                ],
                [
                    0.13832272589206696,
                    0.7558674216270447,
                    0.3813612461090088,
                    0.2704666554927826,
                    0.12224557250738144,
                    -0.2366592139005661,
                    0.06377986818552017,
                    -0.1904672086238861
                ],
                [
                    0.223126620054245,
                    -0.313732773065567,
                    -0.3165126144886017,
                    0.17317235469818115,
                    0.3259429931640625,
                    0.037975192070007324,
                    -0.1761515736579895,
                    -0.05693228542804718
                ],
                [
                    -0.24832956492900848,
                    0.24729515612125397,
                    0.599273681640625,
                    0.37662655115127563,
                    -0.4079515039920807,
                    0.0558914840221405,
                    0.20994804799556732,
                    0.17518776655197144
                ],
                [
                    0.43127796053886414,
                    -0.1985642910003662,
                    -0.3041326105594635,
                    -0.3232748508453369,
                    0.10052196681499481,
                    -0.22074086964130402,
                    -0.10840080678462982,
                    0.05471154674887657
                ],
                [
                    0.36785951256752014,
                    -0.28122371435165405,
                    0.07944187521934509,
                    -0.4794638156890869,
                    0.4930279552936554,
                    0.4215584397315979,
                    -0.13856899738311768,
                    0.12452089786529541
                ],
                [
                    -0.27918311953544617,
                    0.24889279901981354,
                    -0.1050543338060379,
                    0.1317201852798462,
                    -0.29752910137176514,
                    -0.023000182583928108,
                    -0.22717981040477753,
                    -0.15414078533649445
                ],
                [
                    -0.20438697934150696,
                    -0.3038027882575989,
                    -0.2666824460029602,
                    0.09449786692857742,
                    -0.3054478168487549,
                    0.07211952656507492,
                    -0.22138603031635284,
                    -0.22975090146064758
                ],
                [
                    0.40092772245407104,
                    0.06781880557537079,
                    0.3605835437774658,
                    0.5361473560333252,
                    -0.17979630827903748,
                    -0.5047931671142578,
                    0.142799973487854,
                    -0.04914149269461632
                ],
                [
                    0.4376979470252991,
                    0.2337035834789276,
                    -0.06365220248699188,
                    -0.43392708897590637,
                    0.4868961274623871,
                    0.7454661726951599,
                    0.4041084945201874,
                    -0.02318977192044258
                ],
                [
                    0.27497637271881104,
                    0.4748777449131012,
                    -0.18909278512001038,
                    -0.009859099984169006,
                    0.08117718994617462,
                    -0.06459363549947739,
                    -0.49452176690101624,
                    -0.24553704261779785
                ],
                [
                    0.06411223858594894,
                    0.05597163736820221,
                    -0.37729835510253906,
                    0.1453019231557846,
                    0.6955528855323792,
                    0.5790956020355225,
                    -0.43588748574256897,
                    -0.18464012444019318
                ],
                [
                    -0.02187708020210266,
                    -0.22215498983860016,
                    -0.5066550970077515,
                    -0.49571093916893005,
                    0.2780650854110718,
                    0.19138266146183014,
                    -0.39876991510391235,
                    0.22367742657661438
                ],
                [
                    0.006745982449501753,
                    0.11936109513044357,
                    0.5154507160186768,
                    0.014123418368399143,
                    0.1770147681236267,
                    -0.09751471132040024,
                    0.12120680510997772,
                    0.7378544211387634
                ],
                [
                    0.1570626199245453,
                    0.3089185655117035,
                    -0.14203578233718872,
                    0.005947389639914036,
                    -0.13733632862567902,
                    0.20239266753196716,
                    -0.5195052623748779,
                    0.15126881003379822
                ],
                [
                    0.4115825891494751,
                    0.3368525505065918,
                    0.31956300139427185,
                    0.5744851231575012,
                    0.14059686660766602,
                    -0.08676062524318695,
                    -0.33640533685684204,
                    0.1363188624382019
                ],
                [
                    0.5839037895202637,
                    0.7924571633338928,
                    0.35696661472320557,
                    0.25908756256103516,
                    -0.059536635875701904,
                    -0.17118486762046814,
                    0.4463304877281189,
                    -0.04079676419496536
                ],
                [
                    0.37607842683792114,
                    0.09248361736536026,
                    0.3139454126358032,
                    -0.11140763759613037,
                    -0.1523500680923462,
                    -0.23503755033016205,
                    -0.3134472668170929,
                    -0.12333555519580841
                ],
                [
                    -0.26942330598831177,
                    -0.20867042243480682,
                    -0.009010219015181065,
                    -0.03477245196700096,
                    0.703713059425354,
                    0.16675232350826263,
                    0.4676614999771118,
                    -0.12076111882925034
                ],
                [
                    1.0169503688812256,
                    -0.15823307633399963,
                    0.2490040361881256,
                    0.12936052680015564,
                    -0.08494213223457336,
                    0.4551224410533905,
                    0.4914669692516327,
                    0.11044009774923325
                ],
                [
                    0.08414217084646225,
                    0.37793096899986267,
                    0.21480132639408112,
                    -0.14643776416778564,
                    -0.06630326062440872,
                    0.2378600537776947,
                    0.27289044857025146,
                    0.18160729110240936
                ],
                [
                    -0.4944043457508087,
                    -0.07055105268955231,
                    -0.3634268343448639,
                    -0.24056151509284973,
                    -0.17909538745880127,
                    0.030018523335456848,
                    -0.009104548953473568,
                    -0.009187383577227592
                ],
                [
                    -0.15965241193771362,
                    0.2243112176656723,
                    -0.10466635227203369,
                    -0.3685341775417328,
                    -0.24751852452754974,
                    0.33513572812080383,
                    0.23961251974105835,
                    0.12174513936042786
                ],
                [
                    0.34066057205200195,
                    0.18838341534137726,
                    -0.1141282394528389,
                    -0.23976150155067444,
                    -0.08293608576059341,
                    0.03709883615374565,
                    -0.5072473287582397,
                    -0.15773776173591614
                ],
                [
                    0.5256274342536926,
                    -0.27093052864074707,
                    -0.00852747168391943,
                    0.5896974205970764,
                    -0.2859072983264923,
                    0.5581148266792297,
                    0.10482902824878693,
                    0.48864877223968506
                ],
                [
                    0.1234615370631218,
                    -0.0054574934765696526,
                    0.07784242928028107,
                    0.009820115752518177,
                    0.529656708240509,
                    0.6445966362953186,
                    0.21313495934009552,
                    0.1703719049692154
                ],
                [
                    0.082156240940094,
                    -0.3291279375553131,
                    0.23369185626506805,
                    -0.2915387749671936,
                    0.042093031108379364,
                    0.1725214421749115,
                    0.5023137927055359,
                    -0.41222143173217773
                ],
                [
                    -0.13543274998664856,
                    0.29482805728912354,
                    -0.04231659322977066,
                    -0.3875938951969147,
                    0.4729369580745697,
                    -0.46559131145477295,
                    0.01873709447681904,
                    -0.1985982358455658
                ],
                [
                    0.19771531224250793,
                    -0.20135116577148438,
                    -0.25358542799949646,
                    0.45143386721611023,
                    -0.192077174782753,
                    0.45071494579315186,
                    -0.3299883306026459,
                    -0.046765025705099106
                ],
                [
                    -0.12451910972595215,
                    -0.46212729811668396,
                    -0.016704635694622993,
                    -0.058143142610788345,
                    0.3215647041797638,
                    0.09254927188158035,
                    0.011587608605623245,
                    0.08680078387260437
                ],
                [
                    0.06360441446304321,
                    0.1062975749373436,
                    0.5625383853912354,
                    0.5107284784317017,
                    0.12503376603126526,
                    -0.34905338287353516,
                    -0.18644607067108154,
                    0.1541139930486679
                ],
                [
                    -0.08458574116230011,
                    0.11892863363027573,
                    0.5274386405944824,
                    0.4522360563278198,
                    -0.1265423744916916,
                    -0.07127976417541504,
                    0.6358153820037842,
                    0.622283399105072
                ],
                [
                    -0.5386144518852234,
                    0.1562567800283432,
                    -0.3495531380176544,
                    0.15054139494895935,
                    0.26504257321357727,
                    0.716646671295166,
                    -0.17002494633197784,
                    0.1216280460357666
                ],
                [
                    -0.0010076735634356737,
                    -0.06885229796171188,
                    0.0874057337641716,
                    0.06142648681998253,
                    0.12253499776124954,
                    -0.3750190734863281,
                    0.43864843249320984,
                    -0.029742155224084854
                ],
                [
                    0.3229786157608032,
                    -0.41346412897109985,
                    -0.3538222908973694,
                    0.07810349017381668,
                    0.09813755005598068,
                    0.3721054196357727,
                    -0.2420864850282669,
                    -0.23387162387371063
                ],
                [
                    -0.18148796260356903,
                    -0.2299017459154129,
                    -0.09856946021318436,
                    -0.17772865295410156,
                    0.04486272111535072,
                    0.04441501945257187,
                    -0.33472731709480286,
                    -0.03452349081635475
                ],
                [
                    -0.21540366113185883,
                    0.4066813588142395,
                    0.37390825152397156,
                    0.0057759713381528854,
                    0.19081975519657135,
                    -0.4667482078075409,
                    0.5247303247451782,
                    0.06719707697629929
                ],
                [
                    -0.009511465206742287,
                    0.024013416841626167,
                    0.3553369343280792,
                    -0.12452693283557892,
                    -0.40468910336494446,
                    -0.2534673511981964,
                    0.07044881582260132,
                    -0.4025186002254486
                ],
                [
                    0.5890290141105652,
                    0.36652427911758423,
                    -0.21726936101913452,
                    -0.13979727029800415,
                    0.3227714002132416,
                    -0.4138030707836151,
                    -0.37488001585006714,
                    0.21268537640571594
                ],
                [
                    0.06418775022029877,
                    -0.14874814450740814,
                    0.1879209578037262,
                    -0.08594214171171188,
                    0.34533512592315674,
                    0.3644210994243622,
                    0.2460842877626419,
                    0.037242136895656586
                ],
                [
                    -0.15863516926765442,
                    -0.06645526736974716,
                    -0.25436508655548096,
                    0.13322624564170837,
                    0.31046268343925476,
                    -0.04621097445487976,
                    0.09827353060245514,
                    0.0795685425400734
                ],
                [
                    -0.05415956676006317,
                    -0.15776123106479645,
                    -0.3952040374279022,
                    -0.178492933511734,
                    0.18088290095329285,
                    -0.25298506021499634,
                    -0.020193226635456085,
                    -0.10327614098787308
                ],
                [
                    0.05075116828083992,
                    -0.11908052116632462,
                    0.4321143925189972,
                    0.6454078555107117,
                    0.11964237689971924,
                    -0.07951357215642929,
                    -0.33469605445861816,
                    -0.23007263243198395
                ],
                [
                    -0.2558150887489319,
                    0.3195251524448395,
                    0.07943896949291229,
                    0.5333694815635681,
                    -0.22213876247406006,
                    0.368895560503006,
                    0.6308521628379822,
                    -0.389375776052475
                ],
                [
                    -0.3420184850692749,
                    -0.22857505083084106,
                    0.47157734632492065,
                    0.29679423570632935,
                    0.24589575827121735,
                    0.9015257358551025,
                    -0.09452901780605316,
                    -0.1289164274930954
                ],
                [
                    0.39694082736968994,
                    0.1960648000240326,
                    0.2629213035106659,
                    0.5795402526855469,
                    -0.19109709560871124,
                    -0.17998698353767395,
                    -0.5126665234565735,
                    -0.15322399139404297
                ],
                [
                    -0.09887593984603882,
                    0.23052085936069489,
                    0.6148820519447327,
                    0.5088492631912231,
                    -0.1564101278781891,
                    -0.2256501466035843,
                    0.5823997855186462,
                    -0.12893083691596985
                ],
                [
                    0.3568841218948364,
                    0.20787525177001953,
                    0.3208954334259033,
                    0.357099324464798,
                    0.3870210349559784,
                    0.6959199905395508,
                    0.5757063031196594,
                    0.6810767650604248
                ],
                [
                    -0.07026659697294235,
                    0.1889057159423828,
                    -0.14348578453063965,
                    -0.33812466263771057,
                    0.20148231089115143,
                    -0.11218948662281036,
                    0.048417966812849045,
                    -0.1832851767539978
                ],
                [
                    -0.23170684278011322,
                    0.1015787348151207,
                    0.10493789613246918,
                    -0.5550499558448792,
                    0.8815870881080627,
                    0.5623663067817688,
                    -0.09897271543741226,
                    -0.015176121145486832
                ],
                [
                    0.18988189101219177,
                    0.8580533266067505,
                    -0.23189394176006317,
                    0.45905801653862,
                    0.1771194189786911,
                    0.35650885105133057,
                    0.33865082263946533,
                    -0.4518170654773712
                ],
                [
                    -0.04718862473964691,
                    -0.35762736201286316,
                    0.4193228781223297,
                    0.12988834083080292,
                    -0.29585757851600647,
                    -0.31164440512657166,
                    -0.009473664686083794,
                    -0.28738003969192505
                ],
                [
                    0.4168948531150818,
                    0.020125795155763626,
                    -0.17211470007896423,
                    0.15671882033348083,
                    0.3774920701980591,
                    0.44787874817848206,
                    0.6964133381843567,
                    0.3166871666908264
                ],
                [
                    -0.10170931369066238,
                    0.48077842593193054,
                    0.334595263004303,
                    0.14354707300662994,
                    -0.18034258484840393,
                    0.6404624581336975,
                    0.5031615495681763,
                    0.03025917336344719
                ],
                [
                    0.2789122760295868,
                    0.28841909766197205,
                    0.19027066230773926,
                    -0.0964386910200119,
                    -0.471456378698349,
                    -0.09322552382946014,
                    0.26260146498680115,
                    0.05199377238750458
                ],
                [
                    -0.2693880498409271,
                    -0.025737185031175613,
                    -0.09921189397573471,
                    -0.202781081199646,
                    0.03587868809700012,
                    -0.17345917224884033,
                    -0.23548853397369385,
                    -0.06140974536538124
                ],
                [
                    -0.32382968068122864,
                    0.5863316655158997,
                    0.12434777617454529,
                    0.575077474117279,
                    0.47361838817596436,
                    -0.2000495046377182,
                    -0.2668865919113159,
                    -0.3264751732349396
                ],
                [
                    0.5150722861289978,
                    0.21290060877799988,
                    -0.3997696042060852,
                    0.5238335132598877,
                    -0.15543168783187866,
                    0.4677793085575104,
                    -0.37067294120788574,
                    0.6048558354377747
                ],
                [
                    -0.21264861524105072,
                    -0.37825828790664673,
                    -0.020281583070755005,
                    -0.6089191436767578,
                    0.1162077859044075,
                    0.007640280295163393,
                    0.06780583411455154,
                    0.007943810895085335
                ],
                [
                    -0.1375250220298767,
                    0.22200103104114532,
                    -0.2719283699989319,
                    0.07634012401103973,
                    -0.013275195844471455,
                    0.17857377231121063,
                    0.6201862096786499,
                    -0.48747965693473816
                ],
                [
                    0.3036144971847534,
                    -0.053146615624427795,
                    0.010259455069899559,
                    -0.40792202949523926,
                    0.24086204171180725,
                    -0.08091436326503754,
                    0.6339148879051208,
                    0.3320632874965668
                ],
                [
                    -0.08862210065126419,
                    0.4753161668777466,
                    -0.07581719011068344,
                    -0.16704273223876953,
                    0.1267799735069275,
                    0.15561379492282867,
                    0.2969176173210144,
                    -0.17401209473609924
                ],
                [
                    0.2551930546760559,
                    -0.20952852070331573,
                    0.0508640818297863,
                    0.016063645482063293,
                    -0.16510166227817535,
                    0.24812112748622894,
                    0.215178981423378,
                    0.009635371156036854
                ],
                [
                    0.43735313415527344,
                    0.38573208451271057,
                    -0.02418220043182373,
                    0.15394769608974457,
                    0.03619401529431343,
                    -0.20163500308990479,
                    0.7119718194007874,
                    0.4164751172065735
                ],
                [
                    0.43325766921043396,
                    -0.11087476462125778,
                    -0.09868787974119186,
                    -0.14387863874435425,
                    -0.26071009039878845,
                    0.23505082726478577,
                    0.4633844196796417,
                    0.6067034006118774
                ],
                [
                    -0.02878035046160221,
                    0.3817358613014221,
                    -0.09084992110729218,
                    -0.23285262286663055,
                    0.021133773028850555,
                    0.13016073405742645,
                    0.9221801161766052,
                    0.09414645284414291
                ],
                [
                    0.05109008029103279,
                    0.06589087843894958,
                    0.14654240012168884,
                    0.1349065601825714,
                    -0.2689565420150757,
                    0.016473880037665367,
                    0.1482246369123459,
                    0.23925602436065674
                ],
                [
                    -0.4535245895385742,
                    -0.40070340037345886,
                    -0.20025312900543213,
                    -0.4100673496723175,
                    -0.03944050893187523,
                    0.007375090382993221,
                    0.22053273022174835,
                    -0.22670131921768188
                ],
                [
                    0.40996018052101135,
                    -0.21664483845233917,
                    0.44173121452331543,
                    -0.13297465443611145,
                    0.10306520015001297,
                    0.40658998489379883,
                    0.5609274506568909,
                    0.6213099956512451
                ],
                [
                    -0.3399277329444885,
                    -0.05621141567826271,
                    -0.12743256986141205,
                    -0.17805200815200806,
                    0.08365145325660706,
                    -0.5248960852622986,
                    -0.048643626272678375,
                    -0.009402738884091377
                ],
                [
                    -0.4579986035823822,
                    -0.44590458273887634,
                    -0.08563796430826187,
                    0.05224468559026718,
                    -0.2001805156469345,
                    -0.029151318594813347,
                    -0.30097055435180664,
                    -0.040696099400520325
                ],
                [
                    0.1003955528140068,
                    0.150542214512825,
                    -0.051957614719867706,
                    0.08194069564342499,
                    -0.3987973928451538,
                    0.2961409389972687,
                    0.07836341857910156,
                    0.008435443975031376
                ],
                [
                    -0.27396008372306824,
                    0.3321255147457123,
                    0.13686524331569672,
                    0.1707824021577835,
                    0.030906496569514275,
                    -0.17453420162200928,
                    0.46913942694664,
                    -0.20500823855400085
                ],
                [
                    0.09122180938720703,
                    0.5692763328552246,
                    -0.24544669687747955,
                    0.5099619626998901,
                    0.1241130530834198,
                    0.3727002441883087,
                    0.13482412695884705,
                    -0.07334759086370468
                ],
                [
                    0.7406665086746216,
                    -0.015343457460403442,
                    0.09505882114171982,
                    -0.06549228727817535,
                    0.16435568034648895,
                    0.28583478927612305,
                    0.3889295756816864,
                    -0.08907286077737808
                ],
                [
                    0.170587956905365,
                    0.3805309236049652,
                    0.4717904031276703,
                    0.3414541184902191,
                    -0.5347526669502258,
                    0.1106831356883049,
                    -0.2657172679901123,
                    0.0964708998799324
                ],
                [
                    0.45908594131469727,
                    0.3952159881591797,
                    0.8518844842910767,
                    0.4278562664985657,
                    -0.15731631219387054,
                    -0.14514894783496857,
                    0.2960754334926605,
                    0.016046492382884026
                ],
                [
                    -0.43692493438720703,
                    -0.01808948442339897,
                    -0.03222951665520668,
                    0.18878062069416046,
                    -0.020910896360874176,
                    0.03705114498734474,
                    0.08626207709312439,
                    0.010617038235068321
                ],
                [
                    -0.204735666513443,
                    0.02836736850440502,
                    -0.34602871537208557,
                    -0.03440602123737335,
                    0.32720205187797546,
                    -0.10127244889736176,
                    0.4160345196723938,
                    -0.18558411300182343
                ],
                [
                    -0.04066786170005798,
                    -0.4503200948238373,
                    0.1362306922674179,
                    0.1983642280101776,
                    0.002742258133366704,
                    -0.179698646068573,
                    -0.35222142934799194,
                    -0.05923781543970108
                ],
                [
                    -0.582618772983551,
                    -0.1827196180820465,
                    -0.38419440388679504,
                    0.09573930501937866,
                    -0.1900440901517868,
                    -0.4903598427772522,
                    0.2576215863227844,
                    -0.46879246830940247
                ],
                [
                    0.15678134560585022,
                    0.6890315413475037,
                    0.3299528658390045,
                    0.19109798967838287,
                    -0.18075473606586456,
                    0.07811388373374939,
                    0.045282021164894104,
                    -0.19636812806129456
                ],
                [
                    -0.12762752175331116,
                    0.038775451481342316,
                    0.24599392712116241,
                    -0.39503178000450134,
                    0.20130319893360138,
                    0.11822559684515,
                    0.5185279250144958,
                    0.31842413544654846
                ],
                [
                    -0.3960019648075104,
                    0.4992293417453766,
                    -0.19318871200084686,
                    -0.06715916097164154,
                    0.8486294150352478,
                    0.05771540477871895,
                    0.16345633566379547,
                    -0.3920325040817261
                ],
                [
                    0.7390381693840027,
                    0.24129441380500793,
                    0.09201397746801376,
                    0.43180450797080994,
                    0.009436937980353832,
                    0.3578545153141022,
                    0.4373864531517029,
                    0.7104694247245789
                ],
                [
                    -0.42737099528312683,
                    -0.010259776376187801,
                    -0.47852224111557007,
                    0.08290094882249832,
                    -0.1574290692806244,
                    0.052470430731773376,
                    -0.029211247339844704,
                    -0.47241517901420593
                ],
                [
                    -0.28955668210983276,
                    -0.29535043239593506,
                    0.1646917313337326,
                    -0.3941989541053772,
                    0.2602395713329315,
                    0.2308441400527954,
                    0.9527960419654846,
                    -0.13039115071296692
                ],
                [
                    0.23223446309566498,
                    -0.13384470343589783,
                    -0.01976214349269867,
                    0.13109496235847473,
                    0.5523113012313843,
                    -0.3212740123271942,
                    -0.11153240501880646,
                    0.5622991919517517
                ],
                [
                    0.5211196541786194,
                    0.0679858848452568,
                    0.5014259815216064,
                    0.6668019890785217,
                    0.5659112334251404,
                    0.6713832020759583,
                    0.3339553773403168,
                    0.5795520544052124
                ],
                [
                    0.21585719287395477,
                    -0.4325314164161682,
                    -0.5129035115242004,
                    -0.11315589398145676,
                    0.3316896855831146,
                    -0.4365541934967041,
                    -0.5048137307167053,
                    0.23243625462055206
                ],
                [
                    -0.09272836148738861,
                    0.24924083054065704,
                    -0.037785932421684265,
                    -0.07005984336137772,
                    -0.08087342232465744,
                    0.47667229175567627,
                    0.16257894039154053,
                    0.07635532319545746
                ],
                [
                    0.39352941513061523,
                    0.07938219606876373,
                    -0.47351163625717163,
                    -0.34961846470832825,
                    -0.14669372141361237,
                    -0.2065097540616989,
                    0.07798037678003311,
                    -0.2702683210372925
                ],
                [
                    0.8727737069129944,
                    0.4598664939403534,
                    0.011330020613968372,
                    -0.6245733499526978,
                    0.31910988688468933,
                    0.2907991409301758,
                    -0.06375600397586823,
                    0.09665161371231079
                ],
                [
                    -0.0055219377391040325,
                    0.46044349670410156,
                    0.45285695791244507,
                    0.22078518569469452,
                    -0.4046739637851715,
                    -0.12865695357322693,
                    0.2660320997238159,
                    -0.1209549680352211
                ],
                [
                    0.05744030699133873,
                    -0.3026856780052185,
                    -0.7299244999885559,
                    0.16313037276268005,
                    0.4894823431968689,
                    -0.2003127932548523,
                    -0.15331991016864777,
                    -0.4012742340564728
                ],
                [
                    -0.12990237772464752,
                    0.2955567240715027,
                    0.04071730002760887,
                    0.20935317873954773,
                    -0.4385960102081299,
                    0.2679976224899292,
                    0.1472446322441101,
                    -0.364411324262619
                ],
                [
                    0.05851522088050842,
                    -0.345407098531723,
                    -0.387435644865036,
                    0.07675700634717941,
                    0.21046417951583862,
                    0.1159658133983612,
                    -0.37427860498428345,
                    0.0272129625082016
                ],
                [
                    0.3111153841018677,
                    0.19738656282424927,
                    -0.012332790531218052,
                    -0.06809849292039871,
                    -0.45611295104026794,
                    -0.25036486983299255,
                    -0.559770405292511,
                    -0.2873437702655792
                ],
                [
                    0.2567041218280792,
                    -0.3362816870212555,
                    0.3758609890937805,
                    -0.40529513359069824,
                    -0.6754897236824036,
                    -0.10808414220809937,
                    -0.31861963868141174,
                    0.309457391500473
                ],
                [
                    0.5001232624053955,
                    0.12450073659420013,
                    -0.20885543525218964,
                    0.04632474109530449,
                    0.7976222634315491,
                    -0.3460818827152252,
                    0.3841964304447174,
                    -0.09864962846040726
                ],
                [
                    -0.15798857808113098,
                    0.09313824772834778,
                    -0.1297278106212616,
                    0.33071407675743103,
                    -0.23192739486694336,
                    -0.493554025888443,
                    0.004486367106437683,
                    -0.026271389797329903
                ],
                [
                    -0.046339251101017,
                    -0.02856620028614998,
                    -0.2565508186817169,
                    -0.17832130193710327,
                    -0.31850895285606384,
                    -0.5802581310272217,
                    0.07077327370643616,
                    0.05994695797562599
                ],
                [
                    -0.38428470492362976,
                    -0.27105680108070374,
                    0.08510300517082214,
                    -0.12589389085769653,
                    0.5945453643798828,
                    -0.3404041528701782,
                    0.16189539432525635,
                    -0.2717095911502838
                ],
                [
                    -0.33779406547546387,
                    -0.03938496857881546,
                    0.046902742236852646,
                    0.07756035774946213,
                    0.11962252855300903,
                    -0.21964138746261597,
                    0.15981392562389374,
                    -0.41311123967170715
                ],
                [
                    0.5735833048820496,
                    0.6886211037635803,
                    -0.18595826625823975,
                    -0.14894284307956696,
                    0.5299769639968872,
                    0.24975712597370148,
                    0.5385643243789673,
                    -0.497768759727478
                ],
                [
                    0.3650345504283905,
                    0.17351122200489044,
                    0.6894106268882751,
                    0.3208125829696655,
                    -0.42563796043395996,
                    -0.30204105377197266,
                    0.1243688315153122,
                    0.2556867003440857
                ],
                [
                    -0.20544150471687317,
                    0.7335931658744812,
                    0.20979925990104675,
                    0.5814933180809021,
                    -0.07750466465950012,
                    -0.23680640757083893,
                    -0.1153285801410675,
                    -0.047406766563653946
                ],
                [
                    -0.09177500754594803,
                    0.029001876711845398,
                    -0.5742252469062805,
                    0.1331295371055603,
                    -0.15034067630767822,
                    0.0815545842051506,
                    0.19583725929260254,
                    -0.4224553108215332
                ],
                [
                    0.2283690869808197,
                    0.15057513117790222,
                    -0.16460740566253662,
                    -0.04543383792042732,
                    0.01266294065862894,
                    -0.06776710599660873,
                    -0.028952917084097862,
                    0.20701172947883606
                ],
                [
                    -0.28810054063796997,
                    0.2893517315387726,
                    -0.41523903608322144,
                    0.11999917030334473,
                    0.36343830823898315,
                    -0.1685621738433838,
                    0.33294472098350525,
                    0.4488655626773834
                ],
                [
                    0.1885555237531662,
                    0.03985273838043213,
                    -0.20875291526317596,
                    -0.11180578172206879,
                    -0.23014861345291138,
                    -0.2496458739042282,
                    0.07975520938634872,
                    -0.05680598318576813
                ]
            ],
            "encoder.0.bias": [
                0.46005189418792725,
                0.14997461438179016,
                0.515751302242279,
                -0.21654099225997925,
                -0.07620900869369507,
                0.10835227370262146,
                0.30894896388053894,
                0.4679904878139496,
                0.439241498708725,
                -0.18923184275627136,
                -0.13463416695594788,
                0.0260270144790411,
                0.5331941843032837,
                0.08855852484703064,
                0.1952744722366333,
                0.5938714742660522,
                -0.0835084468126297,
                0.1804070770740509,
                -0.03205973654985428,
                0.23425160348415375,
                0.41183698177337646,
                -0.37043750286102295,
                -0.14661020040512085,
                -0.17090891301631927,
                0.021796170622110367,
                -0.09922284632921219,
                0.5141452550888062,
                -0.20854313671588898,
                0.6673378348350525,
                -0.05290260538458824,
                0.5305622220039368,
                -0.3501518666744232,
                0.2521591782569885,
                0.43277546763420105,
                -0.3599148988723755,
                -0.0011986495228484273,
                0.14709289371967316,
                -0.2335813343524933,
                -0.009346256032586098,
                -0.49834969639778137,
                0.14733821153640747,
                0.58261638879776,
                0.030477872118353844,
                -0.1180424690246582,
                -0.38755837082862854,
                0.37218591570854187,
                -0.18589599430561066,
                -0.047899410128593445,
                0.1785905957221985,
                0.4683639109134674,
                0.41276416182518005,
                -0.30160900950431824,
                -0.13986088335514069,
                0.32104620337486267,
                -0.2434159219264984,
                -0.06224707141518593,
                -0.17341385781764984,
                -0.16747213900089264,
                -0.026104025542736053,
                0.3172072470188141,
                0.04053101688623428,
                0.5469470024108887,
                0.2677696943283081,
                -0.07929467409849167,
                0.48889148235321045,
                -0.18355849385261536,
                0.11560754477977753,
                0.4155738949775696,
                -0.04191534221172333,
                0.49170419573783875,
                0.22045964002609253,
                0.2064695954322815,
                -0.28237149119377136,
                0.3760991394519806,
                0.38941851258277893,
                0.28260868787765503,
                0.2973616421222687,
                0.15582601726055145,
                0.36399954557418823,
                -0.23333658277988434,
                0.22183316946029663,
                0.3223482370376587,
                0.2696632742881775,
                0.05218177288770676,
                0.49582934379577637,
                0.5257121324539185,
                -0.48463040590286255,
                -0.05022161826491356,
                -0.06732957810163498,
                0.11991289258003235,
                0.09435534477233887,
                0.42242246866226196,
                -0.06571285426616669,
                0.4250120222568512,
                -0.33600300550460815,
                -0.31221795082092285,
                -0.25080931186676025,
                0.03211065009236336,
                0.24976776540279388,
                0.0439399890601635,
                0.484213262796402,
                0.061012495309114456,
                -0.04556553065776825,
                0.2689667046070099,
                0.4684654772281647,
                0.4674803614616394,
                -0.2282426357269287,
                -0.057025082409381866,
                -0.09187574684619904,
                -0.11847665160894394,
                0.03638361021876335,
                0.000581981148570776,
                0.15680238604545593,
                -0.32172098755836487,
                0.012528776191174984,
                0.24845390021800995,
                0.35121801495552063,
                -0.055262111127376556,
                -0.1938772052526474,
                0.4026760458946228,
                -0.04524390399456024,
                0.3192889988422394,
                -0.04715225100517273,
                0.6606833338737488,
                -0.39071348309516907,
                0.12257607281208038,
                0.4765506982803345,
                0.3703197240829468
            ],
            "encoder.1.threshold": 1,
            "encoder.1.graded_spikes_factor": 1.0,
            "encoder.1.reset_mechanism_val": 0,
            "encoder.1.beta": 0.800000011920929,
            "encoder.2.weight": [
                [
                    -0.12973159551620483,
                    -0.21513816714286804,
                    0.2809494733810425,
                    -0.07853536307811737,
                    -0.04484458267688751,
                    -0.04874003678560257,
                    0.35238340497016907,
                    0.2156638205051422,
                    -0.003899379400536418,
                    0.0006458386778831482,
                    -0.056355204433202744,
                    -0.0003026425838470459,
                    -0.06603504717350006,
                    0.1324734389781952,
                    0.14832636713981628,
                    -0.05598309263586998,
                    -0.05788418650627136,
                    -0.022578954696655273,
                    -0.17444248497486115,
                    0.008725903928279877,
                    -0.09602272510528564,
                    -0.03379147872328758,
                    0.01716509461402893,
                    0.05897263437509537,
                    -0.08657025545835495,
                    0.2524798810482025,
                    0.2914746105670929,
                    -0.07494321465492249,
                    -0.19528914988040924,
                    0.08522193878889084,
                    0.2162395715713501,
                    0.04109131544828415,
                    -0.035373885184526443,
                    -0.08017774671316147,
                    -0.01064927875995636,
                    -0.04529280588030815,
                    0.09523526579141617,
                    0.07926913350820541,
                    0.040832631289958954,
                    -0.08835572749376297,
                    -0.0521928109228611,
                    0.17339327931404114,
                    0.2443985641002655,
                    -0.06480257958173752,
                    0.04810977727174759,
                    -0.029486101120710373,
                    -0.04350871965289116,
                    0.009497802704572678,
                    0.0867086872458458,
                    -0.06476259231567383,
                    -0.03291316702961922,
                    0.06306272000074387,
                    0.06981464475393295,
                    -0.04438585042953491,
                    0.04299890249967575,
                    -0.03419281169772148,
                    0.07499412447214127,
                    0.06871684640645981,
                    0.07236585766077042,
                    -0.007635452784597874,
                    0.20489145815372467,
                    -0.04102436453104019,
                    0.06394034624099731,
                    -0.05432310327887535,
                    0.35727888345718384,
                    -0.013218306005001068,
                    0.15924616158008575,
                    0.057227883487939835,
                    -0.014513038098812103,
                    0.39565128087997437,
                    0.035120636224746704,
                    -0.020557569339871407,
                    0.00432075560092926,
                    -0.09184837341308594,
                    0.16713111102581024,
                    0.04705054312944412,
                    0.09689120948314667,
                    0.12630420923233032,
                    0.04860639572143555,
                    0.00863606482744217,
                    0.2253061830997467,
                    -0.027226543053984642,
                    -0.06045617163181305,
                    0.08479023724794388,
                    0.009193800389766693,
                    0.35902032256126404,
                    0.001962408423423767,
                    0.03486044704914093,
                    -0.008236967027187347,
                    0.017934218049049377,
                    0.04178902506828308,
                    0.27496495842933655,
                    0.04519503191113472,
                    -0.13918067514896393,
                    0.06813255697488785,
                    0.00016771256923675537,
                    0.0719916895031929,
                    0.02629883587360382,
                    -0.03519192710518837,
                    0.12655995786190033,
                    0.15979580581188202,
                    0.3127480447292328,
                    0.05653928965330124,
                    -0.050991639494895935,
                    0.2346467673778534,
                    0.08112242072820663,
                    0.041299186646938324,
                    -0.07781098037958145,
                    0.024704746901988983,
                    -0.04563967138528824,
                    0.07247385382652283,
                    0.02004893124103546,
                    -0.03168455511331558,
                    0.030220188200473785,
                    0.04623054713010788,
                    -0.06259080022573471,
                    -0.10721764713525772,
                    0.05116192251443863,
                    -0.051232434809207916,
                    -0.1365513652563095,
                    -0.06351128220558167,
                    0.15500681102275848,
                    0.06533249467611313,
                    -0.1272299438714981,
                    -0.08313992619514465,
                    -0.039732348173856735,
                    0.3854075074195862,
                    0.04494156688451767
                ],
                [
                    0.2849956154823303,
                    -0.2330109179019928,
                    0.20168767869472504,
                    0.013887256383895874,
                    0.026063181459903717,
                    0.0686715617775917,
                    -0.08080929517745972,
                    -0.06224475055932999,
                    -0.295884370803833,
                    -0.07787974923849106,
                    -0.023618273437023163,
                    -0.058374322950839996,
                    -0.2874765396118164,
                    -0.1489647626876831,
                    0.04497576504945755,
                    0.4530732333660126,
                    -0.08115896582603455,
                    -0.05821818858385086,
                    0.09091126173734665,
                    0.05888833850622177,
                    -0.005078212358057499,
                    -0.006741754710674286,
                    0.02118626981973648,
                    -0.056501757353544235,
                    -0.06291438639163971,
                    0.21146009862422943,
                    -0.147768035531044,
                    -0.0627090334892273,
                    -0.1905680149793625,
                    -0.07952076196670532,
                    0.010983124375343323,
                    0.052849121391773224,
                    0.22305350005626678,
                    0.2583029568195343,
                    -0.010371699929237366,
                    -0.2820025384426117,
                    0.37421056628227234,
                    -0.0018548071384429932,
                    -0.0861353725194931,
                    0.003958031535148621,
                    0.06199464946985245,
                    0.1785411387681961,
                    -0.21903160214424133,
                    -0.03860216960310936,
                    0.06292859464883804,
                    -0.08494488149881363,
                    0.054247088730335236,
                    0.10037031024694443,
                    -0.17754437029361725,
                    -0.1479538083076477,
                    0.04936778545379639,
                    0.06930182129144669,
                    -0.048061199486255646,
                    0.17806300520896912,
                    0.08777082711458206,
                    0.0609201118350029,
                    0.07043149322271347,
                    -0.005873247981071472,
                    -0.08530273288488388,
                    0.1531117856502533,
                    -0.20002929866313934,
                    -0.3353807330131531,
                    0.34266260266304016,
                    0.015259809792041779,
                    -0.08230207115411758,
                    0.03209712356328964,
                    -0.18456505239009857,
                    0.2652904689311981,
                    0.03952058404684067,
                    -0.22714069485664368,
                    -0.25819891691207886,
                    0.031047018244862556,
                    0.018078044056892395,
                    0.13868628442287445,
                    0.04664888605475426,
                    0.0640440359711647,
                    -0.1118125468492508,
                    0.050750523805618286,
                    0.04806896299123764,
                    -0.0400119312107563,
                    -0.12274572253227234,
                    0.2210739254951477,
                    -0.4284929931163788,
                    -0.015383012592792511,
                    -0.08049224317073822,
                    -0.044022925198078156,
                    -0.013013169169425964,
                    0.032930321991443634,
                    -0.05180136114358902,
                    0.025374339893460274,
                    -0.10301456600427628,
                    0.405904084444046,
                    0.33353322744369507,
                    0.12100467830896378,
                    -0.020401552319526672,
                    -0.0556396022439003,
                    0.06129986792802811,
                    -0.06814981997013092,
                    0.1502695530653,
                    0.02570873498916626,
                    -0.15435069799423218,
                    0.16952137649059296,
                    -0.028093211352825165,
                    -0.2765045464038849,
                    -0.021536339074373245,
                    0.0642356127500534,
                    0.012692108750343323,
                    -0.024380885064601898,
                    0.07284223288297653,
                    0.14431804418563843,
                    0.21420910954475403,
                    -0.0091395303606987,
                    -0.07214552164077759,
                    0.027511492371559143,
                    -0.07433163374662399,
                    -0.0276813767850399,
                    -0.026064453646540642,
                    -0.04795161634683609,
                    0.012331679463386536,
                    0.0322142131626606,
                    -0.05485931783914566,
                    -0.18478065729141235,
                    0.22550855576992035,
                    0.10733325779438019,
                    -0.04746014252305031,
                    0.01969943940639496,
                    -0.21606992185115814,
                    0.043622203171253204
                ],
                [
                    0.2658878564834595,
                    -0.287743479013443,
                    0.10166576504707336,
                    0.08452523499727249,
                    0.045945413410663605,
                    0.011576011776924133,
                    0.07932174950838089,
                    0.6877787709236145,
                    -0.12662799656391144,
                    -0.03879191726446152,
                    0.0492367222905159,
                    0.006113991141319275,
                    -0.1373395174741745,
                    -0.08503706008195877,
                    0.001167286653071642,
                    0.18937362730503082,
                    -0.06447259336709976,
                    -0.03225347772240639,
                    0.1458612084388733,
                    -0.01354900747537613,
                    -0.11507052183151245,
                    -0.06307852268218994,
                    -0.05743589997291565,
                    0.00614677369594574,
                    0.020972006022930145,
                    0.47271135449409485,
                    0.049745526164770126,
                    -0.08166252821683884,
                    -0.033854786306619644,
                    0.00544583797454834,
                    0.0886789932847023,
                    0.07927059382200241,
                    0.05849839001893997,
                    0.0259082093834877,
                    -0.030747178941965103,
                    -0.13953585922718048,
                    0.2386094480752945,
                    -0.047497812658548355,
                    0.0295477956533432,
                    0.06603468209505081,
                    0.007814235985279083,
                    -0.14905939996242523,
                    -0.17389780282974243,
                    -0.054498739540576935,
                    0.008242055773735046,
                    -0.007901442237198353,
                    -0.07015243917703629,
                    0.22110262513160706,
                    0.10987962782382965,
                    -0.3725740313529968,
                    -0.09128005057573318,
                    -0.03156139329075813,
                    0.005361385643482208,
                    0.14622558653354645,
                    0.08793743699789047,
                    0.07175756245851517,
                    -0.08197496831417084,
                    0.030830390751361847,
                    0.07146162539720535,
                    0.14260731637477875,
                    0.016934799030423164,
                    -0.3820974826812744,
                    0.0457121841609478,
                    0.16774773597717285,
                    -0.07369959354400635,
                    -0.05468377470970154,
                    -0.3370484411716461,
                    -0.1076769307255745,
                    0.040540434420108795,
                    -0.34785500168800354,
                    -0.13067027926445007,
                    -0.003483360633254051,
                    -0.03743579983711243,
                    -0.1438928246498108,
                    0.031311020255088806,
                    0.03308583050966263,
                    -0.1526118963956833,
                    0.014644436538219452,
                    -0.02117818593978882,
                    0.014773249626159668,
                    -0.1240406483411789,
                    0.10200708359479904,
                    -0.21465057134628296,
                    -2.1807849407196045e-05,
                    0.04304996877908707,
                    0.10825566202402115,
                    -0.07971210032701492,
                    -0.009611189365386963,
                    -0.052804701030254364,
                    0.047056034207344055,
                    -0.18232977390289307,
                    0.06817357242107391,
                    0.1587882936000824,
                    -0.09421984851360321,
                    -0.029945187270641327,
                    -0.07904621958732605,
                    -0.06692645698785782,
                    -0.024359188973903656,
                    0.08507104218006134,
                    -0.01930137723684311,
                    -0.035798437893390656,
                    0.12747031450271606,
                    -0.06969718635082245,
                    -0.25233930349349976,
                    -0.17456476390361786,
                    -0.2075446993112564,
                    -0.04158880189061165,
                    0.006771154701709747,
                    -0.060322169214487076,
                    0.08600408583879471,
                    0.015647266060113907,
                    0.08528036624193192,
                    -0.0076164305210113525,
                    -0.07218126952648163,
                    0.06251666694879532,
                    -0.0013527348637580872,
                    0.20433978736400604,
                    0.01804210990667343,
                    -0.08755332231521606,
                    0.07123114913702011,
                    0.011304125189781189,
                    0.08577058464288712,
                    0.35529816150665283,
                    0.09860652685165405,
                    0.04375898092985153,
                    -0.08213550597429276,
                    -0.40767574310302734,
                    -0.06414984166622162
                ],
                [
                    -0.04349443316459656,
                    -0.1947612464427948,
                    -0.02117891237139702,
                    -0.061583951115608215,
                    0.08128739148378372,
                    -0.03362523019313812,
                    0.37297502160072327,
                    0.3006856441497803,
                    -0.12407229840755463,
                    -0.00023370236158370972,
                    0.026338398456573486,
                    -0.08494281023740768,
                    0.0465044304728508,
                    0.34959009289741516,
                    0.3095441460609436,
                    -0.026066238060593605,
                    0.08448544889688492,
                    -0.03389398008584976,
                    -0.11086765676736832,
                    -0.06357057392597198,
                    -0.03298895061016083,
                    0.08618607372045517,
                    0.0850643590092659,
                    -0.07622735947370529,
                    -0.00397782027721405,
                    -0.1851680427789688,
                    0.05765417963266373,
                    0.04813968390226364,
                    0.012097366154193878,
                    0.01227504014968872,
                    0.2863427698612213,
                    -0.05288242921233177,
                    -0.02071310579776764,
                    0.08703621476888657,
                    -0.08049975335597992,
                    0.3387516438961029,
                    -0.043992284685373306,
                    0.019769981503486633,
                    -0.013344407081604004,
                    -0.06134225055575371,
                    -0.07027266174554825,
                    -0.015242693945765495,
                    0.24339492619037628,
                    0.023393839597702026,
                    -0.03615179657936096,
                    -0.0853293165564537,
                    -0.006724037230014801,
                    -0.25483182072639465,
                    0.08278118818998337,
                    0.09111221879720688,
                    -0.04086334630846977,
                    0.023008689284324646,
                    0.03475218266248703,
                    -0.20597712695598602,
                    -0.04128478839993477,
                    -0.07335155457258224,
                    0.05179562419652939,
                    0.027281612157821655,
                    -0.055436644703149796,
                    -0.3531966209411621,
                    -0.18531040847301483,
                    -0.05110262334346771,
                    -0.09471540153026581,
                    -0.11385108530521393,
                    0.19176028668880463,
                    -0.03258669003844261,
                    0.006160640623420477,
                    0.07097216695547104,
                    -0.07087009400129318,
                    0.0166989266872406,
                    -0.08891357481479645,
                    0.10127832740545273,
                    -0.009694650769233704,
                    -0.18576465547084808,
                    0.2671211063861847,
                    0.0375949963927269,
                    -0.05868096277117729,
                    0.19091679155826569,
                    -0.0121458126232028,
                    -0.07101776450872421,
                    0.24519172310829163,
                    0.21421462297439575,
                    -0.16434800624847412,
                    -0.055658116936683655,
                    -0.044170212000608444,
                    0.08436350524425507,
                    -0.0300862118601799,
                    -0.0764537900686264,
                    0.048743657767772675,
                    0.05161647871136665,
                    -0.0232035294175148,
                    0.057978350669145584,
                    -0.10577572882175446,
                    -0.14200422167778015,
                    -0.05989861488342285,
                    0.07117930799722672,
                    -0.011397391557693481,
                    -0.020626172423362732,
                    -0.0008340650820173323,
                    0.1261899769306183,
                    -0.015096613205969334,
                    0.3872328996658325,
                    0.001204565167427063,
                    -0.0879245325922966,
                    -0.0015440578572452068,
                    0.00516681931912899,
                    0.04027879983186722,
                    0.05676314979791641,
                    0.010629139840602875,
                    0.365582674741745,
                    -0.16997253894805908,
                    0.06172128766775131,
                    -0.06738371402025223,
                    0.08061044663190842,
                    0.008053451776504517,
                    0.05687994509935379,
                    0.3192293047904968,
                    -0.010082080960273743,
                    0.06604739278554916,
                    0.05010705441236496,
                    0.04052054136991501,
                    0.11632240563631058,
                    -0.07607809454202652,
                    -0.06793079525232315,
                    -0.02010548859834671,
                    -0.00295092910528183,
                    0.2796722948551178,
                    -0.07729539275169373
                ],
                [
                    0.3358607292175293,
                    -0.06942601501941681,
                    0.20825135707855225,
                    -0.0588565319776535,
                    0.03679836541414261,
                    0.03494703024625778,
                    0.10147397220134735,
                    -0.29408082365989685,
                    -0.17753592133522034,
                    -0.016982078552246094,
                    -0.02197173982858658,
                    -0.053238991647958755,
                    0.20496776700019836,
                    0.10508963465690613,
                    0.14137592911720276,
                    0.13511182367801666,
                    -0.15489324927330017,
                    0.05171190947294235,
                    0.2704768776893616,
                    -0.003445275127887726,
                    0.08804703503847122,
                    0.009149059653282166,
                    -0.03732767328619957,
                    0.02854665368795395,
                    0.03390052169561386,
                    0.17420759797096252,
                    -0.212539404630661,
                    0.021262526512145996,
                    -0.039202943444252014,
                    0.056272707879543304,
                    0.3156896233558655,
                    0.013955146074295044,
                    0.1797170639038086,
                    0.261923611164093,
                    -0.06393095850944519,
                    -0.16152259707450867,
                    -0.18790525197982788,
                    0.0843428447842598,
                    -0.07787215709686279,
                    0.001428268849849701,
                    -0.05481533706188202,
                    0.09668421000242233,
                    -0.41714128851890564,
                    0.04063395410776138,
                    -0.04815671592950821,
                    0.003088008612394333,
                    -0.07379213720560074,
                    0.20405487716197968,
                    0.3245941698551178,
                    -0.6081602573394775,
                    -0.1790401041507721,
                    0.008514776825904846,
                    -0.03652524948120117,
                    0.15400654077529907,
                    -0.015272103250026703,
                    0.06585409492254257,
                    -0.06404326111078262,
                    0.05478755384683609,
                    -0.008875265717506409,
                    0.059181105345487595,
                    -0.06828880310058594,
                    -0.639407217502594,
                    0.22179122269153595,
                    0.051527488976716995,
                    0.224406898021698,
                    -0.058835070580244064,
                    0.11467378586530685,
                    0.16662834584712982,
                    -0.005488865077495575,
                    0.04203914478421211,
                    -0.13692998886108398,
                    0.04922256991267204,
                    0.08474316447973251,
                    0.20367133617401123,
                    -0.15642805397510529,
                    0.011864811182022095,
                    -0.13117556273937225,
                    0.10110816359519958,
                    0.1123524010181427,
                    0.014302819967269897,
                    0.21093982458114624,
                    0.16790008544921875,
                    -0.012350261211395264,
                    0.04581930488348007,
                    -0.02847352623939514,
                    0.08236809074878693,
                    -0.017714254558086395,
                    -0.03207122161984444,
                    -0.07138180732727051,
                    0.05390722304582596,
                    -0.02634098008275032,
                    -0.10344607383012772,
                    0.2836475968360901,
                    0.2197904735803604,
                    0.08590558916330338,
                    0.008446164429187775,
                    0.08374310284852982,
                    -0.03427363932132721,
                    0.23746024072170258,
                    0.05822611227631569,
                    -0.18353411555290222,
                    0.2339130938053131,
                    -0.002425447106361389,
                    -0.14074429869651794,
                    0.21093828976154327,
                    0.08246451616287231,
                    0.05559616535902023,
                    -0.031197234988212585,
                    -0.03424406051635742,
                    -0.05359259247779846,
                    0.21641749143600464,
                    -0.0016758963465690613,
                    0.04456976801156998,
                    -0.056547898799180984,
                    0.03029824048280716,
                    -0.08754266053438187,
                    0.05670829862356186,
                    -0.023511916399002075,
                    0.07972980290651321,
                    -0.05918195843696594,
                    0.06108064204454422,
                    -0.081370510160923,
                    0.1895114928483963,
                    0.27496740221977234,
                    0.0002316609025001526,
                    -0.06724407523870468,
                    0.207149475812912,
                    0.05543338507413864
                ],
                [
                    0.058863136917352676,
                    0.33417296409606934,
                    0.2472398579120636,
                    -0.08126373589038849,
                    -0.07399584352970123,
                    -0.02600415050983429,
                    -0.09820718318223953,
                    -0.46936696767807007,
                    0.0270081777125597,
                    0.059037499129772186,
                    0.05773036926984787,
                    -0.03537491336464882,
                    0.15782806277275085,
                    -0.32238835096359253,
                    -0.31536683440208435,
                    0.11059899628162384,
                    -0.11803202331066132,
                    -0.029261775314807892,
                    0.10462262481451035,
                    -0.04634210467338562,
                    0.17013441026210785,
                    0.0028976723551750183,
                    0.007332473993301392,
                    -0.022298097610473633,
                    0.010035283863544464,
                    0.11339754611253738,
                    0.09546196460723877,
                    -0.0051188841462135315,
                    0.005998382810503244,
                    -0.0077791884541511536,
                    -0.347137451171875,
                    -0.05246550217270851,
                    0.050248920917510986,
                    0.0786597803235054,
                    0.06988046318292618,
                    0.008914108388125896,
                    -0.04749058559536934,
                    -0.030201703310012817,
                    0.05789635330438614,
                    0.018284134566783905,
                    0.06582290679216385,
                    0.049066126346588135,
                    -0.1325969099998474,
                    -0.04765953868627548,
                    -0.07920021563768387,
                    -0.11632738262414932,
                    0.017372675240039825,
                    -0.037219490855932236,
                    -0.1373465657234192,
                    -0.046907030045986176,
                    -0.1047530472278595,
                    0.037921078503131866,
                    0.05092389136552811,
                    -0.060175176709890366,
                    -0.02715638279914856,
                    0.06999396532773972,
                    -0.08609231561422348,
                    0.03173244744539261,
                    0.019048310816287994,
                    -0.12432902306318283,
                    0.15490038692951202,
                    -0.40367022156715393,
                    0.0036866182927042246,
                    -0.040016088634729385,
                    -0.09347031265497208,
                    0.03428540378808975,
                    -0.019178926944732666,
                    0.17253197729587555,
                    -0.05233205482363701,
                    -0.07921046763658524,
                    0.033210765570402145,
                    -0.07671044021844864,
                    -0.04060403257608414,
                    0.050811801105737686,
                    0.017425192520022392,
                    0.05823277682065964,
                    0.2508130967617035,
                    -0.0801205188035965,
                    0.2387578785419464,
                    0.05249590426683426,
                    0.40667951107025146,
                    -0.13588587939739227,
                    -0.09783028066158295,
                    -0.0011280402541160583,
                    -0.011471599340438843,
                    -0.09343301504850388,
                    -0.052355531603097916,
                    -0.0022552460432052612,
                    -5.199015140533447e-05,
                    -0.0074461959302425385,
                    0.4343317151069641,
                    -0.15097972750663757,
                    0.1732170581817627,
                    0.05145841836929321,
                    -0.010290607810020447,
                    -0.04185274615883827,
                    0.07951270788908005,
                    0.05978619307279587,
                    0.16368655860424042,
                    -0.34686580300331116,
                    -0.24286308884620667,
                    0.04238203167915344,
                    0.042409174144268036,
                    -0.21243612468242645,
                    -0.3597194254398346,
                    -0.10796669870615005,
                    0.032219961285591125,
                    0.022071458399295807,
                    0.02143014222383499,
                    0.2386060208082199,
                    -0.0387316457927227,
                    0.0022552013397216797,
                    -0.05779983103275299,
                    0.08121711760759354,
                    0.0621948316693306,
                    -0.05687650665640831,
                    0.26277679204940796,
                    0.08667398244142532,
                    0.05699525028467178,
                    -0.024963796138763428,
                    0.07901407033205032,
                    0.5059360265731812,
                    0.01856311224400997,
                    0.23610812425613403,
                    0.05808926373720169,
                    0.02384568750858307,
                    0.02979453094303608,
                    -0.03414030745625496
                ],
                [
                    0.01977873593568802,
                    0.23169736564159393,
                    0.15717360377311707,
                    -0.0788206085562706,
                    0.0490717813372612,
                    0.06662993878126144,
                    -0.10576500743627548,
                    0.07828940451145172,
                    0.03173663467168808,
                    -0.05713149532675743,
                    0.0017526373267173767,
                    0.005703672766685486,
                    0.03448238596320152,
                    0.02987850271165371,
                    -0.3672417998313904,
                    0.51930832862854,
                    -0.2339468151330948,
                    0.019862748682498932,
                    0.15417465567588806,
                    -0.04719463735818863,
                    0.08257707208395004,
                    0.017484694719314575,
                    -0.0666554719209671,
                    -0.03687918558716774,
                    0.03941895812749863,
                    -0.35274577140808105,
                    -0.04326724261045456,
                    -0.03521881252527237,
                    0.26241180300712585,
                    0.058432646095752716,
                    -0.21238964796066284,
                    -0.028753612190485,
                    0.11281526833772659,
                    0.01014052052050829,
                    -0.034668974578380585,
                    0.14402645826339722,
                    -0.21197454631328583,
                    0.06525080651044846,
                    0.07021791487932205,
                    0.04993670433759689,
                    0.05175740271806717,
                    -0.33606475591659546,
                    0.11126206815242767,
                    -0.003509633243083954,
                    0.08089327067136765,
                    -0.15667228400707245,
                    -0.06397831439971924,
                    0.034467995166778564,
                    -0.2445080280303955,
                    0.21821948885917664,
                    0.05087990686297417,
                    -0.0464954636991024,
                    0.08027397841215134,
                    0.20410451292991638,
                    0.058183543384075165,
                    0.0569741353392601,
                    0.019961409270763397,
                    -0.008321158587932587,
                    -0.023361966013908386,
                    -0.19261661171913147,
                    0.029050951823592186,
                    0.04901738092303276,
                    -0.11657514423131943,
                    0.15078897774219513,
                    -0.17526565492153168,
                    -0.029723327606916428,
                    0.27059629559516907,
                    0.3667199909687042,
                    -0.031488459557294846,
                    -0.03810824826359749,
                    0.10976150631904602,
                    0.05024489015340805,
                    -0.016235090792179108,
                    0.40081581473350525,
                    0.0553947351872921,
                    0.04182358831167221,
                    0.4840500056743622,
                    0.0134508041664958,
                    0.01506076566874981,
                    0.01954939216375351,
                    0.0061940704472362995,
                    -0.40232786536216736,
                    0.10541244596242905,
                    0.02270852029323578,
                    -0.008286014199256897,
                    -0.26169171929359436,
                    0.029192499816417694,
                    0.001974336802959442,
                    0.07500392943620682,
                    0.037344664335250854,
                    0.27279889583587646,
                    0.05993130803108215,
                    0.08982186764478683,
                    -0.18834266066551208,
                    0.07152309268712997,
                    0.06978612393140793,
                    0.07309921830892563,
                    0.039097242057323456,
                    0.40403199195861816,
                    -0.29257285594940186,
                    0.31223762035369873,
                    -0.11005205661058426,
                    0.0634673610329628,
                    0.12147436290979385,
                    -0.20495831966400146,
                    0.03238626569509506,
                    -0.05096624419093132,
                    -0.07257083058357239,
                    -0.007088184356689453,
                    -0.05424290522933006,
                    0.29996606707572937,
                    0.0882083997130394,
                    -0.03921310976147652,
                    -0.07086080312728882,
                    -0.026924554258584976,
                    -0.059358902275562286,
                    0.09440773725509644,
                    0.04938264936208725,
                    -0.08309609442949295,
                    0.0625726729631424,
                    0.031213179230690002,
                    0.7020885348320007,
                    -0.16782966256141663,
                    0.14649657905101776,
                    -0.035670921206474304,
                    -0.0680883377790451,
                    -0.01203093957155943,
                    0.0430157408118248
                ],
                [
                    -0.15671218931674957,
                    -0.3581056296825409,
                    0.07110779732465744,
                    -0.06980940699577332,
                    0.01501234620809555,
                    0.007185086607933044,
                    0.19237960875034332,
                    0.5227141976356506,
                    -0.3439776301383972,
                    -0.00908450037240982,
                    0.02710869163274765,
                    0.07240522652864456,
                    0.016296278685331345,
                    0.43281593918800354,
                    0.21748897433280945,
                    0.33653783798217773,
                    0.027082085609436035,
                    -0.07404232770204544,
                    0.058790259063243866,
                    0.05252627283334732,
                    -0.2632431983947754,
                    -0.023159921169281006,
                    -0.05088187754154205,
                    0.0560779944062233,
                    0.0645512118935585,
                    0.15462739765644073,
                    0.11538048833608627,
                    -0.012593887746334076,
                    -0.2221239060163498,
                    -0.046515777707099915,
                    -0.03411092609167099,
                    -0.011377528309822083,
                    0.21248935163021088,
                    -0.13514499366283417,
                    -0.06089618802070618,
                    0.2603571116924286,
                    0.18029004335403442,
                    0.011197470128536224,
                    -0.038003455847501755,
                    0.007006406784057617,
                    0.026624828577041626,
                    0.0034702629782259464,
                    0.029133154079318047,
                    0.052997298538684845,
                    0.03268644958734512,
                    0.08244730532169342,
                    0.00641322135925293,
                    -0.3808397948741913,
                    0.12887057662010193,
                    -0.055045876652002335,
                    -0.024460000917315483,
                    0.04790695756673813,
                    -0.07907795906066895,
                    0.017709027975797653,
                    -0.003902323544025421,
                    -0.04640951752662659,
                    0.030975930392742157,
                    0.02173592895269394,
                    -0.028771143406629562,
                    -0.2863926589488983,
                    0.050871413201093674,
                    0.05352942273020744,
                    -0.0682409405708313,
                    -0.17426055669784546,
                    0.04724902659654617,
                    0.07099080830812454,
                    -0.036796458065509796,
                    0.2590256631374359,
                    -0.0206134095788002,
                    0.038714416325092316,
                    0.008679196238517761,
                    0.01053641177713871,
                    -0.05528826639056206,
                    -0.3805544078350067,
                    -0.19113938510417938,
                    0.020484402775764465,
                    0.22040514647960663,
                    0.21545134484767914,
                    0.15844525396823883,
                    -0.04214135929942131,
                    0.3258677124977112,
                    0.04492279514670372,
                    0.309954434633255,
                    -0.0318492129445076,
                    -0.018460974097251892,
                    -0.07539532333612442,
                    0.014490067958831787,
                    -0.05908113718032837,
                    -0.018499143421649933,
                    0.015822909772396088,
                    -0.11223960667848587,
                    0.02226494625210762,
                    -0.034742385149002075,
                    0.003416104009374976,
                    0.023690856993198395,
                    0.0683722123503685,
                    0.02596379816532135,
                    0.044749073684215546,
                    0.258146196603775,
                    0.1175229400396347,
                    0.11391187459230423,
                    0.20203150808811188,
                    -0.012634247541427612,
                    0.2520534098148346,
                    -0.03128685802221298,
                    -0.12144865095615387,
                    -0.052674002945423126,
                    0.022895559668540955,
                    0.03341306000947952,
                    0.35476556420326233,
                    -0.04644652456045151,
                    0.06407370418310165,
                    -0.0019812285900115967,
                    -0.005253501236438751,
                    -0.06737419962882996,
                    -0.044292155653238297,
                    0.13079369068145752,
                    -0.04035647213459015,
                    0.05066891759634018,
                    -0.041254088282585144,
                    -0.013360686600208282,
                    0.31459927558898926,
                    0.12679019570350647,
                    -0.2089892029762268,
                    -0.039420053362846375,
                    0.016339793801307678,
                    0.23778210580348969,
                    -0.0011770054697990417
                ],
                [
                    -0.3922356367111206,
                    -0.32758378982543945,
                    0.14050805568695068,
                    0.08789420872926712,
                    -0.027477912604808807,
                    -0.0015954971313476562,
                    -0.21390752494335175,
                    0.05804445967078209,
                    -0.29423874616622925,
                    -0.04317435622215271,
                    -0.08707679808139801,
                    -0.06820531189441681,
                    -0.09294421225786209,
                    0.03278772905468941,
                    0.08514604717493057,
                    0.5425198674201965,
                    -0.03694494813680649,
                    0.04591623693704605,
                    0.13324135541915894,
                    0.03364136070013046,
                    -0.20459608733654022,
                    -0.0185394287109375,
                    0.031658835709095,
                    -0.0834021121263504,
                    0.07347270101308823,
                    0.09161855280399323,
                    -0.16974815726280212,
                    -0.02828828990459442,
                    -0.15647931396961212,
                    0.023833706974983215,
                    -0.2716718912124634,
                    0.05837235599756241,
                    -0.1405612826347351,
                    -0.205763578414917,
                    0.03770226985216141,
                    0.06554922461509705,
                    0.3357974886894226,
                    -0.061896912753582,
                    -0.07698693126440048,
                    -0.023485086858272552,
                    0.07910623401403427,
                    0.06206812709569931,
                    -0.038082268089056015,
                    -0.07351375371217728,
                    -0.0783943384885788,
                    0.1400294005870819,
                    -0.0079575777053833,
                    -0.01803957298398018,
                    -0.1609751582145691,
                    -0.115613654255867,
                    0.007785676047205925,
                    -0.013508610427379608,
                    -0.06850950419902802,
                    -0.15311428904533386,
                    -0.03847217932343483,
                    -0.0017527416348457336,
                    -0.08105741441249847,
                    -0.02371794730424881,
                    -0.009275391697883606,
                    -0.11487315595149994,
                    -0.1717880368232727,
                    -0.434956818819046,
                    -0.03227030113339424,
                    0.029565779492259026,
                    -0.2772659361362457,
                    -0.030761055648326874,
                    -0.12335360795259476,
                    -0.19255992770195007,
                    0.06020825356245041,
                    -0.21332915127277374,
                    -0.3595162332057953,
                    -0.034891966730356216,
                    0.014895856380462646,
                    0.0726584866642952,
                    0.09944992512464523,
                    0.05657725781202316,
                    -0.07415884733200073,
                    -0.06250899285078049,
                    -0.16728582978248596,
                    -0.08327998220920563,
                    -0.0809469223022461,
                    -0.008779388852417469,
                    -0.258791983127594,
                    0.008136048913002014,
                    -0.012062937021255493,
                    -0.3350139558315277,
                    0.0846947655081749,
                    0.004626080393791199,
                    0.05858560651540756,
                    -0.05603737756609917,
                    0.10108796507120132,
                    0.452837198972702,
                    -0.061945244669914246,
                    -0.2557030916213989,
                    -0.07278893142938614,
                    -0.022651173174381256,
                    0.0671302005648613,
                    0.07369501143693924,
                    -0.01996600441634655,
                    -0.13388171792030334,
                    0.07829755544662476,
                    -0.06275734305381775,
                    0.02750355750322342,
                    -0.3552461564540863,
                    -0.15209607779979706,
                    -0.10490585118532181,
                    -0.07748828828334808,
                    0.027274765074253082,
                    0.05495113879442215,
                    -0.07628045976161957,
                    -0.042176373302936554,
                    -0.009752161800861359,
                    -0.020025767385959625,
                    0.06120022386312485,
                    0.0017643272876739502,
                    0.050800152122974396,
                    0.06524249166250229,
                    -0.047440819442272186,
                    -0.013120345771312714,
                    -0.016778606921434402,
                    0.036781780421733856,
                    0.1756344735622406,
                    0.018949173390865326,
                    -0.28608012199401855,
                    0.07344073802232742,
                    0.06641214340925217,
                    -0.20729988813400269,
                    0.05526871234178543
