# 1 "/home/mohr0901/Documents/PMC/RNI_hls/apc/src/RNI_v3.c"
# 1 "/home/mohr0901/Documents/PMC/RNI_hls/apc/src/RNI_v3.c" 1
# 1 "<built-in>" 1
# 1 "<built-in>" 3
# 150 "<built-in>" 3
# 1 "<command line>" 1
# 1 "<built-in>" 2
# 1 "/home/mohr0901/Documents/PMC/RNI_hls/apc/src/RNI_v3.c" 2





# 1 "/home/mohr0901/Documents/PMC/RNI_hls/apc/src/../inc/model_4_input_AE_SNN_mat.h" 1





int LAYERS[4] = {
 16,
 4,
 16,
 512,
};


int NEURONS[548] = {
 512,
 512,
 512,
 512,
 512,
 512,
 512,
 512,
 512,
 512,
 512,
 512,
 512,
 512,
 512,
 512,
 16,
 16,
 16,
 16,
 4,
 4,
 4,
 4,
 4,
 4,
 4,
 4,
 4,
 4,
 4,
 4,
 4,
 4,
 4,
 4,
 16,
 16,
 16,
 16,
 16,
 16,
 16,
 16,
 16,
 16,
 16,
 16,
 16,
 16,
 16,
 16,
 16,
 16,
 16,
 16,
 16,
 16,
 16,
 16,
 16,
 16,
 16,
 16,
 16,
 16,
 16,
 16,
 16,
 16,
 16,
 16,
 16,
 16,
 16,
 16,
 16,
 16,
 16,
 16,
 16,
 16,
 16,
 16,
 16,
 16,
 16,
 16,
 16,
 16,
 16,
 16,
 16,
 16,
 16,
 16,
 16,
 16,
 16,
 16,
 16,
 16,
 16,
 16,
 16,
 16,
 16,
 16,
 16,
 16,
 16,
 16,
 16,
 16,
 16,
 16,
 16,
 16,
 16,
 16,
 16,
 16,
 16,
 16,
 16,
 16,
 16,
 16,
 16,
 16,
 16,
 16,
 16,
 16,
 16,
 16,
 16,
 16,
 16,
 16,
 16,
 16,
 16,
 16,
 16,
 16,
 16,
 16,
 16,
 16,
 16,
 16,
 16,
 16,
 16,
 16,
 16,
 16,
 16,
 16,
 16,
 16,
 16,
 16,
 16,
 16,
 16,
 16,
 16,
 16,
 16,
 16,
 16,
 16,
 16,
 16,
 16,
 16,
 16,
 16,
 16,
 16,
 16,
 16,
 16,
 16,
 16,
 16,
 16,
 16,
 16,
 16,
 16,
 16,
 16,
 16,
 16,
 16,
 16,
 16,
 16,
 16,
 16,
 16,
 16,
 16,
 16,
 16,
 16,
 16,
 16,
 16,
 16,
 16,
 16,
 16,
 16,
 16,
 16,
 16,
 16,
 16,
 16,
 16,
 16,
 16,
 16,
 16,
 16,
 16,
 16,
 16,
 16,
 16,
 16,
 16,
 16,
 16,
 16,
 16,
 16,
 16,
 16,
 16,
 16,
 16,
 16,
 16,
 16,
 16,
 16,
 16,
 16,
 16,
 16,
 16,
 16,
 16,
 16,
 16,
 16,
 16,
 16,
 16,
 16,
 16,
 16,
 16,
 16,
 16,
 16,
 16,
 16,
 16,
 16,
 16,
 16,
 16,
 16,
 16,
 16,
 16,
 16,
 16,
 16,
 16,
 16,
 16,
 16,
 16,
 16,
 16,
 16,
 16,
 16,
 16,
 16,
 16,
 16,
 16,
 16,
 16,
 16,
 16,
 16,
 16,
 16,
 16,
 16,
 16,
 16,
 16,
 16,
 16,
 16,
 16,
 16,
 16,
 16,
 16,
 16,
 16,
 16,
 16,
 16,
 16,
 16,
 16,
 16,
 16,
 16,
 16,
 16,
 16,
 16,
 16,
 16,
 16,
 16,
 16,
 16,
 16,
 16,
 16,
 16,
 16,
 16,
 16,
 16,
 16,
 16,
 16,
 16,
 16,
 16,
 16,
 16,
 16,
 16,
 16,
 16,
 16,
 16,
 16,
 16,
 16,
 16,
 16,
 16,
 16,
 16,
 16,
 16,
 16,
 16,
 16,
 16,
 16,
 16,
 16,
 16,
 16,
 16,
 16,
 16,
 16,
 16,
 16,
 16,
 16,
 16,
 16,
 16,
 16,
 16,
 16,
 16,
 16,
 16,
 16,
 16,
 16,
 16,
 16,
 16,
 16,
 16,
 16,
 16,
 16,
 16,
 16,
 16,
 16,
 16,
 16,
 16,
 16,
 16,
 16,
 16,
 16,
 16,
 16,
 16,
 16,
 16,
 16,
 16,
 16,
 16,
 16,
 16,
 16,
 16,
 16,
 16,
 16,
 16,
 16,
 16,
 16,
 16,
 16,
 16,
 16,
 16,
 16,
 16,
 16,
 16,
 16,
 16,
 16,
 16,
 16,
 16,
 16,
 16,
 16,
 16,
 16,
 16,
 16,
 16,
 16,
 16,
 16,
 16,
 16,
 16,
 16,
 16,
 16,
 16,
 16,
 16,
 16,
 16,
 16,
 16,
 16,
 16,
 16,
 16,
 16,
 16,
 16,
 16,
 16,
 16,
 16,
 16,
 16,
 16,
 16,
 16,
 16,
 16,
 16,
 16,
 16,
 16,
 16,
 16,
 16,
 16,
 16,
 16,
 16,
 16,
 16,
 16,
 16,
 16,
 16,
 16,
 16,
 16,
 16,
 16,
 16,
 16,
 16,
 16,
 16,
 16,
 16,
 16,
 16,
 16,
 16,
 16,
 16,
 16,
 16,
 16,
 16,
 16,
 16,
 16,
 16,
 16,
 16,
 16,
 16,
 16,
 16,
};


int WEIGHTS[16512] = {
 -64,
 -34,
 -44,
 -9,
 -45,
 -3,
 -24,
 -7,
 -19,
 22,
 -3,
 0,
 32,
 43,
 12,
 6,
 69,
 52,
 15,
 27,
 92,
 71,
 22,
 37,
 113,
 84,
 30,
 58,
 133,
 90,
 35,
 74,
 123,
 87,
 48,
 93,
 117,
 75,
 59,
 92,
 97,
 81,
 71,
 91,
 86,
 73,
 59,
 93,
 71,
 76,
 61,
 95,
 57,
 61,
 55,
 92,
 48,
 66,
 49,
 91,
 50,
 59,
 46,
 92,
 39,
 61,
 42,
 94,
 36,
 53,
 30,
 110,
 31,
 57,
 30,
 106,
 31,
 53,
 30,
 98,
 28,
 37,
 22,
 89,
 29,
 27,
 22,
 95,
 30,
 11,
 6,
 90,
 27,
 14,
 0,
 91,
 33,
 7,
 -5,
 92,
 44,
 11,
 0,
 83,
 42,
 18,
 7,
 71,
 48,
 23,
 19,
 59,
 39,
 23,
 27,
 34,
 41,
 25,
 37,
 12,
 24,
 21,
 34,
 -10,
 28,
 12,
 40,
 -23,
 16,
 15,
 21,
 -32,
 9,
 2,
 8,
 -37,
 -1,
 1,
 -3,
 -27,
 -17,
 4,
 -15,
 -19,
 -23,
 -3,
 -18,
 -21,
 -29,
 -9,
 -23,
 -8,
 -33,
 -7,
 -22,
 -16,
 -33,
 -21,
 -26,
 -8,
 -35,
 -20,
 -19,
 -17,
 -40,
 -33,
 -24,
 -25,
 -47,
 -44,
 -28,
 -31,
 -51,
 -53,
 -24,
 -36,
 -58,
 -51,
 -28,
 -52,
 -52,
 -54,
 -37,
 -64,
 -62,
 -51,
 -41,
 -71,
 -59,
 -51,
 -41,
 -69,
 -71,
 -60,
 -48,
 -76,
 -73,
 -57,
 -54,
 -77,
 -82,
 -64,
 -58,
 -86,
 -83,
 -72,
 -76,
 -94,
 -91,
 -89,
 -80,
 -101,
 -101,
 -101,
 -100,
 -110,
 -111,
 -116,
 -122,
 -108,
 -117,
 -140,
 -133,
 -112,
 -85,
 -134,
 -124,
 -92,
 -60,
 -101,
 -110,
 -71,
 -32,
 -73,
 -78,
 -66,
 -25,
 -46,
 -51,
 -47,
 -24,
 -23,
 -30,
 -27,
 -10,
 -9,
 -13,
 -20,
 -8,
 -8,
 -3,
 -7,
 -10,
 0,
 0,
 0,
 -9,
 12,
 4,
 -2,
 -8,
 12,
 1,
 9,
 0,
 16,
 13,
 10,
 0,
 13,
 9,
 9,
 10,
 12,
 8,
 11,
 12,
 16,
 1,
 10,
 24,
 6,
 2,
 8,
 25,
 8,
 0,
 7,
 34,
 8,
 3,
 0,
 35,
 8,
 6,
 1,
 43,
 3,
 9,
 17,
 38,
 1,
 10,
 28,
 36,
 12,
 14,
 38,
 32,
 14,
 6,
 51,
 10,
 13,
 3,
 31,
 -16,
 27,
 4,
 38,
 -16,
 22,
 13,
 40,
 -16,
 20,
 24,
 42,
 -14,
 16,
 12,
 39,
 3,
 15,
 8,
 32,
 12,
 7,
 11,
 34,
 30,
 13,
 17,
 36,
 32,
 24,
 26,
 36,
 28,
 26,
 31,
 46,
 27,
 20,
 38,
 46,
 20,
 21,
 39,
 51,
 16,
 22,
 28,
 50,
 10,
 11,
 28,
 42,
 6,
 4,
 21,
 30,
 1,
 -1,
 16,
 13,
 -12,
 1,
 10,
 6,
 -18,
 -9,
 1,
 -15,
 -15,
 -10,
 -4,
 -19,
 -18,
 -10,
 -14,
 -28,
 -10,
 -7,
 -24,
 -31,
 -8,
 0,
 -24,
 -35,
 -4,
 -4,
 -34,
 -24,
 0,
 6,
 -29,
 -17,
 3,
 16,
 -31,
 -2,
 2,
 17,
 -19,
 15,
 -10,
 16,
 -23,
 34,
 -11,
 24,
 -25,
 44,
 -22,
 22,
 -34,
 43,
 -32,
 19,
 -46,
 31,
 -38,
 20,
 -57,
 22,
 -43,
 7,
 -63,
 19,
 -45,
 2,
 -63,
 8,
 -47,
 -24,
 -58,
 -6,
 -51,
 -42,
 -31,
 -28,
 -58,
 -60,
 -14,
 -38,
 -61,
 -80,
 4,
 -47,
 -62,
 -78,
 31,
 -57,
 -34,
 -74,
 50,
 -30,
 -26,
 -82,
 43,
 -12,
 -21,
 -79,
 22,
 -4,
 -12,
 -81,
 5,
 7,
 3,
 -64,
 -16,
 16,
 6,
 -52,
 -22,
 8,
 8,
 -31,
 -39,
 1,
 3,
 -33,
 -37,
 -18,
 -12,
 -34,
 -43,
 -34,
 -22,
 -31,
 -35,
 -53,
 -39,
 -31,
 -31,
 -60,
 -44,
 -37,
 -22,
 -76,
 62,
 81,
 56,
 -16,
 68,
 65,
 58,
 -15,
 83,
 51,
 51,
 -22,
 86,
 43,
 36,
 -26,
 78,
 33,
 18,
 -19,
 65,
 23,
 0,
 -5,
 58,
 24,
 -1,
 2,
 38,
 3,
 0,
 8,
 20,
 4,
 7,
 24,
 0,
 6,
 16,
 26,
 -15,
 8,
 37,
 39,
 -25,
 23,
 35,
 48,
 -36,
 33,
 34,
 57,
 -38,
 36,
 25,
 52,
 -41,
 31,
 5,
 53,
 -39,
 31,
 -3,
 43,
 -23,
 16,
 -18,
 28,
 -9,
 -4,
 -32,
 10,
 -4,
 -20,
 -41,
 -10,
 -10,
 -28,
 -49,
 -28,
 -18,
 -35,
 -53,
 -44,
 -39,
 -41,
 -53,
 -47,
 -48,
 -32,
 -44,
 -42,
 -53,
 -29,
 -37,
 -24,
 -62,
 -18,
 -27,
 -14,
 -57,
 -12,
 -36,
 -7,
 -60,
 -15,
 -29,
 2,
 -64,
 -11,
 -39,
 5,
 -59,
 -11,
 -51,
 21,
 -52,
 4,
 -49,
 27,
 -46,
 10,
 -57,
 41,
 -47,
 6,
 -58,
 39,
 -31,
 16,
 -54,
 43,
 -21,
 9,
 -42,
 39,
 -14,
 11,
 -26,
 43,
 -4,
 6,
 -7,
 39,
 5,
 13,
 -4,
 34,
 4,
 14,
 -8,
 23,
 3,
 24,
 -10,
 28,
 -4,
 29,
 -14,
 30,
 -6,
 26,
 -21,
 29,
 -9,
 37,
 -25,
 38,
 -7,
 38,
 -22,
 37,
 -7,
 46,
 -18,
 53,
 8,
 46,
 -13,
 57,
 19,
 54,
 -5,
 72,
 43,
 61,
 7,
 83,
 73,
 77,
 34,
 95,
 96,
 87,
 58,
 109,
 119,
 86,
 78,
 108,
 112,
 85,
 96,
 104,
 105,
 81,
 106,
 101,
 91,
 70,
 98,
 91,
 65,
 51,
 92,
 66,
 29,
 21,
 69,
 41,
 -26,
 -22,
 39,
 14,
 -58,
 -63,
 17,
 -21,
 -60,
 -93,
 5,
 -70,
 -37,
 -79,
 17,
 -70,
 -15,
 -57,
 27,
 -52,
 10,
 -37,
 36,
 -33,
 21,
 -28,
 46,
 -19,
 34,
 -11,
 57,
 -6,
 39,
 7,
 56,
 0,
 42,
 12,
 67,
 12,
 48,
 19,
 69,
 18,
 43,
 23,
 64,
 19,
 46,
 27,
 63,
 19,
 35,
 19,
 56,
 12,
 21,
 17,
 41,
 -6,
 17,
 18,
 19,
 -21,
 5,
 3,
 9,
 -37,
 -12,
 3,
 -11,
 -46,
 -11,
 17,
 -29,
 -56,
 -13,
 19,
 -35,
 -63,
 -21,
 32,
 -52,
 -59,
 -8,
 56,
 -73,
 -66,
 0,
 68,
 -83,
 -74,
 13,
 77,
 -92,
 -55,
 33,
 44,
 -90,
 -47,
 33,
 19,
 -105,
 -34,
 13,
 -7,
 -111,
 -26,
 0,
 -17,
 -126,
 -25,
 -15,
 -37,
 -117,
 -35,
 -31,
 -30,
 -117,
 -49,
 -42,
 -31,
 -105,
 -64,
 -56,
 -39,
 -107,
 -59,
 -62,
 -41,
 -95,
 -66,
 -70,
 -35,
 -95,
 -53,
 -65,
 -32,
 -77,
 -46,
 -60,
 -31,
 -67,
 -32,
 -49,
 -24,
 -65,
 -10,
 -35,
 -20,
 -56,
 -3,
 -17,
 -12,
 -50,
 1,
 -12,
 -13,
 -41,
 10,
 7,
 1,
 -43,
 13,
 9,
 10,
 -45,
 17,
 4,
 9,
 -51,
 15,
 5,
 11,
 -45,
 18,
 1,
 20,
 -50,
 21,
 -13,
 19,
 -46,
 30,
 -24,
 18,
 -42,
 31,
 -30,
 4,
 -38,
 40,
 -49,
 0,
 -29,
 35,
 -62,
 -11,
 -30,
 33,
 -61,
 -22,
 -18,
 27,
 -57,
 -33,
 -11,
 15,
 -59,
 -32,
 -12,
 -2,
 -55,
 -34,
 -11,
 -16,
 -60,
 -31,
 0,
 -26,
 -57,
 -22,
 -4,
 -22,
 -45,
 -24,
 8,
 -9,
 -27,
 -16,
 2,
 -1,
 -7,
 -12,
 -3,
 26,
 2,
 -10,
 -11,
 32,
 3,
 -13,
 -27,
 44,
 -4,
 -10,
 -26,
 46,
 0,
 0,
 -31,
 33,
 -12,
 -2,
 -24,
 22,
 -20,
 -1,
 -25,
 16,
 -18,
 7,
 0,
 7,
 -18,
 26,
 18,
 2,
 -2,
 43,
 41,
 19,
 42,
 69,
 66,
 66,
 84,
 85,
 99,
 107,
 131,
 79,
 115,
 100,
 144,
 65,
 121,
 92,
 137,
 72,
 127,
 85,
 -15,
 9,
 25,
 2,
 -18,
 16,
 9,
 -2,
 -19,
 17,
 6,
 -3,
 -7,
 13,
 5,
 -8,
 0,
 8,
 4,
 -3,
 5,
 6,
 8,
 1,
 12,
 0,
 4,
 4,
 8,
 7,
 12,
 0,
 2,
 4,
 21,
 1,
 10,
 10,
 20,
 -3,
 9,
 23,
 34,
 -10,
 15,
 31,
 40,
 -14,
 21,
 44,
 51,
 -18,
 34,
 55,
 71,
 -28,
 40,
 68,
 82,
 -25,
 34,
 77,
 90,
 -27,
 44,
 76,
 83,
 -18,
 31,
 66,
 71,
 -8,
 19,
 56,
 56,
 -6,
 8,
 19,
 4,
 3,
 7,
 -16,
 -14,
 0,
 8,
 -41,
 -31,
 3,
 -3,
 -54,
 -29,
 -6,
 -8,
 -67,
 -41,
 -20,
 -7,
 -68,
 -41,
 -33,
 -3,
 -64,
 -44,
 -42,
 8,
 -63,
 -49,
 -42,
 5,
 -53,
 -53,
 -43,
 6,
 -38,
 -50,
 -43,
 -6,
 -22,
 -53,
 -31,
 -6,
 -6,
 -49,
 -26,
 -17,
 4,
 -34,
 -22,
 -30,
 15,
 -42,
 -29,
 -31,
 16,
 -32,
 -24,
 -33,
 8,
 -25,
 -33,
 -38,
 3,
 -25,
 -29,
 -32,
 2,
 -16,
 -28,
 -30,
 -7,
 -10,
 -29,
 -31,
 -5,
 -13,
 -24,
 -16,
 -5,
 -13,
 -27,
 -10,
 1,
 -7,
 -24,
 -7,
 6,
 -16,
 -17,
 -6,
 9,
 -19,
 -17,
 -9,
 11,
 -24,
 -9,
 -2,
 22,
 -30,
 -9,
 -6,
 16,
 -28,
 -13,
 0,
 10,
 -31,
 -8,
 0,
 8,
 -21,
 -7,
 -1,
 -2,
 -16,
 -5,
 -2,
 -5,
 -12,
 1,
 0,
 -12,
 -6,
 1,
 -4,
 -20,
 -11,
 0,
 -18,
 -23,
 -10,
 -8,
 -19,
 -26,
 -12,
 -10,
 -19,
 -16,
 -12,
 -16,
 -15,
 -19,
 -15,
 -13,
 -16,
 -15,
 -3,
 -17,
 23,
 -5,
 29,
 -9,
 48,
 25,
 37,
 30,
 54,
 28,
 39,
 40,
 46,
 33,
 39,
 39,
 52,
 40,
 43,
 40,
 45,
 36,
 41,
 38,
 42,
 37,
 36,
 34,
 36,
 38,
 41,
 35,
 42,
 36,
 44,
 37,
 38,
 43,
 41,
 39,
 34,
 47,
 38,
 41,
 31,
 44,
 42,
 47,
 28,
 50,
 38,
 42,
 27,
 48,
 34,
 49,
 28,
 39,
 39,
 41,
 34,
 38,
 46,
 35,
 30,
 37,
 46,
 23,
 40,
 22,
 49,
 -1,
 40,
 23,
 39,
 -12,
 46,
 25,
 8,
 -38,
 41,
 32,
 -27,
 -50,
 30,
 24,
 -45,
 -45,
 44,
 11,
 -38,
 -32,
 29,
 -4,
 -39,
 -18,
 2,
 -11,
 -30,
 -14,
 -8,
 -21,
 -25,
 -13,
 -24,
 -23,
 -24,
 -13,
 -31,
 -18,
 -19,
 -17,
 -33,
 -18,
 -17,
 -20,
 -44,
 -21,
 -16,
 -27,
 -37,
 -13,
 -27,
 -23,
 -29,
 -23,
 -27,
 -30,
 -28,
 -12,
 -21,
 -28,
 -21,
 -16,
 -31,
 -35,
 -19,
 -22,
 -32,
 -30,
 -14,
 -21,
 -29,
 -37,
 -8,
 -16,
 -34,
 -32,
 -1,
 -13,
 -36,
 -33,
 -8,
 -17,
 -40,
 -33,
 -13,
 -21,
 -29,
 -35,
 -17,
 -36,
 -34,
 -32,
 -27,
 -38,
 -35,
 -33,
 -28,
 -36,
 -29,
 -27,
 -33,
 -34,
 -34,
 -30,
 -44,
 -32,
 -38,
 -31,
 -36,
 -21,
 -37,
 -27,
 -36,
 -15,
 -31,
 -24,
 -30,
 -5,
 -30,
 -24,
 -15,
 4,
 -33,
 -27,
 -4,
 14,
 -29,
 -17,
 13,
 23,
 -37,
 -16,
 18,
 18,
 -25,
 -20,
 24,
 14,
 -7,
 -18,
 21,
 9,
 12,
 -18,
 26,
 3,
 28,
 -11,
 24,
 3,
 38,
 -13,
 7,
 -5,
 42,
 0,
 3,
 -7,
 33,
 3,
 -10,
 -15,
 25,
 0,
 -23,
 -22,
 11,
 1,
 -22,
 -22,
 -3,
 0,
 -32,
 -22,
 -12,
 -4,
 -28,
 -14,
 -7,
 -6,
 -18,
 -6,
 -7,
 0,
 -3,
 8,
 -2,
 -1,
 3,
 4,
 0,
 0,
 15,
 13,
 10,
 -2,
 21,
 17,
 10,
 1,
 21,
 20,
 24,
 11,
 22,
 29,
 28,
 26,
 23,
 33,
 40,
 43,
 -34,
 -11,
 -21,
 -25,
 -33,
 -4,
 -23,
 -21,
 -24,
 3,
 -30,
 -18,
 -21,
 11,
 -27,
 -9,
 -13,
 11,
 -33,
 -8,
 -6,
 29,
 -31,
 -10,
 17,
 26,
 -26,
 3,
 31,
 25,
 -14,
 10,
 35,
 14,
 -12,
 25,
 43,
 9,
 -7,
 40,
 53,
 15,
 -14,
 49,
 47,
 14,
 -16,
 62,
 45,
 11,
 -14,
 78,
 55,
 13,
 -11,
 85,
 73,
 12,
 -8,
 80,
 91,
 21,
 17,
 71,
 98,
 36,
 41,
 62,
 83,
 44,
 57,
 65,
 74,
 43,
 63,
 64,
 56,
 52,
 64,
 59,
 53,
 47,
 50,
 61,
 47,
 53,
 45,
 68,
 51,
 50,
 44,
 66,
 61,
 50,
 34,
 64,
 61,
 47,
 30,
 61,
 51,
 51,
 25,
 53,
 40,
 42,
 19,
 47,
 29,
 46,
 21,
 30,
 16,
 46,
 18,
 17,
 8,
 48,
 24,
 6,
 2,
 41,
 14,
 6,
 0,
 33,
 12,
 1,
 10,
 25,
 7,
 6,
 8,
 22,
 -3,
 6,
 8,
 11,
 0,
 4,
 15,
 6,
 -14,
 9,
 17,
 8,
 -16,
 3,
 6,
 2,
 -11,
 6,
 1,
 14,
 -9,
 12,
 2,
 16,
 -5,
 1,
 -5,
 21,
 1,
 5,
 -14,
 21,
 7,
 13,
 -11,
 17,
 6,
 4,
 -12,
 7,
 13,
 13,
 -5,
 0,
 4,
 8,
 -7,
 -5,
 8,
 4,
 1,
 -10,
 0,
 1,
 3,
 -11,
 5,
 -5,
 -3,
 -19,
 -15,
 -11,
 -34,
 -18,
 -31,
 -31,
 -53,
 -34,
 -48,
 -55,
 -70,
 -51,
 -59,
 -78,
 -88,
 -73,
 -72,
 -91,
 -97,
 -86,
 -87,
 -104,
 -101,
 -108,
 -98,
 -115,
 -114,
 -137,
 -126,
 -140,
 -99,
 -123,
 -122,
 -122,
 -68,
 -96,
 -104,
 -100,
 -57,
 -76,
 -65,
 -68,
 -40,
 -57,
 -43,
 -47,
 -18,
 -32,
 -17,
 -34,
 -13,
 -15,
 -11,
 -20,
 5,
 0,
 7,
 -5,
 10,
 11,
 13,
 1,
 12,
 13,
 29,
 18,
 19,
 26,
 29,
 14,
 25,
 25,
 36,
 23,
 29,
 34,
 40,
 27,
 32,
 34,
 42,
 26,
 23,
 32,
 33,
 21,
 27,
 33,
 33,
 21,
 26,
 33,
 33,
 16,
 26,
 26,
 30,
 14,
 20,
 24,
 25,
 9,
 27,
 16,
 34,
 3,
 33,
 16,
 37,
 1,
 33,
 4,
 39,
 -2,
 30,
 0,
 31,
 0,
 17,
 -33,
 28,
 0,
 5,
 -21,
 4,
 7,
 11,
 -24,
 8,
 24,
 8,
 -12,
 -2,
 22,
 -12,
 -14,
 -17,
 10,
 -12,
 -15,
 -29,
 2,
 -14,
 -17,
 -46,
 -1,
 -5,
 -24,
 -42,
 -6,
 -9,
 -22,
 -43,
 -14,
 -7,
 -30,
 -47,
 -24,
 -18,
 -23,
 -43,
 -33,
 -22,
 -23,
 -41,
 -38,
 -27,
 -23,
 -48,
 -52,
 -36,
 -34,
 -53,
 -50,
 -47,
 -36,
 -53,
 -59,
 -53,
 -30,
 -61,
 -55,
 -47,
 -31,
 -61,
 -52,
 -46,
 -41,
 -57,
 -44,
 -38,
 -35,
 -63,
 -31,
 -32,
 -24,
 -52,
 -26,
 -17,
 -16,
 -57,
 -14,
 -16,
 -14,
 -46,
 -15,
 -10,
 -7,
 -50,
 -14,
 -7,
 -4,
 -35,
 -8,
 -11,
 1,
 -27,
 -9,
 -12,
 5,
 -27,
 -4,
 -10,
 -1,
 -15,
 7,
 -8,
 1,
 -7,
 9,
 -5,
 9,
 -10,
 12,
 2,
 8,
 0,
 18,
 6,
 16,
 0,
 26,
 21,
 16,
 9,
 27,
 22,
 19,
 12,
 30,
 28,
 35,
 23,
 41,
 32,
 39,
 26,
 40,
 33,
 50,
 39,
 46,
 24,
 53,
 49,
 49,
 25,
 55,
 67,
 51,
 22,
 53,
 76,
 56,
 19,
 46,
 90,
 66,
 29,
 57,
 104,
 73,
 52,
 54,
 118,
 96,
 34,
 46,
 93,
 124,
 27,
 38,
 76,
 115,
 20,
 43,
 58,
 123,
 0,
 9,
 49,
 76,
 -32,
 -3,
 39,
 54,
 -24,
 0,
 -8,
 33,
 -22,
 0,
 -11,
 12,
 -11,
 12,
 -5,
 0,
 46,
 60,
 92,
 11,
 27,
 29,
 90,
 -12,
 9,
 -7,
 69,
 -29,
 0,
 -34,
 43,
 -45,
 3,
 -52,
 15,
 -54,
 4,
 -65,
 -17,
 -61,
 5,
 -80,
 -46,
 -59,
 -11,
 -85,
 -67,
 -59,
 -21,
 -92,
 -72,
 -58,
 -40,
 -85,
 -76,
 -58,
 -49,
 -77,
 -62,
 -56,
 -50,
 -66,
 -44,
 -54,
 -45,
 -53,
 -33,
 -43,
 -40,
 -60,
 -10,
 -43,
 -31,
 -55,
 -3,
 -49,
 -31,
 -61,
 -12,
 -45,
 -19,
 -56,
 -22,
 -45,
 -22,
 -63,
 -37,
 -48,
 -28,
 -56,
 -51,
 -48,
 -25,
 -46,
 -54,
 -38,
 -31,
 -36,
 -55,
 -34,
 -38,
 -33,
 -56,
 -28,
 -35,
 -16,
 -52,
 -28,
 -28,
 -13,
 -52,
 -20,
 -19,
 -10,
 -48,
 -9,
 -11,
 -5,
 -46,
 1,
 -7,
 -3,
 -45,
 17,
 -3,
 -2,
 -48,
 15,
 -2,
 -7,
 -52,
 21,
 -4,
 -12,
 -41,
 9,
 -16,
 -16,
 -43,
 15,
 -18,
 -13,
 -28,
 12,
 -24,
 -7,
 -30,
 3,
 -20,
 -14,
 -24,
 1,
 -19,
 -1,
 -11,
 6,
 -19,
 0,
 -13,
 0,
 -12,
 4,
 -7,
 0,
 -8,
 8,
 -7,
 6,
 10,
 24,
 4,
 10,
 20,
 31,
 4,
 11,
 19,
 32,
 11,
 24,
 27,
 35,
 26,
 29,
 33,
 41,
 32,
 30,
 45,
 43,
 32,
 39,
 42,
 39,
 40,
 52,
 47,
 39,
 41,
 52,
 51,
 41,
 36,
 61,
 47,
 48,
 46,
 69,
 63,
 67,
 44,
 74,
 55,
 25,
 53,
 33,
 46,
 6,
 78,
 5,
 29,
 -1,
 70,
 -12,
 20,
 6,
 49,
 -22,
 3,
 -1,
 24,
 -18,
 2,
 -2,
 9,
 -25,
 1,
 0,
 -13,
 -25,
 0,
 -2,
 -20,
 -24,
 -22,
 -19,
 -38,
 -29,
 -25,
 -29,
 -18,
 -21,
 -13,
 -20,
 -16,
 -25,
 -8,
 -24,
 -5,
 -11,
 -9,
 -20,
 14,
 -8,
 2,
 -11,
 14,
 -5,
 11,
 -11,
 27,
 -2,
 14,
 -9,
 22,
 -2,
 9,
 -16,
 24,
 -11,
 7,
 -19,
 29,
 -7,
 -1,
 -14,
 25,
 -8,
 -4,
 -32,
 10,
 -16,
 -21,
 -34,
 0,
 -25,
 -32,
 -41,
 -4,
 -28,
 -36,
 -49,
 -15,
 -28,
 -41,
 -47,
 -24,
 -34,
 -46,
 -38,
 -32,
 -30,
 -35,
 -16,
 -29,
 -24,
 -24,
 9,
 -33,
 -10,
 -8,
 45,
 -32,
 8,
 8,
 88,
 -35,
 33,
 39,
 114,
 -37,
 72,
 85,
 103,
 -14,
 71,
 69,
 83,
 -11,
 56,
 55,
 64,
 8,
 46,
 58,
 60,
 17,
 40,
 58,
 50,
 21,
 39,
 69,
 55,
 24,
 44,
 57,
 61,
 35,
 41,
 62,
 53,
 39,
 42,
 57,
 57,
 40,
 37,
 57,
 61,
 40,
 42,
 56,
 59,
 26,
 41,
 43,
 61,
 20,
 31,
 43,
 53,
 9,
 37,
 42,
 48,
 7,
 41,
 56,
 52,
 0,
 46,
 59,
 38,
 9,
 57,
 79,
 45,
 12,
 61,
 83,
 38,
 24,
 64,
 88,
 40,
 41,
 58,
 86,
 40,
 53,
 67,
 73,
 39,
 56,
 67,
 51,
 34,
 63,
 64,
 33,
 31,
 76,
 49,
 22,
 35,
 74,
 53,
 19,
 28,
 67,
 48,
 34,
 33,
 73,
 41,
 38,
 27,
 63,
 25,
 53,
 19,
 60,
 23,
 65,
 17,
 50,
 15,
 66,
 4,
 43,
 0,
 67,
 -4,
 37,
 -14,
 55,
 -13,
 37,
 -18,
 34,
 -27,
 26,
 -20,
 8,
 -33,
 25,
 -25,
 -9,
 -38,
 7,
 -32,
 -25,
 -43,
 -3,
 -32,
 -31,
 -60,
 -3,
 -25,
 -45,
 -60,
 2,
 -38,
 -51,
 -52,
 16,
 -54,
 -53,
 -49,
 16,
 -58,
 -53,
 -50,
 12,
 -64,
 -62,
 -49,
 7,
 -71,
 -78,
 -41,
 6,
 -73,
 -75,
 -36,
 -7,
 -69,
 -70,
 -16,
 -17,
 -63,
 -53,
 -14,
 -27,
 -49,
 -39,
 -4,
 -47,
 -21,
 -22,
 0,
 -46,
 0,
 -3,
 1,
 -55,
 20,
 49,
 74,
 55,
 38,
 16,
 45,
 23,
 23,
 -2,
 18,
 10,
 21,
 -18,
 -2,
 -9,
 14,
 -18,
 -27,
 -15,
 9,
 -12,
 -32,
 -15,
 14,
 -12,
 -37,
 -4,
 4,
 -4,
 -37,
 1,
 0,
 3,
 -35,
 0,
 -20,
 -4,
 -42,
 10,
 -28,
 -6,
 -48,
 10,
 -42,
 -9,
 -46,
 12,
 -48,
 -26,
 -45,
 21,
 -58,
 -38,
 -44,
 25,
 -67,
 -50,
 -61,
 43,
 -71,
 -72,
 -65,
 45,
 -63,
 -79,
 -73,
 38,
 -48,
 -57,
 -73,
 22,
 -41,
 -27,
 -61,
 -15,
 -38,
 3,
 -52,
 -52,
 -41,
 25,
 -48,
 -70,
 -34,
 44,
 -47,
 -74,
 -37,
 45,
 -47,
 -76,
 -36,
 35,
 -41,
 -59,
 -32,
 15,
 -37,
 -50,
 -39,
 7,
 -38,
 -46,
 -40,
 -18,
 -34,
 -35,
 -36,
 -30,
 -32,
 -26,
 -27,
 -42,
 -32,
 -28,
 -28,
 -53,
 -25,
 -23,
 -35,
 -55,
 -30,
 -23,
 -29,
 -48,
 -30,
 -26,
 -29,
 -47,
 -27,
 -23,
 -30,
 -36,
 -24,
 -30,
 -27,
 -22,
 -30,
 -32,
 -23,
 -9,
 -21,
 -27,
 -21,
 -5,
 -22,
 -25,
 -10,
 -1,
 -15,
 -31,
 -10,
 -1,
 -6,
 -24,
 -13,
 -5,
 9,
 -25,
 -8,
 -7,
 11,
 -34,
 -2,
 0,
 18,
 -34,
 4,
 3,
 26,
 -36,
 8,
 -2,
 21,
 -37,
 12,
 13,
 23,
 -33,
 23,
 17,
 25,
 -32,
 40,
 28,
 23,
 -29,
 42,
 39,
 24,
 -9,
 55,
 48,
 29,
 -5,
 56,
 58,
 38,
 22,
 64,
 57,
 41,
 36,
 72,
 58,
 46,
 50,
 70,
 56,
 44,
 59,
 63,
 51,
 45,
 59,
 64,
 47,
 34,
 67,
 67,
 35,
 29,
 68,
 67,
 26,
 28,
 72,
 69,
 -12,
 -3,
 65,
 49,
 6,
 7,
 64,
 31,
 18,
 19,
 56,
 26,
 32,
 17,
 52,
 32,
 36,
 28,
 60,
 24,
 29,
 28,
 62,
 29,
 39,
 31,
 57,
 30,
 41,
 35,
 58,
 27,
 33,
 42,
 63,
 32,
 28,
 34,
 59,
 31,
 27,
 37,
 47,
 27,
 18,
 31,
 34,
 11,
 11,
 20,
 24,
 3,
 -1,
 7,
 12,
 -14,
 -14,
 -5,
 -1,
 -24,
 -14,
 -27,
 -24,
 -34,
 -22,
 -38,
 -35,
 -45,
 -23,
 -41,
 -49,
 -58,
 -25,
 -44,
 -49,
 -63,
 -20,
 -36,
 -61,
 -69,
 -31,
 -36,
 -72,
 -72,
 -26,
 -38,
 -81,
 -59,
 -17,
 -35,
 -74,
 -77,
 -37,
 -58,
 -88,
 -80,
 -41,
 -79,
 -104,
 -84,
 -41,
 -90,
 -104,
 -89,
 -39,
 -94,
 -99,
 -89,
 -33,
 -78,
 -102,
 -84,
 -31,
 -76,
 -93,
 -74,
 -32,
 -67,
 -94,
 -70,
 -35,
 -51,
 -89,
 -64,
 -45,
 -46,
 -79,
 -66,
 -45,
 -45,
 -67,
 -54,
 -47,
 -43,
 -47,
 -39,
 -38,
 -32,
 -35,
 -31,
 -32,
 -35,
 -32,
 -15,
 -23,
 -26,
 -16,
 0,
 -3,
 -21,
 -10,
 3,
 -3,
 -8,
 0,
 12,
 8,
 0,
 -3,
 15,
 11,
 4,
 2,
 18,
 4,
 17,
 2,
 19,
 2,
 20,
 1,
 20,
 4,
 25,
 -3,
 19,
 0,
 33,
 -2,
 23,
 0,
 31,
 -2,
 27,
 4,
 33,
 -1,
 28,
 0,
 28,
 3,
 38,
 12,
 21,
 -4,
 34,
 12,
 13,
 -7,
 50,
 25,
 12,
 -17,
 50,
 25,
 0,
 -15,
 48,
 22,
 9,
 -22,
 51,
 30,
 2,
 -21,
 53,
 30,
 16,
 -16,
 48,
 40,
 25,
 -9,
 56,
 43,
 34,
 -4,
 55,
 56,
 47,
 12,
 69,
 68,
 48,
 13,
 73,
 62,
 58,
 30,
 76,
 58,
 67,
 49,
 66,
 66,
 71,
 60,
 72,
 58,
 75,
 61,
 59,
 38,
 85,
 57,
 67,
 34,
 99,
 52,
 63,
 37,
 95,
 52,
 60,
 30,
 98,
 49,
 55,
 36,
 101,
 64,
 57,
 51,
 101,
 80,
 48,
 65,
 88,
 91,
 47,
 81,
 81,
 102,
 56,
 -14,
 -10,
 6,
 22,
 -53,
 -8,
 13,
 15,
 -91,
 -2,
 20,
 -3,
 -115,
 -8,
 18,
 -9,
 -118,
 -5,
 19,
 -11,
 -85,
 -32,
 8,
 -44,
 -56,
 -25,
 -16,
 -51,
 -17,
 -24,
 -35,
 -41,
 32,
 -13,
 -43,
 -20,
 73,
 -3,
 -38,
 4,
 95,
 10,
 -32,
 22,
 94,
 17,
 -20,
 34,
 85,
 24,
 -10,
 32,
 68,
 31,
 0,
 29,
 39,
 20,
 14,
 29,
 10,
 12,
 34,
 35,
 -11,
 12,
 42,
 31,
 -32,
 8,
 36,
 12,
 -41,
 7,
 22,
 2,
 -36,
 -8,
 2,
 -11,
 -38,
 -13,
 -28,
 -32,
 -15,
 -23,
 -45,
 -36,
 -9,
 -28,
 -54,
 -36,
 -6,
 -37,
 -50,
 -30,
 12,
 -41,
 -50,
 -14,
 36,
 -23,
 -41,
 -9,
 51,
 -10,
 -34,
 -11,
 60,
 1,
 -17,
 -7,
 64,
 20,
 -13,
 -2,
 76,
 23,
 -3,
 5,
 83,
 37,
 8,
 0,
 86,
 41,
 19,
 5,
 84,
 47,
 28,
 12,
 81,
 61,
 36,
 20,
 65,
 57,
 43,
 28,
 57,
 49,
 46,
 25,
 53,
 47,
 52,
 31,
 50,
 49,
 63,
 38,
 46,
 45,
 54,
 38,
 43,
 36,
 58,
 36,
 38,
 44,
 51,
 44,
 41,
 34,
 53,
 34,
 41,
 36,
 46,
 37,
 43,
 32,
 40,
 39,
 40,
 33,
 35,
 36,
 42,
 29,
 32,
 35,
 40,
 21,
 34,
 39,
 36,
 26,
 28,
 43,
 29,
 25,
 30,
 49,
 33,
 20,
 38,
 49,
 24,
 20,
 34,
 58,
 25,
 17,
 43,
 57,
 29,
 13,
 44,
 53,
 38,
 0,
 52,
 53,
 43,
 -2,
 60,
 59,
 53,
 -3,
 73,
 59,
 64,
 -15,
 83,
 68,
 62,
 62,
 103,
 87,
 28,
 41,
 48,
 52,
 19,
 42,
 24,
 38,
 13,
 40,
 19,
 34,
 8,
 37,
 17,
 31,
 11,
 36,
 19,
 30,
 9,
 36,
 18,
 21,
 -2,
 37,
 9,
 22,
 -3,
 23,
 5,
 10,
 0,
 26,
 0,
 5,
 -14,
 9,
 -7,
 2,
 -20,
 0,
 -12,
 -18,
 -18,
 -13,
 -31,
 -23,
 -25,
 -28,
 -41,
 -43,
 -32,
 -50,
 -57,
 -69,
 -34,
 -54,
 -67,
 -81,
 -44,
 -71,
 -67,
 -95,
 -40,
 -83,
 -59,
 -111,
 -46,
 -97,
 -52,
 -115,
 -47,
 -116,
 -49,
 -118,
 -46,
 -157,
 -42,
 -127,
 -44,
 -203,
 -41,
 -145,
 -70,
 -228,
 -49,
 -181,
 -55,
 -207,
 -64,
 -176,
 -51,
 -182,
 -67,
 -167,
 -39,
 -152,
 -75,
 -139,
 -38,
 -138,
 -94,
 -118,
 -48,
 -122,
 -97,
 -108,
 -54,
 -119,
 -108,
 -102,
 -67,
 -115,
 -111,
 -100,
 -76,
 -110,
 -102,
 -103,
 -79,
 -101,
 -96,
 -95,
 -77,
 -96,
 -79,
 -84,
 -72,
 -89,
 -66,
 -82,
 -70,
 -76,
 -56,
 -72,
 -58,
 -70,
 -45,
 -61,
 -54,
 -55,
 -29,
 -50,
 -50,
 -50,
 -17,
 -41,
 -37,
 -38,
 -2,
 -28,
 -17,
 -29,
 0,
 -16,
 0,
 -16,
 -2,
 -15,
 6,
 -16,
 2,
 -2,
 25,
 -2,
 6,
 -7,
 32,
 -4,
 5,
 3,
 37,
 3,
 -1,
 -2,
 34,
 13,
 -2,
 4,
 20,
 15,
 -1,
 14,
 9,
 15,
 -13,
 12,
 0,
 17,
 -15,
 25,
 -8,
 4,
 -20,
 22,
 -9,
 5,
 -13,
 31,
 -5,
 -2,
 -7,
 36,
 -4,
 -6,
 4,
 32,
 13,
 3,
 26,
 37,
 23,
 8,
 32,
 40,
 37,
 28,
 44,
 34,
 45,
 46,
 50,
 37,
 53,
 56,
 52,
 36,
 47,
 75,
 50,
 37,
 58,
 86,
 48,
 46,
 57,
 97,
 58,
 54,
 75,
 115,
 66,
 55,
 94,
 144,
 86,
 64,
 79,
 107,
 119,
 73,
 78,
 78,
 150,
 65,
 69,
 57,
 159,
 69,
 73,
 37,
 145,
 64,
 73,
 41,
 120,
 61,
 71,
 35,
 99,
 62,
 77,
 37,
 87,
 61,
 72,
 50,
 83,
 64,
 39,
 16,
 -12,
 -4,
 57,
 3,
 -5,
 7,
 60,
 2,
 4,
 24,
 68,
 -6,
 19,
 32,
 65,
 -13,
 22,
 33,
 53,
 -15,
 23,
 29,
 23,
 -20,
 19,
 14,
 -3,
 -29,
 10,
 -3,
 -37,
 -28,
 1,
 -15,
 -48,
 -43,
 -4,
 -25,
 -59,
 -51,
 -33,
 -36,
 -74,
 -58,
 -54,
 -36,
 -92,
 -76,
 -81,
 -47,
 -100,
 -81,
 -93,
 -60,
 -115,
 -95,
 -92,
 -75,
 -140,
 -98,
 -87,
 -82,
 -139,
 -92,
 -88,
 -81,
 -129,
 -93,
 -77,
 -86,
 -105,
 -75,
 -80,
 -72,
 -95,
 -66,
 -68,
 -51,
 -74,
 -58,
 -65,
 -41,
 -73,
 -51,
 -68,
 -43,
 -66,
 -50,
 -67,
 -47,
 -75,
 -42,
 -74,
 -55,
 -69,
 -45,
 -85,
 -69,
 -63,
 -49,
 -79,
 -72,
 -62,
 -48,
 -74,
 -83,
 -54,
 -44,
 -70,
 -84,
 -52,
 -39,
 -64,
 -74,
 -45,
 -30,
 -73,
 -67,
 -57,
 -34,
 -73,
 -55,
 -61,
 -39,
 -76,
 -48,
 -63,
 -35,
 -80,
 -46,
 -55,
 -32,
 -75,
 -42,
 -42,
 -31,
 -62,
 -49,
 -34,
 -33,
 -42,
 -48,
 -33,
 -39,
 -30,
 -46,
 -31,
 -34,
 -21,
 -47,
 -27,
 -40,
 -12,
 -42,
 -22,
 -39,
 -16,
 -42,
 -18,
 -36,
 -18,
 -40,
 -25,
 -39,
 -24,
 -32,
 -25,
 -28,
 -23,
 -30,
 -21,
 -36,
 -34,
 -28,
 -15,
 -33,
 -38,
 -33,
 -14,
 -33,
 -31,
 -38,
 -9,
 -33,
 -35,
 -38,
 -14,
 -44,
 -27,
 -42,
 -21,
 -50,
 -27,
 -39,
 -22,
 -58,
 -16,
 -44,
 -23,
 -53,
 -20,
 -50,
 -33,
 -61,
 -15,
 -49,
 -44,
 -54,
 -20,
 -47,
 -46,
 -48,
 -22,
 -54,
 -52,
 -28,
 -20,
 -51,
 -52,
 -11,
 -11,
 -54,
 -45,
 1,
 0,
 -38,
 -22,
 3,
 12,
 -29,
 4,
 16,
 26,
 -19,
 24,
 26,
 31,
 6,
 38,
 21,
 37,
 20,
 43,
 27,
 37,
 35,
 41,
 30,
 40,
 33,
 40,
 26,
 39,
 39,
 41,
 27,
 36,
 42,
 30,
 26,
 38,
 53,
 33,
 30,
 42,
 55,
 31,
 37,
 43,
 58,
 34,
 39,
 50,
 57,
 38,
 42,
 54,
 58,
 35,
 46,
 59,
 60,
 41,
 47,
 58,
 66,
 46,
 52,
 65,
 68,
 60,
 54,
 62,
 60,
 65,
 66,
 56,
 60,
 61,
 62,
 41,
 54,
 53,
 59,
 32,
 63,
 38,
 54,
 15,
 53,
 19,
 27,
 3,
 52,
 -42,
 26,
 -23,
 5,
 -74,
 13,
 -52,
 16,
 -97,
 -8,
 -50,
 13,
 -117,
 -34,
 -69,
 -5,
 -143,
 -77,
 -99,
 -24,
 -146,
 -121,
 -105,
 -56,
 -138,
 -150,
 -109,
 -91,
 -137,
 -147,
 -115,
 -105,
 -124,
 -125,
 -105,
 -97,
 -114,
 -106,
 -106,
 -81,
 -88,
 -85,
 -96,
 -76,
 -77,
 -64,
 -89,
 -66,
 -59,
 -40,
 -82,
 -61,
 -52,
 -33,
 -72,
 -52,
 -36,
 -20,
 -66,
 -51,
 -36,
 -22,
 -61,
 -56,
 -30,
 -26,
 -63,
 -47,
 -33,
 -30,
 -68,
 -51,
 -28,
 -31,
 -69,
 -45,
 -29,
 -43,
 -60,
 -44,
 -21,
 -35,
 -61,
 -44,
 -15,
 -37,
 -57,
 -32,
 -15,
 -34,
 -36,
 -34,
 -8,
 -24,
 -26,
 -22,
 -14,
 -26,
 -14,
 -19,
 -14,
 -17,
 -12,
 -16,
 -7,
 -4,
 3,
 -4,
 -9,
 8,
 6,
 -2,
 0,
 24,
 7,
 3,
 16,
 28,
 16,
 17,
 24,
 38,
 29,
 22,
 38,
 44,
 31,
 24,
 42,
 40,
 30,
 20,
 48,
 40,
 30,
 28,
 60,
 49,
 36,
 32,
 56,
 38,
 45,
 43,
 50,
 44,
 57,
 41,
 52,
 48,
 75,
 49,
 55,
 45,
 70,
 51,
 40,
 27,
 68,
 56,
 36,
 17,
 57,
 41,
 30,
 16,
 54,
 31,
 34,
 15,
 55,
 26,
 38,
 8,
 58,
 21,
 33,
 8,
 45,
 17,
 29,
 18,
 43,
 13,
 42,
 29,
 49,
 19,
 53,
 81,
 46,
 41,
 98,
 51,
 68,
 61,
 -18,
 -125,
 -100,
 -29,
 -5,
 -72,
 -86,
 1,
 28,
 -22,
 -60,
 6,
 45,
 20,
 -32,
 10,
 30,
 42,
 -10,
 6,
 13,
 56,
 -6,
 1,
 -4,
 42,
 4,
 -13,
 -28,
 16,
 1,
 -27,
 -50,
 -9,
 9,
 -32,
 -73,
 -29,
 23,
 -42,
 -95,
 -47,
 22,
 -38,
 -92,
 -62,
 21,
 -29,
 -87,
 -63,
 30,
 -22,
 -72,
 -56,
 44,
 -21,
 -59,
 -57,
 67,
 -16,
 -55,
 -50,
 71,
 -14,
 -47,
 -57,
 60,
 -10,
 -60,
 -57,
 44,
 -12,
 -54,
 -67,
 30,
 -9,
 -51,
 -59,
 9,
 -20,
 -50,
 -59,
 -14,
 -15,
 -60,
 -60,
 -18,
 -17,
 -62,
 -59,
 -26,
 -8,
 -71,
 -54,
 -35,
 -17,
 -66,
 -48,
 -26,
 -10,
 -56,
 -56,
 -7,
 -7,
 -59,
 -48,
 11,
 3,
 -68,
 -51,
 29,
 6,
 -67,
 -64,
 35,
 3,
 -71,
 -71,
 25,
 -5,
 -64,
 -92,
 17,
 -24,
 -55,
 -103,
 -1,
 -31,
 -40,
 -111,
 -11,
 -43,
 -29,
 -106,
 -25,
 -58,
 -21,
 -103,
 -38,
 -54,
 -15,
 -101,
 -39,
 -58,
 -15,
 -85,
 -44,
 -48,
 -27,
 -79,
 -46,
 -49,
 -32,
 -71,
 -37,
 -37,
 -47,
 -58,
 -25,
 -38,
 -57,
 -55,
 -20,
 -29,
 -57,
 -51,
 -2,
 -32,
 -64,
 -60,
 12,
 -37,
 -61,
 -65,
 14,
 -37,
 -56,
 -74,
 18,
 -36,
 -55,
 -88,
 25,
 -25,
 -65,
 -93,
 20,
 -30,
 -65,
 -89,
 10,
 -21,
 -61,
 -89,
 13,
 -18,
 -48,
 -90,
 3,
 -9,
 -45,
 -80,
 17,
 0,
 -34,
 -70,
 31,
 13,
 -21,
 -65,
 48,
 33,
 -8,
 -51,
 76,
 52,
 19,
 -28,
 104,
 75,
 41,
 6,
 127,
 106,
 85,
 78,
 131,
 167,
 102,
 162,
 80,
 154,
 54,
 101,
 -16,
 50,
 27,
 78,
 -68,
 -3,
 15,
 57,
 -86,
 -38,
 16,
 57,
 -102,
 -52,
 7,
 44,
 -104,
 -63,
 8,
 40,
 -104,
 -63,
 3,
 44,
 -105,
 -60,
 11,
 40,
 -99,
 -68,
 10,
 39,
 -86,
 -57,
 16,
 36,
 -80,
 -59,
 8,
 41,
 -61,
 -48,
 10,
 37,
 -44,
 -38,
 13,
 27,
 -22,
 -28,
 -2,
 32,
 0,
 -27,
 -13,
 20,
 12,
 -21,
 -27,
 16,
 29,
 -17,
 -37,
 8,
 23,
 -26,
 -56,
 -9,
 10,
 -19,
 -74,
 -15,
 -3,
 -10,
 -101,
 -28,
 -23,
 12,
 -108,
 -57,
 -25,
 32,
 -125,
 -106,
 -27,
 51,
 -124,
 -112,
 -15,
 63,
 -110,
 -100,
 -3,
 81,
 -112,
 -104,
 12,
 82,
 -106,
 -99,
 32,
 68,
 -104,
 -95,
 48,
 68,
 -97,
 -103,
 52,
 65,
 -83,
 -106,
 54,
 62,
 -77,
 -100,
 57,
 67,
 -61,
 -92,
 53,
 60,
 -59,
 -88,
 52,
 65,
 -60,
 -82,
 58,
 66,
 -68,
 -80,
 67,
 62,
 -83,
 -70,
 68,
 68,
 -98,
 -73,
 56,
 61,
 -100,
 -72,
 62,
 53,
 -104,
 -74,
 52,
 56,
 -104,
 -85,
 52,
 34,
 -82,
 -85,
 43,
 17,
 -40,
 -89,
 34,
 4,
 -18,
 -88,
 31,
 -6,
 5,
 -95,
 22,
 -17,
 23,
 -94,
 28,
 -14,
 32,
 -96,
 33,
 -4,
 24,
 -83,
 42,
 1,
 -1,
 -80,
 41,
 3,
 -27,
 -74,
 42,
 -5,
 -42,
 -66,
 38,
 -10,
 -66,
 -51,
 34,
 -23,
 -72,
 -46,
 20,
 -29,
 -71,
 -33,
 13,
 -31,
 -59,
 -31,
 -1,
 -26,
 -35,
 -23,
 -19,
 -27,
 -20,
 -20,
 -45,
 -24,
 -2,
 -21,
 -58,
 -17,
 15,
 -24,
 -62,
 -13,
 18,
 -21,
 -59,
 -16,
 29,
 -16,
 -49,
 -5,
 28,
 16,
 -21,
 -3,
 24,
 20,
 -6,
 2,
 7,
 32,
 7,
 0,
 0,
 42,
 14,
 6,
 1,
 53,
 23,
 -3,
 2,
 57,
 30,
 0,
 16,
 72,
 39,
 -5,
 27,
 67,
 24,
 -4,
 33,
 47,
 14,
 -16,
 41,
 31,
 -3,
 -41,
 33,
 13,
 -25,
 -74,
 -31,
 64,
 19,
 29,
 -27,
 40,
 -4,
 5,
 -24,
 10,
 -17,
 -10,
 -5,
 4,
 -26,
 -22,
 11,
 -9,
 -31,
 -16,
 40,
 -22,
 -22,
 -13,
 55,
 -12,
 -13,
 -2,
 58,
 -4,
 -6,
 7,
 67,
 8,
 6,
 12,
 65,
 29,
 27,
 11,
 62,
 44,
 30,
 4,
 55,
 58,
 41,
 3,
 58,
 70,
 51,
 -14,
 65,
 70,
 45,
 -21,
 68,
 63,
 24,
 -13,
 69,
 62,
 8,
 -3,
 71,
 49,
 -8,
 3,
 71,
 34,
 -20,
 13,
 69,
 21,
 -17,
 19,
 77,
 22,
 -17,
 14,
 70,
 21,
 -13,
 9,
 63,
 15,
 0,
 -1,
 57,
 20,
 15,
 -8,
 57,
 32,
 21,
 -17,
 49,
 37,
 27,
 -9,
 41,
 47,
 35,
 -4,
 55,
 58,
 33,
 -1,
 70,
 61,
 33,
 9,
 78,
 59,
 31,
 9,
 86,
 67,
 29,
 11,
 92,
 61,
 35,
 8,
 104,
 64,
 39,
 2,
 99,
 64,
 42,
 -1,
 102,
 74,
 36,
 -5,
 101,
 67,
 36,
 -7,
 96,
 78,
 39,
 0,
 92,
 77,
 38,
 0,
 94,
 77,
 41,
 19,
 94,
 77,
 50,
 29,
 97,
 68,
 52,
 42,
 102,
 74,
 57,
 45,
 103,
 84,
 71,
 62,
 107,
 88,
 66,
 57,
 107,
 89,
 74,
 64,
 106,
 95,
 65,
 53,
 102,
 89,
 59,
 42,
 90,
 82,
 44,
 38,
 71,
 71,
 32,
 26,
 54,
 60,
 19,
 16,
 42,
 41,
 18,
 6,
 35,
 37,
 4,
 -12,
 25,
 33,
 -2,
 -19,
 22,
 21,
 -11,
 -30,
 17,
 25,
 -20,
 -46,
 11,
 20,
 -26,
 -54,
 -4,
 24,
 -32,
 -58,
 -25,
 13,
 -42,
 -58,
 -39,
 0,
 -27,
 -24,
 -38,
 -10,
 1,
 15,
 -40,
 -11,
 20,
 49,
 -39,
 -14,
 28,
 60,
 -30,
 -19,
 35,
 66,
 -27,
 -18,
 48,
 74,
 -25,
 -23,
 45,
 68,
 -34,
 -26,
 48,
 70,
 -24,
 -29,
 54,
 60,
 -29,
 -35,
 49,
 54,
 -32,
 -31,
 46,
 47,
 -29,
 -40,
 34,
 41,
 -30,
 -42,
 26,
 32,
 -36,
 -49,
 9,
 25,
 -26,
 -49,
 -3,
 8,
 -20,
 -35,
 -7,
 6,
 -15,
 -25,
 -4,
 -4,
 -2,
 -15,
 5,
 -8,
 23,
 9,
 12,
 -5,
 58,
 28,
 26,
 -18,
 98,
 49,
 26,
 -29,
 143,
 88,
 25,
 -29,
 171,
 91,
 -10,
 -37,
 170,
 94,
 -47,
 -42,
 150,
 98,
 -54,
 -38,
 137,
 88,
 -64,
 -40,
 116,
 72,
 -51,
 -49,
 95,
 64,
 -47,
 -52,
 82,
 50,
 -50,
 -56,
 63,
 52,
 -47,
 -64,
 58,
 52,
 -43,
 -80,
 50,
 44,
 -44,
 -84,
 51,
 56,
 -50,
 -83,
 48,
 53,
 -51,
 -77,
 43,
 53,
 -52,
 -70,
 47,
 57,
 -50,
 -68,
 43,
 50,
 -37,
 -48,
 53,
 49,
 -35,
 -44,
 54,
 43,
 -25,
 -23,
 43,
 42,
 -9,
 -16,
 38,
 36,
 0,
 -11,
 40,
 43,
 4,
 -7,
 36,
 35,
 13,
 -1,
 23,
 39,
 18,
 -5,
 31,
 29,
 27,
 -5,
 31,
 20,
 28,
 -11,
 29,
 15,
 36,
 -13,
 39,
 15,
 39,
 -6,
 42,
 10,
 41,
 -11,
 56,
 1,
 39,
 -12,
 60,
 6,
 30,
 -17,
 60,
 16,
 32,
 -23,
 59,
 14,
 18,
 -24,
 47,
 27,
 14,
 -29,
 38,
 28,
 9,
 -19,
 36,
 20,
 0,
 -15,
 24,
 24,
 -10,
 -15,
 14,
 18,
 -15,
 2,
 10,
 15,
 -22,
 8,
 -3,
 1,
 -14,
 1,
 -18,
 5,
 0,
 1,
 -4,
 7,
 17,
 -3,
 -6,
 9,
 17,
 -5,
 6,
 12,
 17,
 -4,
 10,
 6,
 5,
 -4,
 9,
 5,
 9,
 4,
 3,
 4,
 2,
 7,
 7,
 14,
 10,
 25,
 19,
 7,
 9,
 38,
 21,
 18,
 11,
 64,
 42,
 45,
 22,
 89,
 0,
 -1,
 -29,
 -16,
 8,
 6,
 -36,
 -12,
 2,
 15,
 -35,
 -7,
 -7,
 10,
 -35,
 -11,
 -18,
 6,
 -32,
 -16,
 -20,
 24,
 -33,
 -1,
 0,
 22,
 -22,
 22,
 6,
 19,
 17,
 34,
 13,
 15,
 40,
 42,
 24,
 12,
 54,
 49,
 45,
 23,
 48,
 60,
 58,
 25,
 37,
 65,
 77,
 27,
 39,
 60,
 75,
 43,
 26,
 63,
 75,
 47,
 30,
 57,
 65,
 51,
 33,
 53,
 50,
 61,
 39,
 50,
 33,
 61,
 36,
 46,
 14,
 52,
 37,
 36,
 0,
 56,
 19,
 22,
 -6,
 45,
 13,
 20,
 -11,
 20,
 -2,
 5,
 0,
 9,
 -11,
 10,
 -2,
 -3,
 -12,
 9,
 0,
 -6,
 -10,
 13,
 3,
 -1,
 6,
 14,
 2,
 -2,
 19,
 9,
 -10,
 -4,
 34,
 16,
 -7,
 0,
 41,
 17,
 -7,
 5,
 45,
 15,
 -9,
 6,
 39,
 12,
 -5,
 15,
 38,
 12,
 -2,
 12,
 38,
 0,
 1,
 14,
 26,
 7,
 5,
 13,
 24,
 12,
 15,
 15,
 39,
 14,
 32,
 17,
 37,
 29,
 35,
 24,
 36,
 43,
 36,
 18,
 45,
 51,
 38,
 23,
 52,
 64,
 38,
 29,
 58,
 67,
 28,
 33,
 60,
 67,
 35,
 27,
 63,
 59,
 30,
 20,
 61,
 43,
 23,
 23,
 54,
 34,
 23,
 20,
 57,
 21,
 25,
 20,
 55,
 17,
 25,
 14,
 51,
 8,
 24,
 17,
 52,
 11,
 19,
 18,
 49,
 13,
 19,
 25,
 54,
 24,
 31,
 29,
 52,
 35,
 36,
 26,
 41,
 41,
 29,
 39,
 41,
 39,
 24,
 31,
 34,
 39,
 -19,
 24,
 14,
 19,
 -61,
 -13,
 -44,
 -27,
 -68,
 -5,
 -65,
 -70,
 -71,
 -17,
 -72,
 -81,
 -64,
 -36,
 -82,
 -77,
 -59,
 -45,
 -80,
 -82,
 -57,
 -51,
 -75,
 -72,
 -61,
 -52,
 -77,
 -76,
 -57,
 -50,
 -76,
 -68,
 -49,
 -56,
 -84,
 -73,
 -57,
 -47,
 -85,
 -69,
 -52,
 -51,
 -80,
 -65,
 -53,
 -56,
 -79,
 -64,
 -44,
 -46,
 -75,
 -68,
 -47,
 -46,
 -72,
 -68,
 -36,
 -46,
 -66,
 -57,
 -27,
 -47,
 -60,
 -54,
 -14,
 -47,
 -49,
 -36,
 -13,
 -53,
 -33,
 -10,
 -18,
 -51,
 -32,
 -1,
 -11,
 -46,
 -27,
 8,
 -17,
 -47,
 -10,
 20,
 -12,
 -35,
 -1,
 32,
 -19,
 -22,
 16,
 37,
 -7,
 -8,
 38,
 36,
 4,
 -8,
 38,
 48,
 13,
 -6,
 48,
 42,
 19,
 -2,
 39,
 37,
 25,
 -2,
 41,
 33,
 25,
 2,
 43,
 42,
 20,
 12,
 44,
 34,
 17,
 20,
 44,
 41,
 16,
 26,
 41,
 39,
 11,
 28,
 40,
 43,
 8,
 25,
 39,
 50,
 4,
 37,
 34,
 55,
 4,
 34,
 37,
 61,
 5,
 36,
 37,
 60,
 3,
 39,
 32,
 59,
 15,
 39,
 31,
 70,
 7,
 43,
 32,
 62,
 3,
 41,
 34,
 57,
 6,
 33,
 42,
 49,
 2,
 31,
 39,
 33,
 15,
 23,
 31,
 22,
 10,
 19,
 34,
 8,
 14,
 8,
 25,
 10,
 16,
 8,
 29,
 7,
 8,
 8,
 17,
 2,
 5,
 13,
 17,
 12,
 4,
 14,
 17,
 10,
 9,
 31,
 19,
 14,
 17,
 41,
 23,
 15,
 22,
 43,
 24,
 16,
 21,
 49,
 27,
 14,
 10,
 51,
 29,
 8,
 16,
 43,
 25,
 13,
 9,
 35,
 0,
 5,
 -3,
 3,
 -34,
 10,
 -6,
 -30,
 -42,
 12,
 -24,
 -49,
 -37,
 7,
 -2,
 -50,
 -40,
 -2,
 27,
 -46,
 -38,
 2,
 58,
 -41,
 -34,
 -10,
 65,
 -29,
 -34,
 -12,
 67,
 -17,
 -12,
 -13,
 52,
 1,
 0,
 -21,
 51,
 29,
 -1,
 -22,
 22,
 35,
 -9,
 -18,
 2,
 46,
 -28,
 -26,
 -18,
 41,
 -36,
 -13,
 -38,
 39,
 -28,
 -4,
 -48,
 24,
 -26,
 -12,
 12,
 -14,
 -5,
 16,
 15,
 -6,
 -3,
 24,
 5,
 -5,
 9,
 22,
 6,
 -9,
 20,
 21,
 2,
 -6,
 23,
 24,
 -9,
 -10,
 14,
 11,
 -10,
 -5,
 11,
 12,
 -16,
 -9,
 0,
 9,
 -11,
 -3,
 -3,
 -4,
 -11,
 -1,
 -6,
 -5,
 -10,
 -6,
 -2,
 -2,
 -7,
 -3,
 -4,
 0,
 6,
 8,
 -1,
 8,
 0,
 15,
 8,
 11,
 5,
 19,
 19,
 32,
 10,
 19,
 37,
 38,
 21,
 28,
 52,
 54,
 33,
 30,
 52,
 63,
 47,
 40,
 61,
 63,
 58,
 48,
 56,
 60,
 72,
 51,
 59,
 64,
 90,
 51,
 51,
 51,
 97,
 56,
 42,
 45,
 97,
 62,
 44,
 46,
 79,
 57,
 34,
 40,
 68,
 61,
 25,
 35,
 39,
 58,
 15,
 24,
 6,
 53,
 9,
 19,
 -13,
 33,
 0,
 16,
 -14,
 24,
 -4,
 3,
 -13,
 28,
 -1,
 2,
 -18,
 18,
 -2,
 -2,
 -14,
 10,
 -4,
 0,
 -4,
 10,
 1,
 2,
 -10,
 8,
 7,
 11,
 -7,
 6,
 14,
 10,
 -4,
 13,
 15,
 9,
 4,
 10,
 17,
 20,
 0,
 15,
 20,
 17,
 4,
 16,
 18,
 19,
 6,
 15,
 17,
 21,
 13,
 9,
 20,
 23,
 15,
 16,
 17,
 19,
 17,
 10,
 29,
 7,
 18,
 15,
 26,
 12,
 20,
 15,
 29,
 13,
 22,
 16,
 23,
 15,
 24,
 14,
 15,
 9,
 28,
 22,
 18,
 11,
 32,
 24,
 11,
 19,
 34,
 15,
 10,
 25,
 30,
 15,
 12,
 29,
 31,
 10,
 25,
 29,
 37,
 13,
 42,
 38,
 40,
 11,
 52,
 37,
 34,
 10,
 58,
 44,
 26,
 18,
 60,
 34,
 5,
 0,
 30,
 23,
 -15,
 -18,
 -6,
 -6,
 -24,
 -22,
 -37,
 -24,
 -27,
 -27,
 -56,
 -32,
 -32,
 -34,
 -62,
 -37,
 -33,
 -38,
 -60,
 -45,
 -31,
 -35,
 -64,
 -51,
 -29,
 -37,
 -67,
 -46,
 -34,
 -43,
 -61,
 -54,
 -31,
 -41,
 -61,
 -52,
 -33,
 -47,
 -55,
 -52,
 -30,
 -42,
 -51,
 -58,
 -18,
 -42,
 -37,
 -48,
 -20,
 -40,
 -24,
 -53,
 -12,
 -36,
 -20,
 -40,
 -11,
 -35,
 -12,
 -37,
 -8,
 -31,
 -2,
 -28,
 -14,
 -18,
 -7,
 -22,
 -12,
 -18,
 -19,
 -19,
 -16,
 -14,
 -15,
 -15,
 -13,
 -13,
 -19,
 -10,
 -15,
 -5,
 2,
 -9,
 -20,
 5,
 7,
 -7,
 -7,
 16,
 29,
 11,
 -9,
 16,
 41,
 13,
 -2,
 18,
 46,
 12,
 0,
 16,
 53,
 22,
 -8,
 12,
 54,
 28,
 -4,
 12,
 55,
 35,
 -4,
 12,
 47,
 37,
 5,
 13,
 45,
 33,
 4,
 11,
 47,
 37,
 9,
 14,
 45,
 40,
 5,
 16,
 39,
 36,
 8,
 21,
 45,
 37,
 6,
 26,
 34,
 25,
 6,
 28,
 32,
 22,
 3,
 22,
 33,
 26,
 -4,
 11,
 27,
 20,
 -3,
 13,
 25,
 20,
 3,
 9,
 12,
 22,
 2,
 -1,
 5,
 23,
 19,
 1,
 2,
 17,
 23,
 -6,
 0,
 15,
 24,
 -5,
 0,
 0,
 17,
 1,
 -4,
 -10,
 9,
 -6,
 2,
 -18,
 0,
 -12,
 0,
 -25,
 -5,
 -7,
 4,
 -31,
 -16,
 -22,
 0,
 -36,
 -19,
 -31,
 -6,
 -39,
 -27,
 -27,
 -18,
 -35,
 -23,
 -37,
 -21,
 -33,
 -17,
 -40,
 -33,
 -31,
 -5,
 -33,
 -43,
 -26,
 -2,
 -26,
 -55,
 -26,
 13,
 -11,
 -71,
 -27,
 14,
 18,
 -63,
 -4,
 18,
 37,
 -55,
 18,
 13,
 39,
 -25,
 43,
 8,
 32,
 -11,
 55,
 12,
 35,
 10,
 55,
 10,
 38,
 14,
 60,
 21,
 36,
 23,
 52,
 21,
 41,
 21,
 48,
 25,
 44,
 27,
 47,
 32,
 45,
 19,
 42,
 32,
 50,
 18,
 42,
 22,
 44,
 20,
 45,
 23,
 40,
 20,
 38,
 21,
 35,
 20,
 36,
 -33,
 -33,
 -34,
 -59,
 -20,
 -37,
 -36,
 -55,
 -17,
 -37,
 -33,
 -59,
 -13,
 -35,
 -18,
 -51,
 -14,
 -33,
 -16,
 -46,
 -14,
 -28,
 0,
 -31,
 -8,
 -26,
 14,
 -13,
 -8,
 -25,
 23,
 6,
 4,
 -20,
 28,
 20,
 4,
 -5,
 41,
 37,
 9,
 8,
 46,
 42,
 16,
 22,
 54,
 45,
 20,
 35,
 56,
 50,
 21,
 41,
 46,
 37,
 20,
 38,
 47,
 29,
 16,
 48,
 22,
 15,
 5,
 43,
 -2,
 2,
 1,
 43,
 -14,
 -7,
 5,
 44,
 -10,
 -17,
 3,
 34,
 -12,
 -14,
 15,
 35,
 -3,
 -12,
 12,
 28,
 -2,
 -10,
 22,
 30,
 1,
 -6,
 23,
 30,
 15,
 -6,
 27,
 31,
 22,
 4,
 31,
 39,
 17,
 7,
 33,
 41,
 27,
 16,
 35,
 33,
 30,
 28,
 33,
 39,
 41,
 38,
 31,
 42,
 32,
 40,
 24,
 40,
 29,
 44,
 16,
 34,
 18,
 30,
 9,
 31,
 14,
 31,
 11,
 26,
 3,
 17,
 5,
 17,
 0,
 15,
 6,
 15,
 2,
 11,
 10,
 13,
 -6,
 13,
 16,
 12,
 7,
 27,
 21,
 15,
 10,
 29,
 21,
 10,
 9,
 37,
 16,
 9,
 20,
 48,
 22,
 4,
 27,
 46,
 13,
 12,
 34,
 40,
 17,
 21,
 34,
 32,
 20,
 29,
 42,
 34,
 20,
 33,
 38,
 24,
 19,
 32,
 38,
 23,
 19,
 24,
 41,
 23,
 23,
 30,
 38,
 30,
 25,
 21,
 40,
 28,
 27,
 20,
 38,
 33,
 32,
 18,
 33,
 35,
 28,
 19,
 29,
 34,
 19,
 14,
 19,
 27,
 3,
 18,
 16,
 17,
 -8,
 18,
 6,
 -7,
 -40,
 5,
 -29,
 -34,
 -53,
 -16,
 -30,
 -58,
 -47,
 -25,
 -32,
 -47,
 -48,
 -31,
 -32,
 -33,
 -33,
 -26,
 -33,
 -32,
 -35,
 -23,
 -37,
 -30,
 -28,
 -30,
 -37,
 -22,
 -31,
 -23,
 -36,
 -29,
 -24,
 -28,
 -27,
 -28,
 -31,
 -29,
 -35,
 -28,
 -31,
 -27,
 -25,
 -29,
 -34,
 -29,
 -26,
 -30,
 -35,
 -39,
 -33,
 -36,
 -29,
 -32,
 -30,
 -39,
 -37,
 -42,
 -31,
 -36,
 -33,
 -40,
 -42,
 -41,
 -34,
 -36,
 -45,
 -40,
 -29,
 -39,
 -44,
 -40,
 -27,
 -43,
 -46,
 -47,
 -28,
 -42,
 -40,
 -45,
 -21,
 -38,
 -34,
 -44,
 -19,
 -40,
 -30,
 -52,
 -8,
 -41,
 -15,
 -50,
 3,
 -28,
 -3,
 -47,
 14,
 -14,
 9,
 -18,
 18,
 -4,
 21,
 -8,
 24,
 11,
 26,
 15,
 28,
 24,
 31,
 23,
 31,
 37,
 27,
 31,
 38,
 39,
 41,
 42,
 49,
 49,
 39,
 46,
 51,
 49,
 45,
 38,
 55,
 52,
 46,
 38,
 60,
 43,
 45,
 44,
 57,
 41,
 43,
 41,
 54,
 42,
 37,
 38,
 48,
 49,
 41,
 41,
 45,
 40,
 40,
 36,
 41,
 47,
 31,
 37,
 36,
 50,
 23,
 43,
 36,
 43,
 22,
 46,
 32,
 51,
 20,
 35,
 35,
 50,
 27,
 31,
 33,
 54,
 27,
 32,
 29,
 48,
 33,
 31,
 35,
 50,
 37,
 29,
 27,
 35,
 37,
 26,
 34,
 28,
 49,
 23,
 38,
 24,
 47,
 25,
 39,
 13,
 50,
 33,
 45,
 15,
 43,
 34,
 44,
 10,
 35,
 32,
 37,
 18,
 28,
 35,
 40,
 11,
 20,
 40,
 32,
 18,
 18,
 27,
 21,
 22,
 13,
 29,
 12,
 21,
 6,
 20,
 5,
 16,
 7,
 14,
 2,
 20,
 7,
 5,
 -8,
 12,
 21,
 7,
 -2,
 -1,
 24,
 11,
 -8,
 -7,
 21,
 12,
 1,
 -3,
 17,
 22,
 -3,
 -7,
 8,
 16,
 2,
 1,
 5,
 15,
 0,
 10,
 4,
 12,
 2,
 21,
 -8,
 5,
 -8,
 29,
 -2,
 1,
 -13,
 31,
 -11,
 -6,
 -20,
 26,
 -17,
 -16,
 -38,
 -3,
 -25,
 -24,
 -51,
 -22,
 -48,
 -33,
 56,
 -5,
 -92,
 14,
 58,
 4,
 -69,
 25,
 65,
 31,
 -47,
 23,
 47,
 47,
 -12,
 30,
 35,
 51,
 11,
 21,
 19,
 56,
 23,
 11,
 4,
 68,
 38,
 15,
 2,
 65,
 31,
 10,
 6,
 66,
 35,
 14,
 18,
 56,
 38,
 18,
 24,
 35,
 31,
 19,
 42,
 40,
 38,
 18,
 54,
 46,
 38,
 28,
 51,
 37,
 48,
 39,
 52,
 42,
 67,
 39,
 53,
 36,
 77,
 48,
 45,
 32,
 85,
 60,
 22,
 -2,
 79,
 34,
 -20,
 -24,
 81,
 21,
 -28,
 -31,
 49,
 6,
 -28,
 -28,
 15,
 1,
 -28,
 -31,
 -14,
 -4,
 -30,
 -41,
 -20,
 -7,
 -19,
 -44,
 -31,
 -9,
 -23,
 -47,
 -30,
 -8,
 -29,
 -53,
 -27,
 -12,
 -34,
 -51,
 -16,
 -16,
 -35,
 -55,
 -7,
 -17,
 -43,
 -55,
 -3,
 -11,
 -55,
 -62,
 -7,
 -17,
 -67,
 -66,
 -3,
 -33,
 -68,
 -71,
 -2,
 -41,
 -68,
 -77,
 -7,
 -44,
 -66,
 -74,
 -21,
 -44,
 -57,
 -79,
 -20,
 -53,
 -56,
 -74,
 -23,
 -48,
 -62,
 -71,
 -22,
 -49,
 -62,
 -63,
 -29,
 -44,
 -65,
 -59,
 -29,
 -36,
 -71,
 -52,
 -24,
 -31,
 -66,
 -50,
 -13,
 -29,
 -67,
 -61,
 2,
 -19,
 -60,
 -69,
 5,
 -21,
 -58,
 -76,
 6,
 -19,
 -50,
 -74,
 9,
 -27,
 -47,
 -75,
 7,
 -43,
 -50,
 -76,
 0,
 -47,
 -53,
 -79,
 -20,
 -57,
 -62,
 -64,
 -27,
 -61,
 -64,
 -61,
 -43,
 -48,
 -70,
 -57,
 -43,
 -37,
 -69,
 -54,
 -41,
 -24,
 -67,
 -52,
 -33,
 -5,
 -60,
 -40,
 -19,
 1,
 -54,
 -40,
 -16,
 24,
 -44,
 -28,
 -2,
 28,
 -15,
 7,
 13,
 49,
 0,
 39,
 -18,
 26,
 25,
 49,
 -55,
 4,
 29,
 56,
 -80,
 -16,
 25,
 38,
 -89,
 -33,
 12,
 33,
 -89,
 -52,
 8,
 19,
 -89,
 -47,
 1,
 17,
 -88,
 -58,
 4,
 15,
 -95,
 -52,
 1,
 13,
 -83,
 -55,
 0,
 13,
 -84,
 -51,
 6,
 18,
 -70,
 -44,
 13,
 31,
 -49,
 -29,
 13,
 45,
 -31,
 -7,
 22,
 60,
 11,
 8,
 40,
 72,
 38,
 30,
 50,
 73,
 63,
 44,
 57,
 73,
 68,
 50,
 60,
 75,
 71,
 49,
 57,
 58,
 73,
 54,
 54,
 40,
 63,
 47,
 40,
 6,
 64,
 41,
 14,
 -31,
 56,
 38,
 -15,
 -52,
 59,
 53,
 -18,
 -77,
 66,
 66,
 -25,
 -73,
 77,
 74,
 -19,
 -68,
 73,
 80,
 -13,
 -58,
 74,
 84,
 -11,
 -41,
 78,
 81,
 -17,
 -26,
 77,
 78,
 -6,
 -14,
 78,
 62,
 0,
 -8,
 66,
 57,
 3,
 0,
 69,
 51,
 8,
 -3,
 62,
 43,
 0,
 0,
 67,
 45,
 -1,
 -8,
 68,
 45,
 -9,
 -10,
 62,
 38,
 -16,
 -9,
 50,
 46,
 -17,
 -18,
 40,
 38,
 -28,
 -29,
 32,
 36,
 -49,
 -39,
 17,
 34,
 -50,
 -57,
 7,
 19,
 -59,
 -65,
 1,
 12,
 -44,
 -64,
 -8,
 -7,
 -43,
 -66,
 -4,
 -28,
 -28,
 -78,
 -5,
 -40,
 -22,
 -71,
 -2,
 -49,
 -29,
 -61,
 -6,
 -69,
 -23,
 -42,
 6,
 -77,
 -37,
 -37,
 0,
 -85,
 -43,
 -25,
 -5,
 -79,
 -49,
 -24,
 -10,
 -84,
 -51,
 -21,
 -20,
 -67,
 -65,
 -26,
 -32,
 -61,
 -76,
 -23,
 -41,
 -38,
 -63,
 -33,
 -42,
 -27,
 -52,
 -41,
 -49,
 -11,
 -33,
 -45,
 -52,
 9,
 -21,
 -46,
 -50,
 21,
 11,
 -30,
 -29,
 24,
 14,
 -27,
 -13,
 36,
 20,
 -21,
 -9,
 44,
 15,
 -9,
 -2,
 28,
 17,
 6,
 -6,
 26,
 16,
 22,
 -4,
 14,
 18,
 40,
 -24,
 10,
 14,
 63,
 -28,
 11,
 11,
 75,
 -42,
 16,
 8,
 84,
 -31,
 24,
 2,
 82,
 -25,
 21,
 -6,
 70,
 -5,
 9,
 -18,
 34,
 2,
 -5,
 3,
 -4,
 -90,
 24,
 19,
 -3,
 -72,
 28,
 38,
 7,
 -47,
 27,
 47,
 18,
 -25,
 22,
 41,
 36,
 1,
 23,
 39,
 47,
 23,
 25,
 37,
 52,
 45,
 32,
 39,
 53,
 62,
 44,
 49,
 55,
 75,
 70,
 50,
 54,
 71,
 92,
 61,
 58,
 59,
 103,
 75,
 57,
 39,
 115,
 70,
 60,
 18,
 112,
 59,
 61,
 6,
 99,
 41,
 68,
 -7,
 75,
 19,
 57,
 -14,
 55,
 1,
 50,
 -18,
 29,
 -15,
 24,
 -8,
 16,
 -20,
 14,
 1,
 1,
 -23,
 -7,
 14,
 -6,
 -23,
 -12,
 24,
 -17,
 -14,
 -6,
 29,
 -24,
 -14,
 -8,
 18,
 -27,
 -18,
 -6,
 22,
 -23,
 -20,
 4,
 15,
 -24,
 -33,
 5,
 17,
 -29,
 -35,
 -3,
 15,
 -33,
 -28,
 -6,
 12,
 -34,
 -24,
 -8,
 20,
 -25,
 -16,
 -12,
 14,
 -27,
 -4,
 -22,
 16,
 -21,
 7,
 -25,
 20,
 -19,
 16,
 -24,
 22,
 -18,
 14,
 -35,
 18,
 -15,
 8,
 -37,
 15,
 -16,
 4,
 -36,
 13,
 -21,
 -13,
 -30,
 14,
 -30,
 -25,
 -38,
 10,
 -34,
 -36,
 -49,
 13,
 -36,
 -37,
 -52,
 15,
 -44,
 -43,
 -51,
 13,
 -39,
 -46,
 -54,
 22,
 -39,
 -53,
 -57,
 24,
 -40,
 -50,
 -61,
 21,
 -48,
 -54,
 -67,
 18,
 -53,
 -58,
 -64,
 7,
 -68,
 -61,
 -68,
 -5,
 -66,
 -57,
 -73,
 -21,
 -68,
 -67,
 -69,
 -41,
 -73,
 -75,
 -79,
 -54,
 -71,
 -73,
 -84,
 -67,
 -65,
 -83,
 -79,
 -73,
 -49,
 -77,
 -70,
 -74,
 -30,
 -77,
 -63,
 -76,
 -18,
 -62,
 -28,
 -71,
 -3,
 -43,
 8,
 -66,
 16,
 -12,
 47,
 -63,
 28,
 6,
 45,
 -58,
 49,
 -7,
 25,
 -56,
 20,
 -12,
 5,
 -69,
 -5,
 -19,
 6,
 -65,
 -19,
 -19,
 -3,
 -65,
 -31,
 -22,
 -13,
 -67,
 -29,
 -31,
 -12,
 -62,
 -38,
 -23,
 -19,
 -58,
 -38,
 -26,
 -14,
 -63,
 -35,
 -23,
 -20,
 -54,
 -34,
 -10,
 -9,
 -39,
 -23,
 -4,
 -4,
 -35,
 -8,
 4,
 5,
 -17,
 0,
 16,
 17,
 -1,
 17,
 23,
 34,
 10,
 25,
 29,
 44,
 26,
 42,
 48,
 61,
 49,
 52,
 43,
 66,
 63,
 64,
 44,
 66,
 83,
 70,
 51,
 59,
 90,
 78,
 53,
 47,
 98,
 94,
 47,
 34,
 101,
 101,
 49,
 20,
 97,
 93,
 41,
 26,
 86,
 77,
 37,
 26,
 85,
 61,
 15,
 17,
 79,
 32,
 7,
 14,
 67,
 24,
 1,
 0,
 52,
 15,
 -4,
 -6,
 28,
 15,
 -2,
 -6,
 27,
 13,
 8,
 7,
 35,
 23,
 15,
 7,
 43,
 26,
 33,
 0,
 54,
 28,
 42,
 2,
 63,
 30,
 39,
 10,
 67,
 38,
 34,
 6,
 60,
 33,
 24,
 0,
 50,
 28,
 19,
 6,
 43,
 30,
 4,
 -4,
 33,
 20,
 -12,
 -5,
 16,
 2,
 -24,
 -18,
 10,
 -13,
 -27,
 -27,
 15,
 -27,
 -40,
 -34,
 7,
 -45,
 -44,
 -39,
 2,
 -53,
 -42,
 -51,
 0,
 -61,
 -42,
 -58,
 -7,
 -59,
 -40,
 -55,
 -16,
 -54,
 -39,
 -64,
 -21,
 -54,
 -40,
 -66,
 -38,
 -53,
 -39,
 -67,
 -42,
 -51,
 -46,
 -55,
 -45,
 -56,
 -54,
 -40,
 -50,
 -60,
 -67,
 -37,
 -50,
 -70,
 -68,
 -24,
 -43,
 -82,
 -73,
 -29,
 -42,
 -78,
 -60,
 -25,
 -51,
 -77,
 -50,
 -25,
 -55,
 -74,
 -40,
 -39,
 -64,
 -74,
 -32,
 -52,
 -64,
 -75,
 -14,
 -47,
 -56,
 -73,
 -18,
 -55,
 -42,
 -68,
 -25,
 -51,
 -45,
 -63,
 -28,
 -42,
 -48,
 -58,
 -36,
 -27,
 -52,
 -46,
 -36,
 -19,
 -49,
 -31,
 -44,
 -3,
 -54,
 0,
 -44,
 3,
 -61,
 23,
 -18,
 12,
 -60,
 40,
 2,
 24,
 -64,
 40,
 29,
 32,
 -67,
 35,
 42,
 30,
 -53,
 31,
 16,
 65,
 107,
 30,
 11,
 45,
 82,
 17,
 0,
 24,
 74,
 8,
 1,
 9,
 58,
 -3,
 12,
 -6,
 55,
 5,
 24,
 -19,
 61,
 12,
 38,
 -17,
 64,
 27,
 48,
 -21,
 73,
 27,
 49,
 -12,
 76,
 17,
 48,
 -9,
 69,
 -1,
 45,
 -19,
 61,
 -31,
 26,
 -27,
 72,
 -45,
 12,
 -34,
 65,
 -53,
 0,
 -49,
 69,
 -57,
 -11,
 -69,
 56,
 -68,
 -27,
 -82,
 21,
 -58,
 -33,
 -90,
 -18,
 -58,
 -42,
 -92,
 -51,
 -57,
 -41,
 -89,
 -74,
 -49,
 -46,
 -76,
 -84,
 -46,
 -44,
 -69,
 -74,
 -51,
 -46,
 -61,
 -71,
 -41,
 -44,
 -62,
 -56,
 -39,
 -31,
 -60,
 -46,
 -44,
 -31,
 -58,
 -32,
 -36,
 -16,
 -51,
 -22,
 -44,
 -5,
 -58,
 -13,
 -42,
 -3,
 -60,
 -10,
 -36,
 9,
 -60,
 -16,
 -43,
 10,
 -50,
 -18,
 -38,
 8,
 -47,
 -22,
 -36,
 8,
 -49,
 -33,
 -25,
 2,
 -33,
 -25,
 -19,
 11,
 -9,
 -17,
 -6,
 10,
 22,
 -14,
 7,
 28,
 44,
 11,
 34,
 35,
 66,
 33,
 52,
 44,
 72,
 56,
 58,
 61,
 81,
 83,
 76,
 76,
 93,
 95,
 78,
 92,
 98,
 96,
 92,
 102,
 102,
 97,
 102,
 107,
 102,
 87,
 106,
 102,
 113,
 81,
 112,
 104,
 105,
 75,
 104,
 90,
 95,
 66,
 97,
 84,
 76,
 61,
 98,
 78,
 64,
 62,
 85,
 66,
 61,
 63,
 78,
 51,
 49,
 66,
 59,
 45,
 41,
 62,
 46,
 32,
 40,
 62,
 41,
 25,
 31,
 53,
 21,
 21,
 29,
 54,
 15,
 17,
 27,
 45,
 2,
 15,
 31,
 32,
 -4,
 -3,
 39,
 34,
 5,
 -19,
 18,
 0,
 -16,
 -23,
 -1,
 -12,
 -16,
 -29,
 -14,
 -10,
 -17,
 -21,
 -10,
 -8,
 -12,
 -23,
 -10,
 -15,
 -9,
 -16,
 -3,
 -7,
 -12,
 -11,
 -5,
 -2,
 -8,
 -16,
 -7,
 -3,
 -6,
 -9,
 4,
 -11,
 -9,
 -13,
 -4,
 -6,
 -4,
 -12,
 -2,
 -3,
 -5,
 -19,
 -10,
 -7,
 -9,
 -32,
 -10,
 -4,
 -4,
 -39,
 -16,
 -2,
 -2,
 -47,
 -19,
 0,
 -3,
 -48,
 -24,
 5,
 0,
 -33,
 -29,
 9,
 3,
 -30,
 -22,
 16,
 2,
 -2,
 -6,
 8,
 -5,
 11,
 0,
 9,
 -9,
 38,
 14,
 4,
 -7,
 51,
 40,
 41,
 3,
 84,
 37,
 41,
 7,
 83,
 34,
 54,
 13,
 84,
 38,
 69,
 23,
 74,
 41,
 78,
 35,
 66,
 50,
 78,
 55,
 76,
 65,
 73,
 61,
 72,
 67,
 61,
 54,
 65,
 62,
 56,
 55,
 48,
 62,
 35,
 45,
 44,
 59,
 21,
 26,
 27,
 57,
 4,
 20,
 21,
 50,
 -9,
 5,
 16,
 49,
 -14,
 10,
 23,
 42,
 -2,
 6,
 22,
 38,
 -3,
 9,
 28,
 32,
 7,
 21,
 35,
 33,
 20,
 29,
 47,
 33,
 20,
 30,
 50,
 34,
 25,
 40,
 47,
 39,
 24,
 44,
 41,
 34,
 18,
 52,
 39,
 35,
 17,
 38,
 29,
 41,
 27,
 38,
 33,
 32,
 27,
 21,
 32,
 25,
 35,
 13,
 50,
 25,
 45,
 4,
 64,
 20,
 46,
 5,
 77,
 0,
 45,
 0,
 90,
 1,
 41,
 -4,
 84,
 -10,
 27,
 0,
 72,
 -12,
 24,
 2,
 50,
 -18,
 16,
 -2,
 40,
 -10,
 12,
 -5,
 21,
 -14,
 12,
 -2,
 15,
 -23,
 12,
 0,
 8,
 -20,
 4,
 -8,
 -11,
 -30,
 -2,
 -25,
 -10,
 -41,
 -11,
 -21,
 -3,
 -41,
 -14,
 -23,
 2,
 -39,
 -12,
 -23,
 -1,
 -44,
 -11,
 -19,
 -8,
 -50,
 -8,
 -12,
 -9,
 -51,
 0,
 -10,
 -18,
 -36,
 10,
 -2,
 -30,
 -15,
 40,
 8,
 -31,
 24,
 60,
 38,
 -32,
 16,
 63,
 24,
 -28,
 17,
 54,
 20,
 -26,
 5,
 26,
 9,
 109,
 0,
 23,
 192,
 -45,
 38,
 3,
 104,
 103,
 -88,
 50,
 29,
 13,
 0,
 88,
 -26,
 39,
 -78,
 -8,
 -56,
 50,
 -167,
 -222,
 18,
 99,
 -17,
 107,
 38,
 54,
 79,
 90,
 35,
 147,
 -155,
 11,
 269,
 6,
 -75,
 33,
 55,
 -254,
 77,
 107,
 0,
 33,
 -89,
 115,
 6,
 -21,
 71,
 58,
 52,
 95,
 35,
 -34,
 -223,
 -209,
 121,
 -75,
 38,
 36,
 -141,
 -18,
 113,
 327,
 -183,
 331,
 46,
 129,
 -70,
 85,
 -135,
 -113,
 -125,
 373,
 14,
 -35,
 -107,
 -105,
 -76,
 26,
 78,
 -10,
 -134,
 57,
 -229,
 -301,
 202,
 -47,
 -123,
 -138,
 -5,
 -164,
 -26,
 -9,
 156,
 99,
 151,
 96,
 -42,
 -131,
 215,
 4,
 271,
 -4,
 198,
 114,
 61,
 112,
 118,
 -177,
 -127,
 -182,
 -46,
 221,
 213,
 167,
 6,
 174,
 -9,
 62,
 -257,
 -82,
 116,
 36,
 11,
 -156,
 -82,
 4,
 7,
 -3,
 -16,
 15,
 -31,
 -8,
 -13,
 -2,
 -10,
 22,
 -3,
 -23,
 -26,
 -31,
 -22,
 19,
 17,
 2,
 -28,
 10,
 -42,
 -30,
 -17,
 1,
 -17,
 25,
 2,
 -32,
 -27,
 -35,
 25,
 1,
 -21,
 -9,
 -31,
 8,
 -32,
 -18,
 -12,
 -9,
 -2,
 28,
 -14,
 -29,
 -32,
 -23,
 -16,
 14,
 17,
 2,
 21,
 6,
 -55,
 4,
 -18,
 0,
 -19,
 33,
 1,
 -32,
 -36,
 -34,
 24,
 3,
 17,
 0,
 -7,
 19,
 -32,
 21,
 -15,
 1,
 -17,
 22,
 -3,
 -22,
 -18,
 -26,
 12,
 13,
 31,
 3,
 -22,
 12,
 -45,
 26,
 -23,
 6,
 -23,
 25,
 0,
 -28,
 -14,
 -25,
 3,
 6,
 -8,
 -6,
 19,
 8,
 -29,
 -7,
 -12,
 -5,
 -4,
 23,
 -11,
 -25,
 -25,
 -29,
 -13,
 15,
 31,
 4,
 -19,
 10,
 -52,
 -26,
 -19,
 5,
 -21,
 29,
 3,
 -28,
 -23,
 -35,
 0,
 2,
 29,
 0,
 19,
 16,
 -36,
 14,
 -18,
 4,
 -21,
 20,
 -2,
 -16,
 -11,
 -22,
 21,
 12,
 49,
 3,
 -5,
 16,
 -43,
 12,
 -23,
 10,
 -26,
 19,
 0,
 -23,
 -1,
 -28,
 -1,
 6,
 1,
 -4,
 -29,
 9,
 -31,
 -2,
 -15,
 0,
 -9,
 23,
 -11,
 -24,
 -18,
 -24,
 15,
 15,
 43,
 6,
 -19,
 11,
 -50,
 10,
 -20,
 11,
 -26,
 27,
 4,
 -26,
 -10,
 -31,
 22,
 4,
 38,
 1,
 -13,
 19,
 -33,
 -19,
 -16,
 7,
 -24,
 17,
 -2,
 -15,
 -3,
 -24,
 20,
 9,
 61,
 4,
 -23,
 13,
 -40,
 16,
 -25,
 14,
 -30,
 17,
 0,
 -19,
 12,
 -25,
 29,
 9,
 14,
 -2,
 13,
 13,
 -30,
 -19,
 -15,
 2,
 -12,
 18,
 -8,
 -18,
 -11,
 -28,
 6,
 14,
 55,
 8,
 -24,
 11,
 -46,
 12,
 -21,
 14,
 -28,
 22,
 5,
 -22,
 1,
 -33,
 -20,
 4,
 45,
 2,
 3,
 22,
 -31,
 30,
 -17,
 10,
 -27,
 16,
 -3,
 -12,
 4,
 -23,
 18,
 9,
 71,
 7,
 -21,
 18,
 -34,
 25,
 -25,
 18,
 -34,
 15,
 0,
 -17,
 26,
 -27,
 21,
 10,
 23,
 0,
 -4,
 8,
 -30,
 -11,
 -16,
 7,
 -16,
 19,
 -6,
 -18,
 -4,
 -23,
 0,
 13,
 66,
 11,
 28,
 7,
 -41,
 -21,
 -22,
 18,
 -32,
 19,
 5,
 -20,
 13,
 -32,
 13,
 4,
 51,
 2,
 -25,
 20,
 -31,
 4,
 -16,
 12,
 -29,
 15,
 -5,
 -12,
 11,
 -22,
 25,
 7,
 86,
 8,
 12,
 17,
 -32,
 -6,
 -24,
 24,
 -37,
 14,
 1,
 -14,
 42,
 -25,
 16,
 10,
 33,
 1,
 -31,
 12,
 -31,
 2,
 -17,
 10,
 -17,
 17,
 -5,
 -15,
 0,
 -22,
 -5,
 8,
 73,
 13,
 3,
 7,
 -42,
 -31,
 -24,
 21,
 -34,
 17,
 4,
 -16,
 25,
 -26,
 -8,
 5,
 52,
 3,
 26,
 18,
 -28,
 -6,
 -16,
 14,
 -29,
 13,
 -5,
 -10,
 20,
 -21,
 10,
 5,
 105,
 9,
 -6,
 19,
 -30,
 -28,
 -28,
 26,
 -39,
 12,
 0,
 -8,
 52,
 -26,
 22,
 11,
 41,
 4,
 -17,
 16,
 -28,
 -11,
 -16,
 12,
 -20,
 15,
 -5,
 -16,
 5,
 -23,
 -11,
 7,
 92,
 15,
 -23,
 12,
 -37,
 -18,
 -27,
 24,
 -35,
 13,
 4,
 -11,
 37,
 -26,
 -4,
 8,
 54,
 5,
 -30,
 20,
 -24,
 -24,
 -14,
 16,
 -29,
 11,
 -7,
 -11,
 28,
 -22,
 20,
 4,
 111,
 12,
 -10,
 15,
 -27,
 2,
 -27,
 29,
 -42,
 11,
 0,
 -6,
 63,
 -24,
 13,
 10,
 46,
 5,
 20,
 14,
 -31,
 -5,
 -17,
 14,
 -19,
 14,
 -4,
 -14,
 10,
 -20,
 -12,
 5,
 104,
 16,
 11,
 8,
 -36,
 -10,
 -26,
 27,
 -35,
 10,
 4,
 -10,
 48,
 -24,
 -5,
 8,
 56,
 6,
 31,
 12,
 -24,
 23,
 -17,
 16,
 -27,
 11,
 -8,
 -8,
 33,
 -19,
 5,
 3,
 121,
 15,
 27,
 20,
 -26,
 -13,
 -28,
 31,
 -42,
 9,
 -1,
 -2,
 70,
 -24,
 20,
 10,
 46,
 6,
 -16,
 18,
 -31,
 -23,
 -18,
 15,
 -20,
 12,
 -3,
 -11,
 14,
 -20,
 9,
 4,
 108,
 18,
 6,
 11,
 -33,
 0,
 -24,
 29,
 -36,
 6,
 4,
 -8,
 59,
 -24,
 26,
 9,
 60,
 8,
 -25,
 16,
 -25,
 6,
 -19,
 16,
 -26,
 10,
 -8,
 -6,
 38,
 -17,
 -10,
 1,
 125,
 18,
 2,
 19,
 -25,
 26,
 -28,
 33,
 -43,
 8,
 -3,
 0,
 79,
 -22,
 9,
 9,
 48,
 6,
 8,
 16,
 -33,
 -17,
 -18,
 15,
 -20,
 11,
 -4,
 -11,
 17,
 -20,
 26,
 3,
 112,
 19,
 14,
 6,
 -31,
 -10,
 -26,
 31,
 -36,
 4,
 3,
 -5,
 67,
 -23,
 16,
 12,
 62,
 11,
 -1,
 13,
 -22,
 -16,
 -18,
 18,
 -25,
 6,
 -6,
 -4,
 44,
 -16,
 -10,
 1,
 127,
 20,
 -16,
 16,
 -22,
 8,
 -30,
 35,
 -42,
 7,
 -5,
 4,
 87,
 -20,
 16,
 11,
 44,
 7,
 -28,
 14,
 -33,
 -30,
 -16,
 17,
 -20,
 8,
 -2,
 -10,
 23,
 -20,
 22,
 2,
 115,
 20,
 -4,
 9,
 -29,
 -5,
 -28,
 33,
 -35,
 2,
 2,
 -2,
 75,
 -21,
 15,
 16,
 67,
 13,
 23,
 12,
 -23,
 -8,
 -19,
 18,
 -25,
 5,
 -5,
 -2,
 49,
 -14,
 11,
 4,
 125,
 20,
 -18,
 14,
 -19,
 19,
 -29,
 38,
 -39,
 6,
 -8,
 8,
 97,
 -20,
 19,
 13,
 42,
 7,
 -2,
 20,
 -34,
 11,
 -15,
 17,
 -20,
 7,
 -1,
 -9,
 28,
 -19,
 22,
 4,
 112,
 20,
 15,
 11,
 -25,
 -6,
 -27,
 36,
 -36,
 0,
 1,
 0,
 85,
 -21,
 18,
 18,
 68,
 15,
 -14,
 9,
 -25,
 21,
 -17,
 19,
 -25,
 3,
 -4,
 -1,
 53,
 -12,
 8,
 2,
 126,
 20,
 -5,
 9,
 -17,
 22,
 -27,
 38,
 -38,
 4,
 -10,
 11,
 106,
 -17,
 23,
 16,
 38,
 9,
 -28,
 15,
 -31,
 21,
 -16,
 17,
 -20,
 6,
 0,
 -7,
 32,
 -20,
 3,
 7,
 113,
 18,
 27,
 8,
 -23,
 1,
 -30,
 38,
 -30,
 2,
 0,
 3,
 94,
 -16,
 5,
 20,
 68,
 17,
 20,
 10,
 -26,
 -8,
 -18,
 19,
 -25,
 2,
 -4,
 0,
 55,
 -8,
 18,
 2,
 124,
 20,
 16,
 8,
 -11,
 18,
 -25,
 38,
 -34,
 2,
 -10,
 15,
 114,
 -17,
 12,
 17,
 33,
 9,
 -5,
 11,
 -33,
 6,
 -15,
 18,
 -19,
 5,
 1,
 -5,
 39,
 -17,
 15,
 10,
 119,
 18,
 25,
 7,
 -17,
 -13,
 -27,
 38,
 -31,
 -1,
 0,
 6,
 99,
 -20,
 35,
 23,
 67,
 18,
 -27,
 8,
 -26,
 29,
 -17,
 19,
 -25,
 0,
 -5,
 3,
 58,
 -8,
 19,
 0,
 122,
 18,
 18,
 1,
 -8,
 -27,
 -21,
 39,
 -33,
 1,
 -13,
 16,
 121,
 -13,
 13,
 22,
 45,
 10,
 9,
 12,
 -33,
 30,
 -15,
 19,
 -17,
 5,
 4,
 -3,
 46,
 -16,
 12,
 9,
 117,
 18,
 0,
 6,
 -13,
 -2,
 -29,
 38,
 -28,
 -1,
 -1,
 10,
 105,
 -17,
 21,
 25,
 62,
 19,
 -30,
 7,
 -24,
 29,
 -15,
 20,
 -27,
 -2,
 -5,
 4,
 61,
 -8,
 0,
 -3,
 115,
 17,
 17,
 -1,
 -2,
 14,
 -21,
 38,
 -32,
 0,
 -16,
 19,
 128,
 -12,
 15,
 25,
 45,
 11,
 -15,
 12,
 -32,
 9,
 -15,
 20,
 -17,
 4,
 6,
 -1,
 50,
 -14,
 26,
 9,
 110,
 19,
 29,
 0,
 -10,
 -7,
 -28,
 40,
 -26,
 -2,
 -1,
 11,
 114,
 -15,
 8,
 29,
 58,
 19,
 31,
 3,
 -24,
 -9,
 -14,
 22,
 -22,
 -1,
 -7,
 7,
 67,
 -4,
 12,
 -4,
 110,
 16,
 10,
 0,
 3,
 -13,
 -19,
 38,
 -30,
 0,
 -19,
 21,
 131,
 -10,
 14,
 29,
 44,
 12,
 6,
 7,
 -32,
 0,
 -15,
 20,
 -15,
 3,
 7,
 0,
 52,
 -13,
 12,
 9,
 112,
 18,
 -12,
 0,
 -6,
 3,
 -27,
 39,
 -22,
 -4,
 -2,
 15,
 116,
 -14,
 12,
 34,
 56,
 17,
 8,
 5,
 -21,
 14,
 -14,
 21,
 -21,
 -2,
 -11,
 11,
 69,
 -6,
 31,
 -5,
 109,
 14,
 -2,
 -2,
 7,
 -5,
 -15,
 37,
 -26,
 0,
 -21,
 22,
 133,
 -8,
 25,
 32,
 42,
 14,
 11,
 7,
 -30,
 1,
 -15,
 20,
 -14,
 1,
 9,
 1,
 55,
 -13,
 7,
 7,
 112,
 17,
 -24,
 -3,
 -4,
 13,
 -24,
 39,
 -20,
 -7,
 -3,
 15,
 120,
 -12,
 24,
 37,
 52,
 16,
 -2,
 0,
 -15,
 17,
 -10,
 22,
 -19,
 -2,
 -11,
 11,
 76,
 -6,
 12,
 -6,
 102,
 13,
 9,
 -2,
 10,
 9,
 -14,
 36,
 -22,
 0,
 -23,
 27,
 138,
 -6,
 17,
 40,
 38,
 14,
 10,
 3,
 -29,
 29,
 -18,
 20,
 -11,
 1,
 7,
 3,
 57,
 -12,
 14,
 8,
 106,
 17,
 21,
 -7,
 0,
 29,
 -25,
 38,
 -18,
 -8,
 -6,
 17,
 121,
 -10,
 16,
 37,
 50,
 15,
 -28,
 0,
 -15,
 -26,
 -13,
 20,
 -16,
 0,
 -14,
 14,
 78,
 -4,
 16,
 -6,
 98,
 13,
 14,
 -2,
 16,
 13,
 -13,
 34,
 -19,
 0,
 -25,
 31,
 139,
 -5,
 12,
 44,
 39,
 17,
 -2,
 -2,
 -26,
 -21,
 -17,
 22,
 -9,
 1,
 7,
 3,
 57,
 -10,
 26,
 8,
 104,
 17,
 -6,
 -6,
 5,
 -24,
 -24,
 37,
 -12,
 -10,
 -5,
 20,
 124,
 -8,
 3,
 38,
 47,
 15,
 -17,
 0,
 -13,
 4,
 -9,
 18,
 -14,
 0,
 -14,
 14,
 84,
 -4,
 24,
 -6,
 92,
 11,
 26,
 -2,
 19,
 -2,
 -10,
 34,
 -16,
 1,
 -28,
 34,
 140,
 -3,
 21,
 47,
 38,
 18,
 -19,
 0,
 -26,
 -10,
 -17,
 22,
 -7,
 -1,
 6,
 4,
 57,
 -11,
 5,
 6,
 99,
 15,
 -20,
 -4,
 7,
 -21,
 -19,
 35,
 -11,
 -12,
 -8,
 20,
 131,
 -6,
 -3,
 39,
 45,
 16,
 2,
 -4,
 -11,
 28,
 -11,
 16,
 -11,
 1,
 -16,
 15,
 84,
 -2,
 16,
 -5,
 88,
 8,
 -22,
 0,
 22,
 28,
 -6,
 33,
 -12,
 1,
 -32,
 36,
 140,
 -2,
 19,
 48,
 38,
 18,
 -5,
 2,
 -30,
 8,
 -16,
 20,
 -5,
 -2,
 3,
 6,
 56,
 -8,
 17,
 6,
 90,
 13,
 -15,
 -5,
 12,
 -8,
 -18,
 34,
 -7,
 -14,
 -10,
 22,
 134,
 -3,
 5,
 42,
 42,
 16,
 14,
 -4,
 -8,
 -13,
 -9,
 15,
 -7,
 2,
 -16,
 15,
 83,
 0,
 22,
 -5,
 84,
 6,
 -18,
 0,
 26,
 -12,
 -4,
 31,
 -8,
 2,
 -35,
 39,
 139,
 -1,
 12,
 52,
 36,
 19,
 -3,
 2,
 -29,
 12,
 -14,
 19,
 -4,
 -2,
 3,
 6,
 54,
 -7,
 7,
 7,
 88,
 10,
 -7,
 -3,
 20,
 11,
 -17,
 32,
 -2,
 -14,
 -13,
 25,
 131,
 -1,
 0,
 45,
 37,
 14,
 27,
 -5,
 -7,
 -7,
 -7,
 13,
 -4,
 2,
 -18,
 17,
 80,
 1,
 25,
 -2,
 79,
 0,
 29,
 -2,
 32,
 1,
 3,
 37,
 12,
 4,
 -37,
 49,
 137,
 6,
 15,
 58,
 30,
 22,
 30,
 0,
 -23,
 23,
 -10,
 20,
 -5,
 -2,
 4,
 6,
 54,
 -8,
 17,
 9,
 83,
 7,
 -29,
 -4,
 28,
 11,
 -14,
 31,
 2,
 -13,
 -16,
 25,
 131,
 2,
 -6,
 55,
 28,
 20,
 -2,
 -4,
 -3,
 23,
 -4,
 12,
 3,
 0,
 -17,
 20,
 73,
 4,
 2,
 -2,
 70,
 -3,
 -17,
 -3,
 41,
 31,
 8,
 39,
 19,
 3,
 -40,
 51,
 137,
 11,
 15,
 64,
 27,
 24,
 16,
 3,
 -28,
 5,
 -10,
 18,
 1,
 -1,
 2,
 9,
 49,
 -3,
 18,
 7,
 73,
 3,
 14,
 -3,
 34,
 15,
 -12,
 28,
 4,
 -13,
 -18,
 28,
 134,
 6,
 10,
 59,
 18,
 18,
 27,
 -1,
 -4,
 1,
 0,
 13,
 9,
 -5,
 -18,
 22,
 67,
 8,
 19,
 -4,
 58,
 -4,
 -24,
 -6,
 49,
 15,
 9,
 37,
 18,
 1,
 -42,
 58,
 137,
 12,
 15,
 73,
 15,
 26,
 12,
 2,
 -26,
 17,
 -6,
 18,
 4,
 -7,
 4,
 9,
 43,
 -1,
 18,
 4,
 72,
 -2,
 -14,
 -5,
 42,
 -14,
 -3,
 26,
 16,
 -17,
 -21,
 30,
 134,
 13,
 12,
 64,
 10,
 14,
 -8,
 0,
 0,
 -5,
 2,
 12,
 11,
 -8,
 -22,
 23,
 60,
 10,
 25,
 0,
 52,
 -1,
 27,
 -7,
 63,
 -9,
 13,
 36,
 23,
 0,
 -40,
 59,
 131,
 15,
 14,
 76,
 11,
 20,
 -7,
 2,
 -30,
 -29,
 -4,
 18,
 9,
 -9,
 0,
 11,
 37,
 1,
 20,
 14,
 56,
 -1,
 20,
 -5,
 62,
 1,
 2,
 33,
 32,
 -18,
 -18,
 37,
 132,
 15,
 16,
 66,
 1,
 10,
 -14,
 0,
 -2,
 3,
 5,
 9,
 14,
 -7,
 -24,
 25,
 56,
 16,
 17,
 -5,
 44,
 -7,
 31,
 -11,
 67,
 -3,
 19,
 33,
 28,
 -1,
 -45,
 58,
 132,
 24,
 15,
 80,
 5,
 19,
 18,
 3,
 -24,
 -5,
 -2,
 16,
 12,
 -8,
 1,
 11,
 35,
 3,
 13,
 14,
 43,
 -5,
 4,
 -7,
 67,
 -11,
 0,
 33,
 33,
 -13,
 -19,
 41,
 126,
 26,
 10,
 66,
 -7,
 3,
 -3,
 0,
 13,
 18,
 11,
 12,
 20,
 -9,
 -23,
 31,
 58,
 21,
 15,
 -9,
 36,
 -12,
 10,
 -12,
 73,
 -1,
 21,
 30,
 33,
 -2,
 -43,
 68,
 130,
 28,
 13,
 83,
 0,
 16,
 2,
 2,
 -20,
 -18,
 0,
 13,
 15,
 -7,
 2,
 11,
 33,
 6,
 19,
 16,
 37,
 -15,
 0,
 -10,
 78,
 15,
 6,
 32,
 41,
 -14,
 -16,
 48,
 122,
 29,
 11,
 74,
 -24,
 6,
 15,
 0,
 19,
 -5,
 16,
 16,
 28,
 -3,
 -18,
 36,
 52,
 28,
 16,
 -8,
 24,
 -12,
 -11,
 -11,
 90,
 -7,
 27,
 26,
 35,
 2,
 -48,
 57,
 127,
 32,
 6,
 86,
 -6,
 14,
 1,
 -7,
 -13,
 -25,
 1,
 11,
 16,
 -5,
 5,
 11,
 30,
 9,
 16,
 12,
 27,
 -22,
 -28,
 -14,
 81,
 -25,
 10,
 28,
 45,
 -14,
 -19,
 48,
 123,
 34,
 14,
 80,
 -40,
 3,
 7,
 0,
 22,
 20,
 19,
 13,
 27,
 -3,
 -19,
 35,
 48,
 32,
 15,
 -10,
 16,
 -19,
 -5,
 -10,
 94,
 17,
 32,
 22,
 40,
 5,
 -49,
 60,
 125,
 35,
 14,
 87,
 -12,
 11,
 21,
 -4,
 -9,
 12,
 3,
 8,
 18,
 -4,
 6,
 12,
 28,
 14,
 19,
 12,
 15,
 -24,
 24,
 -18,
 95,
 23,
 13,
 24,
 51,
 -12,
 -22,
 44,
 122,
 36,
 10,
 82,
 -46,
 0,
 -24,
 -6,
 27,
 -27,
 21,
 10,
 30,
 0,
 -21,
 36,
 43,
 33,
 18,
 -8,
 4,
 -23,
 4,
 -10,
 107,
 -29,
 37,
 18,
 45,
 9,
 -49,
 65,
 121,
 36,
 6,
 88,
 -19,
 4,
 -20,
 -11,
 -7,
 -19,
 6,
 6,
 20,
 -2,
 6,
 13,
 26,
 19,
 14,
 11,
 5,
 -28,
 -6,
 -20,
 105,
 19,
 16,
 19,
 60,
 -13,
 -21,
 50,
 121,
 34,
 5,
 83,
 -49,
 -3,
 14,
 -7,
 29,
 0,
 23,
 8,
 35,
 0,
 -22,
 38,
 38,
 37,
 24,
 -3,
 -8,
 -29,
 -29,
 -13,
 121,
 29,
 43,
 17,
 54,
 7,
 -47,
 77,
 118,
 27,
 6,
 93,
 -38,
 7,
 -21,
 -14,
 7,
 -26,
 11,
 16,
 37,
 -4,
 11,
 23,
 28,
 27,
 20,
 11,
 -9,
 -31,
 -15,
 -24,
 118,
 -3,
 19,
 18,
 70,
 -10,
 -19,
 52,
 119,
 40,
 15,
 80,
 -57,
 -6,
 -18,
 -10,
 37,
 -9,
 25,
 5,
 38,
 0,
 -21,
 45,
 39,
 39,
 10,
 0,
 -26,
 -37,
 -24,
 -10,
 128,
 -9,
 47,
 19,
 63,
 13,
 -51,
 78,
 114,
 34,
 15,
 96,
 -47,
 4,
 12,
 -14,
 14,
 10,
 15,
 14,
 41,
 -2,
 16,
 27,
 25,
 27,
 13,
 3,
 -19,
 -41,
 9,
 -19,
 114,
 -9,
 26,
 10,
 83,
 -14,
 -16,
 62,
 120,
 41,
 4,
 80,
 -66,
 -7,
 -31,
 -12,
 41,
 -1,
 29,
 4,
 41,
 0,
 -22,
 43,
 39,
 45,
 9,
 -11,
 -37,
 -54,
 30,
 -14,
 102,
 -9,
 48,
 13,
 76,
 11,
 -62,
 88,
 115,
 46,
 12,
 95,
 -54,
 0,
 15,
 -18,
 14,
 25,
 16,
 11,
 45,
 -2,
 11,
 27,
 21,
 30,
 18,
 8,
 -41,
 -40,
 -9,
 -21,
 140,
 28,
 27,
 9,
 86,
 -11,
 -22,
 55,
 117,
 43,
 0,
 83,
 -79,
 -9,
 -2,
 -15,
 47,
 -26,
 31,
 2,
 42,
 0,
 -20,
 48,
 36,
 46,
 14,
 -1,
 -59,
 -53,
 29,
 -15,
 134,
 16,
 53,
 15,
 75,
 13,
 -58,
 90,
 110,
 41,
 17,
 99,
 -63,
 -2,
 0,
 -19,
 15,
 -29,
 20,
 8,
 53,
 -2,
 8,
 28,
 19,
 32,
 8,
 11,
 -60,
 -42,
 -5,
 -18,
 157,
 -13,
 29,
 7,
 90,
 -13,
 -23,
 61,
 113,
 44,
 1,
 89,
 -91,
 -11,
 -19,
 -17,
 52,
 -25,
 36,
 0,
 46,
 -1,
 -16,
 52,
 32,
 47,
 10,
 -5,
 -75,
 -62,
 -20,
 -16,
 125,
 11,
 53,
 11,
 80,
 16,
 -67,
 91,
 107,
 54,
 19,
 107,
 -78,
 0,
 -7,
 -20,
 25,
 -23,
 24,
 7,
 55,
 -5,
 16,
 34,
 15,
 30,
 12,
 6,
 -73,
 -53,
 -28,
 -16,
 150,
 15,
 33,
 4,
 96,
 -14,
 -27,
 67,
 112,
 57,
 15,
 93,
 -103,
 -13,
 -22,
 -19,
 53,
 20,
 39,
 -3,
 48,
 -2,
 -16,
 53,
 26,
 52,
 8,
 3,
 -95,
 -63,
 26,
 -19,
 142,
 -30,
 59,
 9,
 83,
 15,
 -64,
 94,
 101,
 52,
 22,
 113,
 -93,
 0,
 5,
 -20,
 30,
 11,
 26,
 3,
 56,
 -7,
 15,
 36,
 13,
 34,
 13,
 13,
 -96,
 -56,
 -6,
 -15,
 162,
 -27,
 35,
 1,
 98,
 -13,
 -29,
 68,
 109,
 60,
 9,
 100,
 -117,
 -15,
 4,
 -18,
 54,
 -17,
 44,
 -7,
 52,
 -3,
 -17,
 51,
 20,
 55,
 12,
 7,
 -112,
 -67,
 -30,
 -19,
 141,
 24,
 62,
 2,
 89,
 14,
 -67,
 98,
 96,
 56,
 20,
 115,
 -110,
 -2,
 -12,
 -17,
 24,
 -20,
 27,
 0,
 60,
 -7,
 16,
 35,
 11,
 45,
 19,
 25,
 -117,
 -57,
 25,
 -13,
 173,
 -18,
 47,
 -1,
 99,
 -17,
 -33,
 67,
 106,
 57,
 9,
 108,
 -132,
 -14,
 25,
 -17,
 59,
 -6,
 47,
 -11,
 54,
 -6,
 -13,
 58,
 12,
 54,
 8,
 4,
 -128,
 -76,
 1,
 -17,
 129,
 12,
 63,
 -3,
 92,
 11,
 -67,
 109,
 88,
 69,
 21,
 128,
 -126,
 -1,
 4,
 -15,
 33,
 17,
 33,
 -1,
 59,
 -13,
 25,
 42,
 5,
 39,
 18,
 21,
 -131,
 -66,
 26,
 -9,
 156,
 -29,
 48,
 -5,
 102,
 -16,
 -31,
 76,
 100,
 80,
 13,
 108,
 -147,
 -17,
 28,
 -15,
 59,
 -3,
 46,
 -15,
 56,
 -5,
 -11,
 65,
 4,
 63,
 16,
 20,
 -151,
 -72,
 -13,
 -16,
 160,
 12,
 79,
 -4,
 92,
 6,
 -55,
 111,
 79,
 60,
 8,
 128,
 -140,
 -3,
 24,
 -13,
 26,
 -8,
 32,
 -4,
 61,
 -11,
 23,
 41,
 0,
 50,
 9,
 27,
 -140,
 -69,
 -1,
 -5,
 164,
 25,
 54,
 -11,
 108,
 -25,
 -26,
 83,
 89,
 75,
 20,
 116,
 -151,
 -15,
 -23,
 -10,
 83,
 -2,
 61,
 -18,
 61,
 -17,
 -4,
 71,
 -1,
 41,
 19,
 11,
 -167,
 -79,
 -8,
 -13,
 154,
 19,
 77,
 -13,
 95,
 1,
 -63,
 119,
 68,
 71,
 7,
 127,
 -145,
 -7,
 25,
 -10,
 32,
 -4,
 38,
 -6,
 64,
 -15,
 32,
 45,
 -4,
 52,
 16,
 32,
 -159,
 -69,
 -15,
 -4,
 183,
 27,
 60,
 -13,
 111,
 -30,
 -21,
 86,
 78,
 78,
 12,
 106,
 -161,
 -19,
 -22,
 -7,
 93,
 25,
 66,
 -18,
 63,
 -18,
 -5,
 77,
 -5,
 44,
 20,
 8,
 -175,
 -80,
 -28,
 -7,
 176,
 -23,
 92,
 -16,
 95,
 -7,
 -64,
 120,
 58,
 67,
 13,
 113,
 -150,
 -11,
 0,
 -7,
 35,
 17,
 40,
 -9,
 64,
 -14,
 30,
 46,
 -5,
 61,
 5,
 24,
 -165,
 -72,
 -16,
 0,
 197,
 6,
 70,
 -15,
 111,
 -34,
 -17,
 96,
 66,
 85,
 13,
 81,
 -162,
 -30,
 -6,
 -3,
 97,
 -16,
 69,
 -14,
 67,
 -11,
 -11,
 79,
 -6,
 64,
 14,
 -9,
 -179,
 -83,
 -22,
 -5,
 194,
 9,
 95,
 -15,
 94,
 -9,
 -64,
 132,
 42,
 80,
 14,
 93,
 -145,
 -15,
 -15,
 -5,
 52,
 -13,
 43,
 -10,
 66,
 -16,
 31,
 54,
 -6,
 64,
 6,
 16,
 -160,
 -75,
 -18,
 3,
 228,
 20,
 90,
 -19,
 122,
 -50,
 -11,
 110,
 53,
 67,
 23,
 49,
 -157,
 -39,
 18,
 1,
 114,
 16,
 74,
 -13,
 70,
 -12,
 -23,
 86,
 -4,
 67,
 21,
 -33,
 -171,
 -87,
 0,
 -1,
 215,
 24,
 112,
 -14,
 96,
 -16,
 -63,
 142,
 32,
 85,
 11,
 69,
 -131,
 -21,
 -28,
 -2,
 85,
 10,
 57,
 -8,
 71,
 -25,
 34,
 66,
 -3,
 55,
 7,
 -31,
 -150,
 -88,
 -28,
 9,
 220,
 -4,
 90,
 -21,
 123,
 -46,
 -20,
 118,
 40,
 112,
 22,
 11,
 -145,
 -50,
 -29,
 4,
 142,
 11,
 84,
 -7,
 73,
 -16,
 -27,
 98,
 -3,
 71,
 19,
 -72,
 -147,
 -95,
 3,
 2,
 229,
 -15,
 117,
 -15,
 101,
 -22,
 -69,
 161,
 15,
 95,
 15,
 28,
 -122,
 -35,
 -21,
 0,
 104,
 -15,
 62,
 -8,
 74,
 -26,
 20,
 72,
 1,
 67,
 12,
 -72,
 -130,
 -96,
 4,
 9,
 252,
 -11,
 93,
 -26,
 126,
 -59,
 -29,
 136,
 23,
 118,
 20,
 -34,
 -114,
 -60,
 -20,
 12,
 167,
 -9,
 94,
 -6,
 80,
 -24,
 -37,
 107,
 -2,
 72,
 12,
 -119,
 -108,
 -107,
 11,
 0,
 228,
 24,
 129,
 -21,
 114,
 -33,
 -87,
 171,
 -1,
 100,
 7,
 -16,
 -104,
 -44,
 19,
 7,
 143,
 24,
 67,
 -5,
 80,
 -31,
 10,
 76,
 6,
 79,
 17,
 -118,
 -92,
 -110,
 -16,
 7,
 271,
 7,
 115,
 -28,
 141,
 -76,
 -35,
 148,
 12,
 128,
 -22,
 -87,
 -87,
 -70,
 -25,
 9,
 184,
 14,
 89,
 -6,
 88,
 -28,
 -50,
 121,
 -7,
 88,
 6,
 -163,
 -76,
 -112,
 9,
 2,
 244,
 13,
 140,
 -23,
 114,
 -36,
 -98,
 171,
 -21,
 113,
 -21,
 -68,
 -77,
 -55,
 16,
 8,
 166,
 -4,
 75,
 -5,
 90,
 -44,
 4,
 89,
 13,
 93,
 22,
 -167,
 -56,
 -121,
 0,
 18,
 297,
 19,
 120,
 -35,
 148,
 -92,
 -54,
 152,
 -4,
 143,
 -20,
 -133,
 -53,
 -79,
 -10,
 13,
 200,
 -22,
 102,
 -7,
 89,
 -39,
 -57,
 123,
 -11,
 99,
 -26,
 -198,
 -39,
 -113,
 -19,
 10,
 274,
 16,
 153,
 -25,
 112,
 -49,
 -105,
 173,
 -46,
 108,
 -30,
 -106,
 -47,
 -59,
 10,
 6,
 211,
 -13,
 85,
 -8,
 101,
 -64,
 -1,
 90,
 9,
 90,
 1,
 -214,
 -9,
 -135,
 5,
 30,
 307,
 -1,
 124,
 -47,
 173,
 -118,
 -84,
 150,
 -21,
 147,
 -38,
 -165,
 -17,
 -82,
 -11,
 9,
 220,
 27,
 107,
 -11,
 94,
 -57,
 -65,
 128,
 -29,
 97,
 -17,
 -241,
 0,
 -120,
 -11,
 24,
 266,
 -6,
 153,
 -27,
 123,
 -52,
 -113,
 171,
 -73,
 137,
 -28,
 -137,
 -20,
 -63,
 -27,
 9,
 243,
 17,
 84,
 -16,
 108,
 -87,
 -7,
 98,
 -5,
 87,
 8,
 -255,
 17,
 -140,
 31,
 29,
 331,
 -7,
 128,
 -47,
 165,
 -131,
 -82,
 142,
 -40,
 179,
 -17,
 -187,
 9,
 -75,
 25,
 8,
 239,
 -8,
 105,
 -13,
 95,
 -68,
 -64,
 123,
 -54,
 110,
 -16,
 -268,
 37,
 -115,
 27,
 27,
 279,
 10,
 154,
 -27,
 129,
 -67,
 -97,
 179,
 -103,
 144,
 -16,
 -170,
 2,
 -66,
 11,
 7,
 245,
 -9,
 78,
 -17,
 114,
 -97,
 -4,
 97,
 -25,
 123,
 0,
 -281,
 57,
 -143,
 6,
 30,
 341,
 -26,
 124,
 -55,
 181,
 -162,
 -76,
 141,
 -64,
 185,
 -21,
 -202,
 37,
 -65,
 7,
 8,
 238,
 -21,
 102,
 -17,
 95,
 -84,
 -54,
 117,
 -84,
 126,
 -15,
 -284,
 68,
 -102,
 -31,
 26,
 293,
 16,
 151,
 -33,
 130,
 -85,
 -91,
 161,
 -136,
 143,
 -30,
 -185,
 23,
 -61,
 -24,
 13,
 247,
 -3,
 75,
 -21,
 112,
 -117,
 0,
 85,
 -53,
 139,
 -9,
 -297,
 79,
 -138,
 2,
 30,
 350,
 -2,
 121,
 -54,
 184,
 -183,
 -52,
 129,
 -87,
 203,
 -22,
 -205,
 61,
 -47,
 -9,
 11,
 234,
 -7,
 99,
 -21,
 91,
 -103,
 -34,
 108,
 -116,
 134,
 -7,
 -291,
 102,
 -87,
 3,
 23,
 282,
 -11,
 150,
 -32,
 135,
 -106,
 -48,
 165,
 -166,
 147,
 -33,
 -191,
 35,
 -52,
 -10,
 16,
 245,
 30,
 70,
 -25,
 102,
 -140,
 16,
 75,
 -84,
 148,
 -10,
 -303,
 96,
 -125,
 25,
 30,
 345,
 -11,
 111,
 -54,
 178,
 -211,
 -19,
 118,
 -115,
 208,
 -14,
 -203,
 78,
 -25,
 1,
 15,
 224,
 29,
 90,
 -23,
 79,
 -113,
 -11,
 88,
 -149,
 145,
 -6,
 -294,
 110,
 -59,
 24,
 20,
 265,
 22,
 134,
 -31,
 109,
 -111,
 -20,
 129,
 -195,
 173,
 -13,
 -192,
 55,
 -32,
 -6,
 15,
 230,
 -1,
 68,
 -29,
 93,
 -161,
 37,
 63,
 -114,
 154,
 -10,
 -300,
 106,
 -97,
 -15,
 24,
 335,
 15,
 97,
 -49,
 166,
 -224,
 30,
 98,
 -144,
 215,
 -32,
 -197,
 94,
 0,
 -4,
 20,
 202,
 -9,
 78,
 -28,
 57,
 -130,
 6,
 62,
 -173,
 145,
 -12,
 -267,
 123,
 -13,
 13,
 24,
 250,
 12,
 115,
 -30,
 91,
 -140,
 25,
 100,
 -223,
 154,
 1,
 -191,
 68,
 -13,
 11,
 19,
 217,
 -24,
 61,
 -26,
 82,
 -170,
 57,
 48,
 -138,
 163,
 -4,
 -281,
 104,
 -65,
 23,
 16,
 308,
 -18,
 80,
 -42,
 131,
 -233,
 68,
 70,
 -173,
 210,
 -2,
 -192,
 107,
 19,
 -1,
 19,
 167,
 -24,
 57,
 -28,
 37,
 -140,
 20,
 42,
 -191,
 138,
 -18,
 -237,
 132,
 25,
 30,
 19,
 175,
 -30,
 83,
 -31,
 56,
 -152,
 58,
 52,
 -251,
 160,
 -5,
 -190,
 86,
 1,
 -29,
 21,
 201,
 -3,
 47,
 -28,
 66,
 -174,
 61,
 34,
 -155,
 156,
 -13,
 -243,
 105,
 -23,
 23,
 19,
 267,
 0,
 66,
 -37,
 104,
 -235,
 105,
 40,
 -194,
 180,
 -8,
 -184,
 133,
 37,
 19,
 16,
 139,
 -25,
 34,
 -27,
 14,
 -135,
 33,
 9,
 -194,
 118,
 -10,
 -173,
 118,
 71,
 4,
 18,
 101,
 15,
 41,
 -32,
 16,
 -166,
 78,
 0,
 -262,
 131,
 1,
 -196,
 109,
 5,
 15,
 22,
 177,
 24,
 32,
 -31,
 32,
 -166,
 32,
 15,
 -151,
 144,
 -5,
 -199,
 97,
 19,
 2,
 15,
 184,
 -1,
 33,
 -32,
 59,
 -215,
 107,
 0,
 -215,
 165,
 -18,
 -173,
 159,
 44,
 -6,
 19,
 90,
 -21,
 0,
 -24,
 -4,
 -135,
 32,
 -20,
 -185,
 89,
 -12,
 -79,
 116,
 112,
 -19,
 17,
 -1,
 -13,
 -14,
 -35,
 -34,
 -173,
 98,
 -54,
 -283,
 81,
 -5,
 -196,
 146,
 9,
 8,
 20,
 159,
 15,
 17,
 -36,
 18,
 -164,
 4,
 6,
 -137,
 105,
 -17,
 -130,
 90,
 61,
 10,
 21,
 79,
 13,
 0,
 -34,
 -6,
 -191,
 80,
 -34,
 -228,
 113,
 -2,
 -152,
 183,
 44,
 -15,
 18,
 39,
 23,
 -36,
 -20,
 -37,
 -130,
 26,
 -51,
 -161,
 37,
 -11,
 24,
 98,
 162,
 13,
 17,
 -98,
 16,
 -73,
 -35,
 -90,
 -181,
 127,
 -116,
 -284,
 42,
 -12,
 -193,
 175,
 4,
 10,
 17,
 140,
 -7,
 1,
 -39,
 -22,
 -139,
 -34,
 -8,
 -112,
 68,
 -15,
 -41,
 98,
 106,
 13,
 19,
 -42,
 -26,
 -30,
 -38,
 -80,
 -148,
 59,
 -68,
 -246,
 47,
 6,
 -141,
 199,
 41,
 -26,
 17,
 -4,
 -27,
 -76,
 -12,
 -72,
 -125,
 12,
 -85,
 -109,
 0,
 -5,
 146,
 73,
 208,
 -8,
 16,
 -168,
 -28,
 -136,
 -36,
 -159,
 -190,
 150,
 -182,
 -274,
 -10,
 -7,
 -204,
 208,
 -3,
 15,
 15,
 106,
 31,
 -17,
 -44,
 -65,
 -109,
 -93,
 -24,
 -57,
 33,
 5,
 48,
 97,
 154,
 28,
 17,
 -153,
 2,
 -64,
 -42,
 -170,
 -96,
 21,
 -105,
 -247,
 -9,
 -8,
 -131,
 204,
 31,
 10,
 16,
 -47,
 -20,
 -117,
 -5,
 -109,
 -115,
 -8,
 -125,
 -39,
 -31,
 -16,
 258,
 32,
 240,
 18,
 13,
 -227,
 29,
 -202,
 -40,
 -233,
 -194,
 164,
 -244,
 -239,
 -54,
 -17,
 -214,
 224,
 -16,
 9,
 13,
 67,
 20,
 -39,
 -52,
 -106,
 -74,
 -165,
 -44,
 16,
 5,
 -3,
 137,
 89,
 199,
 2,
 12,
 -243,
 9,
 -105,
 -42,
 -266,
 -30,
 -34,
 -148,
 -232,
 -56,
 6,
 -123,
 194,
 16,
 -1,
 11,
 -90,
 23,
 -159,
 0,
 -148,
 -99,
 -33,
 -163,
 39,
 -52,
 -18,
 346,
 -18,
 254,
 9,
 9,
 -249,
 -22,
 -252,
 -38,
 -319,
 -200,
 172,
 -294,
 -176,
 -87,
 -16,
 -213,
 231,
 -30,
 -31,
 1,
 23,
 -22,
 -61,
 -59,
 -146,
 -33,
 -233,
 -65,
 89,
 -19,
 -2,
 214,
 72,
 233,
 26,
 5,
 -316,
 -19,
 -143,
 -49,
 -353,
 26,
 -92,
 -174,
 -194,
 -110,
 5,
 -103,
 187,
 1,
 25,
 16,
 -117,
 -11,
 -189,
 -1,
 -171,
 -93,
 -51,
 -187,
 111,
 -92,
 -12,
 402,
 -43,
 250,
 3,
 6,
 -300,
 -18,
 -309,
 -47,
 -335,
 -210,
 146,
 -334,
 -104,
 -117,
 -23,
 -205,
 240,
 -41,
 14,
 -6,
 -22,
 12,
 -86,
 -65,
 -188,
 12,
 -282,
 -82,
 145,
 -33,
 3,
 257,
 34,
 256,
 -27,
 0,
 -363,
 -8,
 -169,
 -46,
 -438,
 96,
 -144,
 -219,
 -129,
 -108,
 -5,
 -92,
 169,
 -15,
 24,
 15,
 -152,
 21,
 -221,
 1,
 -200,
 -74,
 -61,
 -196,
 163,
 -94,
 -12,
 401,
 -92,
 226,
 -14,
 0,
 -279,
 26,
 -335,
 -31,
 -419,
 -201,
 159,
 -328,
 -24,
 -91,
 -16,
 -171,
 234,
 -41,
 -13,
 -5,
 -32,
 19,
 -93,
 -61,
 -224,
 34,
 -303,
 -91,
 185,
 -75,
 24,
 291,
 -3,
 277,
 0,
 -2,
 -335,
 25,
 -213,
 -38,
 -506,
 143,
 -165,
 -214,
 -79,
 -129,
 -11,
 -71,
 149,
 -21,
 -3,
 4,
 -165,
 -10,
 -214,
 10,
 -221,
 -58,
 -60,
 -219,
 201,
 -98,
 -15,
 414,
 -82,
 203,
 -18,
 -1,
 -308,
 26,
 -341,
 -40,
 -368,
 -205,
 108,
 -366,
 34,
 -137,
 -26,
 -144,
 218,
 -37,
 -18,
 -6,
 -77,
 17,
 -111,
 -59,
 -242,
 64,
 -313,
 -107,
 204,
 -82,
 23,
 292,
 -14,
 261,
 16,
 -4,
 -389,
 -19,
 -219,
 -37,
 -524,
 170,
 -186,
 -227,
 -31,
 -130,
 -11,
 -55,
 127,
 -18,
 11,
 9,
 -184,
 -23,
 -222,
 14,
 -216,
 -36,
 -66,
 -231,
 211,
 -89,
 -16,
 358,
 -101,
 158,
 28,
 1,
 -302,
 3,
 -340,
 -20,
 -401,
 -175,
 121,
 -319,
 81,
 -96,
 -26,
 -124,
 192,
 -29,
 22,
 -11,
 -127,
 18,
 -126,
 -47,
 -252,
 87,
 -294,
 -117,
 209,
 -69,
 24,
 302,
 0,
 247,
 -1,
 -2,
 -431,
 -6,
 -216,
 -38,
 -464,
 165,
 -200,
 -249,
 -4,
 -178,
 -3,
 -26,
 111,
 -7,
 -30,
 11,
 -188,
 21,
 -211,
 12,
 -192,
 -38,
 -61,
 -216,
 205,
 -125,
 8,
 340,
 -80,
 143,
 7,
 2,
 -296,
 13,
 -330,
 -17,
 -305,
 -142,
 68,
 -350,
 96,
 -128,
 -27,
 -81,
 168,
 -7,
 -23,
 -8,
 -136,
 13,
 -124,
 -35,
 -235,
 78,
 -257,
 -120,
 199,
 -108,
 14,
 293,
 -4,
 230,
 6,
 -3,
 -415,
 10,
 -212,
 -22,
 -429,
 158,
 -171,
 -244,
 3,
 -204,
 -9,
 -9,
 83,
 3,
 -6,
 15,
 -195,
 -14,
 -202,
 18,
 -177,
 -25,
 -43,
 -185,
 180,
 -131,
 -13,
 283,
 -90,
 110,
 -10,
 2,
 -252,
 -22,
 -267,
 9,
 -324,
 -104,
 95,
 -305,
 115,
 -128,
 -24,
 -51,
 133,
 9,
 27,
 -5,
 -161,
 5,
 -123,
 -20,
 -216,
 73,
 -208,
 -120,
 178,
 -122,
 18,
 241,
 -23,
 197,
 20,
 -4,
 -436,
 -12,
 -215,
 9,
 -398,
 176,
 -116,
 -230,
 7,
 -139,
 -11,
 -10,
 52,
 14,
 -24,
 13,
 -217,
 -19,
 -185,
 31,
 -167,
 11,
 -29,
 -183,
 152,
 -86,
 15,
 231,
 -52,
 88,
 -4,
 2,
 -291,
 -23,
 -259,
 10,
 -220,
 -60,
 51,
 -281,
 97,
 -140,
 -3,
 -26,
 101,
 23,
 27,
 -4,
 -186,
 20,
 -123,
 0,
 -192,
 72,
 -150,
 -113,
 143,
 -120,
 10,
 245,
 -11,
 182,
 6,
 -2,
 -377,
 -2,
 -175,
 24,
 -331,
 129,
 -64,
 -211,
 -1,
 -225,
 -14,
 9,
 39,
 26,
 21,
 13,
 -212,
 9,
 -154,
 34,
 -146,
 17,
 -11,
 -155,
 115,
 -114,
 14,
 180,
 -39,
 70,
 -25,
 0,
 -281,
 -31,
 -220,
 25,
 -189,
 -24,
 57,
 -223,
 78,
 -157,
 6,
 -4,
 71,
 33,
 -29,
 -1,
 -202,
 -17,
 -114,
 16,
 -169,
 69,
 -99,
 -109,
 106,
 -123,
 18,
 201,
 -18,
 156,
 -6,
 0,
 -369,
 -3,
 -169,
 47,
 -282,
 127,
 -19,
 -189,
 -15,
 -198,
 -18,
 25,
 25,
 34,
 -8,
 3,
 -203,
 -26,
 -127,
 39,
 -132,
 25,
 11,
 -117,
 76,
 -134,
 0,
 132,
 -29,
 60,
 8,
 -4,
 -275,
 1,
 -176,
 42,
 -167,
 16,
 56,
 -189,
 60,
 -154,
 -32,
 9,
 41,
 38,
 -18,
 0,
 -216,
 -6,
 -101,
 34,
 -148,
 74,
 -54,
 -109,
 73,
 -109,
 -20,
 167,
 -16,
 133,
 -6,
 -6,
 -354,
 -12,
 -152,
 62,
 -232,
 117,
 21,
 -162,
 -27,
 -191,
 -15,
 29,
 9,
 38,
 -9,
 0,
 -204,
 2,
 -105,
 46,
 -120,
 48,
 16,
 -109,
 47,
 -119,
 12,
 100,
 -29,
 59,
 -6,
 -12,
 -248,
 12,
 -142,
 58,
 -157,
 53,
 63,
 -154,
 38,
 -151,
 -23,
 27,
 20,
 42,
 4,
 -1,
 -210,
 -20,
 -89,
 42,
 -128,
 70,
 -17,
 -93,
 40,
 -120,
 19,
 152,
 -23,
 124,
 -7,
 -4,
 -304,
 3,
 -127,
 73,
 -196,
 108,
 53,
 -146,
 -35,
 -200,
 -14,
 41,
 -3,
 42,
 25,
 -6,
 -188,
 -2,
 -85,
 48,
 -109,
 58,
 25,
 -89,
 23,
 -126,
 21,
 69,
 -31,
 54,
 18,
 -18,
 -238,
 -4,
 -123,
 67,
 -144,
 88,
 65,
 -118,
 19,
 -128,
 12,
 41,
 0,
 47,
 21,
 -3,
 -195,
 -11,
 -76,
 50,
 -115,
 71,
 11,
 -82,
 17,
 -121,
 18,
 111,
 -34,
 107,
 24,
 -8,
 -299,
 -6,
 -130,
 82,
 -174,
 131,
 75,
 -125,
 -42,
 -138,
 17,
 39,
 -24,
 41,
 8,
 -10,
 -186,
 16,
 -81,
 52,
 -103,
 83,
 28,
 -78,
 6,
 -91,
 -1,
 54,
 -24,
 46,
 -16,
 -18,
 -231,
 -30,
 -96,
 64,
 -121,
 99,
 51,
 -96,
 11,
 -133,
 -7,
 49,
 -6,
 44,
 10,
 -5,
 -192,
 -25,
 -63,
 46,
 -99,
 66,
 26,
 -66,
 1,
 -128,
 14,
 105,
 -23,
 89,
 -16,
 -14,
 -274,
 -20,
 -100,
 73,
 -139,
 112,
 71,
 -106,
 -43,
 -167,
 19,
 62,
 -24,
 41,
 19,
 -12,
 -157,
 -18,
 -51,
 42,
 -86,
 69,
 27,
 -65,
 -1,
 -131,
 4,
 56,
 -22,
 43,
 9,
 -19,
 -193,
 -26,
 -62,
 59,
 -104,
 96,
 45,
 -77,
 9,
 -159,
 12,
 52,
 -16,
 42,
 -22,
 -4,
 -192,
 13,
 -55,
 46,
 -87,
 73,
 32,
 -59,
 -10,
 -111,
 -8,
 96,
 -22,
 75,
 8,
 -14,
 -247,
 -15,
 -81,
 67,
 -115,
 108,
 70,
 -89,
 -41,
 -166,
 9,
 54,
 -29,
 29,
 12,
 -12,
 -174,
 -26,
 -45,
 36,
 -73,
 77,
 21,
 -50,
 -5,
 -103,
 21,
 34,
 -27,
 30,
 -28,
 -23,
 -193,
 0,
 -55,
 54,
 -86,
 110,
 33,
 -60,
 10,
 -125,
 -12,
 64,
 -23,
 41,
 -8,
 -3,
 -176,
 -5,
 -44,
 43,
 -76,
 69,
 37,
 -51,
 -21,
 -116,
 16,
 87,
 -25,
 62,
 15,
 -17,
 -221,
 -29,
 -68,
 61,
 -97,
 106,
 64,
 -74,
 -37,
 -157,
 14,
 54,
 -38,
 23,
 -31,
 -15,
 -169,
 -9,
 -38,
 32,
 -64,
 83,
 20,
 -40,
 -10,
 -82,
 -6,
 29,
 -32,
 26,
 2,
 -20,
 -160,
 -26,
 -40,
 49,
 -69,
 111,
 24,
 -48,
 13,
 -125,
 0,
 64,
 -34,
 39,
 -2,
 -5,
 -174,
 -14,
 -40,
 42,
 -70,
 79,
 37,
 -52,
 -30,
 -91,
 12,
 66,
 -25,
 43,
 -30,
 -19,
 -221,
 -15,
 -60,
 52,
 -73,
 109,
 54,
 -61,
 -30,
 -127,
 17,
 67,
 -43,
 22,
 -4,
 -14,
 -146,
 -15,
 -23,
 24,
 -51,
 75,
 18,
 -33,
 -15,
 -93,
 -2,
 17,
 -31,
 14,
 -16,
 -18,
 -146,
 23,
 -26,
 40,
 -47,
 106,
 14,
 -28,
 18,
 -124,
 3,
 69,
 -32,
 34,
 16,
 -2,
 -173,
 -5,
 -32,
 33,
 -53,
 71,
 35,
 -41,
 -37,
 -95,
 17,
 67,
 -31,
 37,
 -4,
 -18,
 -177,
 22,
 -45,
 45,
 -53,
 97,
 49,
 -51,
 -23,
 -139,
 15,
 72,
 -47,
 20,
 -30,
 -13,
 -132,
 13,
 -15,
 18,
 -39,
 73,
 17,
 -24,
 -21,
 -87,
 21,
 -2,
 -40,
 3,
 -6,
 -22,
 -147,
 3,
 -22,
 39,
 -31,
 121,
 1,
 -23,
 25,
 -83,
 14,
 69,
 -37,
 30,
 3,
 -3,
 -172,
 -20,
 -31,
 31,
 -41,
 74,
 39,
 -34,
 -46,
 -79,
 1,
 43,
 -36,
 20,
 -22,
 -19,
 -179,
 -30,
 -43,
 42,
 -30,
 102,
 42,
 -46,
 -12,
 -99,
 14,
 78,
 -60,
 19,
 -31,
 -14,
 -116,
 -25,
 -8,
 15,
 -29,
 75,
 13,
 -22,
 -26,
 -81,
 14,
 9,
 -39,
 -4,
 -13,
 -19,
 -109,
 0,
 -3,
 38,
 4,
 117,
 0,
 -2,
 24,
 -110,
 10,
 79,
 -41,
 30,
 10,
 -3,
 -155,
 -16,
 -25,
 28,
 -26,
 72,
 42,
 -33,
 -54,
 -80,
 11,
 45,
 -46,
 13,
 -4,
 -23,
 -148,
 -16,
 -33,
 36,
 -8,
 89,
 39,
 -35,
 0,
 -109,
 14,
 86,
 -67,
 20,
 17,
 -8,
 -97,
 -27,
 -4,
 13,
 -13,
 75,
 13,
 -16,
 -29,
 -76,
 22,
 3,
 -44,
 -13,
 -16,
 -23,
 -94,
 -20,
 5,
 41,
 19,
 118,
 -13,
 8,
 21,
 -103,
 8,
 89,
 -49,
 30,
 -28,
 -6,
 -132,
 20,
 -20,
 26,
 -13,
 72,
 48,
 -34,
 -58,
 -84,
 -9,
 36,
 -44,
 8,
 -26,
 -20,
 -120,
 29,
 -27,
 35,
 26,
 90,
 56,
 -30,
 1,
 -98,
 9,
 88,
 -73,
 12,
 -9,
 -7,
 -101,
 13,
 1,
 14,
 13,
 80,
 11,
 -4,
 -33,
 -68,
 18,
 -1,
 -45,
 -22,
 6,
 -23,
 -84,
 31,
 16,
 42,
 38,
 120,
 -19,
 22,
 22,
 -102,
 10,
 80,
 -45,
 23,
 17,
 -11,
 -138,
 -26,
 -16,
 22,
 15,
 77,
 68,
 -25,
 -57,
 -71,
 12,
 26,
 -46,
 -2,
 -1,
 -20,
 -107,
 -30,
 -19,
 34,
 51,
 89,
 63,
 -18,
 7,
 -88,
 9,
 84,
 -71,
 0,
 4,
 -7,
 -103,
 22,
 5,
 14,
 27,
 83,
 3,
 3,
 -38,
 -59,
 20,
 -11,
 -52,
 -30,
 -21,
 -16,
 -82,
 28,
 24,
 42,
 43,
 129,
 -19,
 32,
 23,
 -88,
 12,
 83,
 -53,
 15,
 7,
 -14,
 -128,
 -3,
 -12,
 23,
 34,
 80,
 76,
 -16,
 -58,
 -69,
 10,
 17,
 -49,
 -8,
 15,
 -18,
 -97,
 -15,
 -12,
 36,
 67,
 81,
 66,
 -10,
 13,
 -81,
 4,
 88,
 -78,
 2,
 -27,
 -9,
 -87,
 -11,
 9,
 15,
 37,
 82,
 4,
 8,
 -38,
 -61,
 -21,
 -16,
 -45,
 -30,
 -7,
 -18,
 -67,
 30,
 32,
 38,
 59,
 133,
 -9,
 43,
 20,
 -94,
 16,
 83,
 -61,
 14,
 -10,
 -13,
 -115,
 2,
 -10,
 26,
 42,
 76,
 84,
 -14,
 -58,
 -64,
 2,
 11,
 -56,
 -14,
 -23,
 -23,
 -75,
 -19,
 -5,
 39,
 77,
 79,
 89,
 -6,
 14,
 -74,
 9,
 86,
 -87,
 4,
 31,
 -13,
 -86,
 -27,
 14,
 17,
 44,
 79,
 6,
 12,
 -37,
 -57,
 -14,
 -24,
 -47,
 -33,
 24,
 -8,
 -62,
 -28,
 40,
 39,
 71,
 134,
 -6,
 54,
 22,
 -89,
 12,
 72,
 -67,
 15,
 -16,
 -18,
 -117,
 -20,
 -7,
 27,
 55,
 73,
 98,
 -12,
 -56,
 -53,
 -19,
 8,
 -56,
 -25,
 -16,
 -14,
 -74,
 28,
 4,
 43,
 98,
 80,
 104,
 9,
 16,
 -67,
 8,
 82,
 -85,
 -6,
 0,
 -11,
 -82,
 -24,
 24,
 21,
 65,
 88,
 20,
 22,
 -44,
 -57,
 13,
 -29,
 -53,
 -36,
 -16,
 -11,
 -55,
 -7,
 50,
 41,
 75,
 135,
 -3,
 61,
 25,
 -87,
 8,
 72,
 -73,
 13,
 27,
 -14,
 -109,
 3,
 0,
 31,
 65,
 68,
 121,
 -5,
 -55,
 -52,
 13,
 -1,
 -62,
 -30,
 -30,
 -20,
 -66,
 9,
 6,
 50,
 104,
 80,
 116,
 12,
 18,
 -50,
 6,
 71,
 -86,
 -14,
 21,
 -10,
 -91,
 13,
 30,
 24,
 66,
 90,
 27,
 33,
 -40,
 -47,
 -13,
 -35,
 -60,
 -38,
 26,
 -10,
 -45,
 -14,
 58,
 45,
 81,
 134,
 4,
 70,
 27,
 -82,
 10,
 75,
 -83,
 3,
 16,
 -11,
 -105,
 -12,
 8,
 38,
 77,
 67,
 130,
 4,
 -58,
 -51,
 -22,
 -7,
 -69,
 -33,
 15,
 -21,
 -52,
 -28,
 8,
 54,
 111,
 74,
 124,
 18,
 18,
 -48,
 11,
 66,
 -87,
 -14,
 -3,
 -14,
 -84,
 5,
 33,
 27,
 67,
 92,
 29,
 35,
 -40,
 -45,
 -20,
 -45,
 -64,
 -34,
 12,
 -14,
 -37,
 4,
 66,
 51,
 87,
 130,
 7,
 77,
 30,
 -76,
 7,
 75,
 -91,
 2,
 -3,
 -15,
 -92,
 -3,
 11,
 45,
 80,
 64,
 142,
 8,
 -63,
 -47,
 -13,
 -18,
 -64,
 -37,
 6,
 -17,
 -43,
 -9,
 10,
 56,
 124,
 67,
 127,
 21,
 20,
 -40,
 8,
 65,
 -87,
 -11,
 -30,
 -12,
 -71,
 7,
 38,
 30,
 67,
 91,
 33,
 40,
 -43,
 -47,
 -8,
 -57,
 -57,
 -34,
 2,
 -11,
 -28,
 27,
 72,
 52,
 95,
 131,
 16,
 87,
 29,
 -67,
 6,
 68,
 -92,
 0,
 -21,
 -11,
 -92,
 21,
 13,
 47,
 85,
 57,
 146,
 12,
 -64,
 -42,
 -27,
 -25,
 -68,
 -41,
 17,
 -13,
 -30,
 -9,
 15,
 61,
 129,
 60,
 136,
 27,
 21,
 -34,
 -3,
 58,
 -79,
 -9,
 24,
 -9,
 -71,
 -16,
 45,
 33,
 69,
 89,
 36,
 44,
 -44,
 -41,
 -17,
 -73,
 -52,
 -35,
 8,
 -15,
 -26,
 18,
 78,
 59,
 100,
 138,
 25,
 93,
 30,
 -41,
 -19,
 67,
 -91,
 5,
 -21,
 -13,
 -76,
 22,
 12,
 50,
 88,
 55,
 152,
 14,
 -70,
 -39,
 -26,
 -33,
 -66,
 -45,
 -22,
 -10,
 -14,
 5,
 24,
 61,
 137,
 48,
 137,
 32,
 22,
 -35,
 -1,
 53,
 -84,
 -3,
 -23,
 -6,
 -59,
 -17,
 47,
 35,
 79,
 77,
 42,
 52,
 -45,
 -37,
 -6,
 -76,
 -45,
 -30,
 -1,
 -13,
 -9,
 0,
 82,
 55,
 96,
 132,
 25,
 103,
 23,
 -48,
 -19,
 64,
 -88,
 3,
 3,
 -7,
 -82,
 23,
 16,
 51,
 97,
 46,
 150,
 18,
 -73,
 -32,
 -22,
 -46,
 -68,
 -46,
 9,
 -8,
 3,
 -25,
 31,
 65,
 138,
 42,
 144,
 42,
 31,
 -21,
 -17,
 42,
 -77,
 -1,
 -25,
 -11,
 -57,
 7,
 48,
 37,
 78,
 82,
 45,
 55,
 -50,
 -18,
 3,
 -85,
 -41,
 -30,
 -14,
 -15,
 -6,
 -18,
 89,
 60,
 100,
 135,
 29,
 106,
 22,
 -25,
 -9,
 61,
 -81,
 1,
 10,
 -9,
 -77,
 -6,
 20,
 51,
 96,
 42,
 148,
 23,
 -74,
 -28,
 -19,
 -51,
 -66,
 -47,
 -28,
 -6,
 20,
 23,
 34,
 61,
 137,
 37,
 136,
 46,
 31,
 -19,
 -14,
 39,
 -71,
 -5,
 4,
 -12,
 -50,
 -25,
 56,
 36,
 80,
 75,
 40,
 58,
 -50,
 -15,
 -17,
 -87,
 -31,
 -28,
 -7,
 -12,
 8,
 12,
 90,
 56,
 99,
 123,
 21,
 116,
 13,
 -29,
 -16,
 62,
 -90,
 3,
 -25,
 -15,
 -56,
 -6,
 23,
 55,
 87,
 45,
 158,
 32,
 -73,
 -15,
 -23,
 -54,
 -67,
 -47,
 13,
 -6,
 37,
 17,
 43,
 61,
 139,
 37,
 135,
 50,
 34,
 -6,
 -16,
 37,
 -75,
 -4,
 -30,
 -10,
 -30,
 25,
 61,
 38,
 80,
 71,
 40,
 65,
 -45,
 -4,
 -12,
 -86,
 -29,
 -28,
 18,
 -16,
 28,
 -18,
 97,
 57,
 100,
 116,
 21,
 119,
 13,
 -20,
 -17,
 61,
 -79,
 0,
 -19,
 -13,
 -55,
 -21,
 26,
 47,
 95,
 40,
 140,
 32,
 -74,
 -16,
 -25,
 -53,
 -68,
 -46,
 -23,
 -9,
 54,
 1,
 45,
 56,
 139,
 29,
 123,
 60,
 30,
 0,
 -23,
 37,
 -71,
 -8,
 -1,
 -18,
 -18,
 31,
 61,
 32,
 77,
 60,
 29,
 71,
 -46,
 -1,
 -20,
 -88,
 -25,
 -30,
 -8,
 -12,
 45,
 -26,
 97,
 55,
 98,
 108,
 14,
 125,
 13,
 -10,
 10,
 58,
 -79,
 -3,
 7,
 -14,
 -52,
 17,
 30,
 41,
 92,
 40,
 132,
 34,
 -71,
 -7,
 -23,
 -57,
 -67,
 -51,
 14,
 -7,
 64,
 -28,
 48,
 50,
 138,
 26,
 109,
 70,
 32,
 12,
 -20,
 35,
 -73,
 -11,
 -9,
 -12,
 -5,
 -7,
 59,
 25,
 74,
 57,
 19,
 72,
 -47,
 4,
 -16,
 -87,
 -31,
 -36,
 -21,
 -11,
 62,
 15,
 94,
 49,
 91,
 93,
 -3,
 129,
 16,
 -4,
 -2,
 60,
 -77,
 -5,
 19,
 -16,
 -41,
 2,
 35,
 37,
 94,
 39,
 127,
 40,
 -69,
 -1,
 -21,
 -60,
 -62,
 -56,
 -23,
 -5,
 76,
 -21,
 53,
 41,
 139,
 24,
 96,
 79,
 35,
 23,
 -23,
 36,
 -72,
 -12,
 -25,
 -14,
 10,
 25,
 61,
 21,
 73,
 53,
 16,
 70,
 -44,
 12,
 -25,
 -85,
 -31,
 -40,
 10,
 -11,
 80,
 -10,
 99,
 44,
 90,
 85,
 -6,
 128,
 23,
 9,
 5,
 53,
 -75,
 -4,
 3,
 -16,
 -23,
 30,
 39,
 30,
 100,
 28,
 116,
 43,
 -56,
 8,
 -22,
 -56,
 -57,
 -54,
 -14,
 -11,
 109,
 1,
 57,
 36,
 138,
 22,
 89,
 84,
 37,
 31,
 -25,
 37,
 -69,
 -14,
 -14,
 -20,
 24,
 26,
 64,
 18,
 74,
 47,
 11,
 67,
 -41,
 20,
 -23,
 -80,
 -24,
 -49,
 24,
 -10,
 92,
 6,
 101,
 35,
 88,
 76,
 -15,
 132,
 31,
 17,
 -17,
 51,
 -74,
 -5,
 -17,
 -19,
 -10,
 -6,
 35,
 21,
 100,
 27,
 103,
 44,
 -54,
 16,
 -26,
 -63,
 -42,
 -62,
 -15,
 -17,
 112,
 8,
 71,
 24,
 142,
 15,
 70,
 80,
 47,
 40,
 -16,
 35,
 -67,
 -18,
 13,
 -18,
 33,
 5,
 61,
 11,
 72,
 40,
 7,
 70,
 -38,
 28,
 -26,
 -75,
 -30,
 -50,
 2,
 -12,
 119,
 8,
 97,
 29,
 87,
 69,
 -29,
 118,
 35,
 30,
 -17,
 56,
 -78,
 -6,
 -24,
 -20,
 8,
 15,
 44,
 16,
 99,
 22,
 102,
 46,
 -49,
 16,
 -20,
 -61,
 -38,
 -58,
 -3,
 -12,
 144,
 -20,
 62,
 15,
 142,
 10,
 59,
 90,
 44,
 42,
 5,
 35,
 -64,
 -22,
 9,
 -17,
 46,
 30,
 55,
 8,
 73,
 33,
 10,
 78,
 -36,
 36,
 19,
 -72,
 -27,
 -53,
 -8,
 -8,
 136,
 -27,
 94,
 19,
 86,
 55,
 -35,
 120,
 38,
 33,
 -18,
 52,
 -80,
 -10,
 21,
 -15,
 15,
 2,
 44,
 13,
 99,
 16,
 83,
 41,
 -42,
 27,
 -19,
 -59,
 -31,
 -58,
 -21,
 -16,
 168,
 13,
 66,
 9,
 140,
 3,
 47,
 89,
 46,
 46,
 -1,
 40,
 -70,
 -22,
 -3,
 -13,
 59,
 -15,
 61,
 9,
 71,
 24,
 1,
 71,
 -26,
 40,
 -25,
 -68,
 -27,
 -56,
 -6,
 -10,
 148,
 -18,
 93,
 15,
 90,
 39,
 -48,
 114,
 44,
 42,
 -11,
 56,
 -83,
 -16,
 19,
 -13,
 27,
 27,
 46,
 8,
 80,
 10,
 54,
 36,
 -37,
 31,
 6,
 -64,
 -36,
 -69,
 31,
 -17,
 164,
 6,
 62,
 8,
 124,
 -2,
 16,
 92,
 52,
 70,
 13,
 42,
 -71,
 -28,
 20,
 -13,
 68,
 -4,
 57,
 7,
 71,
 7,
 -4,
 80,
 -20,
 38,
 20,
 -62,
 -34,
 -59,
 8,
 -11,
 161,
 6,
 86,
 14,
 87,
 23,
 -56,
 114,
 46,
 53,
 4,
 48,
 -79,
 -11,
 -19,
 -13,
 40,
 10,
 36,
 -1,
 72,
 -2,
 49,
 43,
 -30,
 33,
 -12,
 -58,
 -25,
 -69,
 -13,
 -19,
 185,
 -9,
 68,
 1,
 119,
 -12,
 8,
 93,
 55,
 65,
 -2,
 43,
 -71,
 -25,
 -6,
 -6,
 80,
 -25,
 59,
 5,
 65,
 2,
 -9,
 66,
 -12,
 49,
 16,
 -61,
 -30,
 -61,
 11,
 -11,
 163,
 7,
 80,
 7,
 91,
 10,
 -56,
 118,
 50,
 61,
 -19,
 49,
 -74,
 -11,
 29,
 -11,
 54,
 6,
 40,
 -3,
 73,
 -9,
 44,
 44,
 -20,
 37,
 9,
 -62,
 -27,
 -65,
 -5,
 -13,
 193,
 -26,
 63,
 -2,
 108,
 -9,
 -2,
 82,
 59,
 88,
 -17,
 39,
 -70,
 -21,
 -24,
 -5,
 86,
 -12,
 53,
 -1,
 56,
 -6,
 -13,
 62,
 -7,
 55,
 23,
 -53,
 -29,
 -57,
 12,
 -7,
 178,
 -11,
 82,
 5,
 85,
 1,
 -54,
 108,
 53,
 66,
 -13,
 44,
 -68,
 -11,
 25,
 -6,
 58,
 1,
 39,
 -5,
 72,
 -10,
 28,
 33,
 -12,
 52,
 16,
 -75,
 -9,
 -66,
 -3,
 -9,
 171,
 -1,
 61,
 -18,
 109,
 -27,
 -14,
 86,
 64,
 91,
 -15,
 42,
 -68,
 -21,
 8,
 -7,
 96,
 -31,
 51,
 -4,
 55,
 -14,
 -15,
 59,
 -4,
 57,
 -2,
 -49,
 -21,
 -55,
 14,
 -10,
 183,
 -14,
 79,
 1,
 83,
 -7,
 -53,
 104,
 56,
 71,
 17,
 49,
 -63,
 -12,
 -26,
 -6,
 69,
 -28,
 39,
 -2,
 68,
 -21,
 12,
 37,
 -8,
 51,
 23,
 -53,
 -24,
 -60,
 18,
 -7,
 201,
 5,
 63,
 -12,
 91,
 -38,
 -25,
 83,
 66,
 83,
 -16,
 38,
 -67,
 -21,
 -25,
 -3,
 95,
 -2,
 47,
 -6,
 53,
 -18,
 -22,
 54,
 0,
 66,
 14,
 -45,
 -17,
 -48,
 -19,
 -10,
 186,
 -23,
 75,
 -2,
 79,
 -13,
 -57,
 90,
 59,
 77,
 -10,
 48,
 -64,
 -15,
 1,
 -7,
 70,
 28,
 35,
 -3,
 59,
 -29,
 -1,
 42,
 -3,
 56,
 27,
 -51,
 -27,
 -53,
 11,
 -6,
 201,
 14,
 58,
 -14,
 81,
 -37,
 -33,
 75,
 67,
 98,
 -15,
 41,
 -66,
 -17,
 7,
 -4,
 101,
 -5,
 47,
 -7,
 51,
 -23,
 -26,
 48,
 2,
 67,
 21,
 -49,
 -11,
 -42,
 0,
 -5,
 176,
 29,
 66,
 -9,
 65,
 -24,
 -54,
 87,
 60,
 87,
 -10,
 50,
 -60,
 -11,
 22,
 -2,
 85,
 -20,
 38,
 -4,
 49,
 -32,
 -3,
 34,
 2,
 60,
 28,
 -47,
 -28,
 -51,
 21,
 -4,
 198,
 -28,
 57,
 -16,
 73,
 -44,
 -36,
 74,
 71,
 102,
 -16,
 37,
 -60,
 -14,
 28,
 2,
 101,
 -27,
 41,
 -10,
 46,
 -25,
 -30,
 42,
 5,
 74,
 11,
 -50,
 -3,
 -41,
 -18,
 -4,
 161,
 15,
 60,
 -11,
 60,
 -28,
 -55,
 80,
 61,
 99,
 -8,
 47,
 -47,
 -2,
 13,
 -3,
 102,
 -12,
 39,
 -14,
 38,
 -45,
 -4,
 33,
 4,
 43,
 36,
 -38,
 -20,
 -49,
 23,
 -4,
 202,
 -14,
 59,
 -19,
 69,
 -54,
 -38,
 72,
 73,
 92,
 -17,
 27,
 -47,
 -9,
 21,
 0,
 105,
 -24,
 37,
 -19,
 34,
 -36,
 -25,
 43,
 8,
 71,
 2,
 -29,
 -2,
 -33,
 -27,
 -6,
 187,
 2,
 60,
 -11,
 52,
 -39,
 -48,
 71,
 56,
 81,
 6,
 31,
 -41,
 -5,
 -5,
 -5,
 85,
 -16,
 29,
 -14,
 32,
 -38,
 -11,
 32,
 4,
 71,
 -5,
 -45,
 -11,
 -47,
 1,
 -3,
 186,
 22,
 49,
 -24,
 55,
 -55,
 -41,
 69,
 71,
 109,
 3,
 26,
 -39,
 -2,
 13,
 5,
 111,
 4,
 36,
 -17,
 31,
 -40,
 -21,
 39,
 10,
 72,
 15,
 -36,
 6,
 -38,
 -3,
 -3,
 168,
 23,
 52,
 -18,
 33,
 -45,
 -46,
 66,
 56,
 95,
 8,
 29,
 -37,
 -2,
 -7,
 -3,
 93,
 2,
 29,
 -16,
 27,
 -41,
 -16,
 27,
 4,
 70,
 -4,
 -41,
 -8,
 -39,
 5,
 -5,
 190,
 -17,
 48,
 -22,
 42,
 -60,
 -38,
 63,
 71,
 109,
 -15,
 20,
 -29,
 -1,
 14,
 2,
 106,
 13,
 32,
 -19,
 25,
 -42,
 -23,
 34,
 13,
 76,
 16,
 -32,
 12,
 -23,
 11,
 2,
 172,
 -30,
 45,
 -19,
 24,
 -55,
 -37,
 61,
 54,
 90,
 -13,
 27,
 -34,
 0,
 -8,
 -2,
 98,
 18,
 28,
 -15,
 26,
 -42,
 -18,
 23,
 4,
 72,
 27,
 -44,
 6,
 -42,
 25,
 -4,
 166,
 -11,
 45,
 -25,
 39,
 -65,
 -42,
 64,
 69,
 111,
 -16,
 13,
 -20,
 -2,
 25,
 3,
 99,
 1,
 27,
 -18,
 19,
 -41,
 -24,
 30,
 15,
 85,
 -6,
 -31,
 12,
 -21,
 -2,
 4,
 158,
 9,
 37,
 -17,
 15,
 -54,
 -35,
 54,
 51,
 104,
 -7,
 19,
 -25,
 -5,
 31,
 -2,
 87,
 -8,
 25,
 -17,
 22,
 -45,
 -20,
 30,
 5,
 75,
 27,
 -37,
 5,
 -32,
 -31,
 -5,
 175,
 -29,
 39,
 -21,
 23,
 -61,
 -42,
 53,
 65,
 115,
 -6,
 14,
 -9,
 -3,
 -24,
 2,
 106,
 7,
 26,
 -18,
 13,
 -47,
 -20,
 32,
 15,
 73,
 -5,
 -27,
 17,
 -18,
 2,
 0,
 151,
 -1,
 31,
 -17,
 6,
 -55,
 -32,
 47,
 46,
 107,
 -6,
 17,
 -22,
 -3,
 7,
 -2,
 93,
 24,
 22,
 -16,
 16,
 -43,
 -23,
 24,
 7,
 76,
 11,
 -23,
 13,
 -23,
 17,
 -6,
 190,
 22,
 40,
 -18,
 20,
 -69,
 -36,
 52,
 60,
 94,
 -13,
 8,
 0,
 -6,
 -30,
 5,
 97,
 12,
 25,
 -15,
 7,
 -45,
 -16,
 29,
 19,
 82,
 -6,
 -19,
 19,
 -12,
 -31,
 2,
 150,
 -27,
 29,
 -15,
 0,
 -57,
 -29,
 37,
 44,
 105,
 -7,
 15,
 -15,
 -3,
 18,
 -2,
 93,
 27,
 24,
 -16,
 14,
 -48,
 -26,
 23,
 12,
 71,
 -12,
 -23,
 19,
 -20,
 -15,
 -3,
 178,
 -28,
 36,
 -17,
 12,
 -65,
 -35,
 47,
 57,
 101,
 -11,
 12,
 2,
 -2,
 20,
 5,
 109,
 16,
 21,
 -12,
 1,
 -48,
 -13,
 25,
 18,
 74,
 -13,
 -15,
 25,
 -8,
 -9,
 5,
 143,
 -31,
 24,
 -13,
 -6,
 -59,
 -21,
 35,
 41,
 106,
 4,
 12,
 -12,
 -1,
 19,
 -3,
 95,
 31,
 20,
 -13,
 7,
 -47,
 -28,
 20,
 16,
 76,
 -12,
 -24,
 27,
 -19,
 -7,
 -3,
 158,
 -14,
 32,
 -18,
 2,
 -65,
 -39,
 43,
 55,
 103,
 -7,
 12,
 11,
 -2,
 0,
 8,
 107,
 24,
 21,
 -12,
 -1,
 -52,
 -10,
 26,
 19,
 68,
 -13,
 -10,
 31,
 -5,
 -17,
 1,
 133,
 -31,
 23,
 -11,
 -12,
 -62,
 -17,
 31,
 40,
 103,
 4,
 8,
 -7,
 0,
 17,
 0,
 95,
 31,
 16,
 -14,
 1,
 -46,
 -29,
 18,
 21,
 77,
 -13,
 -19,
 32,
 -13,
 -25,
 -1,
 157,
 26,
 31,
 -16,
 -5,
 -62,
 -36,
 35,
 52,
 100,
 -2,
 5,
 11,
 0,
 -19,
 2,
 103,
 -23,
 13,
 -11,
 -10,
 -43,
 -10,
 15,
 20,
 81,
 -4,
 -8,
 35,
 -3,
 -2,
 5,
 122,
 25,
 17,
 -11,
 -22,
 -64,
 -15,
 28,
 37,
 103,
 -1,
 6,
 2,
 0,
 6,
 -2,
 95,
 -12,
 17,
 -18,
 -1,
 -48,
 -24,
 20,
 28,
 69,
 -9,
 -22,
 35,
 -13,
 11,
 0,
 134,
 -29,
 27,
 -15,
 -15,
 -61,
 -35,
 37,
 52,
 105,
 -3,
 -3,
 26,
 -5,
 19,
 0,
 86,
 -11,
 10,
 -16,
 -13,
 -45,
 -10,
 18,
 21,
 79,
 -2,
 -4,
 39,
 1,
 6,
 -1,
 118,
 -6,
 15,
 -9,
 -29,
 -63,
 -9,
 21,
 34,
 103,
 0,
 0,
 10,
 -3,
 -18,
 0,
 96,
 -31,
 14,
 -19,
 -11,
 -42,
 -25,
 18,
 34,
 67,
 0,
 -14,
 34,
 -2,
 27,
 0,
 143,
 -8,
 23,
 -13,
 -30,
 -59,
 -29,
 31,
 49,
 98,
 1,
 1,
 29,
 3,
 8,
 4,
 104,
 7,
 7,
 -14,
 -19,
 -42,
 -8,
 12,
 21,
 66,
 -3,
 4,
 52,
 5,
 -6,
 -4,
 128,
 -3,
 13,
 -11,
 -34,
 -62,
 -3,
 16,
 28,
 85,
 22,
 -6,
 15,
 -4,
 -15,
 -2,
 93,
 2,
 12,
 -17,
 -20,
 -39,
 -26,
 14,
 38,
 71,
 -10,
 -15,
 38,
 1,
 27,
 -1,
 136,
 25,
 19,
 -12,
 -40,
 -54,
 -26,
 28,
 49,
 98,
 5,
 -6,
 33,
 4,
 17,
 -1,
 92,
 -18,
 3,
 -11,
 -25,
 -38,
 -10,
 7,
 21,
 77,
 -1,
 0,
 55,
 3,
 -27,
 -5,
 103,
 -20,
 6,
 -11,
 -41,
 -57,
 -4,
 10,
 25,
 97,
 1,
 -9,
 19,
 -1,
 -2,
 2,
 96,
 0,
 9,
 -14,
 -27,
 -37,
 -23,
 13,
 38,
 69,
 0,
 -16,
 46,
 1,
 15,
 4,
 122,
 -2,
 16,
 -12,
 -44,
 -50,
 -25,
 26,
 47,
 97,
 8,
 -6,
 41,
 3,
 0,
 0,
 87,
 -28,
 3,
 -13,
 -27,
 -42,
 -9,
 8,
 16,
 67,
 -1,
 5,
 53,
 8,
 -30,
 -1,
 105,
 9,
 2,
 -9,
 -47,
 -57,
 0,
 4,
 20,
 90,
 3,
 -9,
 31,
 -3,
 17,
 2,
 93,
 -3,
 13,
 -19,
 -22,
 -44,
 -22,
 20,
 36,
 50,
 -8,
 -12,
 52,
 9,
 14,
 0,
 120,
 -26,
 12,
 -9,
 -52,
 -47,
 -22,
 19,
 41,
 93,
 5,
 -4,
 43,
 2,
 -20,
 3,
 76,
 -8,
 4,
 -14,
 -30,
 -43,
 -6,
 9,
 11,
 52,
 5,
 13,
 55,
 5,
 24,
 -2,
 92,
 -1,
 1,
 -11,
 -48,
 -55,
 2,
 0,
 9,
 84,
 1,
 -14,
 32,
 -5,
 12,
 6,
 83,
 -31,
 10,
 -17,
 -28,
 -37,
 -23,
 16,
 30,
 57,
 2,
 -9,
 57,
 14,
 11,
 2,
 111,
 25,
 9,
 -8,
 -57,
 -43,
 -20,
 13,
 35,
 90,
 9,
 -6,
 42,
 2,
 16,
 -1,
 70,
 25,
 3,
 -12,
 -38,
 -42,
 -5,
 4,
 12,
 47,
 0,
 21,
 52,
 6,
 -27,
 -5,
 83,
 4,
 -2,
 -11,
 -54,
 -50,
 7,
 -3,
 0,
 73,
 -2,
 -17,
 32,
 -5,
 3,
 -1,
 72,
 16,
 6,
 -16,
 -37,
 -27,
 -23,
 10,
 25,
 58,
 -16,
 10,
 66,
 13,
 -23,
 0,
 110,
 -27,
 15,
 -14,
 -51,
 -54,
 -17,
 20,
 20,
 49,
 20,
 -5,
 39,
 5,
 0,
 -2,
 70,
 28,
 1,
 -11,
 -42,
 -40,
 -2,
 2,
 11,
 40,
 10,
 24,
 47,
 5,
 14,
 -1,
 72,
 10,
 -3,
 -13,
 -54,
 -50,
 8,
 -6,
 -5,
 62,
 14,
 -17,
 32,
 -1,
 12,
 -2,
 73,
 -22,
 4,
 -15,
 -41,
 -23,
 -21,
 6,
 21,
 53,
 -6,
 4,
 55,
 11,
 -25,
 0,
 79,
 -19,
 5,
 -10,
 -64,
 -32,
 -16,
 7,
 12,
 72,
 19,
 -12,
 36,
 2,
 -28,
 -2,
 58,
 -10,
 -2,
 -8,
 -45,
 -31,
 -1,
 -2,
 11,
 49,
 2,
 23,
 35,
 6,
 -29,
 2,
 64,
 -14,
 -8,
 -12,
 -55,
 -40,
 10,
 -13,
 -10,
 67,
 -12,
 -18,
 37,
 -1,
 -24,
 0,
 65,
 25,
 4,
 -16,
 -41,
 -23,
 -22,
 5,
 18,
 46,
 -18,
 8,
 48,
 11,
 18,
 -1,
 67,
 13,
 5,
 -12,
 -63,
 -27,
 -15,
 4,
 3,
 61,
 -6,
 -12,
 34,
 0,
 20,
 -3,
 51,
 -5,
 -3,
 -9,
 -44,
 -29,
 -1,
 -4,
 9,
 45,
 0,
 24,
 27,
 4,
 -27,
 0,
 52,
 -20,
 -9,
 -14,
 -50,
 -39,
 10,
 -15,
 -14,
 57,
 -19,
 -20,
 38,
 0,
 15,
 4,
 63,
 12,
 2,
 -15,
 -41,
 -19,
 -23,
 1,
 15,
 45,
 -23,
 18,
 36,
 11,
 -30,
 0,
 62,
 -29,
 6,
 -16,
 -59,
 -29,
 -14,
 4,
 -4,
 39,
 -10,
 -10,
 31,
 0,
 15,
 -1,
 49,
 30,
 -3,
 -10,
 -42,
 -27,
 -1,
 -6,
 5,
 34,
 16,
 26,
 21,
 4,
 -4,
 1,
 47,
 15,
 -13,
 -16,
 -44,
 -34,
 10,
 -19,
 -23,
 50,
 7,
 -21,
 38,
 0,
 -25,
 1,
 58,
 -24,
 0,
 -14,
 -42,
 -17,
 -24,
 0,
 14,
 43,
 -7,
 14,
 25,
 7,
 -8,
 -1,
 45,
 31,
 2,
 -15,
 -59,
 -15,
 -13,
 -2,
 -14,
 49,
 14,
 -10,
 28,
 -2,
 -31,
 0,
 43,
 25,
 -6,
 -10,
 -39,
 -20,
 -2,
 -10,
 0,
 33,
 3,
 25,
 11,
 0,
 -17,
 3,
 34,
 18,
 -14,
 -19,
 -36,
 -29,
 7,
 -23,
 -30,
 43,
 3,
 -18,
 40,
 0,
 29,
 0,
 59,
 5,
 1,
 -17,
 -39,
 -20,
 -25,
 1,
 12,
 27,
 14,
 19,
 13,
 6,
 -6,
 1,
 41,
 -31,
 1,
 -18,
 -54,
 -10,
 -13,
 -6,
 -23,
 37,
 7,
};


int BIASES[548] = {
 64,
 -155,
 -72,
 87,
 -144,
 -130,
 -27,
 26,
 212,
 -178,
 90,
 74,
 27,
 162,
 157,
 -136,
 -2,
 7,
 -21,
 19,
 -108,
 26,
 -35,
 -22,
 -117,
 134,
 49,
 164,
 36,
 141,
 -95,
 152,
 154,
 -118,
 183,
 -55,
 7,
 5,
 7,
 9,
 11,
 10,
 5,
 8,
 10,
 10,
 9,
 9,
 10,
 12,
 10,
 10,
 10,
 13,
 11,
 12,
 13,
 13,
 11,
 13,
 12,
 15,
 14,
 15,
 13,
 15,
 13,
 16,
 13,
 17,
 14,
 16,
 15,
 17,
 16,
 18,
 15,
 18,
 15,
 20,
 16,
 20,
 15,
 22,
 17,
 22,
 17,
 20,
 18,
 21,
 17,
 24,
 19,
 23,
 18,
 25,
 21,
 26,
 19,
 27,
 20,
 28,
 20,
 25,
 24,
 29,
 22,
 28,
 23,
 27,
 25,
 31,
 24,
 26,
 25,
 26,
 26,
 28,
 27,
 30,
 28,
 29,
 29,
 30,
 28,
 31,
 29,
 30,
 30,
 35,
 29,
 30,
 30,
 32,
 31,
 33,
 29,
 39,
 31,
 35,
 32,
 35,
 34,
 31,
 34,
 41,
 33,
 40,
 36,
 37,
 35,
 34,
 33,
 44,
 35,
 40,
 38,
 45,
 37,
 44,
 42,
 45,
 40,
 44,
 43,
 39,
 41,
 40,
 43,
 44,
 38,
 41,
 45,
 50,
 45,
 47,
 46,
 46,
 46,
 48,
 43,
 53,
 39,
 48,
 47,
 50,
 47,
 51,
 51,
 54,
 50,
 51,
 51,
 58,
 44,
 53,
 50,
 46,
 51,
 56,
 43,
 60,
 48,
 55,
 44,
 64,
 55,
 56,
 45,
 66,
 55,
 51,
 55,
 61,
 47,
 63,
 48,
 61,
 57,
 70,
 48,
 67,
 56,
 60,
 51,
 77,
 52,
 74,
 54,
 85,
 49,
 89,
 62,
 89,
 59,
 94,
 65,
 77,
 57,
 87,
 65,
 93,
 65,
 80,
 60,
 71,
 65,
 78,
 66,
 88,
 65,
 78,
 61,
 66,
 55,
 86,
 52,
 60,
 51,
 66,
 36,
 49,
 41,
 46,
 15,
 19,
 16,
 20,
 -4,
 -7,
 -4,
 -5,
 -25,
 -32,
 -26,
 -27,
 -43,
 -55,
 -41,
 -47,
 -53,
 -69,
 -56,
 -68,
 -70,
 -93,
 -69,
 -83,
 -75,
 -96,
 -88,
 -103,
 -80,
 -105,
 -88,
 -98,
 -76,
 -98,
 -84,
 -104,
 -73,
 -99,
 -84,
 -94,
 -67,
 -82,
 -71,
 -83,
 -51,
 -73,
 -63,
 -74,
 -41,
 -60,
 -44,
 -53,
 -36,
 -44,
 -33,
 -43,
 -23,
 -35,
 -24,
 -34,
 -18,
 -29,
 -20,
 -28,
 -13,
 -17,
 -13,
 -15,
 -8,
 -12,
 -8,
 -14,
 -3,
 -6,
 -5,
 -9,
 0,
 -3,
 3,
 -5,
 3,
 0,
 7,
 -1,
 5,
 7,
 9,
 4,
 13,
 8,
 11,
 12,
 11,
 19,
 14,
 14,
 19,
 25,
 25,
 25,
 26,
 30,
 30,
 34,
 30,
 37,
 35,
 40,
 33,
 42,
 38,
 45,
 39,
 47,
 45,
 46,
 39,
 52,
 50,
 51,
 45,
 57,
 48,
 54,
 49,
 61,
 54,
 54,
 54,
 55,
 56,
 64,
 57,
 68,
 61,
 60,
 56,
 60,
 65,
 71,
 58,
 72,
 56,
 62,
 50,
 64,
 62,
 70,
 54,
 64,
 65,
 71,
 58,
 69,
 55,
 69,
 57,
 60,
 56,
 57,
 55,
 56,
 61,
 59,
 58,
 59,
 49,
 57,
 50,
 62,
 56,
 56,
 53,
 61,
 54,
 54,
 46,
 56,
 52,
 49,
 46,
 50,
 44,
 59,
 48,
 51,
 50,
 60,
 45,
 48,
 48,
 56,
 46,
 55,
 47,
 54,
 46,
 55,
 41,
 51,
 47,
 55,
 36,
 43,
 40,
 48,
 41,
 41,
 33,
 47,
 42,
 39,
 38,
 43,
 36,
 40,
 41,
 44,
 33,
 44,
 38,
 46,
 34,
 33,
 34,
 45,
 31,
 32,
 32,
 37,
 31,
 41,
 27,
 34,
 33,
 36,
 31,
 39,
 26,
 38,
 27,
 35,
 24,
 38,
 23,
 25,
 26,
 34,
 26,
 30,
 24,
 28,
 27,
 26,
 17,
 27,
 20,
 25,
 19,
 26,
 21,
 20,
 17,
 17,
 18,
 19,
 13,
 19,
 16,
 17,
 12,
 15,
 14,
 14,
 11,
 12,
 12,
 10,
 10,
 10,
 9,
 7,
 9,
 7,
};


int THRESHOLDS[4] = {
 127,
 127,
 127,
 127,
};


int GRADED_SPIKES_FACTORS[4] = {
 127,
 127,
 127,
 127,
};


int RESET_MECHANISM_VALS[4] = {
 0,
 0,
 0,
 0,
};


int BETAS[4] = {
 25,
 25,
 25,
 25,
};


int NEURONS_MEM[548] = {
 0,
 0,
 0,
 0,
 0,
 0,
 0,
 0,
 0,
 0,
 0,
 0,
 0,
 0,
 0,
 0,
 0,
 0,
 0,
 0,
 0,
 0,
 0,
 0,
 0,
 0,
 0,
 0,
 0,
 0,
 0,
 0,
 0,
 0,
 0,
 0,
 0,
 0,
 0,
 0,
 0,
 0,
 0,
 0,
 0,
 0,
 0,
 0,
 0,
 0,
 0,
 0,
 0,
 0,
 0,
 0,
 0,
 0,
 0,
 0,
 0,
 0,
 0,
 0,
 0,
 0,
 0,
 0,
 0,
 0,
 0,
 0,
 0,
 0,
 0,
 0,
 0,
 0,
 0,
 0,
 0,
 0,
 0,
 0,
 0,
 0,
 0,
 0,
 0,
 0,
 0,
 0,
 0,
 0,
 0,
 0,
 0,
 0,
 0,
 0,
 0,
 0,
 0,
 0,
 0,
 0,
 0,
 0,
 0,
 0,
 0,
 0,
 0,
 0,
 0,
 0,
 0,
 0,
 0,
 0,
 0,
 0,
 0,
 0,
 0,
 0,
 0,
 0,
 0,
 0,
 0,
 0,
 0,
 0,
 0,
 0,
 0,
 0,
 0,
 0,
 0,
 0,
 0,
 0,
 0,
 0,
 0,
 0,
 0,
 0,
 0,
 0,
 0,
 0,
 0,
 0,
 0,
 0,
 0,
 0,
 0,
 0,
 0,
 0,
 0,
 0,
 0,
 0,
 0,
 0,
 0,
 0,
 0,
 0,
 0,
 0,
 0,
 0,
 0,
 0,
 0,
 0,
 0,
 0,
 0,
 0,
 0,
 0,
 0,
 0,
 0,
 0,
 0,
 0,
 0,
 0,
 0,
 0,
 0,
 0,
 0,
 0,
 0,
 0,
 0,
 0,
 0,
 0,
 0,
 0,
 0,
 0,
 0,
 0,
 0,
 0,
 0,
 0,
 0,
 0,
 0,
 0,
 0,
 0,
 0,
 0,
 0,
 0,
 0,
 0,
 0,
 0,
 0,
 0,
 0,
 0,
 0,
 0,
 0,
 0,
 0,
 0,
 0,
 0,
 0,
 0,
 0,
 0,
 0,
 0,
 0,
 0,
 0,
 0,
 0,
 0,
 0,
 0,
 0,
 0,
 0,
 0,
 0,
 0,
 0,
 0,
 0,
 0,
 0,
 0,
 0,
 0,
 0,
 0,
 0,
 0,
 0,
 0,
 0,
 0,
 0,
 0,
 0,
 0,
 0,
 0,
 0,
 0,
 0,
 0,
 0,
 0,
 0,
 0,
 0,
 0,
 0,
 0,
 0,
 0,
 0,
 0,
 0,
 0,
 0,
 0,
 0,
 0,
 0,
 0,
 0,
 0,
 0,
 0,
 0,
 0,
 0,
 0,
 0,
 0,
 0,
 0,
 0,
 0,
 0,
 0,
 0,
 0,
 0,
 0,
 0,
 0,
 0,
 0,
 0,
 0,
 0,
 0,
 0,
 0,
 0,
 0,
 0,
 0,
 0,
 0,
 0,
 0,
 0,
 0,
 0,
 0,
 0,
 0,
 0,
 0,
 0,
 0,
 0,
 0,
 0,
 0,
 0,
 0,
 0,
 0,
 0,
 0,
 0,
 0,
 0,
 0,
 0,
 0,
 0,
 0,
 0,
 0,
 0,
 0,
 0,
 0,
 0,
 0,
 0,
 0,
 0,
 0,
 0,
 0,
 0,
 0,
 0,
 0,
 0,
 0,
 0,
 0,
 0,
 0,
 0,
 0,
 0,
 0,
 0,
 0,
 0,
 0,
 0,
 0,
 0,
 0,
 0,
 0,
 0,
 0,
 0,
 0,
 0,
 0,
 0,
 0,
 0,
 0,
 0,
 0,
 0,
 0,
 0,
 0,
 0,
 0,
 0,
 0,
 0,
 0,
 0,
 0,
 0,
 0,
 0,
 0,
 0,
 0,
 0,
 0,
 0,
 0,
 0,
 0,
 0,
 0,
 0,
 0,
 0,
 0,
 0,
 0,
 0,
 0,
 0,
 0,
 0,
 0,
 0,
 0,
 0,
 0,
 0,
 0,
 0,
 0,
 0,
 0,
 0,
 0,
 0,
 0,
 0,
 0,
 0,
 0,
 0,
 0,
 0,
 0,
 0,
 0,
 0,
 0,
 0,
 0,
 0,
 0,
 0,
 0,
 0,
 0,
 0,
 0,
 0,
 0,
 0,
 0,
 0,
 0,
 0,
 0,
 0,
 0,
 0,
 0,
 0,
 0,
 0,
 0,
 0,
 0,
 0,
 0,
 0,
 0,
 0,
 0,
 0,
 0,
 0,
 0,
 0,
 0,
 0,
 0,
 0,
 0,
 0,
 0,
 0,
 0,
 0,
 0,
 0,
 0,
 0,
 0,
 0,
 0,
 0,
 0,
};


int NEURONS_STATE[548] = {
 0,
 0,
 0,
 0,
 0,
 0,
 0,
 0,
 0,
 0,
 0,
 0,
 0,
 0,
 0,
 0,
 0,
 0,
 0,
 0,
 0,
 0,
 0,
 0,
 0,
 0,
 0,
 0,
 0,
 0,
 0,
 0,
 0,
 0,
 0,
 0,
 0,
 0,
 0,
 0,
 0,
 0,
 0,
 0,
 0,
 0,
 0,
 0,
 0,
 0,
 0,
 0,
 0,
 0,
 0,
 0,
 0,
 0,
 0,
 0,
 0,
 0,
 0,
 0,
 0,
 0,
 0,
 0,
 0,
 0,
 0,
 0,
 0,
 0,
 0,
 0,
 0,
 0,
 0,
 0,
 0,
 0,
 0,
 0,
 0,
 0,
 0,
 0,
 0,
 0,
 0,
 0,
 0,
 0,
 0,
 0,
 0,
 0,
 0,
 0,
 0,
 0,
 0,
 0,
 0,
 0,
 0,
 0,
 0,
 0,
 0,
 0,
 0,
 0,
 0,
 0,
 0,
 0,
 0,
 0,
 0,
 0,
 0,
 0,
 0,
 0,
 0,
 0,
 0,
 0,
 0,
 0,
 0,
 0,
 0,
 0,
 0,
 0,
 0,
 0,
 0,
 0,
 0,
 0,
 0,
 0,
 0,
 0,
 0,
 0,
 0,
 0,
 0,
 0,
 0,
 0,
 0,
 0,
 0,
 0,
 0,
 0,
 0,
 0,
 0,
 0,
 0,
 0,
 0,
 0,
 0,
 0,
 0,
 0,
 0,
 0,
 0,
 0,
 0,
 0,
 0,
 0,
 0,
 0,
 0,
 0,
 0,
 0,
 0,
 0,
 0,
 0,
 0,
 0,
 0,
 0,
 0,
 0,
 0,
 0,
 0,
 0,
 0,
 0,
 0,
 0,
 0,
 0,
 0,
 0,
 0,
 0,
 0,
 0,
 0,
 0,
 0,
 0,
 0,
 0,
 0,
 0,
 0,
 0,
 0,
 0,
 0,
 0,
 0,
 0,
 0,
 0,
 0,
 0,
 0,
 0,
 0,
 0,
 0,
 0,
 0,
 0,
 0,
 0,
 0,
 0,
 0,
 0,
 0,
 0,
 0,
 0,
 0,
 0,
 0,
 0,
 0,
 0,
 0,
 0,
 0,
 0,
 0,
 0,
 0,
 0,
 0,
 0,
 0,
 0,
 0,
 0,
 0,
 0,
 0,
 0,
 0,
 0,
 0,
 0,
 0,
 0,
 0,
 0,
 0,
 0,
 0,
 0,
 0,
 0,
 0,
 0,
 0,
 0,
 0,
 0,
 0,
 0,
 0,
 0,
 0,
 0,
 0,
 0,
 0,
 0,
 0,
 0,
 0,
 0,
 0,
 0,
 0,
 0,
 0,
 0,
 0,
 0,
 0,
 0,
 0,
 0,
 0,
 0,
 0,
 0,
 0,
 0,
 0,
 0,
 0,
 0,
 0,
 0,
 0,
 0,
 0,
 0,
 0,
 0,
 0,
 0,
 0,
 0,
 0,
 0,
 0,
 0,
 0,
 0,
 0,
 0,
 0,
 0,
 0,
 0,
 0,
 0,
 0,
 0,
 0,
 0,
 0,
 0,
 0,
 0,
 0,
 0,
 0,
 0,
 0,
 0,
 0,
 0,
 0,
 0,
 0,
 0,
 0,
 0,
 0,
 0,
 0,
 0,
 0,
 0,
 0,
 0,
 0,
 0,
 0,
 0,
 0,
 0,
 0,
 0,
 0,
 0,
 0,
 0,
 0,
 0,
 0,
 0,
 0,
 0,
 0,
 0,
 0,
 0,
 0,
 0,
 0,
 0,
 0,
 0,
 0,
 0,
 0,
 0,
 0,
 0,
 0,
 0,
 0,
 0,
 0,
 0,
 0,
 0,
 0,
 0,
 0,
 0,
 0,
 0,
 0,
 0,
 0,
 0,
 0,
 0,
 0,
 0,
 0,
 0,
 0,
 0,
 0,
 0,
 0,
 0,
 0,
 0,
 0,
 0,
 0,
 0,
 0,
 0,
 0,
 0,
 0,
 0,
 0,
 0,
 0,
 0,
 0,
 0,
 0,
 0,
 0,
 0,
 0,
 0,
 0,
 0,
 0,
 0,
 0,
 0,
 0,
 0,
 0,
 0,
 0,
 0,
 0,
 0,
 0,
 0,
 0,
 0,
 0,
 0,
 0,
 0,
 0,
 0,
 0,
 0,
 0,
 0,
 0,
 0,
 0,
 0,
 0,
 0,
 0,
 0,
 0,
 0,
 0,
 0,
 0,
 0,
 0,
 0,
 0,
 0,
 0,
 0,
 0,
 0,
 0,
 0,
 0,
 0,
 0,
 0,
 0,
 0,
 0,
 0,
 0,
 0,
 0,
 0,
 0,
 0,
 0,
 0,
 0,
 0,
 0,
 0,
};
# 7 "/home/mohr0901/Documents/PMC/RNI_hls/apc/src/RNI_v3.c" 2


# 1 "/usr/include/stdio.h" 1 3 4
# 27 "/usr/include/stdio.h" 3 4
# 1 "/usr/include/x86_64-linux-gnu/bits/libc-header-start.h" 1 3 4
# 33 "/usr/include/x86_64-linux-gnu/bits/libc-header-start.h" 3 4
# 1 "/usr/include/features.h" 1 3 4
# 392 "/usr/include/features.h" 3 4
# 1 "/usr/include/features-time64.h" 1 3 4
# 20 "/usr/include/features-time64.h" 3 4
# 1 "/usr/include/x86_64-linux-gnu/bits/wordsize.h" 1 3 4
# 21 "/usr/include/features-time64.h" 2 3 4
# 1 "/usr/include/x86_64-linux-gnu/bits/timesize.h" 1 3 4
# 19 "/usr/include/x86_64-linux-gnu/bits/timesize.h" 3 4
# 1 "/usr/include/x86_64-linux-gnu/bits/wordsize.h" 1 3 4
# 20 "/usr/include/x86_64-linux-gnu/bits/timesize.h" 2 3 4
# 22 "/usr/include/features-time64.h" 2 3 4
# 393 "/usr/include/features.h" 2 3 4
# 464 "/usr/include/features.h" 3 4
# 1 "/usr/include/stdc-predef.h" 1 3 4
